14.5859382674 13.7723621166 -4.08771359307 -5.45402633789 -17.906027832 -4.15915726601 2.33785296401 -4.62009596883 -0.0877144591881 -6.93445710449 
19.3347122164 9.14315765841 -1.70226704517 -3.71836349575 -19.1821042558 -2.5885865915 -2.02200398043 -10.9843870068 4.81289097529 -10.0078349866 
16.4868530157 2.35487868255 -5.10962860556 5.82959412892 -15.8794684388 -2.58700686709 1.14405051233 -9.70661886721 4.3626228041 -11.2870528447 
12.5780373099 1.54915776689 -5.65131616241 14.8686100627 -20.2078478755 -0.550232724783 -3.04732500891 -9.82441990206 3.32842441551 -8.9780539672 
15.2730450924 1.26745599361 -9.61802988216 14.5083528445 -17.1035330309 0.712394566624 -1.97357167093 -6.93826835459 0.833982319696 -12.8959091107 
10.9806681514 -3.15984694516 -11.7971411047 9.48373224853 -15.8851738937 0.377257013732 -4.69641551122 -3.17874645486 2.25002633639 -14.1645254907 
12.0964594987 -9.36634014081 -12.7507438477 5.81034108534 -11.45936565 -0.746980477457 -7.43682222115 1.02171231339 2.9638391261 -11.661936809 
6.04528586501 -11.6560336175 -10.7830000077 -0.211203848895 -9.59263039865 -7.28642537913 -8.46537867823 4.66596988262 4.4318816101 -8.60483102804 
-1.46015326862 -11.1917669832 -13.412420878 -3.3981463156 -6.06353457589 -1.81289822495 -0.97045540466 7.00070255847 5.06785031156 -4.42520725266 
-5.4713228793 -8.77818838362 -17.7744129716 -11.8464098543 -8.00411298129 -1.12899042689 -5.16493134686 10.5757500833 2.93630929718 1.6232193425 
-1.05710003245 -16.7999225365 -11.9045264889 0.83522325285 -5.90350065181 -4.39320386294 -0.327228092917 11.0628489521 -2.01139854136 2.86822733129 
3.39329483355 -15.5488007014 -12.4934842254 -2.75640803603 -1.84733243258 -10.4251931524 -0.948235709775 9.01016320084 1.25261898685 -0.459809534985 
3.33485526482 -15.8408742704 -10.7205151238 -7.62543923945 -2.66257251349 -10.0716400482 -7.09675540408 9.76199498141 4.13890917777 4.99750408317 
2.22595771657 -16.2916950774 -5.11670479795 -14.0175203467 -5.97152412851 -7.91821758605 -6.06313572071 5.22609713177 -5.90795543578 -1.21470081485 
-3.95040208739 -19.2628954325 -3.9329516071 -5.3742604133 -3.68795458011 -2.80455229013 -0.968697796896 1.8725938086 1.17926282768 0.894459124157 
-8.49635455385 -20.8742663146 -2.59928840497 -3.65954155753 -5.03920212304 -2.2093911015 0.315660582104 -8.26240392443 -2.42913001725 0.72554284133 
-1.21066069452 -23.475428556 4.34480813375 -7.58630545214 -4.92318345531 -3.0234963873 -5.51074483638 -14.8716207808 -2.7633434004 -1.10798991133 
-10.0771866416 -18.3390686577 4.12568070464 -10.3376678493 -7.64026059757 -0.711093619605 -9.88629878966 -14.5732887672 1.38595207641 3.56300363409 
-16.8086436353 -13.7779074142 1.65717345496 -10.0608870399 -4.37069582539 -0.889451401819 -8.96973877506 -9.69015269064 5.36433601788 8.5761642667 
-18.3894289058 -17.01839928 6.90852087853 -7.2652541617 -7.53525930491 0.258535693416 -4.72323309597 -12.1911476989 2.67763632922 9.96309768052 
-21.0310767279 -18.2283912873 8.28752080669 -3.62967501655 -11.3539806471 -0.944313273092 -3.40422361383 -8.91056680901 1.33935865415 11.192737652 
-20.1409409382 -15.0939872072 3.73200495796 -2.28542120989 -11.998718195 0.386726281086 -2.92504868251 -6.47762733843 3.19449818306 9.27680607736 
-20.2614288374 -10.3132573303 2.26191334795 -0.442043051461 -10.2747619735 5.31217160688 -0.598907155372 0.164621310576 1.58501096902 5.52840374867 
-25.4901923557 -5.98448091758 3.89695802709 -3.65999071917 -9.98455481174 5.0520615145 0.722136536393 -0.503414444529 1.52892864689 6.45752366156 
-23.7852870534 -4.51809403121 5.42037988441 -5.71150961491 -8.93438463744 6.33092685765 -4.3172040073 1.55229485812 5.56183606877 2.92722470284 
-29.3095566573 4.03561873949 2.95628814162 -2.57812306816 -9.35301627469 7.80259013055 -0.810829699831 1.99477312749 8.71447307422 3.76347686547 
-34.7745012383 6.00045905801 3.09035579863 1.657906455 -5.92552643918 6.94714653177 -1.583580669 8.20172003911 0.297480227842 3.76899887192 
-37.356313509 11.3527389075 -2.27777981327 2.30949240439 -4.59170298962 6.09913496705 2.32730678038 4.86574266502 2.03868387904 3.34097105462 
-32.3766949532 7.44076162709 -3.21243562687 -0.69736805038 0.0167170100549 4.27617754209 6.55750040068 1.41312582629 3.85320820617 0.049170568594 
-33.984031465 13.2281129335 -9.07272943727 -4.06707297796 3.79344049613 3.41014568642 5.36306635504 1.70656653775 0.534061567948 -7.09375002926 
-38.0359803048 18.17735194 -8.23357706384 -2.54399268862 1.1193403796 1.62053972226 6.97307912621 4.42718630373 2.4217111209 -2.5539429886 
-37.4502922311 24.0455066287 -10.5013790733 0.412469295762 0.655794466978 0.263127832686 0.344814188616 -5.90071686955 0.978786410777 -6.67342449942 
-32.9969240839 23.7638738488 -9.54660876265 5.06895618434 5.19243000937 -4.06704805188 -6.99035162551 -15.8903038754 1.42632987715 -8.39712360545 
-33.3429441786 27.6313031825 -8.79384493088 2.25169201815 8.41078289265 0.637739554067 -1.84819765462 -20.5810205059 4.76975308161 -9.7514832938 
-34.118708965 23.5745040396 -9.29864256418 4.35423279041 4.94057361312 -0.558110053234 2.29167983479 -18.3807577656 5.70884688703 -6.88066952803 
-35.4345175391 19.7785834863 -9.40426497601 1.43659407889 1.05505543416 -3.78703703654 6.7071576264 -18.4699223191 6.40162885591 -7.06992289817 
-31.8615531764 17.7485832187 -9.55414425077 0.872973182753 1.37483147758 -4.01704309479 4.8386951907 -19.276125788 1.75066172472 -8.92638495074 
-30.7063747776 17.0756235048 -8.72925665725 1.13963999348 1.47819245147 -4.34860050467 5.45211145568 -12.6029187045 -0.183063118655 -4.08614978964 
-28.3933783344 18.1289430981 -1.93214035622 -7.99267524131 7.18229873254 -8.12022989224 -0.617014389106 5.23258318179 5.88373542851 -2.08775490903 
-34.3529260329 20.3759091281 -11.3521986313 -1.2079991063 3.66263620631 -5.07198997163 8.60838630214 -0.855201044871 6.65350787571 -0.569895857621 
-34.1297260603 18.3724084112 -8.8666687301 -3.82189713712 3.24055899719 -5.83702229701 5.30623505296 -4.26839407534 4.519892496 -4.02407273789 
-34.9962548379 14.5800795575 -3.45400449989 2.85479017026 0.501636271988 -6.14605371617 -0.0722793181761 -5.67635626069 -0.84005926577 3.12373519897 
-30.6287769767 11.6921321065 -5.34361623424 1.68794940038 7.71624099719 -9.18059865404 -0.778269357468 -16.1850463792 2.3514528784 1.08141752899 
-30.7246376528 19.7518966199 -6.73279495573 17.8298186211 4.41493865205 -5.52147524274 -0.353088645906 -8.90615588359 4.13243423824 -1.59735078466 
-29.0621019499 14.8163868403 -3.68678277914 12.8912928281 9.83885717857 -7.46151744308 1.2885017842 -6.20571603457 4.47347292384 0.107202227188 
-29.6469350702 12.2792575334 -2.93837431236 13.3551480822 5.0711195531 -7.88794262233 4.50869244006 -4.11370530682 9.46976475961 2.65940462126 
-23.7652886702 16.7815164176 -1.25957406819 10.1144678752 4.62170133076 -9.30847221482 9.70535093818 -4.2365423692 18.4982323526 -5.57264877852 
-20.8487014612 15.6333730216 2.10188903886 8.83000543693 1.78890171535 0.833907311418 6.1580128247 5.19054715847 16.696721292 -7.36391232179 
-21.373506657 11.6801128862 7.69368595191 0.43530295484 -3.48045431649 2.81183802175 4.74429235842 9.96716102639 19.7320967638 -6.1494233288 
-22.9991859751 7.47334064076 15.2907209164 8.49420543197 -6.14615347902 2.92576183705 4.59689921894 10.958177492 8.59233347265 -3.09458308903 
-15.6381607118 5.32088810241 17.7619509064 9.13643781117 -8.95939920345 2.62771504573 -0.851049205452 5.22234217837 6.35905936283 -9.23686257667 
-20.2278585271 3.88033786087 15.5735632172 8.72337934624 -11.0679177982 3.9419525693 -3.8708650224 1.81335463531 3.08607076719 -4.05016692915 
-22.1967844289 1.15573518404 14.4811183121 7.44233714349 -9.48886247478 5.20914277442 -1.58812604072 0.605652604998 6.25329271101 -1.12414617616 
-26.5450760614 1.73260884815 12.8264760429 6.00201188945 -10.8639505431 7.70464746699 3.46384544374 6.05955636629 7.86994329025 1.19224391543 
-25.31087315 -1.6623210758 8.91815086248 4.02950563208 -9.04216679161 7.36440894375 7.95353352153 4.60380928456 7.18986414724 -1.26079559541 
-24.9031454936 -3.54677351385 8.06379204847 8.03990826862 -8.72929293554 9.85934092476 8.29495305697 8.89645931534 6.59794001328 5.73088050799 
-22.2947563002 -5.65875725136 6.15408965011 7.90992397676 -6.61744263581 11.5293581048 7.67284812342 11.7776425131 6.84193256962 6.11709836029 
-21.0016122338 -3.17333181119 4.32099712366 4.82030905216 -5.92423546125 9.79298486156 3.49128953801 14.4261624294 4.05315147595 5.48827119639 
-19.7185646627 -10.139220174 6.86106787122 1.81552905895 -2.42876017015 3.62600122739 5.83330915471 13.7659544683 4.53040845152 9.4624982701 
-13.2344968392 -4.91086380426 3.29869851611 -1.88254697755 -1.94975111458 3.68394354264 5.91947572335 12.5256871754 7.96617794835 5.60872101551 
-10.9544606038 -9.84432784036 0.617895548849 -3.66723013012 3.39711014197 0.682117705609 10.1502635805 9.69348775979 8.52510515514 5.39262073384 
-11.4752901317 -8.38026842057 -5.90866884974 -11.389851607 -0.641401423144 -2.12644715909 1.51622006119 13.1550237255 6.75621299734 4.90659246905 
-9.67442443883 -10.7959407536 2.3893260237 -7.60135371134 2.81076995383 -7.70868810864 3.81058415018 7.13710443483 15.4829517785 5.78958815921 
-8.03906858975 -9.7053709128 1.46881712924 -8.16339545622 1.19578547026 -7.28016746159 3.9132007244 0.882823852179 15.7902809938 2.18814593709 
-2.5521065123 -13.907256518 0.776079045708 -7.80318921499 0.782960046958 -9.82760827964 4.60502088106 -4.39700539584 12.6356600181 1.08125851128 
-0.352149860942 -18.8276541822 -1.02934566146 -8.05230528569 2.77177039243 -10.4731546902 7.84256761874 0.763698461731 6.398597482 4.6073093702 
1.92668384422 -15.9748563707 -0.869482829603 -7.90449854049 4.17837432546 -8.67937440273 9.45712956148 3.00576820394 4.08539231217 2.47834342207 
7.60801104411 -17.7211204195 -4.223347007 -2.76682869441 8.53418951861 -7.95505990639 11.4589520563 2.63472979071 -1.39887762847 1.14610010623 
19.4162127324 -26.5035396954 -3.12662274458 -6.44535728448 9.00921511434 -9.03694830008 10.0031581203 3.00637034379 -5.19748386476 1.06391685834 
23.8426426041 -24.9904902927 -2.73165642338 -8.10065379828 13.1470099818 -6.74989655365 11.9448256959 4.610195373 -1.9188549586 3.70708322077 
30.5933545548 -19.7613431291 -3.02680830162 -7.93962692273 12.9466388762 -5.22375009424 1.67993652189 7.08495461138 4.69375320631 1.54695986127 
35.0561487274 -22.3846558426 -0.445114136945 -3.67724712838 10.9896847973 -7.39813844134 0.861067175333 8.18028482001 0.650466670588 1.26667374355 
33.8046996954 -14.1287628534 -3.64645942271 -0.233180340022 10.0201791367 -4.28070706563 1.03135346528 7.35170595861 4.86857726905 -0.121489519255 
30.8377242686 -7.40424728552 -5.02631176052 1.38499495663 7.61938156773 -4.3481447167 1.97171413165 4.52644294855 1.47529115621 -2.85770039654 
31.7229298354 -9.62683530891 -2.36746666197 13.6232325073 4.71472629818 -7.15122689321 -1.49771673908 1.28314661777 1.40720889149 0.201034382871 
38.8207111136 -8.3309025384 3.17894488725 13.8783070546 6.14184876895 -10.3868336847 -1.49431666946 3.16287192918 1.21607262887 2.2820559911 
50.1387169936 10.8663393878 10.1141283604 3.41079693202 7.17767099513 -11.9912337634 -2.52069025891 1.17621036276 8.8042699341 7.12821877108 
48.7791091056 6.98438799123 5.86821921558 -0.930126267409 10.2634625541 -3.22853459662 -5.32132378836 2.45301325679 8.99218737472 4.44824436685 
45.6950610164 11.9119790079 9.02083944357 -6.70893997943 2.13730169188 -11.2722093442 -5.12668662289 -1.4471379893 12.8549073267 2.51043022076 
52.5905591351 8.60649549106 11.530586928 -9.18512817459 2.80981725751 -13.1090725476 -8.82981771782 -2.96895779679 12.8927015574 5.0959648747 
51.1710121859 11.5376279905 16.987176009 -9.76387628133 -0.0670558633934 -16.2950255738 -9.49488114673 -0.712767971596 11.0112428182 3.74476907852 
44.2596913031 12.882836133 9.30993989548 -10.3931758345 -4.98004257603 -7.09620089372 -10.2153405438 -0.291950470849 10.3243267919 1.03098487426 
32.1858563461 14.1415632364 -9.67063439819 -27.8412262218 -6.48472852925 0.181282267296 -12.2164781003 8.26383109934 4.4755175533 7.15105699054 
37.6810748189 11.0992614313 1.70391886834 -20.2766961316 -3.4753725055 -6.84300853397 2.4173250791 6.8739621673 -1.75078362609 5.57302783738 
40.1585866573 16.9886692998 5.48416737524 -29.8698193587 -1.03310152302 -7.5131681485 -8.13953790764 6.07523931991 9.74255184417 6.70345413763 
25.0493682179 17.4419877364 1.99041373106 -30.8125192325 -3.2447197131 -3.4058470602 -7.25100444398 8.92828452759 9.95742563714 2.86879176625 
30.2448495288 17.3659124998 -1.1118304928 -33.7939051745 -0.0402271455772 -5.89778572812 -12.1097783827 9.62031160135 12.2234811103 4.32215414593 
39.8694568495 15.0458740403 9.94481333486 -29.4350571974 2.72477868655 -7.50816615701 -10.2500020708 3.43823476542 14.7625769013 3.08352358192 
43.9423926055 21.819366228 18.3639881872 -25.4160247243 1.48389166785 -9.67518772828 -3.41218168252 -0.967343910918 9.40387722173 7.98797454609 
31.0309331056 28.2675396858 13.5947983502 -20.6157262407 -0.265475854948 0.359700422101 -1.2405050181 6.47351157821 8.02921273989 6.12332667945 
24.5185326611 21.835428974 3.59660948883 -21.7686619317 -4.54650864187 2.29646539653 4.17451286504 6.28023137437 -0.0944282129788 -0.171303761628 
17.6169597601 17.9954384692 -2.94470924049 -14.9236583638 -13.2872580969 -0.79300793294 6.59857437627 5.3205855626 -5.30954799885 -6.33437429818 
0.182490392907 16.066847932 -3.15540453283 -15.1655770101 -11.6529658354 -7.53779780476 6.21442626594 0.590125164374 -4.29758153095 -7.82597871451 
5.85711773211 14.9513038048 -6.40911744514 -9.53814888484 -7.13856416336 -1.83105468592 4.72473233962 1.81630081405 -11.3999827526 0.266168412915 
17.8356010784 20.4866895789 -6.09403368679 -3.46257383332 -8.41484875866 -4.04187735848 8.28361025474 -2.19438116693 -11.5595711467 2.51447237917 
24.253037725 17.4739976266 -7.88996756305 -7.40588721 -14.8318670529 -3.13096861928 3.31763816233 -0.9757132927 -5.61278390748 1.32054336098 
32.2734193069 14.3841745555 -7.25430079305 -4.77014185666 -13.8263919193 -3.86478946016 -1.32114918799 -9.88103258933 4.18172084488 -4.74215919159 
27.2798780607 13.6082303562 -11.434661999 0.648885672965 -17.3009511275 -3.73776723161 -3.11246539298 -8.45184089554 10.9488823945 -7.63354425366 
24.768858458 6.39276729924 -10.9210611346 9.43068265393 -13.410148243 -2.01648568948 -0.227494606876 -3.72070744282 10.8637168209 -8.51454961441 
14.2958316757 2.52718992032 -17.1292328811 16.0969134869 -15.0719512601 -0.618918523154 -4.08042489316 2.52419249904 12.0708388365 -7.04261531509 
8.1373932304 -6.52669996821 -16.2073012486 12.8763872434 -11.7060181772 -0.729754605768 -2.32011956552 9.42090120363 7.52016175461 -5.78749998907 
7.67870139084 -13.9529858807 -14.9433604973 15.511014056 -13.3808626858 -3.07761573429 -13.1082459685 10.8204178058 1.0268035564 -6.40677212035 
2.8626500796 -18.3583930417 -14.2934762367 6.83709239203 -8.13103888243 -4.87366802112 -5.50178717443 11.4157962949 -2.39642512901 -4.52613788446 
-4.59633747719 -18.2345878731 -12.1837727572 9.85856241226 -10.1532461444 -3.93258135607 -0.17312760505 7.07972664691 -3.7807945956 -1.93768501134 
-2.41335710499 -18.1720379415 -13.7474625441 4.55566801288 -12.3452776185 -5.9464850781 -0.810999267654 5.99388288017 -0.592787898987 -3.48875927417 
-2.02437259982 -17.6570830741 -15.3135789197 1.02799583697 -7.96394510588 -6.47250973362 2.3855717041 7.09248042637 -1.62299348447 -4.30894230993 
-2.63047512279 -5.05659599309 -12.8412666153 -8.92667512247 -13.3566523633 -7.23144860746 2.08276361887 7.73917311897 -5.80943188603 -2.06893331581 
1.50382758606 -11.8127169621 -10.080649909 -8.0993550197 -7.58613231199 -9.45978188869 -1.1694341698 3.39240901964 1.96520446329 3.73428675761 
-6.9290825226 -12.2565271852 -8.86892490495 -3.11885518126 -8.98986924661 -9.62418548274 -0.864249043728 -1.57188325603 2.8743636283 6.59953434983 
-6.36444912724 -18.0312869089 -4.73854282459 -10.0186590083 -10.0737472079 -8.93587453254 -6.20524260316 -5.89083399224 2.32183890673 4.90661020142 
-15.0568373749 -15.0719357927 -5.84383840974 -7.79572239962 -6.25694611466 -4.23435573308 -0.142210936891 -5.34474157944 3.06204952795 7.95170997744 
-12.248116294 -18.2112177202 -2.88176105406 -1.33203424721 -7.79649763802 -1.97689087905 1.19658252509 -11.2505419391 7.93398000576 8.55427265813 
-17.8448471712 -18.3396090313 0.238128595646 -5.77550591302 -9.18160924602 -3.53691518477 -1.6419306138 -11.3550301223 6.08586999045 9.32543092879 
-19.3405802428 -18.0551797761 5.93567096037 -3.00065294626 -9.42763639846 -4.18544351633 0.812576284745 -6.09399417771 4.69543233188 13.7068734882 
-19.5091461723 -17.5786130563 9.2424482743 -1.89231109111 -11.9879106192 -1.89337898673 -1.29651773775 -4.13638956012 5.29723821482 13.85811536 
-15.5746607842 -19.1433494965 8.94051030515 0.764322395694 -13.928512871 2.39424924818 -3.86828894655 -6.15889046389 -0.340803925175 10.5234871112 
-22.2568630566 -15.0718359119 7.0763556195 -6.89205506968 -12.687161524 2.92211848157 -5.50303530531 -6.05042824026 0.432614536311 12.1019362145 
-19.7029833088 -14.2501234517 10.6165253037 -5.90282401925 -11.5458230089 3.97543211397 -8.95743002424 -6.32554486954 -5.0904622976 5.275993379 
-18.1831901276 -12.6912904266 8.19514206139 -9.41947670691 -7.05019223372 5.95520460496 -12.2073255537 -7.27742638002 -1.5530417085 6.28987156788 
-24.1225505675 -6.02121798732 6.03352574797 -8.2535726494 -3.32424512493 8.85359898728 -13.3992936689 -2.99920853316 -3.38357369657 5.69783100039 
-28.403182748 3.5665957332 2.04722299943 -7.37172838001 0.993535564821 4.42043671018 -21.5031782483 -9.09387438189 0.367960183313 2.65882545448 
-28.112158381 6.8055574971 2.4083406095 -8.50833798538 5.49398679334 3.0969570223 -20.1963477924 -2.50540270458 5.83688151435 -0.875259912076 
-25.5883918906 7.32783731911 -1.88231507907 -10.330149603 10.3831600683 -2.10351194588 -20.7280263042 -8.06664756711 10.3433072562 -4.17814684094 
-25.8588743883 10.8121362851 -4.94329393149 -6.29167629511 8.27340664069 -5.80230522807 -11.9571012605 -9.73846544191 10.2571756925 -6.17149421207 
-26.3400473546 7.69631682343 0.464265468994 -3.02345851688 13.6002407862 -5.86947283474 -13.9244040828 -11.2385493079 5.12465293818 -4.11797617252 
-21.4812156291 2.2860393136 1.94949859005 -3.58559937549 10.5233427497 -8.51988219229 -12.5860866122 -8.10493300937 4.99421575021 -2.7592274666 
-29.7524306328 8.22453158672 -4.61069437383 1.52807201839 6.23955609179 -10.6094916367 -15.4574060809 -2.60584514268 -1.91510808604 5.85196778954 
-33.4754086997 11.4523116017 -4.29003587672 2.11277418974 2.36590040347 -7.81033182097 -11.7802148728 -0.732411343678 -6.30584861132 5.06988270058 
-37.3218605896 13.0521342049 -6.24362167225 7.17598855684 -6.4309763328 -3.76140178792 -8.6391561285 -11.441218582 -8.76024656887 7.03288082434 
-38.3773944741 14.4905263161 -4.18392229919 9.76289653179 -2.67325633649 -5.51095146926 -8.24505522856 2.04330168779 -9.74577063292 17.4090749297 
-38.8472658674 14.3217952218 -8.74906287931 6.26587314191 6.62847317979 -1.40457684103 -2.24346719121 6.70651546491 -9.88447334097 15.7813275989 
-41.4550846445 19.0013081078 -11.2712563094 -0.881300888571 8.67420748127 -1.54973125016 7.30727436128 3.51443739054 -6.55439263014 9.09759721999 
-40.5930753012 19.0592931279 -5.89622039105 5.37992808392 10.4845242451 -1.90124225185 2.357694098 5.15945900811 -9.83885061286 5.4314521574 
-41.2121330653 17.7161824737 -10.6275135119 6.95196961296 10.6633165354 -0.254665844582 3.7004082976 2.95160632273 -8.10665426061 7.9736309393 
-43.1675441035 18.7496432454 -12.1276159259 3.03757655654 6.89773867942 -4.01869091138 5.20819223301 0.122944482461 -1.75328460558 5.31291755406 
-36.8885296133 16.4284741565 -8.67925012185 -3.37886038247 6.9473953305 -3.26812050235 -2.84532614725 7.12558371113 3.81676905244 3.47094685177 
-32.8380755033 11.1740427183 -3.75749619017 -2.35207956212 7.99186550369 -3.59831485624 0.139134575016 7.10533913637 2.74094068259 -2.22347760071 
-31.6713085027 11.2781063662 -2.80101283086 -2.7079099312 3.74579574152 -2.92759793075 2.91184818796 7.32103558413 7.7303607117 -1.21157206332 
-30.0585041155 7.0558742716 2.91555254074 -0.820796303641 1.06380268943 -0.503779110856 2.61107146715 9.85960512249 10.9395702146 1.7059325672 
-23.3202824374 6.49151969492 6.05190207984 3.52229173921 0.249268503197 -1.45349121833 2.31859544376 3.03102670754 14.0376909978 -3.4544242113 
-22.0053862413 6.31617724712 5.85614821598 4.01326483918 1.14932180852 -3.40329742345 1.72835176051 0.391945497563 11.9199995991 -7.29729238998 
-23.3091560305 6.78130043123 12.2705787332 9.75963726043 0.514858364752 -0.301373954938 2.73341504466 8.47550880308 10.6291540704 -4.63637109058 
-30.960396728 10.5978092894 8.41315138037 1.41645803984 -2.80764799343 6.72313626653 9.15082525235 12.1360105581 5.59445906996 -3.17969599341 
-29.8167354012 -1.30237990291 15.6782086401 3.30287482854 -0.393326378975 4.38678899079 0.519385282189 9.25308970703 -0.557465916783 4.11124246283 
-30.031720251 6.07561745649 11.333543298 1.72446129326 -1.08745062705 7.81542847462 8.61172973922 10.5994488771 5.82135067859 -2.48105876509 
-28.7850908755 6.15599640089 12.1489290958 2.72492541992 -5.09228016998 8.04565964441 7.30829431937 9.9371466135 8.20269354669 -1.91788073796 
-29.8601109842 2.44159394285 7.63910239756 -1.75670078057 -7.22434849318 9.43394145673 13.0081154227 8.91828202311 7.49113644548 0.23310946498 
-24.1414167352 -5.30556762414 9.86636248423 -5.40891599039 -6.41215722362 3.90952514789 9.2283617681 2.57057354212 6.6712231866 1.28472637618 
-23.5690556295 -5.45688538009 7.22638764099 -1.03727765056 -6.47717795405 5.77990006284 8.78779376025 9.08230428131 6.37061834225 2.80138509718 
-15.4686323521 -10.9973849436 14.0977353408 0.947008606978 -5.70546620987 0.7974776957 2.51547773024 0.25662431816 4.53145429223 -1.44534923516 
-13.5528412817 -11.533132289 13.6133943629 5.63009394998 -2.63574805622 1.88857338182 1.83331190985 0.189690792158 6.08594284959 6.15242046325 
-0.151883074193 -13.0746195696 15.374074946 0.410393495938 -0.386666261875 -0.741371001059 -0.849742908281 -0.62859099098 7.03540989934 1.32223860102 
0.389082135916 -13.9843477978 15.1368045629 2.32268770424 2.09797431232 -1.46402453309 4.94392702567 -5.31640909357 1.80963631298 0.341630876194 
-1.85967264224 -10.1243523327 11.6259941661 2.66570565538 2.61089762074 4.04681539281 12.3313217922 -4.00706820841 2.04148797234 -2.03762744826 
-2.2206838802 -7.42818219767 7.54036259704 -0.92861152423 5.83701118164 4.21317621463 12.3859073752 -4.49635548426 2.03263422529 -0.868438016746 
-5.22327374021 -7.51419649136 -3.935998851 -13.4430979536 6.24127477266 3.75933842344 11.8951561393 1.67166590552 -5.53378657106 4.56434264425 
-0.391456621228 -5.56248112648 4.62142876801 -14.3576136714 14.4272615104 0.386165515738 8.40016585232 -0.375374616981 -2.00356028095 -1.56243669426 
1.69637791173 -5.01671822603 1.1866758711 -17.6509087242 13.9967839718 5.33219557149 6.28112955058 -1.87868857854 -3.47214677668 -1.38160486278 
5.69852507518 -14.777004401 -0.88559811709 -22.6266633916 9.28469799683 1.7691871002 5.68592689863 -4.56739886933 -11.4158866928 -4.31472867258 
-1.99415253254 -12.6338494945 -9.07722284505 -17.0169742613 4.76236117005 1.02655775139 6.18657290327 0.747690547835 -11.2585127515 -1.31136199712 
2.64143893038 -19.9793197409 -6.58607856776 -11.0164171356 7.39579538526 -2.688849642 8.82737988482 0.545882195405 -4.44094514718 0.139872114177 
12.1337537807 -24.3911453861 -5.47632799277 -1.56629849604 3.27947789229 -7.12982403287 3.78478853235 -3.26079448272 -10.0395715834 0.7331767375 
28.0163521991 -31.3799289146 -0.987449492794 -0.022819013097 12.0930383538 -6.76826830367 5.50650941809 -5.97953569359 -16.3338112373 0.637059720822 
30.2979747885 -25.4491598429 -2.84672027937 7.82222440727 9.58770614502 -3.45784708796 9.06176773615 -1.57130071259 -12.7964113996 -0.793204009068 
38.8937521875 -22.7780512302 -4.61620713266 6.80735889157 10.2438574049 -0.0955453889884 3.59812618423 0.107097442298 -6.90609409545 -1.82946279713 
37.2689369026 -22.400145532 -6.98660521265 3.65551648138 11.4927505879 1.5098246135 4.36824802765 -0.0183948361687 -3.11271775572 -3.13493213932 
46.4546417403 -6.02311071127 7.48625593419 6.03879302093 10.9767425944 2.52945285275 1.51233384112 4.6211128929 -2.99626669956 -2.80129323899 
39.390387437 -1.23668962505 4.07373130989 8.28391385152 2.25937290372 2.04492663937 -6.66655580137 7.03661237558 4.72212569202 -5.21503721305 
42.4259695085 -3.54782340193 7.58101306068 4.49938407447 8.91312485614 -0.325295604625 -4.0969036618 1.91859118682 4.46610706692 -7.57383126544 
43.4793984449 4.01540594118 10.9662461911 4.12173744466 8.70742535179 -5.94456981628 -1.78887226828 3.63536333989 4.44684122128 -1.62346065352 
57.2331635326 14.0375253597 14.4632567845 15.5952286733 10.6258728428 -11.7935564243 0.608883865442 -0.674065060128 1.42776115269 4.60181621489 
55.260589298 16.4945703589 11.6780022449 8.72141218271 9.23059351502 -5.88902776354 0.560121372843 -3.40730147756 1.44718898225 4.80077997851 
55.1924369021 15.855442922 10.204432741 7.13170557864 4.50327538466 -3.48890215328 0.0382574463289 -2.28305619721 -2.78343016611 5.80184148048 
55.0939980301 13.1627389317 18.697584259 8.61250409106 5.98264004998 -7.7789996317 -0.257242877186 -0.989759236747 -3.46905643333 7.26777585781 
59.5006974289 14.1406446661 14.8232020688 -0.752389659113 -0.155921001308 -11.3080601273 -5.82547689624 -3.19768742851 4.30816977794 5.55708521193 
59.4103328244 16.1709516085 18.769684898 7.25841399617 -3.5768496169 -11.1151619782 1.619103418 -1.90520319356 -2.47160383021 4.44502489341 
58.1737625753 28.7076478394 17.0606057637 13.3755892152 -4.37792424642 -5.78169941821 6.68565413993 -1.93405024569 0.259779304644 9.90331151152 
50.0843321421 22.8000081907 10.2528728014 3.55617064195 -5.83694232203 1.5776078709 2.4429462098 -1.8018544327 2.33021869019 9.19424350224 
54.3184967971 17.757215879 3.56329625407 -8.65546063515 -2.80779524653 5.26957305496 -2.57199508921 2.80388227995 0.511665439192 10.5554162147 
27.0602005694 26.1401545286 -6.51088414402 -13.1474900194 -4.00742437652 14.0959018595 -4.37576268159 13.8565551531 0.351536965671 17.2322745757 
38.0638489343 21.22833658 -4.07318238474 -23.6729973901 -4.75347481417 8.04269696032 -9.29359373912 8.39785174797 2.16496100973 10.0878412528 
33.8437198574 31.4413121745 -4.67926009279 -31.4772242995 -4.20993152449 12.4570789333 -14.1552648402 15.1877630121 7.92025599354 12.3352581159 
37.2577115459 29.6517718271 4.98507730402 -31.1777671738 0.451261233704 -2.30756018585 -14.1731626897 9.35306594091 14.919742691 9.12092787382 
11.7673528735 23.6721922559 -7.73478549711 -38.7483217026 -1.81749749109 -4.15443314724 -11.1006553154 13.1521935236 10.0787457075 0.841574359815 
9.73726734296 21.2930118685 -12.4708700376 -28.9561265457 -4.15303686822 -2.42582055247 -5.62478506832 5.85736512968 5.28534635909 -1.8237967273 
-3.59644927151 25.9209849658 -12.48822994 -17.2210218504 -10.289790829 -2.91432410111 5.4735985076 -1.2147106837 -3.41158228757 1.59535935009 
2.80066455 24.1526270585 -8.26118674368 -17.306921928 -9.2145219824 4.73540106468 -7.11338831847 5.12825260487 0.260185471675 5.26064635167 
15.56461412 19.7801078189 -16.7353078835 -14.8521823434 -5.28952831643 16.0620764434 -4.84649267094 3.96035980976 -3.67415376596 11.7656382902 
25.8090511417 9.72575885503 -18.9130581536 -2.71919214729 -0.832762794209 21.5420267698 -2.68194854519 -1.20527467404 -5.11914657114 11.9163908231 
32.8643325024 15.5334814376 -20.176987865 19.0433158207 -1.65545942707 25.0676683368 -4.00743895417 -3.20396859231 -0.0579284278759 10.822870196 
36.8492755805 7.72172437844 -21.6736515178 22.1108730559 -2.71846287895 17.1849228897 -4.6707295595 0.333159581326 6.25558778947 -0.558499352847 
39.6126940465 -8.04291693533 -24.7377367901 14.7953035406 -7.39729189193 8.42470401061 -14.3518973425 6.28803988427 2.28642101499 -4.18039476156 
33.517827632 -9.47305587069 -19.5033506123 2.50184641972 -4.42073889327 4.97284724903 -13.5526700071 1.9817260916 6.94798490202 -7.21230709593 
30.1468070537 -18.9810032699 -17.0179469452 4.10853610751 -3.11369296984 2.51938808217 -15.1479876216 2.96255003994 4.52689540751 -8.81842594648 
17.5597238284 -16.1014885398 -22.4492529448 5.57626489819 -0.374832557888 0.654527660873 -6.74681977823 6.61293288563 4.63791266129 -11.1523165615 
12.5675771312 -21.3069210524 -20.1348894754 8.15092772741 -2.46653611007 -4.71418594597 -0.109936686894 4.73705366864 1.23191665338 -10.4092045858 
12.4015833208 -21.303812307 -15.4410946057 6.23183699904 -0.560540250182 -3.42860401558 3.58427503915 4.76825229308 2.42170238311 -5.37907332407 
12.9009318383 -21.1894669381 -9.45292408751 5.31946136406 -0.182661950436 -5.48386162264 0.67907066526 0.728425930328 1.55437184537 -4.52584713691 
1.81054779115 -16.7892076074 -9.51758424356 1.7208420817 0.464799013147 -4.55889568163 -0.173090202951 3.93231461583 3.06665343832 -1.52598094808 
-12.9185586593 -13.4703531244 -10.1743755204 1.790734962 -4.15355684939 0.658185291329 2.03440904937 2.14229621737 5.00980430111 4.21687854245 
-20.1103368063 -14.3624211079 -5.74525001612 8.87541447645 -10.2862544732 1.01509187411 3.07735437567 0.46667192924 3.26250574655 10.7299536855 
-18.284682828 -17.3361375631 -2.76117367001 9.17747030538 -8.22722918775 2.97806266716 5.36192891333 -0.876858645689 0.83132619198 10.6740462222 
-19.6898106332 -19.8462048684 0.864371582891 8.71637620871 -8.8347696927 -0.109417328214 1.50307665195 -3.7335258048 -0.91815807556 14.787333101 
-19.8954487983 -21.9770017773 5.35642549948 6.20887094318 -10.9390408429 1.01701725942 -2.73628913033 -9.73811576753 -0.860937732098 15.5963791231 
-14.642451808 -23.1530815439 2.15021819216 -3.35100604701 -9.05168936453 -2.58604897686 -4.49190782044 -12.5651628084 1.60233601407 11.0295743691 
-17.9078408017 -18.0712600829 4.65132618051 -1.11927742708 -10.1602413262 1.21890212585 -4.81945051245 -14.0362666193 3.49429818462 9.03478766825 
-18.4423118638 -13.4260110729 8.27732105927 -5.53834237743 -13.6766497991 0.92948697119 -4.6701237942 -11.250754734 4.51047391226 9.45147369596 
-16.5936922179 -11.2163962228 8.34845652709 -7.01738669855 -13.4366969316 0.212667946205 -5.00056768527 -9.9181729626 2.76785779996 4.06032752808 
-21.9892096888 -10.3360201998 7.42905967615 -1.00530616896 -12.1938418708 0.0747947772721 -6.44621878387 -1.74199125157 -3.02383590903 4.53624466783 
-23.2749479627 -11.0880437883 8.52967696434 -0.641505035347 -12.2946223987 3.94690936615 -3.62479294225 1.55174061038 1.10060290004 7.17026276749 
-23.0352365182 -12.3689633902 9.75231802805 -5.05750587998 -8.33165090643 2.98350442679 -2.70204186202 1.12188972509 1.25253065426 5.4874543166 
-21.9336073957 -9.45830794037 8.74548979287 -4.04251961883 0.544909241926 6.54955463951 -4.41722110805 -0.381680759875 -0.774418770939 1.46776660715 
-19.8595744769 -5.53162785028 11.6744112065 -3.85315672098 9.19261689357 5.38547117732 -9.7997452214 -3.98401150358 -3.16225241807 -9.85182537972 
-26.2077108943 2.08055740862 -1.32188054938 -7.28757856498 9.53113866171 3.69152059371 -7.48967374683 -5.14839310672 -1.22229974223 -6.08353024927 
-33.243782195 8.68780911343 -0.0351649770332 2.30837793161 9.5922718619 1.7717572431 -11.6308897075 1.6793538832 -6.23252174415 -7.38762951448 
-34.6045866016 20.3737115044 -5.1586646568 -1.34278458863 5.2699740431 2.51992753348 -7.79711833519 -1.67263578653 -4.24870807078 -6.55521418146 
-34.4299071966 20.1763697837 -6.22295981728 -1.41466845722 1.09266503538 -1.71353223208 2.68771511544 -2.46945023646 1.09498780556 -4.39412152614 
-33.0601373546 22.1211828215 -5.33266298689 -1.91973310411 -3.60495400457 -3.69559685876 1.71120428549 -9.48600878761 0.965610492685 -2.79482941691 
-33.2332013478 18.3028833143 -6.51636198916 0.501106000876 -2.30059139841 -7.6452084033 0.00730397792544 -18.554698058 3.38741365288 -0.63221309696 
-35.7165623219 17.7012201628 -7.51469063898 4.11586872163 -2.22513685756 -5.38210152067 2.90187240562 -14.7906953617 2.74475623242 -3.82040505342 
-28.986398218 14.4268904869 -3.34626024692 -0.498664274596 -0.442926978179 -5.24096222939 -0.904334022171 -11.758033895 -1.27259639736 -4.44880255426 
-32.1105895936 11.0247878034 -2.33206964055 -1.18834582367 3.131895402 -11.2635199007 -2.70799229899 -12.8504247564 -0.686577561166 0.813156095697 
-32.2909012949 11.3940154569 -5.1676093673 -3.8565524558 5.59498906557 -11.822653398 3.08847861683 -5.58416556141 2.12556137649 1.0620862349 
-28.1266109989 10.7369095635 -5.74695409986 -2.13255353487 6.49989196698 -12.5501921541 4.85064401958 -9.84063848925 -0.156260364825 -3.05217578069 
-34.7136246249 12.339826697 -10.7178013314 1.48621656248 7.86594932673 -10.6756177535 12.0547979936 -7.11015092445 -2.82141803881 -1.20382285344 
-37.289377697 15.9929768992 -12.2045774626 4.1638210603 8.76618779819 -8.37345310144 11.2556221765 -9.88068398549 0.896846018267 -3.00779377146 
-34.803719033 15.2699625673 -11.6854412573 2.68527348714 8.99948335164 -7.64875865547 7.43884291731 -10.9512443112 -2.06985714712 -2.60889750207 
-26.8568886137 13.4479466202 -7.96192518754 -0.00687832492608 14.7701951751 -8.94847016408 3.01746220729 -3.5086692311 12.0982190913 -2.41454063385 
-30.7424972992 19.1075073038 -8.49370505831 1.55327748758 10.6827990381 -8.64734512851 6.30011193881 -9.46316229646 7.86298155229 -7.44832486289 
-25.8001650523 18.6257749967 -6.94915929644 -4.66194108424 5.47978123002 -2.5974483645 4.3422423027 -2.78128894184 13.6288264928 -7.82757697735 
-18.3181823035 16.8790748089 -2.82536261247 -2.79648204358 5.79044967761 -5.35298944148 7.29286026867 -1.1688581654 19.128754943 -10.1979075905 
-20.688193394 18.2387588567 -4.29103846225 -4.61891897761 9.3765011034 6.66800350787 5.60164220093 7.17848431344 16.1182553326 -2.51169072904 
-25.2397093885 15.5818314364 -0.983912652987 -2.91191639204 7.18668041613 3.56806932077 4.78104505486 8.56460440839 10.4994193393 -2.80656815082 
-27.7457297573 11.4326449535 2.72336952323 2.41144774774 3.77835935134 10.7255059833 13.951061625 10.4359958749 10.0352877405 -1.61594163752 
-28.6223305246 5.96578489511 9.72367661629 6.67827477995 -2.19021215077 9.39155581728 10.1339171366 13.6174910204 2.66265416948 0.469080227424 
-24.354860198 -0.0663897565682 17.2169006482 8.72641245841 -4.83633033538 8.39873560687 1.92267025775 8.56055793111 1.21464365893 -4.34438402775 
-23.5318296633 0.353053467462 17.0058486252 3.36849119779 -5.66934725156 8.40111167954 3.95964341077 8.45850250581 5.15220378486 -3.36504348 
-22.19649411 -5.14453320137 19.0718309717 2.22301888184 -4.14052260914 6.58877106349 -2.11142211458 4.16133661873 -1.5426789928 -4.97363939165 
-24.2084641436 -0.809053876062 18.4279163542 3.30170670868 -2.95870808495 5.1149972484 -5.30864578416 0.967787995217 -4.52604087491 -8.22751319344 
-20.3214269537 1.22350941139 11.8635294612 0.615488807159 -0.333076187669 6.88085336924 -6.15994437153 -6.72361928083 -1.49873297895 -10.9917056358 
-13.9733078767 -6.76455077504 11.5644030701 -3.01725869899 0.677088307887 3.30527109607 -6.7517819565 -10.4078186233 1.74873064675 -5.48127479796 
-15.7320206087 -8.28967990667 6.16710897343 -6.2791287714 1.19859013781 2.45330030308 -5.03414302549 -11.6414442398 6.37324835566 -0.331911168884 
-8.29132319013 -13.817421052 8.99046814514 -11.4497655268 4.40942663746 -1.41630524975 -7.50085157125 -15.3112106552 7.52882267454 -1.80593796258 
-9.10040148966 -10.1441389119 8.44051763908 -6.97810955683 6.18878904752 4.33328674096 1.66635889702 -7.82336307566 6.31019325669 -3.23220978397 
-1.8083803794 -15.8939439823 9.80358751282 -7.83471869658 6.58101489919 1.03240266751 -1.1166665368 -11.1433111042 6.62510312799 -2.43839061955 
-5.02871722877 -14.3734613871 3.51970014856 -4.44754660896 11.0691606451 1.86807023691 4.65234184261 -1.21542435266 7.32973228689 -2.09305692472 
5.42205884999 -15.2513226496 3.61308847458 -7.89559828181 13.9074748332 3.82676133823 4.34686098092 -6.77556768472 4.22652177388 -6.47392663928 
2.45020599055 -10.288114005 -1.36041153411 -13.0919717556 13.3683156279 6.83164902811 6.85457146558 -3.78062112509 -2.19250867189 -7.05020431848 
-2.16622199628 -8.9822873742 -3.06477710049 -12.6008326198 16.9367266764 3.14527055565 9.28821126125 -6.50009352379 -1.36617284971 -3.42538206652 
4.0829371271 -12.8848483797 -1.45341448446 -9.62159755952 18.8324143728 4.22302361365 7.69485739507 -9.47936388821 -4.50358411115 -4.00493273049 
5.58193562222 -16.7285576905 -7.17992880612 -12.8603569476 16.6450655054 4.94391306765 10.4895413566 -10.3448325787 -11.7294236943 -2.20265674676 
1.83936927759 -17.9341404656 -9.76131291512 -6.57035505311 11.3019722088 3.73746638859 5.60485702527 -3.39981129616 -7.55937512523 0.96233501652 
10.3719371568 -19.7113609916 -9.69275740039 -2.52983405961 16.8388393747 5.91103267031 6.97575559041 -0.767533633308 -6.21030886683 1.25387526186 
6.79031729813 -20.8989606072 -14.7361140654 -7.054678256 17.4391587624 1.99359989271 6.95188652517 4.3426598362 -14.2291642177 8.06989238196 
14.7588353233 -19.0413701941 -12.862580938 -1.1391088913 20.6775047671 1.66223304291 8.84306241963 4.21054693735 -13.5999786101 6.77975437454 
17.3615934254 -12.3615529957 -11.2210891598 -2.28913710984 19.0606615711 3.01687421383 11.6662300922 3.98376685913 -4.32501963482 4.25300120154 
21.1029557535 3.11641728507 -12.451100424 3.6748509087 13.6132146901 10.247551289 14.8101354301 3.84203066777 2.40921652524 5.94060479302 
24.8719760819 -2.63487701441 -14.4575072341 -6.25235345419 10.8686856458 5.80492753676 1.90856488069 8.77229799961 6.71703792421 7.03123105256 
28.4866525157 -7.70062227006 -1.90220493434 10.0272106853 12.1211804354 2.08804324165 6.32904301667 -2.57492026415 9.92480716343 0.442335102204 
29.2127795795 -2.68059945173 -3.91410003088 11.7533176071 7.51697902569 -2.05101270885 6.16132102421 1.85714356242 5.34105456212 3.12761386135 
34.3525910165 -4.04443078953 -0.270461674092 11.2299511029 5.45003519402 -6.56180693764 1.44290928534 0.0354843537898 2.49573142984 0.82627130389 
42.7695779059 1.22865141595 2.63261814735 5.70962891081 11.8173647072 -5.19014684748 -0.980857238349 -2.72540911012 2.05301304392 5.30943175995 
50.3739247095 1.65935981774 7.4716721148 6.09513538266 14.8244110601 -9.23055322127 -4.03114547371 0.0597465973782 0.0978010869643 8.06063565774 
62.9138998873 5.18315532837 6.84781852938 -3.31196332587 14.3498651711 0.841512986125 -7.31955879572 -4.46045956114 2.26482233421 6.3011572621 
50.0854454708 6.42057061721 8.80076809413 -11.3086780008 6.91254153775 0.295763322313 -9.95354532919 -8.03605901702 3.50179734578 2.23132862332 
51.5941247562 10.8978396425 7.69856248024 -13.0009753384 7.50134483587 10.0135032846 -14.6346309797 -3.82695399421 8.18642731682 4.37091749669 
62.59804592 9.82530778713 13.0475904414 -4.44728737602 7.40566863518 8.05852458196 -9.79352394409 -6.13187669642 6.14126362533 4.54842811399 
58.8957561458 7.5276188364 8.59330537142 -11.7979300816 7.32909485251 10.7284332088 -11.5885179062 -2.07494646527 2.64796998771 7.63568387513 
56.0790565163 21.7257625134 8.56691720622 -2.42279023513 1.99986408563 13.9885335838 -2.79767859861 -4.58961360027 5.45636014023 13.279784655 
53.6922459702 13.8502074187 5.06511071601 -7.07736001875 4.435530476 10.2264424576 -1.82033263954 -6.91469849167 7.27325546204 8.93972534726 
41.3415253548 18.6218261215 2.86503385057 -3.7728990012 2.12302445967 16.8044498477 3.22839625324 -10.0280313091 7.14301471216 6.1699880365 
40.5443297708 21.3481310801 5.31627388466 -3.82091187618 1.95223230245 12.6170389192 5.08173539447 -13.7223875662 3.94594208439 0.519342104398 
40.5662322224 26.820013283 5.80611036135 -10.6723284663 2.94880577029 17.4316548743 0.504667393333 -2.52892786247 6.70133669137 3.26577997827 
32.3419437928 26.3883658576 8.64442342035 -15.7505301415 3.50329407096 15.6124189041 -2.20383594207 -1.96927630934 3.83329277732 -3.28295504512 
20.1122620807 26.9396262778 -0.0955955907305 -17.5880015264 -7.44940761268 16.1298614209 -3.96467501973 2.97984093713 1.73745155991 -3.62281003407 
13.4784363173 21.3994385405 -4.53329811414 -20.7425640261 -5.32339775251 7.19371120747 2.58190259673 4.90149541704 -7.29744933354 -9.10065516427 
-1.22863865113 19.3733032406 -2.43650654959 -18.9132403837 -10.2503754641 -1.53981767352 4.37570346401 -4.54074348303 -4.35549584024 -13.4685890411 
-18.8250781376 22.6194928048 -8.85851001027 -13.8900127415 -10.1687218847 -1.85071838556 9.12458027983 -9.74421677611 -6.48949163874 -16.1691587606 
-6.73416303737 31.0034281477 -11.2780354128 -21.7383798258 -12.4181090306 -6.73521252016 -3.01393142146 -4.81337574567 -3.33159001196 -11.4502254161 
4.26747761242 27.4041930106 -11.5819923375 -19.2718665148 -12.2157038695 4.32675079068 -4.07965665835 -7.8347281326 0.335261088834 -6.37436005663 
23.9202447088 24.9458474672 -9.12434461694 -12.5150954283 -15.3840938174 2.49222581483 -5.56914349301 -5.38682978935 -1.1421685922 0.776702243501 
21.2429533969 22.4104957909 -7.78399657932 -1.44141808608 -17.7194917036 4.24827911173 -7.6976251861 -6.0529119907 -0.473589525041 0.0230954592483 
35.5532985504 12.6120907786 -2.88604001309 7.75873926646 -12.1731241312 0.540924468682 -2.3390404009 -7.6842559987 -0.377581762787 -0.535383059625 
31.7579815221 0.231316048148 -13.1076563022 17.2176492589 -8.05852170307 0.0441832135582 0.11774252034 -1.8266106172 -2.41024147886 -5.98324038702 
24.48009258 -8.87243904 -19.2418634296 19.2152386488 -10.6823533835 4.44784531251 0.471703990316 5.51402123749 -3.23955107826 -8.39271386405 
18.7423165691 -11.8511015845 -20.7452210423 12.0919377977 -6.36901762402 0.684575140991 0.36383633718 9.09739759897 -3.98341376539 -10.7159059795 
12.4336743407 -11.8938124626 -21.9175531131 14.328279028 -6.34181471631 -2.5912820906 -5.05334998873 12.8677732652 2.51269072804 -7.80229725933 
4.13829253973 -13.733030387 -19.3247360482 9.47812095033 -5.26311215762 -4.35834321146 3.43567048705 10.0959519022 2.57493967788 -9.93589395749 
-3.01517648911 -15.1266974536 -19.8788413301 5.40617937701 -5.04764034868 -7.80468305758 4.17726043133 6.7607948076 5.81420132605 -5.10619547667 
4.264309653 -20.5158751564 -11.2453468794 4.18355092172 0.121561519467 -8.65210291723 -1.29513182209 9.73438698185 4.65893095032 -1.15422175674 
-0.6064228534 -19.136401722 -14.3824915845 4.99134454655 -1.3742352651 -6.57811868358 2.54395162557 6.57106927163 3.34494114652 1.11002689148 
-8.08123228969 -14.5415709784 -16.966380735 3.73987054347 -3.3783960946 -2.58847029319 4.89682483502 5.2561852793 8.25759992732 -0.074367214478 
-5.10403298531 -15.1890707873 -14.1350986035 0.706414224751 -4.2463016458 -2.108808644 -0.125403711168 -0.750591848733 13.6666986861 0.995999674034 
-5.23331048234 -24.2751835994 -5.70019221698 1.00419895281 -7.25021059876 -0.690624783408 2.24460547883 -5.86030682635 6.41812547159 4.29727662232 
-2.45329111797 -26.3940733225 0.0863259909082 -6.0760162053 -10.4353437824 -1.71616745358 -6.24677038444 -13.4638907726 10.3228356225 6.34174594033 
-6.71377589473 -24.7738081488 2.81028363154 -8.04687986187 -13.5635419188 1.00862231559 -4.76303633598 -15.9281778864 2.74805996483 1.94961404503 
-9.91407844326 -24.6258524382 4.84713439283 -3.19493222442 -13.5553789242 -1.80615008491 -4.49692723838 -16.9579046949 3.96427410594 4.17898487349 
-11.9921052356 -23.9828129302 4.10153873387 0.199838342754 -12.7335838446 -0.390167853514 -2.35732539002 -17.7431300256 -0.230349374891 5.38260952474 
-13.2431171827 -19.4706329487 3.63068950935 2.80042606471 -8.90707943718 2.61239522819 2.48372279171 -10.830834962 -3.30930039024 1.70252700272 
-24.7845389133 -10.6637924863 7.84278835672 2.19519965188 -9.04359123667 8.18131519658 0.554869969832 -1.35734768324 -9.26146409318 2.29050827333 
-26.6574727692 -7.64555440761 7.4616614806 -0.780356414933 -5.88858470477 10.5969023869 -1.35419028444 -0.185950471782 -4.70896941488 1.76679252959 
-21.7379758144 -2.88540687268 4.9824752549 -7.59399694639 -3.84070867251 12.480015887 -1.98982374206 3.4392509285 -0.508880203151 -6.32611340179 
-28.7048317774 4.08964419782 1.7592694472 -4.7579596509 -1.34170691421 8.90706392894 -0.804860332434 7.26762413628 -2.60745786613 -6.81783469419 
-27.403961808 5.63683364127 3.9900424228 -8.2183147385 2.8091041982 10.5680210087 -4.35499567312 8.42506327242 -5.2417374668 -10.2956796068 
-24.7406594213 5.52662604599 6.60096156833 -8.265639974 8.2483449388 9.68812517376 -9.26676995928 5.34466442581 -2.52868229164 -9.66463033966 
-24.863171564 10.3690753322 7.47073205267 -4.33162401676 8.90452512962 7.27497359446 -10.4568955119 -1.35734686064 -1.00779893682 -10.1318934701 
-27.4345674699 6.22396527198 7.52179198876 -3.06610823801 7.500804855 1.83074897575 -11.6783383088 -1.95239033323 -4.38348736174 -6.67431944351 
-24.3350157898 0.926794984821 4.45431253876 -3.90102034484 5.37610921643 -0.281546288484 -12.826375165 -0.854346966917 -2.55082772442 -6.074596291 
-30.0127582742 0.419239339895 3.80290464211 4.59220974913 0.512932022234 0.900994933505 -8.81140916416 8.95275560337 -8.79714080177 5.81952351594 
-30.2703986636 2.58370900741 -0.0530090834072 -0.0985065632193 -3.16857325888 -1.98662057147 -7.82278051125 11.1865085988 -7.34021317359 3.07384475867 
-32.5338531849 3.52872002557 -2.57399326218 -0.460530549953 -10.2022782135 -1.50173484185 -1.69338702748 8.13790996292 -9.07328988979 2.88231042631 
-35.7149529143 10.1906754873 -1.95847614795 0.676740552701 -7.59087341042 -0.95261102774 2.24159668978 8.25860306195 -3.69231306278 5.86839828414 
-38.8663313941 15.0437174075 -5.38597616228 3.34065793088 -0.185021755484 -2.78431905037 -3.24297561426 3.71106690077 -6.39333005601 4.54828701409 
-35.9523301106 15.5529705573 -2.53202718235 6.67293210631 7.3216530698 -1.94920683902 -7.7463707448 1.09841508066 -5.42368588577 3.61153386404 
-33.0514316542 14.411646972 -2.73287398247 5.90732345472 5.5789812392 -3.81216702656 -2.63799013086 3.80536394608 1.0913426538 2.38082727548 
-31.2834612019 17.1516876389 2.28213540449 7.12789514032 10.3829611623 -9.40715111261 -4.25575900649 0.520223073015 3.99577575351 -3.79827769588 
-32.2563185637 15.8827584305 -6.71658136739 8.82513479827 12.0397165395 -7.54291876078 10.8999952758 -2.59067546846 5.14064271922 -3.12172007072 
-33.5299868033 18.8978042885 -6.38383421326 9.14967066058 5.50564445671 -2.24137176861 12.6882086414 -3.39959237804 10.3118530393 -5.85199557871 
-26.0049427645 10.9044603411 -2.0894278757 3.73959416224 16.9131913218 -5.34841237226 4.81994657842 -4.29402296282 5.63624525772 -6.01930455001 
-20.6717536177 3.4521530566 4.16158877175 4.06251148822 20.191660934 -3.1275458128 -2.93478620039 -3.15860535465 4.41208687934 -3.44278643068 
-20.8232103402 3.67736069709 11.0193719652 9.35401835462 12.0323451083 -1.22763063743 -3.60808521232 4.74175430079 3.18373981123 -3.69532681056 
-15.5144840359 -3.87429603698 19.12042293 6.53509503023 9.55408266024 0.164347103113 -6.82653679902 3.24710940725 4.54163382423 -4.03402276569 
-15.9836442144 -8.07073426615 26.4418682601 10.0088690095 3.32588789161 -0.529177670948 -8.07863598811 1.10034969383 -4.58231788865 -2.63025709014 
-20.1980707197 -2.08711209176 24.7879931448 12.1547178415 -4.95318255501 5.9044788323 -7.03117532347 6.07316876971 -4.99998110527 -4.32187381799 
-20.5339575709 -1.90815259365 23.5862966694 7.49116878526 -3.98583787199 4.14134515972 -3.95486805466 7.45553702064 -0.314155850616 -5.61145113368 
-23.2438968358 -1.0303409018 18.3156354426 7.81404045678 -5.61207748357 5.70247987423 2.47055649833 5.57754967906 4.70585874462 -3.47056458444 
-28.3837199495 3.73329223389 10.9873204992 8.31524265309 -6.12998364645 2.80863768273 -1.09750214845 5.84726892599 -0.0193399303088 -4.10961127123 
-28.9767215016 6.90685530571 10.079288484 5.54178863696 -2.47719224705 4.16572050447 5.50929656658 8.25169624251 2.77648483669 -4.37015788422 
-32.3590554436 10.4215957357 3.33101927625 -0.253315158701 -0.0538668841979 10.3166593838 18.2572153102 5.4195889402 -3.33620374868 -6.43587680942 
-32.1463611285 13.5150226564 -0.0836817943896 3.34945602358 -0.690277227085 10.8493577819 18.7244980613 8.49903297503 0.691961456623 0.952956953787 
-31.4349125022 10.6366081988 -4.26571714185 6.28288792334 4.10261264465 6.52936800859 12.7413546013 5.34680544524 -1.54985347838 2.26163647839 
-26.8880325778 7.81094465953 1.46094818987 5.66700046855 0.923172099078 10.2804177019 16.1017332206 8.33811284429 2.77303760687 2.94596691112 
-22.3703847908 2.67597335397 1.19101920838 3.10830598018 7.83670422016 7.83380139883 12.0168639554 2.06534075147 1.95643525168 2.20965774065 
-15.9192311083 -4.530656096 3.45400779297 -2.39579770324 6.46119452022 3.43398631422 4.10789651568 1.72795173372 8.66358465741 1.77745679623 
-9.17762109948 -12.7948644734 2.02004378338 -2.42502008064 4.75913428955 0.877540055832 5.03998177153 -4.48770827718 5.13279770797 0.678744927315 
-9.37886514441 -9.49507095966 3.0567648596 3.02961172761 4.63822396292 2.71859517071 6.69331540623 -5.32408324507 3.15385774061 3.32452603983 
-0.398689457868 -12.1399102111 7.77791370764 -7.59933228399 9.36615927883 -0.766549199066 8.00470731076 -7.65584841504 8.58336056956 -1.78149348041 
-0.837914739009 -10.7963294071 9.78347195264 -8.422842376 7.93593423604 -0.154559098058 9.03401348478 -11.3396858847 6.75214257379 -1.70796549224 
-0.586481630296 -9.06367308792 8.52266244504 -9.00361627883 8.86733140973 1.92970207615 14.3314134755 -10.2712792641 4.95979969124 -5.96414412158 
5.67971008921 -14.7734566507 4.73154211094 -13.5699918897 8.93268344017 3.8338495265 10.2395585971 -8.28826682634 2.65310195231 -4.9222239032 
17.6156286312 -17.2224847937 4.32898953887 -20.1362267997 11.108822304 2.74978184989 4.5519534255 -6.62284313445 1.94440872542 -4.93970416142 
9.59881452808 -18.4003370544 -3.30456982628 -14.2820687439 11.0307439544 3.36043860327 5.77595454148 -5.11743732539 -2.67037907069 -2.3093052303 
13.5468611128 -18.4799643359 -5.10213186116 -11.2858365036 12.7346145711 2.72488257279 7.26835976911 -5.72050086186 -3.99110738195 -1.4577654201 
18.8679005743 -20.5054138521 -4.7245657758 -9.08560488824 8.92257278635 1.01066093359 10.6821219166 -1.94347661015 -12.0666687212 -0.631826943257 
26.0297923676 -24.7012460454 -2.84476104353 -3.19366147526 12.3893522632 1.95373350465 12.0949119752 -1.55015439265 -15.2917109758 0.294971195055 
25.182523146 -24.1825127018 -1.06988792991 3.39185820127 12.7998111978 3.25989693996 11.9908643828 0.726030894692 -12.4688483253 1.40644007099 
23.0545458895 -9.55368273105 -8.34921378055 5.33255095615 5.39599938613 -0.297216270253 11.1990653673 6.20282671478 -5.90556546964 2.00313204535 
27.9876225238 -5.05760776725 -1.54505160704 11.1579501221 8.57203205154 -5.65820441085 6.13786433452 12.5762075945 3.56472004458 7.50134472061 
35.2697023161 -1.06102973799 8.07742073926 12.8929059402 9.54626811357 -10.8994101561 4.876124044 8.94527046454 1.52059232294 8.48037031899 
31.5417901552 8.19746023529 10.3758099059 7.56149416783 6.7257416477 -10.532505766 5.84559687875 10.7434178509 0.805691561818 4.67524746297 
10.8980463635 6.31334360445 -7.76121883828 -3.61435880886 8.76678536642 -5.17685024615 4.43908633207 17.2216270645 -13.231785721 3.67127458646 
30.29151715 13.0371036536 8.81333199273 7.79785627583 1.89590626955 -6.98253834777 3.41145669233 14.9160682471 0.710250873632 0.118163200767 
36.2249895819 11.3493606398 18.0856428083 -3.10170425607 2.93549808479 -13.1113310104 1.61001427263 8.23449082369 5.3342673538 4.36757118927 
34.6006048337 3.43789744162 15.0103715171 -3.81945137283 4.82084697108 -12.7149789129 0.117346363061 11.6464066846 5.53600165482 4.06725156856 
23.4655467179 -0.134353187364 5.50478515714 -15.8268042285 -3.19383724678 -12.1886010903 -3.79239029742 11.2206112657 0.227113629529 -0.908041906395 
38.4114512418 -8.89169603786 15.2087787068 1.94137686874 3.80819315513 -15.1275633077 -0.889847268533 4.24486463675 -8.05300993008 1.28632931104 
47.3945511927 0.496377168031 23.3531325295 -1.78913662433 2.32461284916 -18.8809198711 1.26155830347 4.08617904194 -3.39472072675 1.61625287153 
48.6913156379 8.00526888362 24.9335432059 -0.846857975549 -0.167651747891 -18.5896062984 3.0039582235 8.03229025323 -9.26344442385 1.54329326401 
50.8351074854 17.0682269354 23.6284211701 9.62484197336 -4.05079410256 -20.825904237 9.18037912777 3.32432922413 -10.2053205063 2.99883368523 
50.6093384667 18.4617201322 15.4290536481 9.11622333649 -1.67552007822 -16.8647110718 16.9140148138 0.358540768347 -12.0933710883 1.68139995254 
49.2149451994 31.6029971277 16.2772995425 8.57696513038 -9.41181249831 -14.5392445593 19.0885436683 0.836367866427 -9.27354630483 1.38611277652 
41.3774820516 34.182912301 14.5153852393 13.0643713265 -12.0295359799 -14.755915831 19.3120067271 -0.950737208499 -8.48032892382 1.45635961474 
38.4142263977 32.3124005378 9.49274759885 10.0440885613 -14.3108061252 -7.00194459926 19.1380471967 -1.7074724662 -8.3120940897 3.46798626515 
36.3892073893 25.2877259763 13.1330742039 -4.05487666993 -15.8033120958 -12.666710981 14.2654027449 4.19199154252 -11.8064491984 0.776847252544 
37.0987444272 19.3025650814 17.0510450716 -11.4040387203 -16.0134321687 -14.0104138719 9.9191972521 5.09975371701 -14.664806738 0.131197406588 
32.8658676797 16.265406772 11.8034187545 -23.1564410036 -11.3776114171 -14.1526168144 5.90743316281 8.27935912377 -10.0567161066 -5.16007274042 
15.635075208 18.2873952328 0.664307288181 -25.1844890598 -7.80168998599 -11.5275989212 6.49833550241 13.62925063 -3.96031635438 1.50971801689 
11.497101382 16.2528971725 -5.189858771 -27.1534746808 -10.4925881971 -11.8211476688 0.9123715198 9.45405571868 -8.9131496141 -3.53418401832 
7.56502379678 20.4459225337 -7.17557448433 -17.1455161637 -12.1537276829 -5.71081780292 1.7342625261 12.2613122616 -9.73622735055 -0.156918730065 
13.4316959009 18.7768484207 -3.25818527218 -1.62475549355 -13.401653573 5.48682073225 7.24647487066 6.33777501625 -11.6738458245 -1.60364046751 
19.7115869454 14.8855096372 -2.59751910481 7.5878341426 -16.9881699019 4.30859112463 5.91773252345 -0.231826387205 -9.73844524493 -4.73982586773 
17.6483454941 9.16997776292 -9.45332847181 3.31963625518 -16.8440551637 -4.55777821573 8.71124742193 -3.94616654504 -8.10494047738 -10.1262750595 
21.8827457723 1.43015996981 -8.6016988387 11.1357674773 -14.7100238069 -3.22043200533 0.260676612893 -3.55625580568 -1.83834071894 -10.9008073305 
17.1881616558 -0.503632474495 -11.247075268 18.1240004392 -14.8389098563 -1.95472930052 -5.57213453146 -1.73006306698 3.4004653877 -6.45422352696 
17.6603091484 -4.02907925954 -10.915674013 11.0905518633 -9.77552496123 -0.976974050182 -9.84091659258 1.89445018072 6.57580926122 -7.6947902557 
7.71415401381 -0.100784273611 -20.6030571806 0.637138719143 -12.8407038945 -1.67244197629 -5.48492009504 7.19910592312 0.619820633722 -8.15690646016 
15.3879757166 -2.3247798489 -18.6269287173 13.1715225808 -9.21959558651 -3.07864546553 -13.8906003403 6.67104904144 4.75901907813 -8.90880123948 
19.8852383771 -8.97189778385 -13.0376372355 9.60461614549 -4.69113398476 -4.51483525493 -10.3441889832 6.31486187166 5.5019336396 -5.25163816187 
5.03378332462 -15.7749421558 -18.3147865263 6.85168777631 -3.40874756576 -5.76697121222 -2.75639850344 14.2588340342 2.64393854272 -1.00655567495 
1.3188872369 -17.1300239794 -24.709255523 4.81579462962 -3.58767100094 -1.40210864128 -4.43067363007 14.0237385746 -0.924522223547 2.83775301975 
0.206753759951 -14.1260099793 -18.3582030278 12.5679026145 -3.76624332797 -4.28486160487 -5.20814499588 9.46504897919 5.34709268961 2.95828376529 
-6.99885487045 -14.5505452736 -17.3126496731 9.74802808232 -5.52339767125 -1.18201719111 -1.6194222179 9.30787311833 3.21145549179 2.17764511779 
-12.2944849679 -17.6904948939 -18.8121783751 4.80634025595 -2.95934170111 1.13682152205 3.11963645224 3.28008821447 3.27606861038 -0.558298615667 
-12.4263302544 -19.4401596036 -12.5630878703 2.03881742854 -4.43111965177 -0.0593271739762 2.72209106374 -1.30866840658 5.15605087793 2.90164438772 
-15.5215828426 -21.4040190115 -1.74446287506 1.62971187806 -6.38163344213 -0.862898880589 3.40267593863 -2.22923370817 -0.223896921828 6.94568560735 
-13.0348294599 -24.9439302223 4.01909640991 1.9435896974 -10.3395535149 -3.00705443255 -0.190251937131 -7.03731807907 -1.74084561077 7.59227003345 
-16.1250223477 -20.40917266 1.84798781805 3.80409429598 -14.1277957274 -2.74956729074 -1.21790745467 -7.10929851041 0.588949921258 8.64673809643 
-16.6180227281 -20.4514688205 0.628720402999 1.47373046102 -17.1985286662 0.00325774780656 -2.0580925284 -6.91723464357 0.241524146557 9.75506027062 
-16.1024431991 -17.6017828916 4.82122310262 -0.11049350713 -14.7005327854 1.24867055191 2.18539887723 -7.8695232176 2.12492656735 10.7480013951 
-17.5645450307 -20.577010222 9.44650163926 -4.5926530453 -11.9694482958 -0.723895260651 -3.50272153469 -12.1085581794 2.81642153514 8.70500203381 
-19.7262649534 -14.1195509005 12.1254110064 -5.17337846119 -11.7712847082 1.07260649517 -7.03208235262 -10.3854674623 2.54491437736 6.53104213786 
-25.2602933226 -6.64769881905 5.65138508967 -6.85108273104 -6.05738416424 5.5519115672 -1.37074257402 -2.15153542344 1.01229798344 3.34383194361 
-25.0467061047 -6.76722586238 10.3697753003 0.907208618108 -1.68836524607 3.81440231511 -8.38896724859 1.65110900939 -3.69342440616 -1.80197621795 
-25.8447483805 1.7820457031 8.56529905525 -3.25333186516 5.33599224616 2.51203028667 -12.5625805667 -0.750369714612 -6.44311662022 -7.87182593059 
-29.6356021369 8.25457039466 1.31442671981 -1.72810817601 8.75650976637 -0.344808335864 -12.7612366658 0.263315490647 -4.65637527953 -9.10793295111 
-33.1055167584 14.7260687243 -0.426262780436 -5.93147132488 10.7734483895 1.18659196093 -15.2287777703 6.55330341668 -6.58367399786 -6.44834157262 
-29.5965993588 8.85243756866 -1.87815544895 -6.3514495736 11.8914049856 -4.94821831333 -18.7879422223 1.69995391038 -10.0355566151 -0.825517139968 
-36.0574994692 15.8516813872 2.58273478559 9.87736233314 12.8470718226 -7.04109947224 -23.6137019039 8.52338261171 -9.85860070576 12.0402512783 
-35.3127143922 13.9517134384 -2.30795230238 22.8479988632 5.16914143658 -10.2573886637 -18.2484556322 0.156806284601 -9.52129848342 18.6759485661 
-35.9978987271 16.323117584 -11.2533366699 11.1906472947 0.599928481701 -6.61152404124 -3.26407368251 -12.7126972672 -1.1717282395 10.6876837578 
-37.8342850599 14.2998249894 -7.40449629949 16.2647821589 -1.83213175452 -3.62266688031 -3.26681796734 -7.34978616418 -4.22951851133 12.4119819142 
-39.7810904846 15.7813479984 -8.13424230057 14.5987401939 -2.1243179643 -2.90182775279 2.43624028401 -8.33292763715 -4.15925200764 10.3273684937 
-39.0153598677 15.5386549745 -11.4526264555 19.3619757281 -3.35951675382 -2.77109509777 -3.92499089935 -6.06765060318 -7.07499605529 13.8242616968 
-38.415509098 18.5405708679 -9.64780227816 21.4074082412 -2.37348508439 -4.62442719601 -3.69728325579 -0.238250684317 -6.54147975284 19.4349015723 
-37.2206769279 16.5405363498 -7.9246690114 28.0796620253 1.67895207647 -6.42266118239 -12.7397682721 1.26553013021 -11.745565732 25.2682476119 
-38.4954252907 16.7550046898 -7.23742079081 24.5441226384 4.66248041819 -9.98375833359 -12.3236981333 -1.24335077076 -7.54000088007 20.8042351886 
-36.2177623288 18.714609633 -4.50731822396 18.3915753361 6.25725761401 -11.3501169145 -7.88274832512 2.68642240339 -4.8779020172 15.6577332139 
-36.7504131516 20.807709607 -9.36084457597 8.46800830079 5.61888762079 -7.80157219826 2.84097686142 -2.39823325442 2.61283526933 1.84788759679 
-33.2352754042 21.0377813981 -4.78512330629 5.04090016487 8.59071587815 -8.4289210009 5.64122711009 -2.7457761353 4.0325096905 -3.93939588976 
-34.2152714539 17.3420750625 -4.38568642335 3.63902815158 11.2093591516 -5.1223167434 5.7074521674 -1.83967382712 4.39709608598 -2.76478131454 
-30.1517084346 21.5084368494 3.54574637521 5.17742204034 15.0304272206 -3.01254259806 1.81838766908 0.459209075029 6.1283964353 -7.07973844728 
-22.2834874739 18.1344827647 4.54806450238 -3.32338083339 8.75367139309 -0.0826627512094 2.08819322507 3.40894710195 12.7298387561 -10.2940407986 
-20.9293726896 12.7142876944 12.4317749057 1.46560373669 4.75808394765 -0.0290598878458 -1.03007581402 8.79591872366 9.51880444733 -6.16364486165 
-19.8536205676 12.5067501396 14.1901962129 -1.54293349197 6.15294057548 3.05167611495 -2.31018149325 10.1653119179 7.30863077597 -7.68148840584 
-26.7609950641 10.1297343851 8.14761377679 1.54818621212 1.17669440311 4.81188853762 4.28620112895 13.7548802497 1.89772059321 -4.87687632068 
-25.0234715189 6.33616216007 11.4618418338 3.25814935691 -0.884690915091 6.84518033613 10.5253403233 17.258357277 4.45606058577 -2.89423125551 
-25.1294712896 1.45564947709 20.0310127577 4.24674804571 -7.32382002502 4.16502571749 7.77693761368 11.9533293913 2.13371283134 -2.74866517902 
-29.3432048695 0.927768630486 17.8449878703 3.5706136688 -6.85417399457 5.0073898771 10.0764119482 15.4174184531 2.37459611252 1.27486184383 
-27.2389596271 -3.74598440038 18.8795717479 1.4117537684 -5.23638927985 5.89623796029 9.96920997382 10.3698861318 0.0130197529912 3.36849414536 
-22.2909681758 -7.9712119619 18.8803055861 7.59421762733 -7.17849657797 7.34461578545 5.25907357222 7.84547019952 -5.35284521963 -0.802604730615 
-23.6464385653 -9.13958936972 15.1197183181 2.99170289837 -3.89648340202 5.75139958737 7.25968009054 6.9256966006 -7.08353098415 -0.510343798266 
-15.9183029681 -11.8575669339 9.19226304531 0.826316747107 -0.219527939386 9.49445308358 11.2834918624 3.9489012309 -8.46736894964 -2.18398103207 
-16.7645846411 -10.9558018466 4.50997325462 -1.18513509112 0.55697614888 9.11239164123 11.0071395602 7.9858482693 -3.78567643661 -0.0473117436558 
-19.700409654 -8.17053338621 4.42311618673 -1.39528515685 -1.31340934527 7.65223098261 13.2370404745 11.7931987914 -1.4545876634 -0.0902317221563 
-21.1811136793 -7.92222140979 2.74326334011 -11.4404169094 -4.1451102898 4.77386501109 6.8919027256 6.76586089685 -2.07747217247 2.93166578031 
-15.2549743745 -8.81393683429 3.29585453302 -8.07603464575 -1.25101332238 4.63194974211 11.4518857976 5.20758312085 0.87288623202 0.492039379875 
-15.1869524613 -9.79583672396 2.27463694554 -3.70651448374 -1.29680259844 4.78663912949 10.7504025945 5.25063854691 3.7026623311 1.09955207306 
-1.07881459062 -15.6607953227 5.31748888669 -7.47993094127 7.95630101055 1.22376532653 3.41842139752 -5.54450254038 -1.13308606697 -5.65863593042 
5.83333378041 -17.5237598743 -4.24669925055 -14.5029567461 7.13063809834 2.87149434393 2.90150894301 -4.87657575608 -5.44749500367 -4.82235422266 
5.24378583054 -22.3567325827 -1.17704804415 -4.62515652182 10.5338307242 4.3240626195 12.9317644999 -6.72299709352 -2.76538255966 -3.26587374315 
8.46261714257 -21.2000081042 0.750973694822 -5.37986410916 11.8340119137 2.44745025202 9.35543651391 -0.711005652772 -2.0299767361 -3.20893011324 
14.8385238139 -15.6769327204 1.6999825956 -4.44222901889 10.5969185159 6.60882650403 3.08234611149 0.981691115642 0.10992365462 -6.2146577961 
20.952155118 -12.2203592221 2.05578252032 3.10690148862 12.1636962713 5.55247191901 1.92101179762 -3.8581973657 3.93285158247 -4.99350749261 
31.0572346564 -13.6760064674 2.22059925409 1.28833061445 13.663020715 5.84350106669 1.11328242545 -3.63165405539 4.75293506736 -2.72746447293 
30.4417975246 -8.6987628509 -1.55726148138 11.712401388 6.76375150529 3.32863822341 3.14838437017 -0.717096548487 4.52462086364 1.32058685261 
30.3270726417 -1.62707964462 -4.28883366245 12.6923039175 4.9659282139 5.7728330884 6.09532628405 1.25045252837 6.5944486239 5.259631521 
27.4602073488 -3.74312177572 -3.7668824323 9.87240563517 4.42473760608 -2.71720171626 9.1875332069 4.69922972839 6.17908570795 3.55235244252 
36.5008507934 -7.56404924204 2.10063820616 7.89406642232 10.5336915504 -11.0097298635 2.050294122 6.04296217763 6.32756063252 6.17953048884 
39.0912696444 -1.03784749997 7.0985896663 7.93871120049 8.3538785247 -14.0666232466 -1.95972978954 6.60273092748 7.52979821544 7.09883725847 
38.9078624784 -4.44213773675 4.03122914285 10.3638421413 10.1597047003 -11.8534573674 -1.80976085463 9.35955561119 2.25162972767 6.4148456544 
51.5344867753 -1.3101321761 11.6853741606 12.4691270444 9.0511051906 -15.6336735846 -3.58998779541 1.37354146915 -0.116915362615 0.477346789052 
58.0185351673 8.21657974701 9.322949361 9.43431967523 7.55372243743 -7.50236546709 -1.9467191632 0.478213571123 -0.505359324228 4.02084826604 
59.1700383609 11.6123954394 17.020600837 12.2021878645 5.51206651319 -10.2053368588 -2.64279585816 2.59634287586 -3.35949155574 6.01292733081 
60.8583581392 3.45190954028 14.0644575104 2.64221147587 -2.66855112534 -12.3500994152 -7.2540954331 3.26209771038 -4.80682238589 -2.66195923675 
57.4462419477 4.88620708252 15.7712260583 3.68965835172 -1.70703165038 -9.67157133879 -0.129946564183 -3.7318539511 -1.84939124221 -0.665514281768 
56.3800323975 1.88189380842 13.9229990889 2.54139185681 0.180559009699 -6.98961785562 4.64810794818 -5.46871388973 -1.96879188015 1.36254532648 
43.2366513066 4.04462768728 12.7321480544 4.45443913611 -7.40634674554 -9.07813890086 7.5945595125 -10.9385928075 -3.9320152892 -5.65276396606 
34.9930045415 12.2936914566 12.8699285547 5.97322592246 -2.4633160896 0.188760152253 9.71092001285 -9.53610416456 -0.96813751218 -2.45787972254 
17.6030256356 16.9318172152 -1.09848136827 -6.29007348225 -4.23914198819 1.75177260201 2.35775273153 -3.32881140856 -2.35844317247 -2.0783206576 
16.3064209844 25.5263262955 2.57745120329 6.9896315924 -10.5132414305 1.42657710998 8.35452795288 -6.97122069775 3.52202889852 -2.72039198425 
27.3679548387 38.0781003549 6.75831905043 14.253732918 -7.36406824038 1.91718654642 11.270960862 -4.41272603023 2.83800008504 0.549217481589 
24.398720597 33.8865587578 2.03231315848 13.115316936 -5.66964525484 0.96226708272 12.2184602751 -4.29503364005 -6.51606106193 -1.85151868555 
13.2666394144 26.2406788431 -16.1069822084 -23.354061641 -6.63853212943 6.26685702446 -2.36806331217 5.02111526099 -3.36288609405 -0.818613894311 
27.7708671985 22.593846028 -3.1647255953 -8.32004729483 -5.93356629754 3.6380704224 9.84620871285 4.6924060524 -9.57783748423 -0.499656970325 
20.4183345764 14.1435508067 -1.57232417457 -16.8073934023 2.54254024931 6.04498034139 11.7227652735 5.60643407146 -11.7981665681 -3.62307595451 
0.894501851698 10.7382361478 -5.60008127454 -29.0707099663 -2.50378521967 -2.54487788748 8.1477601083 -0.374797034456 -6.29637738367 -7.80437845504 
-5.6338229412 11.9937833689 -3.97229433144 -16.8820468806 -12.0111458624 -3.53754136138 8.14252235779 -5.77167441686 -11.0288860243 -6.9564596457 
3.89905883481 26.0664779485 -3.67941434486 -2.59025299483 -10.0396839415 10.7814927898 2.67032738134 4.29474482065 -7.14313880236 5.12543094785 
11.5300857499 13.9608910252 0.407231730535 16.2769292897 -17.1054839073 11.9039807557 1.96725571904 -1.26996733204 -14.0843059961 4.41659592254 
21.4589715099 15.8637296711 1.7053214332 15.5235665943 -18.4821008941 9.83724836992 0.185968907658 -5.34501986214 -16.9468656669 5.71947249271 
31.2680983724 15.425062221 -3.41073182107 11.483058055 -15.5297654926 8.02452391055 0.289030450618 -11.2703987085 -10.0117529958 -2.79741648098 
35.7701241118 10.3113701741 -4.98279662455 16.2087859637 -10.5811410058 8.45949855151 -0.359193754857 -10.3121855834 -3.73399106898 -5.7036571755 
36.4227038316 -2.86706235248 -6.27722064712 12.4294863455 -11.5647021368 -1.0884545839 -4.66299818814 -6.68295795705 1.84694697222 -12.3358373162 
41.2457535256 -6.34730160481 -5.81206861051 8.35125633485 -12.8300513717 -0.00089776333289 -9.43736226383 -0.497319377164 -1.04473936445 -9.27159465585 
31.569948277 -15.1934524679 -9.87927724534 10.7392044258 -12.401160293 2.21577244005 -11.8389107201 4.34612718696 -8.41356036382 -11.2688181678 
30.0585299965 -15.687918874 -10.321283811 10.0671128839 -14.5449805338 -3.91057541817 -9.39967279542 3.70904480991 -8.24531931287 -11.3790083329 
17.6766284629 -15.0696714829 -8.50370001737 10.1513353245 -12.7772418921 -8.59627297096 -7.01990589758 8.06314504499 -4.70200886698 -9.33520441167 
4.30084070784 -9.91222774707 -15.1272644224 7.38525643735 -13.2779568917 -5.25353740936 -2.32813619047 6.4836902283 0.220380259166 -8.18801972424 
8.48842745745 -14.746559367 -11.2709382543 5.23414209508 -9.79409517466 -4.68151686079 -6.3868259034 8.19100923265 2.83189645834 -4.61006214258 
5.04574042346 -14.7437591339 -8.53969051319 -2.54408079205 -7.63256903134 -9.15416163935 -4.36050477412 7.32475477782 2.07570023726 -2.80635365126 
7.89382729695 -16.5504096891 -6.41991300903 -4.79220537496 -4.25905353369 -11.4538346098 -4.16860841438 4.37432763621 3.184923831 -3.41273221801 
9.80285590005 -16.8607079142 -7.85837047126 -9.85719170231 -1.61782299858 -9.06197413688 -8.83914857282 1.6102106008 8.43147282041 -3.18504771427 
1.58886686629 -11.3685630408 -9.06412136853 -9.71583740518 -3.62753657159 -11.0977916129 -7.31404034102 5.21779107395 4.53646214091 -0.337131396283 
-3.49878070398 -12.5077331012 -7.77313428099 -5.66019052715 -5.04894770289 -8.51319514773 -0.955513761015 -1.72228282529 5.28248545672 2.08830259329 
-13.3900424765 -14.6805148747 -6.73880836544 -0.654254125071 -5.97344530666 -7.70926355208 0.520040322292 1.21500735747 4.84397919522 10.783231377 
-15.9692447774 -13.700071566 -3.95129459331 -5.38697599894 -8.52531959362 -2.02308295077 -1.62514321695 0.36020255483 3.78963182971 5.30352011017 
-17.4552720299 -17.3070220804 -3.25434844158 -11.7458406513 -9.74894954638 -2.74041172244 -6.65037377757 -3.87475244464 2.94236226183 8.09391824759 
-14.5393513418 -20.1034601446 9.01041697028 2.52112980123 -11.9789548501 -0.926277468854 -2.45124058174 -10.3813706642 3.06309160376 7.9770964 
-14.6277822377 -21.4998033473 10.3508117416 1.90913483381 -12.7662492874 -0.150127043411 -0.376268193642 -8.2084821541 2.29742542991 8.75362266198 
-10.228859553 -19.7401342661 8.55966886058 -1.22385724243 -7.20293563889 2.97649029054 4.27650938283 -3.82395539838 -1.47967030435 2.5850970074 
-14.8689475161 -14.642572936 9.76961320844 -0.00809583488862 -9.37266235316 6.12906500484 5.90855832329 1.95470486576 -4.87795669671 1.3712425004 
-15.1551340778 -13.8851501025 15.1319882169 -1.38928408506 -11.2478892779 4.0601841737 3.50941368326 1.74286947684 -3.89126102421 4.13570456077 
-23.579710097 -6.75870317374 10.6895275054 -1.88557595725 -7.58369479032 9.85600131713 7.85691886469 8.37430265711 -1.63277667316 1.91795877089 
-29.034467868 -5.98444027736 10.49114959 1.75539334746 -6.7619273408 6.35627409255 2.47716248471 5.37503170659 0.0346890687208 4.11507201111 
-31.6175220047 -2.98732115913 10.8176908815 4.74415345564 -5.42195101312 6.6534719058 -1.22034266637 5.24936630607 -3.61097633889 2.29170558922 
-27.297031979 0.798853073103 10.4760166835 -1.37967507868 2.79159916879 0.846421413201 -8.73854191972 -3.05085035152 -4.89857775163 -6.67603349377 
-27.8083274745 4.65242570446 3.65668204194 -1.2235448161 11.372368883 2.27539518326 -12.578841503 -1.86910219464 -9.3711982875 -10.8125991716 
-24.2738769496 4.54575583472 7.33042945197 3.11828258622 9.13024576188 -3.58971051676 -20.3844650094 -5.26464330252 -13.5394260255 -7.50716852836 
-27.7450900851 5.25499470144 4.2232158031 -2.48091257417 11.8497057322 -4.98440959986 -16.1458886878 0.225690166324 -15.98955117 -5.25380047062 
-30.3087697358 9.79194339029 3.18278125165 0.610404140026 11.094307001 -4.89173454416 -17.2672249863 9.30413921542 -21.9115592353 -0.886654939453 
-33.1709894634 10.0774774865 -0.908930791602 6.06873016434 12.1331150185 -8.51324937842 -15.2867916282 7.27754335097 -17.3486257071 7.39258042063 
-33.7877580886 13.3999964 -5.52589188278 4.08344461033 12.2587352317 -10.1422116145 -9.07903343471 6.86566031432 -13.5222486038 7.12638804375 
-36.7111839027 13.5568375766 -12.6579479074 -3.46950328409 7.09511416918 -6.64795249163 3.57639569848 1.45095357225 -4.73531404789 2.3060791556 
-38.7258741498 16.3863739405 -14.3926908399 -2.94542541339 12.0586000665 -5.16350393559 7.86458585059 7.81426381189 -3.1409407431 7.41261834376 
-40.2803240208 21.4732623949 -10.4009975541 4.5044569835 7.73658997431 -7.52396412084 6.30373375623 -4.72946726694 -2.13882165626 1.42345922236 
-39.4675708184 22.4283300614 -7.47733726799 3.10888971414 14.6588364874 -6.88702550324 2.14647997678 -1.83691123732 -1.13113825254 2.18974233299 
-39.6333564909 20.7883966114 -7.40591437403 0.477253643964 12.5140103284 -5.67477509006 5.90347835335 -3.44849808214 -0.848685346055 1.21980335008 
-39.7328221485 22.8115157415 -14.827696053 6.91157088511 4.35847072715 -4.7016897441 5.74981241355 -14.1187526285 2.31016457792 -3.18485083835 
-38.0892313194 18.70884419 -12.4984830081 1.71805870994 2.68396987179 -8.43545900081 10.4014887627 -9.80730691322 -3.30666010529 2.15234914937 
-38.118683768 21.8737589989 -11.1081800446 2.46691702358 0.467766465621 -3.3094900562 12.0382107931 -9.80771730701 -4.7511743778 -3.44174323465 
-35.0231173308 17.6318403754 -6.57589827218 0.62301255402 1.52473165893 -5.83939867177 8.60334738011 0.36936123634 2.69139220764 1.86266315925 
-27.9892395265 12.6979670976 -1.66428762341 6.05220715479 -2.22612183549 -5.31940388163 6.1320746631 6.58402363879 5.26753214002 0.422408904894 
-21.401654475 -3.15446281746 7.287464746 3.08929369775 1.12709307739 -5.16448644405 -2.07112972048 4.11572975681 0.0459628031172 -0.969360052269 
-15.9420903812 -9.27001455965 16.6739375597 -1.80697222791 1.54541154116 -3.16363028243 -4.0404554807 3.42852206339 -3.91685783262 -5.00674101153 
-20.5233347062 -2.40232064286 16.0402799462 0.492235749674 -1.82355891472 2.84489463734 1.18097227099 5.07058173448 -1.12986436523 -9.05976793039 
-24.1731181739 -1.37315717859 20.1349746259 5.34869988132 -7.7297446955 6.2508689087 -1.63514375492 5.18742870761 -1.41898453313 -7.15500111196 
-22.6610159248 0.237021621679 16.7080619241 4.42295006447 -10.1296030937 7.61290351379 2.38243446583 5.29856681145 -1.4646999884 -8.72556984955 
-23.498291967 3.77343669089 15.4796063023 0.361509912538 -6.72289713138 7.12923281498 0.232826421872 6.84922791764 2.99965005927 -9.7744350248 
-20.1736694705 4.01998999732 15.0984995787 2.48607331001 -7.55775396939 11.8878552372 0.360587745602 7.58886605548 6.02415263815 -9.1750959692 
-21.8620759051 2.70463562416 14.5908616385 3.64571813581 -6.15640192942 8.87747167271 0.694574552936 3.59417697063 3.58479030896 -8.25347831742 
-15.4947531517 -3.80168957965 17.8306477867 4.06636269735 -5.58794437408 5.32301447529 -1.50142933498 -1.38668754529 2.15028409241 -6.06039716627 
-9.80155281491 -10.0270096988 14.0220819351 4.76733331432 -2.7747864092 11.5174065324 -0.206856629789 -0.423193884187 -4.15130458832 -8.23381803042 
-6.4155087954 -16.2874087982 12.3155854618 -4.09140019804 -3.18366024528 5.22388116171 -3.08973568427 -6.25497768399 -5.94331829048 -4.76192658047 
-7.18387998915 -14.6149209818 8.19696456164 -2.892923834 -0.147628642375 7.05989679821 0.168408793605 -2.31635394588 -1.85070057623 -3.47399059613 
-0.590819843645 -22.3764593617 7.52672552335 -11.025455513 6.20708907455 3.21426718113 -0.63909211955 -3.86883461464 -1.96111105614 -2.30444415892 
1.15840832439 -22.9672087128 11.445453925 -12.6827535637 5.30842309868 4.25033252817 0.463021861956 -4.33429735403 -5.79430399514 -1.93168387497 
14.3106053639 -25.4632499034 14.5749106882 -10.8394375944 13.1442945219 5.62290558125 0.458139494641 -8.05348743149 -3.00801300138 -5.71271166308 
11.0695364059 -20.6904326114 13.8419112476 -11.1286053253 13.1727208136 7.05208287206 2.26002245865 -9.81327656839 -4.5361702224 -6.9373556899 
8.24962582719 -21.6451817854 7.00415670352 -8.00223608573 9.24254782131 2.2862207366 4.42124023844 -11.4135483356 -4.99411206919 -4.38381496822 
14.6385241191 -21.3882818859 1.37079983045 -17.1839672015 10.3057073697 4.56311179779 3.74811981159 -10.9347596369 -7.78559307448 -8.2673290201 
20.9025874173 -20.0394850399 -3.45520145561 -17.9602026882 12.353321855 8.45996451706 0.502998750406 -8.88377122474 -3.49319708551 -5.70418210979 
4.64757223226 -11.9692187603 -14.3228595306 -29.0689350361 5.54821591103 2.06208338117 -2.28393449482 2.77325628642 -10.8129333646 -1.84247241919 
8.59670583316 -14.8019282828 -15.5687270851 -17.6509998866 6.03752762481 3.80979394221 -0.514178223895 1.62329560008 -4.64144166212 0.546558363758 
12.125127625 -12.6084165789 -12.8247487596 -5.04604724161 10.6851310238 6.33933688166 0.314689268226 6.55208156019 -4.29187918044 1.17791300911 
24.6111076005 -11.9555262734 -11.6857167059 -1.17716511187 15.4422482431 2.72359739921 4.82222256563 7.8293544669 -5.62551011244 4.18487481988 
13.9874446623 -17.0646700268 -17.6695499289 -5.82154931813 12.4816204593 1.26606476837 3.14788667291 8.85033326487 -7.20699931049 4.43030460982 
26.441812933 -20.9756055591 -9.14303646798 9.85613413827 18.2053300965 5.06176857998 5.08041837278 5.76501469413 -2.48274920457 4.68863040889 
23.7445711715 -10.9654087248 -8.45878308086 16.5994571419 13.983652559 11.3200852484 7.66779789247 2.82697787649 1.70994847544 2.24501576356 
27.9655025738 -12.2522236947 -7.63833537629 21.2982156515 8.7145543483 3.67707897196 1.96909148195 -1.64141017082 2.22728114369 0.958195251333 
32.7343615462 -2.87872136722 -5.06163894508 22.8712473179 9.32586274183 6.66132428315 -0.0664376398414 -2.15703488096 4.44230098094 1.58884885846 
49.4475184738 1.5979737954 -3.38244221542 24.9585424538 13.7371875433 9.57354133577 -7.75730334298 -7.26158678378 8.6699582583 -0.799005263118 
50.8545128373 7.5372582308 3.78714660489 18.2754540489 7.86157279119 2.72419261979 -7.01720257935 -11.7734238251 13.5836778411 -1.98088691803 
52.33170374 19.3136809305 5.45648383421 21.1654126038 3.45062225642 9.81094443819 -6.09043457827 -7.78211013288 17.7465996926 2.25173593 
51.1837320223 18.4132078032 5.52702743123 23.0874970053 7.16638488639 10.3091524544 -10.446659675 -6.30660688251 19.4463134285 -0.0353103858708 
51.8212816412 8.09604448764 0.600790803483 13.0360639324 12.743751136 10.1409347855 -10.4560724345 -5.40442786429 12.0784323933 -1.24443778617 
56.6826132746 10.0063958876 0.0906646789059 22.3083392216 18.3894613449 15.0701191237 -3.60683952264 -9.69093114707 10.630697842 1.54367716759 
52.751439088 10.8564735725 -3.32736088414 30.9888123119 15.5098502022 16.5802491283 3.63310787881 -7.25782972515 3.1080249119 -0.718898739051 
54.9842918691 10.2570844226 -0.488972543831 25.3928181959 10.851437283 21.4584706045 -1.84910471673 -5.35904658228 1.76312882412 1.86648082171 
49.3279128179 13.0087739999 -2.36738562532 9.50751617593 5.97585596558 24.3781587438 2.14236527125 -4.49184037268 -1.8536031449 2.50620431429 
44.9199380807 22.4527905293 -1.23140503393 9.27176724949 4.1601198962 32.5506056595 1.98718562808 2.21176294317 -1.08006287168 16.6834386134 
33.2709555563 25.0901402889 -11.4480498015 -7.93033669589 -0.234786589386 34.9503690245 -5.79365876053 2.84029403504 0.744463842275 12.5330740965 
14.1361273114 25.921998255 -13.1492197722 -7.77733919999 -0.739480908952 24.3378533413 -2.22452075377 -1.37110604835 -1.02093228884 4.49458645957 
1.54954177673 22.5790085013 -18.1032444246 -23.9271703079 -6.46938356351 10.6820956956 0.166160220658 2.81245027579 -2.64865095238 0.254458746468 
-5.70831289374 17.0244875994 -20.4008733096 -11.6841053821 -4.19374637962 15.3028170334 3.60544589757 -2.14765002586 -7.39490317229 3.61000135623 
6.01515131783 13.982692677 -19.1781333196 -0.245493747575 -1.25471829968 19.85795797 -5.63261943159 -5.58527690418 -1.33142419554 4.89901884799 
17.9254751867 13.7111964852 -22.101462462 -0.546577808302 4.50229649096 30.7591707659 -2.36262038772 -3.66545194667 -3.94286548171 11.5326105383 
13.7280242165 7.61565600733 -22.6105887306 -9.3236643729 0.445365559294 22.7066231493 -4.30873114846 0.551693189169 -2.59329386214 6.84171321479 
30.9995072067 14.3297054921 -13.6372557208 14.139434707 7.83088946557 31.5767059424 -7.73119020855 2.42178507354 2.47011511729 17.8520641219 
46.3730023497 8.5137946636 -8.94733930817 7.69550923707 9.3358839276 20.3049573294 -7.94446115066 -4.12568089011 -4.40450544856 7.42143849795 
53.0382420761 3.51768309592 -11.5332625925 5.7597857472 9.47844582205 23.0462023221 -9.04523772466 -9.18778197754 -12.5368152682 6.43576352346 
42.2653788135 -1.58182315394 -15.4599037338 -4.48988164826 7.24738123514 22.5716294369 -13.9083986262 -5.81509771059 -13.3297147383 3.01238125931 
45.6656649516 -10.5180889717 -5.66615752694 1.86010985483 7.64826232037 15.7386497163 -10.5697664806 -5.9839410175 -6.2543313432 -4.92996229938 
45.1689841167 -17.3520619354 -7.84191717709 -6.1983461399 3.14702375618 7.74044814136 -8.51010363074 -7.38148132312 -5.55984159811 -5.73985412431 
45.0116289863 -17.8530906552 -7.68818251936 -3.22537165188 1.44114085502 3.10134823342 -9.8853809151 -6.08043888013 -3.16097853313 -10.2815847216 
32.5953545839 -20.4364282765 -8.29027311917 2.24755373859 4.86511481803 -1.39187626606 -2.47949868804 -1.68453963166 -3.38327737436 -9.64203835791 
26.6981155808 -19.7318901986 -14.0725923085 2.10892806314 4.19821806482 -1.70191923925 0.057451560011 5.3856885962 -1.71602584392 -6.03577828423 
24.9600173276 -19.9968378089 -11.4399634742 -4.83302679775 5.86902946892 -4.88419120687 -0.418729436808 1.22572481418 0.104150573881 -5.87262578924 
21.745082782 -20.1596699714 -11.2025162284 0.407198769816 3.28028413025 -1.59669234254 1.16738063942 1.43803804519 -3.59413886167 -5.22888222216 
4.18256265957 -20.5405083058 -6.92847862574 -0.167392598216 0.783975453933 -2.29533662212 0.559431325612 0.911293945896 -2.64509381268 -1.95535121893 
-10.8017717408 -16.5920677997 -7.81061063271 2.1349894823 -3.95741283965 0.226783287083 3.48331148694 1.23690168639 -0.0340284328749 3.53862967866 
-12.9844942872 -19.4584982902 -3.41493226915 3.05894858138 -7.81957473975 0.71495689114 4.38054135675 -3.22047481793 -0.740164378208 4.32544113047 
-12.9632664011 -22.1756419779 3.11364965739 4.52143116707 -4.62570296057 -1.12800502513 6.25527873123 -4.96122778825 -3.43273867578 6.85338165731 
-17.7919499865 -21.5846239562 5.90550561953 3.42837290158 -9.21054409147 0.840602739478 4.71777006913 -4.3255700993 -4.72423467621 9.62638528427 
-18.7478414158 -19.8053585609 3.92951362886 2.21146729234 -6.51744296062 1.82027536791 7.07197679475 -7.34938035673 -1.75518406935 6.86180021496 
-17.4396472515 -18.8725754577 1.07346505932 -0.553983190376 -9.13156374489 0.198229939741 6.50398771926 -7.74488355059 0.852263263108 8.40925820367 
-15.399348343 -19.5136303752 -1.88274049072 -2.155401379 -7.95804453482 3.47651398544 6.3430063279 -7.91090919286 -1.65194210494 5.01766574861 
-20.1061860131 -15.2290047974 -2.79904621567 -5.83357912077 -10.3662978139 4.28253463823 2.05017200105 -3.80553491786 0.561457178208 4.55275637099 
-22.4741803731 -12.2641400923 0.0704544003216 -5.2033053783 -5.48299897353 5.59769408373 3.02780632895 -1.5222566546 -2.83423282712 2.48175100392 
-27.171572999 -1.39405924139 3.71757294355 -2.79275421679 -2.49356347938 8.45539555503 -3.35587437791 0.0797889929729 -3.49013657412 0.898889178689 
-22.0982449459 -0.0362045341047 5.47184672481 -6.79110954195 13.2506391055 9.96133567649 -13.2677876221 6.06301261945 -7.69936838953 -2.80390383212 
-19.053692386 0.0845658904808 0.332404653265 -8.91697384677 15.1353906166 5.62239534322 -16.3409189295 2.16514101769 1.7131739225 -6.91174939201 
-25.330871426 5.48615409271 -2.47496598608 -4.36172724276 17.9536294303 3.4818811234 -10.2105901292 -0.271063823773 -9.26642071363 -11.0417979727 
-26.453627803 10.8171365409 0.912586800623 -4.90410975753 23.3619376566 4.49055564516 -8.41164249639 2.59791564544 -12.2071473383 -9.51545032725 
-33.0450869709 16.9331954761 0.383218642281 5.19577742105 26.8073838584 3.97070091321 -8.78705350896 6.85617645562 -16.9833583867 -6.77569283533 
-28.3492523306 1.62266354836 5.59492218738 4.12589443958 18.8411685624 -3.16209922613 -11.6732089858 -0.319017107082 -18.9363750802 -5.47948639438 
-32.3834611594 2.64175188559 7.89636124658 5.44753525167 14.7241454152 -4.36969975573 -16.4950648697 2.75005448255 -14.1313507775 5.25591838749 
-29.7215970412 -1.31119036977 9.90530931921 8.96361875404 12.61004701 -6.44380763359 -17.5001964317 4.68777198921 -11.3412062422 7.99366058463 
-29.2877442204 -0.479367214126 7.03161963238 1.94932827278 10.2950511715 -7.1829322365 -16.240052099 4.11865476095 -8.1829674635 5.71926077892 
-26.7325797656 0.0384433739262 8.51988057117 -0.945521638017 4.40213995377 -12.8418914523 -18.1791017478 6.49838134286 -4.13063346825 12.0855265208 
-32.7167668585 6.98324073431 4.67343497788 3.96842974723 4.19678868404 -11.5838323114 -11.13872932 12.0946391348 -4.19218529027 14.5924761849 
-32.5841380531 9.86044798168 1.32733604325 5.28655388906 9.98460792078 -13.6491358271 -11.9952780731 10.1619351392 -3.67152254097 11.6639720536 
-40.8825762643 15.9554723976 -9.33160579259 5.13532321492 6.24059364625 -7.12581301932 5.13013541435 -0.844221099658 5.16479025161 9.98431226608 
-41.5222270272 22.1840285314 -12.9475346098 2.33955250203 4.45582990202 -7.58198106759 9.31895723826 -10.7496694186 6.85799173164 -0.711706041436 
-40.3865848144 20.5410635153 -10.6081740565 5.42258765361 5.48656504059 -7.1258440044 8.68346078162 -10.0275857968 7.48192335825 -0.530764388647 
-37.5564659843 18.2606100736 -9.08068457103 7.25479950943 13.5084909542 -4.02196502206 3.07710335585 -7.42608613382 5.45546127263 -0.852118398287 
-29.3682354872 7.9829850804 -2.33897634453 0.827795014388 13.7698381959 -5.38229129555 2.87035028999 -10.0520309052 -0.0466200683143 -4.0909967296 
-19.7884171899 1.2196694418 5.49345962824 0.469650499813 11.3029532147 -5.37347512853 -4.72832976693 -3.77028672696 3.56081507364 -4.84559054869 
-10.5269103271 -12.4748545985 12.5354041694 -1.57553303697 12.5580794104 -7.72941484557 -10.0553656327 -8.47152843602 1.71406017976 -2.60330760649 
-11.6529475622 -8.42128515897 13.3160729738 3.48890705245 16.2049864129 -0.838235899467 -11.3366585613 -5.34154858312 -6.35012722185 -6.51130740216 
-14.5882375187 -4.10441801717 15.4822584642 8.5243599256 9.3299099849 0.764153955396 -11.5018428991 1.28648363377 -3.09951505129 -6.40228490791 
-20.0758754081 -3.17128718425 15.5410091938 10.8483949373 5.93183847269 3.601818894 -10.8244478176 8.04600669215 -7.25713095054 -6.0951211612 
-20.0090656374 -0.790044856577 21.0998172189 15.4630009794 1.55715857577 6.35733842858 -14.0518991549 6.99846026253 -5.35164613184 -14.5770217608 
-17.4247986224 -1.16190350937 25.5298886169 13.151510488 -2.63971543297 8.48087014686 -13.633186614 10.1480508142 -7.57968819354 -17.2188081845 
-19.9462075928 1.64884246928 23.8241271612 13.62452295 -5.81597488067 11.2819588779 -8.71873223899 9.46818774013 -7.13575332 -17.6772027999 
-20.4390983756 0.423746695577 20.8444543235 11.6194638428 -9.73050090533 10.9565447369 -7.7657866412 4.56481977026 -3.7182959938 -14.8474789188 
-22.9751888425 0.431000898244 14.2162583651 4.01749795243 -4.68596794898 7.03951069895 -9.41797755976 4.2844709048 -9.59493719407 -13.7495196215 
-14.6312100863 -7.6434488453 21.8749281784 2.38639559669 -7.59635333137 4.51651985745 -5.18256802166 2.29635671101 -4.96750573293 -11.0833870584 
-17.9096161512 -6.00912958697 18.9786392382 1.82422107697 -3.04096965692 6.45418928 4.24979753645 7.31371688755 -8.51993434509 -8.17254723966 
-13.3975944704 -13.3093008831 12.7513386492 -6.01978261435 -1.17359119365 1.73514038369 1.6631161747 1.31780520461 -5.28784547015 -5.02947010063 
-14.6798094359 -15.8955708512 16.611714285 -6.05631840962 0.292411315906 0.489231308364 -2.32392708332 -3.58293118753 -6.34731184057 -2.93313702653 
-7.55617863224 -15.9418127802 17.7869819662 -6.17599521755 1.46627645613 5.22961001375 2.06117869132 -3.97003473464 -0.834821090996 -6.61422496417 
-2.64030343019 -17.4472026418 16.7990816876 2.40875730321 0.52390870394 4.99005378186 5.08686223329 -5.31256689038 0.056496147301 -4.57862847222 
-1.59496693554 -12.6115821156 12.5766602841 -0.791360111115 4.20920245374 6.45669997351 9.07313589007 -1.89558439598 2.9577854014 1.09181105232 
-4.20341572137 -11.2735522063 7.60313210111 -0.294893542551 4.02199914431 8.03818873814 8.76703156233 -2.12675963881 2.30267770031 2.47830875542 
0.723392385182 -11.1230629481 3.01992980337 -7.23494831879 9.34296083561 5.19541852406 7.88352373365 -6.72291218231 3.6698021084 0.830583993582 
-1.17683677446 -14.1065752915 0.971973120565 -11.6232711597 9.97243138186 2.18653032355 5.0120107259 -5.19395405842 4.66556718832 -0.474147679608 
0.594449651832 -19.9079956953 -4.82715199063 -13.5192905958 11.9593242089 0.157340477436 6.23479432677 -3.94821576785 4.1182061986 0.523007432253 
0.729038163314 -14.8987109164 -6.88226119142 -9.88010884368 11.2636894392 3.30210100352 12.0744094716 -2.20500797199 5.75182210473 0.564972929803 
-1.19947694031 -13.6175080191 -10.5792852937 -5.33129201263 6.26692399281 1.29822318084 8.52030543328 5.96044277827 5.31450105839 2.82206699727 
3.50531344893 -17.3993562105 -11.8335414247 1.88284501969 4.76041546697 2.07446568166 7.60205294892 6.01196344622 3.64928439279 5.00605649737 
11.6892093653 -16.2908465138 -11.3497447097 4.5887902334 5.9374949345 1.54216353206 12.7565868288 10.4736888658 -1.0685925739 0.96384900753 
11.2435568457 -17.1385403956 -12.6540399924 10.1372580461 5.08203195668 0.583981229301 15.0340523267 4.33287011793 -2.34672445968 -0.308107379956 
9.79595604191 -16.1728459087 -8.86740127695 11.2583240029 0.966152386823 -0.368569379924 14.1474920486 5.15673328715 -1.04402979206 0.379787155298 
15.5582588923 -14.0114669643 -4.46640290148 10.555623258 4.04740431454 0.650597645361 10.2986972223 5.99078792676 -0.971873174396 -0.293673625739 
20.0431675387 -18.7698365978 1.11497588575 9.38456302254 7.49332302335 -5.56932796359 9.35368285278 1.76992038265 -3.82286740989 -4.56318491003 
24.7987043117 -17.5475917755 2.9567343571 13.4273308426 1.01048740501 -4.66505834021 5.32057558434 0.853741435194 -3.15057145142 -3.51189027396 
32.3194847894 -8.60480588255 6.0614994408 9.89688009739 -1.98519478574 -8.05779834524 -0.453322053797 0.0216100319161 -4.21710185122 -9.0470697851 
44.0661649501 -11.4536855488 9.75716429166 4.57531478473 2.91488382922 -11.0282921118 -1.63946819924 -1.06298709454 -5.36130177584 -6.58378612232 
54.5066625576 -4.60562547997 13.4069001346 0.0311456571594 2.04902966812 -15.5466001379 -2.95344791988 -0.587830210255 1.74345467266 -3.6181534192 
40.8742368735 -5.52230086016 -0.6380513553 -10.0809018353 0.920344903133 -11.9640924871 -5.47604129662 6.10746962299 -10.2315929777 -3.27551572136 
45.6767249196 5.69403637584 8.55419767282 4.53083954738 -2.26774743535 -9.62404887774 0.411382160886 0.733876963097 -9.43393854274 0.427833773733 
43.8803475506 15.395251509 6.10654165982 4.23434813154 -1.35285373314 -5.27471181255 7.49990736284 -5.08024273209 -12.1976627239 4.08927463311 
44.0239476871 24.9070302681 8.74826252289 5.44275146465 -3.82838597871 -10.3823348527 12.5855346409 -16.1339910287 -10.7900375848 2.97482985696 
33.497952904 16.63481967 -0.43590977764 -9.48644119 -9.43726426724 -7.12091235263 6.42117559703 -13.1901708095 -13.7893993824 -5.52314128418 
47.8855214975 22.3641164495 9.01798041173 0.236712398498 -7.44013211998 -2.75670770533 8.53228679488 -10.9296458823 -11.7473658838 3.43155866965 
36.9641231996 18.1015793391 6.10025426605 -4.96133194406 -8.63882314493 -4.81219070986 12.1526038802 -11.3260046475 -14.8120873066 -2.8645256023 
22.697666277 20.6140727061 -1.39772657364 -9.84729622984 -11.6407157736 -2.78367637041 6.73042849668 -3.7892634786 -11.9376640363 -2.48207304645 
5.23294972393 18.3162770957 -11.2023371429 -15.1313585308 -12.2361691482 -4.47042389399 4.44016389454 -4.28292334891 -12.8867993542 -7.20866103444 
7.0577202101 26.4099347529 -11.7497639438 -11.9218015654 -20.4094881736 -3.48052042929 2.60104081722 -2.54745493259 -11.160930967 -5.9804358561 
11.9891789448 25.1599910679 -5.94805227409 -1.10598727888 -17.1143912452 -1.83543074923 2.49044952914 -0.0634488048339 -8.60277758004 -5.3910239069 
15.6737070795 19.9288319599 -6.67542199725 7.76830783827 -14.1064735476 -0.464411895319 5.85721760098 -3.22915502254 -4.4437055781 -1.3424713402 
22.3127838628 19.132078806 -5.24981846988 10.3909744682 -14.5192918054 4.14425453514 8.68749986789 -7.49997675887 -6.09763919512 -4.50715602512 
33.951785527 4.36953766421 -5.32719390816 14.7253666564 -9.21984809204 3.790996741 5.46725635927 -8.60537396123 -5.18256567654 -8.51629932284 
40.833324293 1.9673607143 -3.24622434222 18.498732096 -12.6847636966 2.20733428287 -2.47943381756 -2.24911624062 -5.47880366532 -7.42298255428 
36.4736972577 -3.58624587582 -6.49082276697 15.3350107235 -14.2929563742 -3.70418573175 -10.2562146429 -0.901761343973 -3.99022764032 -12.2255441587 
32.1225717834 -9.32888971223 -6.80495204228 16.4089056957 -7.45016581198 -4.11769399277 -14.8751381796 5.03447709123 -0.143129619638 -9.8316473408 
31.6668734501 -11.6244387028 -7.14020489244 9.72839659991 -4.4858094921 -6.42026021632 -20.0385143095 3.5206058337 5.90716985805 -8.37371149688 
18.1059287067 -12.5873712237 -12.4102430382 1.38779133872 -4.20423622667 -8.70925542032 -10.4558485649 4.4018700966 8.64867823373 -9.69170666011 
7.0726253309 -14.8135586127 -16.400269404 0.554592376576 -2.96108644274 -7.20567845024 -6.59351430768 6.89791411103 6.28683660332 -3.99614459718 
11.7237014988 -19.629415391 -13.9186180269 -3.56345374503 -1.31565195633 -6.44591624918 -4.3655585813 5.8551718912 2.03950757777 -1.87447333859 
6.21681003465 -12.8525321256 -15.5584113652 -2.37216495592 -1.9862299243 -3.45808665277 -1.09049455312 8.60723490271 4.91100083781 0.93478850773 
2.81867277587 -17.3326061338 -11.8769337254 -4.0096026875 -1.94736287693 -4.83349067541 -4.27284240622 6.01356727895 7.33201764392 -3.72719562559 
-2.21197527144 -17.7861540758 -11.5212130998 -3.05600417673 -0.0556582607845 -1.01996393841 -2.87657710307 2.30866154658 5.58248616381 -0.497671016935 
-5.55107647118 -16.2555721018 -16.5283744423 -4.86297542016 0.293340383269 -2.69265517693 -3.57705363342 1.9545868152 -2.15634545055 -0.374474162469 
-5.51551967718 -18.3388672546 -7.17008695202 -5.18443990818 -0.362507838459 -1.98090014871 -3.39040000351 -0.81275858049 0.374215421152 2.39913488378 
-10.8438875845 -19.6358430209 4.98732905998 -3.67520217321 -0.708974678721 -1.78022705787 -0.899065791878 -6.30914228199 -7.00653580173 3.44771481264 
-10.9334490857 -21.6379539829 8.73580430265 1.12798021652 -3.47256893292 0.0380265610002 -3.91345283818 -5.94839859898 -6.81276724993 4.8035066773 
-16.2574059474 -21.926831043 0.0594843875277 -4.71767795309 -7.45152283037 -3.22309769977 0.551026720701 -3.44739929438 -7.00648322584 9.62120407298 
-15.2848217906 -21.6894095989 5.57100731385 -1.44970793097 -12.4809227581 -4.0644245127 2.3094701156 -10.3481524792 0.733941517596 9.03542151438 
-17.9059305753 -22.6409743407 5.25227659158 -3.06208746062 -12.2769601077 -3.05130742926 0.790393063908 -7.88105970003 0.140584389325 13.6116425893 
-19.9543564843 -19.6586982294 7.98348247361 0.867693240579 -15.8867237655 -0.274385357594 0.387320538507 -7.08088097139 0.835073086908 11.2244816809 
