22.0153905502 -11.6328501218 -3.54091884347 17.315264734 7.15305682708 16.0968656602 -1.92037505766 9.54361277367 -15.1111035852 3.05934257145 
20.3200264834 -9.72330016065 -1.50795852773 15.7788479554 0.461800794553 10.7406909641 0.925221561254 9.6179298791 -10.5067178541 1.34667548552 
16.5894335322 -8.31118319627 4.45955178116 9.25258919844 -3.96028755887 1.1518955563 -1.8514467659 9.42403916969 -3.08810490068 -3.32514195732 
17.4407431151 -8.25158677515 6.96502216652 10.0911203259 -11.6295003188 -6.72278286563 -6.711435209 9.94429019606 2.61469931625 -0.9169059484 
14.7431610987 -5.77532285189 12.6685764954 2.57812855719 -11.266389529 -8.53197302127 -5.48625568531 8.89342537071 0.160866194215 -0.419044580335 
10.6989188397 -8.11609739291 15.1191116779 1.08728208129 -7.5155857499 -3.44481328488 -5.93953147503 5.09352013554 -2.02975204523 -0.327054974145 
7.8811791907 -7.13842029427 16.0650787281 -5.49842238464 -3.20946230551 3.2219161719 -3.17652540939 6.06767174722 2.70028125608 -1.36941788802 
10.1658254303 -8.87910888442 17.699293686 -4.31316504469 -6.86301690708 2.4274430945 -1.09934320979 3.88258905852 1.12780586678 -2.72575781669 
7.01788092803 -9.39244436174 16.4674190073 -2.73102936754 -1.89524934453 5.60513023468 2.05937312495 -0.0239464995215 5.83919034582 -1.97982802632 
3.50168324425 -9.88730183491 18.7963028037 1.36632869107 3.8919234916 8.08749104996 -1.75132761457 -3.80095643475 4.89579919993 -1.17149696469 
-1.07360843102 -7.93840094584 17.2066933069 2.27963950358 1.53202882154 -2.90342892052 -1.89828096048 -4.72246678371 4.48962838781 4.14749406816 
-5.30234291986 -2.73730916457 14.3928672776 5.52556644801 1.67215146759 -1.52588213518 2.88471961555 -8.25945968148 8.48721161827 5.60782053736 
-1.8430374218 -5.65644667891 15.4997337628 1.79900232963 7.45640061186 -2.26253272251 -1.86637709219 -4.36849892438 7.27844458121 5.40341294565 
-7.75299065312 -8.87044994456 13.8546526217 5.57298971438 8.48771098876 0.278066120607 2.79804524249 -5.96768834483 8.52065791325 1.13910133123 
-8.89796095909 -4.04958194206 13.2308766579 8.59127364133 6.52077465633 -0.835821916806 4.07194630808 -3.41324528314 5.7816113364 3.37520735663 
-15.136329836 2.36249852344 13.080978992 10.3276462316 6.25363670947 2.19252481329 2.72039004693 -5.46265358031 -0.18153541933 1.87680100185 
-8.78196847286 -12.6575955725 13.0310584486 14.7887920457 12.6672216925 1.15078565003 -1.33761361346 -6.60409667668 -1.42386412513 -0.365859757869 
-13.7472181345 -12.4783297184 12.0305134014 14.144204291 8.69618137956 1.11968344843 0.932307527872 -1.19436108383 -3.50077208093 -0.624796022024 
-17.6811559992 -9.67536925797 7.89113516946 16.7590754406 6.23541103915 3.92484741392 3.87176868645 -1.07176027502 -8.33208587173 -2.91920184945 
-15.948291067 -8.53940818167 6.00168725841 15.5160187487 4.05987888298 3.97402881648 0.834346726002 -1.96659712195 -6.88288105092 2.56263602448 
-13.8753125051 -7.14057940774 2.74357038601 19.8319317994 0.10339299885 1.61474894201 0.894967005179 -4.49010777514 -5.9928982933 -0.503642536182 
-14.7163514602 -3.34346308844 -0.770235078289 12.7630780505 -3.54604607288 -3.61184484839 0.271532989348 -2.26683650706 -5.77866761522 0.937471184302 
-17.8158360226 2.68582447531 -3.7444915063 14.9082337169 -7.27411307573 0.870463051169 -0.983804373095 -2.23715333638 -5.05739541364 4.1076590796 
-18.8934271753 -5.58965188766 -7.43215537653 14.6479739453 0.542647726213 7.52872013737 -2.71441479367 3.81361619438 -4.0754706822 6.90633048838 
-19.0545302794 -5.29302528356 -7.2718219154 9.80872853793 -3.13856860144 10.6240132221 -2.87782887122 8.35919349777 -5.9870587031 6.17123953727 
-22.2158552932 5.06809181273 -11.4393239342 3.78978310787 -5.96648449462 14.5558282541 -7.48157134088 6.42194319422 -1.39281197033 14.3759342257 
-21.147749114 12.9675799093 -5.81251521329 0.962675274702 -6.03124562424 16.3834522811 -5.53767152924 8.05688638714 -2.80707793576 11.7627505651 
-20.0802530254 15.9549648365 -4.75471643824 9.05534809958 -4.53586659948 14.9060936853 -9.99775191088 -0.189490738261 -1.16455655271 16.5817724379 
-22.0258072434 18.2703366725 -6.10333496047 3.78452047572 -6.08147535492 12.2477449747 -12.5915570118 -2.12409421419 -0.987791540462 14.5192020454 
-20.2309212713 22.3456411651 -4.08307137058 1.67559931581 -4.42093448474 7.97715974477 -13.7767750151 -1.12221165737 -3.6125761665 7.86494943649 
-14.1812140799 24.9625242686 -1.35941397089 9.76630357287 -2.71571491505 11.4655924311 -12.1049008649 -2.85302678464 -2.1050509869 4.67613727064 
-10.2420551486 27.5656955967 0.47623838571 8.47383807644 -5.14984910395 8.7134759641 -4.14882490796 -6.16220037216 -2.73773848945 4.79627862367 
-15.8646642347 29.3086159354 -1.40284829023 8.21703631868 -0.789610102898 3.09701675985 -1.0357539792 0.884657987036 -3.4837391682 -4.84320452298 
-16.5356271513 22.3979664764 -8.09813230734 4.03367253754 -20.5908617984 4.35599874212 -7.30146831531 1.18654606629 -1.61200575859 10.6487885384 
-16.6634492588 17.5287304504 -3.21223926423 2.33278966801 -15.0369338545 3.77220736385 -5.43816014794 6.54859241998 -0.0437109750281 9.91175075354 
-16.576626257 18.8456981727 -5.18346142028 4.35212584783 -14.745548682 5.27081493228 -2.63844202315 8.94891684916 2.32860284103 8.44124189802 
-16.3467673427 15.6236497081 -3.58505862931 7.01700365519 -13.7793039991 3.977274545 -6.90616753982 8.9111125857 2.9322377694 9.85709888591 
-16.8310902658 12.0629223529 -4.7810319075 -1.38471988069 -9.46987876191 7.91460477668 -7.27071518237 16.1716094623 6.73556144541 6.56748955107 
-17.1064216584 13.7603535637 -3.59727581827 -1.01707329098 -6.5133179103 9.57905970297 -4.191933301 18.1013272594 9.02203749427 4.10117570365 
-13.5147909101 12.5233774936 -3.31024470753 -0.281705013574 -7.97416177557 8.33243617795 -4.26076267892 16.4274953612 12.2651550533 2.82262297107 
-13.446472631 -11.3605600181 -10.0511316354 2.8756152966 -0.613674751352 9.30086803187 -7.67305198016 17.5075957779 6.25639023495 0.808859088943 
-17.6261508163 -11.6762199835 -15.0005983641 -0.42598890896 3.40339456 7.3604565966 -7.0365603742 14.7406838689 7.47046187869 -2.51941855673 
-18.9677327749 -12.9711050975 -12.2025087293 3.62215660072 4.89406363838 5.52127180977 -2.75995010077 13.8668705809 6.16123189765 -2.51766445747 
-21.0857162739 -15.0398979244 -17.0396401219 5.5640906792 4.55891604236 0.408114537231 -1.11197668708 8.02739890791 2.52824617422 1.19392654489 
-16.3151539528 -17.8680920522 -12.4079973592 8.50514169849 3.18398299385 1.14694416855 2.42496940379 8.58433782151 4.48348564124 -2.37606426043 
-14.8911325625 -22.6927926818 -11.4884980344 6.88159895666 4.14462579995 -0.105095414404 -0.889397125102 5.56149071167 -1.17796309523 -1.023527453 
-12.876903158 -20.5541724865 -10.1651787703 7.69065983488 4.38929975484 1.12735802456 2.06500730768 2.88779782223 0.652692761531 -4.80784854366 
-12.2207569389 -20.3613671806 -9.16342900893 9.72727238534 12.8412260767 4.68359546371 2.17913306697 -4.47136842542 2.29758648265 -7.39087529057 
-13.4386537809 -15.3451543583 -7.80622398779 7.58482803892 13.1926477 10.3095420636 2.45588858158 -5.24025111463 0.227010556881 -7.36179238785 
-16.0829672222 -14.2363473672 -8.03725260889 4.2825946753 13.2898874543 9.27245622964 3.3619280906 -8.2292357609 0.118244464303 -8.77565117334 
-14.884969467 -12.9611400076 -5.02316265684 1.2674619181 10.2213269847 4.3333237804 -0.577418756373 -11.8620455575 -3.96000875861 -8.28069482416 
-9.49835090756 -12.1115805398 -2.26224029685 -2.30172001485 0.354711478574 0.243285722859 -6.30620173577 -12.2561432369 -1.25235832306 -4.49071184063 
-5.50036550652 -13.0329641957 -3.90259233082 -3.68525957128 -5.31453520819 -1.46188934137 -11.1279415459 -9.31526258092 -3.60988787325 -4.0080071519 
-3.74083868017 -16.1705868708 -0.960490043758 -5.44672150767 -4.17179857472 7.50673448215 -12.3714977965 -6.74842125857 -4.24970764529 -1.41527972999 
1.56198641496 -15.4348351816 -1.90853480127 -12.0176685001 -5.8132691693 10.7374015765 -13.5504083133 -3.91326591763 -2.77522931477 -2.24902874232 
4.44831867371 -18.3237442052 -2.16759163083 -6.81033570034 -8.62434157736 7.53524439747 -12.7159988262 -4.54925385872 -5.27971837786 -0.834516198811 
2.13062104914 -12.4513782224 4.84186851438 -8.75209070727 -10.2063876081 1.5579960489 -8.21856402827 -6.55941040601 -7.01856221299 3.17383722701 
4.96883412528 -12.8515787974 4.21572227262 -12.3466219659 -13.798579531 -2.24371768719 -8.17758230527 -2.60520416904 -3.05505309555 1.32152986712 
2.97222976814 -10.5457042284 6.11673053342 -5.65733582658 -14.2488643367 -3.43081121626 -5.29072313143 -1.01989335561 -4.31416094917 1.86033850887 
3.38791328842 -7.175543005 3.86582602777 -7.63009903928 -15.8027109347 -5.27297070982 -4.01611283502 -1.94938537115 -3.08673078747 2.77304079048 
2.785479388 2.04399223447 7.85224502547 -9.8233395236 -10.8219467032 -5.48675331357 -1.68238798293 -4.73234807093 3.23703573481 5.65523853894 
4.31228613484 2.08659405457 7.10496084111 -9.97061980597 -8.17838799174 -3.34407963546 -1.96204984945 -0.684109132621 0.929071542472 2.07434638284 
6.07677445695 -1.55292165443 3.32201968089 -2.06662281277 -10.5836458452 -2.92763119034 -0.251517701332 0.184781392494 -1.33623257221 -2.1652953975 
10.058854268 -0.509068849254 6.27978583929 1.5459878132 -4.91788096819 0.786685315822 3.48132179136 0.585958664995 -0.0535337029206 -5.78881776121 
13.6826398951 2.98434084522 6.38231626118 -0.302302988023 -3.51918545121 -3.96615084096 -0.618269944522 0.800689278113 -0.311858569667 -6.14115920484 
24.2049252935 -7.41337251243 -3.39704347817 7.80984618397 -11.7719491543 -10.4626628012 -6.76319404882 -1.17890220443 -0.04026456889 -0.300687363674 
25.4641502721 -9.13709493619 -4.9778627438 8.58042258021 -8.95112581049 -1.05558466585 -7.47171685772 -2.44980353156 0.778532142241 -1.93396035248 
26.0814081394 -7.53598192351 -9.42005717441 10.4101796415 -12.2923800463 -6.50695818328 -4.67795346524 -4.39933061949 -3.40015786065 2.6805302112 
26.2777950625 -5.33664996961 -7.30557761149 11.5568191634 -6.35979921763 -1.21125593015 -6.8987017742 -4.3533072373 0.810438466648 6.54444879672 
24.2835403143 -4.80063579555 -6.86833147632 12.0543776312 -6.36473000934 -1.28592660861 -2.30961215012 -5.87929598151 1.42000718824 4.87159426224 
19.9384999034 1.16148440359 -5.38028472575 8.19650461439 0.900114128572 0.828906492922 -0.160038513981 -7.41342227638 1.87819327986 1.95184573076 
26.9049406451 -1.17590349889 -13.2474968656 12.2973503958 -2.53145112377 -2.24867144177 -2.73187857682 -2.60165261743 4.77648146353 1.71997024749 
25.6854257677 1.28956846707 -10.240370878 7.2061323306 4.63915210416 -6.39111122037 -3.68843506247 -5.02741356621 5.05734210492 -0.592570659955 
25.6429550381 3.17123019086 -11.4928446528 9.61110480947 7.83959928567 1.18832603519 -6.75335789529 -6.54147798811 4.25672760928 -2.32302337895 
19.8564095477 6.47238419616 -10.5755264403 6.84352108269 10.4161679326 3.83493928947 -5.44661849112 -7.36121550665 0.887143746589 0.0627327236036 
19.7408459803 5.38002615918 -6.98187576823 0.2516187895 11.0966405664 1.67960942708 -7.7990985011 -5.36472781132 1.47521593754 0.594735265623 
18.7874859134 12.0783669124 -7.85429621214 -1.83092548753 12.9150643684 4.30941874358 -7.79661018878 -4.89290609631 -0.972544938876 -0.972197257638 
13.031018721 13.4147874178 -2.84977511632 -3.71472629983 12.7819260872 6.82881042277 -0.443588515968 -0.273965361196 -5.00791982934 -0.858714965774 
11.6051347531 14.2621832265 -0.74377665536 -8.63066111796 13.9859693545 2.03954149315 2.11323367146 -0.934834568267 -8.20995962238 -1.37788743208 
9.91566556556 13.3630921686 5.22609263858 -9.89497481245 7.33631681355 -1.50070301749 6.72882062586 -1.87230241495 -9.27043116488 -0.383491022266 
11.0244784817 18.093404174 4.53760514946 -2.6496911065 5.12550108365 -1.57544013037 4.50741993392 -4.09045963814 -1.02893424648 4.13132382724 
10.2468679586 17.9886039853 2.21158275947 1.65481190486 4.08965260782 -5.34079471366 5.51323868519 -1.75238449238 0.351011059804 2.63887295106 
19.444391237 11.8204379097 -2.856134976 5.940348427 1.07915761829 -7.4237205173 5.75220960513 4.50017594096 -2.09188023699 4.81445870407 
25.3198057214 6.09795126481 -2.06641725239 8.21361323714 2.64594013053 -5.233213946 -1.06368223122 2.79332497156 4.84465082793 5.02602135743 
24.6303991387 6.17095299332 1.02155863824 6.1867532228 6.58729330783 -2.8508219558 -4.5174117613 -0.4424603997 5.6771622241 3.95012045378 
27.6934692159 -1.93949409643 -0.00919310339791 10.0559495041 7.37115452344 0.513209133754 -7.05403818413 -0.331338680898 5.95612744555 5.40770347973 
29.1162911359 -3.69025983235 -6.07264106953 15.7044764392 4.15958681728 -0.911984259948 -6.27443675328 -1.68395379875 8.35063893413 5.98469691247 
27.3585786087 -4.04425012246 -2.07861168948 14.3064201748 -1.06252337192 2.34033549452 -7.36835552397 1.09673830961 9.92160006904 3.33230490232 
19.1021173207 -3.07735413518 0.640621394786 8.96369543207 0.295388708803 10.8401963041 -1.25267164609 5.0733782823 5.86303584556 0.401944615917 
20.2234174471 -5.66070204221 5.48106036604 6.28950398251 -2.08311681703 -0.228292321635 -0.438855539094 2.7797086414 2.93052698057 -2.36902779671 
20.145585407 -6.73461305938 4.99816581534 9.15924991902 -0.959916650752 4.18824446149 -5.22844976981 4.03086296334 1.7805421421 -2.67380184169 
14.8758624109 -6.18703229963 9.83236426538 6.3037239772 -0.369006275093 4.7532058623 0.541290258517 9.14821669079 -4.74129553485 -6.31766374889 
14.6600763152 -6.19687871595 10.759042824 8.30974800382 -7.05640794193 0.391634602543 1.59373314873 10.503245395 -4.07212436491 -6.21357914429 
11.1591947337 -7.42854733003 16.3758402896 4.9643041681 -9.15800290344 -3.12911251097 0.0951844140296 3.94131663942 0.0614191441824 -5.02817949172 
9.3785920164 -8.73443307822 16.7408186694 0.328368305311 -7.36911479778 -8.16422248872 1.31576005616 2.85369832243 -0.988448647536 -3.36642878904 
7.79478754896 -7.83615400208 13.0089717843 -5.01011270267 -10.9690067662 -6.84441530274 0.849444561001 4.5560315182 -3.24260032182 -1.14745104349 
4.39993977224 -9.62861144681 16.1691376436 -4.70073324479 -4.90360255184 -1.68725585128 -2.77649722365 5.88775299966 0.941758587593 -0.286248176327 
2.65693060149 -10.1792422199 17.841666726 -3.23705107734 -1.07291543874 3.26951080979 -2.83037386994 4.28574671288 5.19545476952 -0.877231609998 
2.47920157032 -11.7389916778 16.8704561496 -3.18701484197 -1.44187968824 -1.31183471379 -1.17451489646 3.03353750229 6.64412421498 1.3372054507 
2.08523019517 -10.1841275845 15.3294088768 -0.728205426017 -3.35619649191 -2.18774285416 -1.73175629319 2.17414835682 8.75167592171 3.40444496779 
-5.38180488813 -8.84148047149 15.2668686883 5.02651128996 2.06872948148 -2.52591551679 2.69862317347 2.31097445228 8.60193315678 0.740605167041 
-9.38716603151 -8.5068705828 11.3413158743 11.1922069166 -2.17621976079 -0.516884880475 6.08350630144 3.50956448808 7.46188145268 0.595388345026 
-11.6729904411 -11.6573487432 12.552864157 9.6780969911 0.720973752932 2.28408116286 0.455556806052 2.74810469868 5.21253538074 0.165042417367 
-11.0872131569 -8.58371585804 8.82793124691 10.2596154813 4.41100861889 -1.93547450195 3.67545990782 0.861942437622 6.90821471024 -0.104813633536 
-10.618578015 -8.99834741185 6.12709633168 10.5945539735 0.559933906584 -2.1550836029 5.33848730164 2.27531117957 5.00302777932 2.36405143457 
-12.9286711024 -8.87605238355 2.047798582 9.62656438585 -5.88325692585 -3.89832648119 5.97563854507 4.9195832344 1.67556924084 2.19729085267 
-10.5698074789 -11.1743867261 -1.6043810483 16.5053435153 -0.263621672042 -2.67143792431 3.97427295382 0.535868294195 2.90982623153 -3.0353214249 
-10.1306149866 -6.81256047467 0.174434917596 21.8814440376 5.39913665207 -3.31350290972 0.758260192932 -4.76722513234 0.346155420288 1.13338987862 
-13.5560973834 -3.40523371845 0.716757029582 13.5818003277 5.83857931994 -6.56688104418 -2.16365789845 -1.419651004 -3.0141902502 3.1744377181 
-17.2645288461 7.53990844522 0.968654401832 9.34079528853 3.76470469405 -0.925610972536 1.1889338657 -0.353532251005 -3.61202918802 -0.315441032846 
-15.0518920634 7.37257210643 2.70806450748 -0.453722879916 -2.12564917824 -2.69340363455 -5.602731562 6.95161943337 -8.02881512276 4.26098055302 
-20.3022578939 14.3390766034 1.16191177992 -2.67664466043 -4.39612623128 2.64052391278 -9.90092177205 2.78008120822 -1.33427850737 9.53859061557 
-18.2140384892 16.6642181751 -1.44101003818 -4.74286674416 -8.60497162611 1.35133954417 -12.7643734453 -2.54881705065 4.15507717344 12.2971709507 
-14.6889638317 20.7505093065 -1.64439815095 2.02587869079 -11.7896790947 4.69060354341 -14.3895867986 -4.2433238447 7.94585043763 15.4009087682 
-13.5145975655 17.9676870841 4.54451922325 0.0482024816207 -10.1627690808 0.792315533753 -9.93923168164 -1.09182087773 7.08510581946 8.62924868535 
-15.4349581167 24.6135931852 4.74331081541 -4.45717881442 -10.7581240269 3.08034739754 -7.33657424761 -1.28578763676 3.37357993173 3.91127023951 
-9.02798399084 29.6753469413 1.20517450828 2.2631580898 -9.41409427473 4.60480811852 -2.31667722203 -8.56535892287 -2.02432097894 1.33864691911 
-15.15311668 31.8827502633 0.656006383343 1.0621454639 -7.99078222449 1.80829892945 -5.70543723644 -4.29694205881 0.846673905176 1.39057856062 
-17.265637973 28.8734440608 0.546784057401 5.73957154383 -7.07155655432 -3.08964653161 -3.81367411609 -3.7163042707 3.97240588912 0.85600016563 
-16.4514200749 21.7601577131 2.81382809325 0.516490560426 -1.43581744533 -4.21971708944 -0.418566880119 1.34587448271 1.07239966099 -1.37780766235 
-22.5525608392 18.0357694609 0.581950580262 -7.57766101883 1.91558712177 -5.50197514412 -5.5597342397 3.84666070891 -4.46364818276 -2.96855481907 
-22.1108732027 14.8694742178 -5.7200102934 -7.16240731643 -3.96582503253 -7.62789468306 -5.8728853784 5.42509600462 -6.16992564889 -3.30800010309 
-24.0097283681 7.02110127211 -6.68806924166 -4.89462880172 -5.25924335702 -8.39655908926 -7.49341995644 4.18343358038 -7.99271016657 -0.499821209641 
-24.4492777834 5.51560932033 -5.12189285804 -3.58314936784 -3.60019475742 -4.9245831593 -3.22887319499 4.16788215446 -6.84315729006 3.10347634771 
-23.4837754549 1.0977956909 -9.9332006494 4.23645133501 -4.51089760234 -2.46170076421 -9.01098204823 3.66699849179 -2.51808342263 5.02677676624 
-21.5403944923 -8.12116329184 -15.3570148917 -3.78799964628 -7.2198467925 -2.97895763476 -11.2567308239 2.308513758 -0.278613012025 2.49716755082 
-20.5086407384 -11.2813029318 -17.3702594234 4.14476482219 -2.02840709776 -0.202726601438 -7.05657448139 0.621303492139 -0.603900017011 -3.28716529603 
-16.232343558 -18.4036331188 -21.0131589942 3.60200101412 -6.68994740019 -4.63522358686 -0.350533093531 1.04653062515 2.01701892055 1.05763503635 
-13.2889504337 -21.4447723313 -17.6469875364 -1.69287283977 -0.345846906637 -1.88505388348 1.63175189002 2.95976901115 0.910568433491 -5.72786748724 
-11.8093812102 -17.4746676105 -13.1429971282 -8.62673473743 1.66542175276 0.831302625047 2.39063963428 8.87145842683 -3.90287065925 -3.11625542615 
-12.574456923 -15.6754712691 -13.4676081137 -3.81380441084 -0.219163616337 0.760678886842 3.34579594486 7.82839942432 -3.14309592246 2.0813700185 
-12.3736953951 -15.7561128865 -9.39392461543 -1.0776470788 2.00400760645 1.58739635758 -1.42151566142 3.97315065314 -6.46740375463 6.59589546572 
-12.1310971701 -18.2134110281 -10.362470684 -8.05882916214 7.20854240208 -1.15329525108 -4.05278279823 4.102318167 -8.23165069175 -1.34240751431 
-17.6742786556 -4.40924566373 -4.62830927322 -6.00364215594 5.65179732218 -4.07037904805 -1.60575498619 1.84827569415 1.82247461272 4.10071490991 
-18.7932569647 -7.54192111126 -4.54428359193 -4.60033412443 8.75577378513 1.316082584 -0.463494848219 -2.9426950209 1.72592128006 0.0658370311073 
-17.4698211672 -7.79905092936 -0.377538340394 -9.17171210208 9.25150658214 -0.76320917168 -1.91542017025 -1.37708480072 5.15799005696 -0.53647526679 
-14.1743281678 -8.59438682886 2.4872522519 -4.95729062875 2.80361256401 -3.67640938016 -1.7457525783 -2.02186723481 5.68965831961 5.38802812986 
-12.7715652361 -5.24218975484 7.41620783015 -2.27915943113 8.44787592853 7.36604424732 -4.45961969289 -2.06760243706 2.55268381546 2.24667064805 
-6.15577544409 -21.072781929 4.92228560767 1.58526027181 6.60009943056 7.12988790528 -4.98545548811 -3.79639064699 -4.50014026242 2.00395578002 
-3.06284281604 -17.0621285642 7.40357825224 -2.8118466899 -0.787619131729 1.31610526243 -4.74977510759 -3.06154691748 -0.671557323753 0.850043576931 
2.11529048211 -14.8475194935 -0.519286090643 -4.37934507592 -4.83842599563 -4.59224437898 -6.78383096641 -5.14107952773 1.02692228757 -0.965194521886 
3.29402830668 -12.1562443988 3.67738206774 -4.91243890624 -0.454533795656 -7.74396855608 -2.11797538637 -10.0237253197 5.20342504638 -3.16018346968 
4.73622321134 -12.5513389307 1.29295099138 -6.37881848158 -0.572845299566 -6.11277219381 -1.70526314376 -10.6402221841 4.86142031559 -1.133457539 
5.10259837441 -9.84792277179 5.35838795822 -7.56402498323 -7.20642360824 -4.60495686511 -2.57594229987 -9.13134557822 5.38798107453 1.41323865391 
6.22458926394 -7.8680500313 10.2521667845 -11.3874917776 -5.16267537687 -4.87034322737 -6.58633795185 -6.48967768386 5.8970088405 0.416021361155 
3.43868866069 -10.3474414771 7.13477049046 -12.5866499523 -3.4982993273 -2.68691160967 -5.73895342468 -7.43921705579 4.51867567372 -4.06222384655 
3.67710708514 -7.38905887833 5.59484746892 -11.3226141144 -7.71639872842 1.89944497755 -3.72387707822 -2.21570888984 0.312507620816 -0.511524340813 
11.7815819332 -3.43122175909 7.86154393443 -10.5022736644 -6.13944598141 -0.3722244795 -3.01627062799 -1.56285798839 6.97838361339 -4.43999011703 
14.1358641476 -4.81628681047 7.19290714083 -5.82533328632 -4.9314664838 3.85440868896 -3.48952574733 -0.44393426512 6.04547171557 -6.78703011262 
10.8463282032 -6.33428630727 3.00753623611 -1.09221533578 -4.57639592213 9.22413917025 -1.38770070502 0.166870254895 3.38748110508 -8.84865480432 
13.9582084084 -9.15517190316 -1.17034172582 5.86934987591 0.202583361404 15.5638895351 -1.35939156333 5.64107435153 3.51172766054 -9.60678833153 
17.634881398 -12.5303661254 -8.25531039078 14.0296701985 -6.80284653788 10.374274371 -1.82545192367 3.15241836361 2.7601663888 -6.59745656638 
18.1240529387 -9.69844640774 -7.15485567205 10.2204261287 -3.19421224989 -3.00403637 -6.19655632872 0.322141407496 -0.775159836776 -6.14393504803 
20.5203921058 -8.8939788969 -10.0303369698 10.5930936749 -6.58221045227 -9.47898436384 -2.51582413018 -5.2070012992 -4.71264583 -3.31877707938 
21.9943003678 -8.10370823505 -13.0577863834 11.0566826321 -9.1656827206 -13.6563180052 -5.53217397315 -5.96571757518 -5.6547852025 -1.18003506163 
20.5046221555 -5.25180279161 -12.5664094897 6.76114612665 -7.66784221254 -9.87596865684 -1.35003733483 -4.74850094649 -3.07426066894 -4.52091158999 
21.9834411862 -3.5114314364 -7.43746478339 4.46914766937 -1.11157436571 -6.66099694377 -1.84149343179 -8.85571182756 1.511776214 -2.7175551685 
19.9683053312 2.03640673713 -4.11331199775 7.4021744213 0.277928708747 -8.41532552318 -3.30361164028 -7.84990904155 1.55739554312 1.47728042409 
17.2570480949 4.84786534789 1.90108702009 2.9879900752 3.16214582507 5.33379461717 -3.09238192535 -3.17338576524 5.91608061601 -0.0874782320776 
20.0476466681 5.50779691186 -3.01070155848 0.991334182994 7.82979343412 7.46271041314 -0.823668881085 -4.28380350577 6.75111640811 0.870137955065 
17.7742649091 9.63824428162 -4.14451507775 3.32248496236 8.46399558882 7.08577838282 3.09106473426 -4.47406159456 3.18130683074 1.08181364949 
15.3675537234 9.82676412857 -4.59241344971 0.190769080777 7.81729796391 5.66088223404 2.71329396362 0.262129265259 -3.16226796768 -1.75902731228 
22.841933258 1.05082748978 -10.225998048 -0.280251001104 9.70876389991 -3.32928371132 -7.17446894027 -4.69142112128 -13.9963220707 5.20882433526 
20.2868715423 0.804654042336 -10.4851339517 -3.05336284013 5.12976037803 -2.69948165148 -0.501744458521 -7.48794096302 -12.7588136369 7.21163584662 
18.1777691297 3.49784650313 -10.3935450436 -7.85954778977 1.09868573807 -12.8173931866 1.1865760553 -5.77174306616 -14.345635827 4.1033133357 
19.2782460888 4.9220547468 -10.6125890921 -7.02976432123 1.78751554395 -12.2081465337 -0.340618459766 -6.83299218438 -10.1565211541 4.67854443223 
17.6327941783 6.05871244643 -9.91350625982 -6.98900083041 4.01039060049 -2.23704558859 2.95005281941 -5.04699267294 -6.91653104382 1.97806995167 
12.3702388753 10.586082614 -6.80794522445 -2.67391328899 3.84176850227 2.58370853813 5.65209367301 -0.422335018332 -3.24831176768 -3.26260735662 
15.5261965889 12.9127930259 -1.78150533276 -6.65053140394 5.44901034461 -0.806738011316 4.14610963571 -0.338903207997 0.089295218181 -2.30464192567 
16.0474732354 14.4408012092 -0.662102492716 -7.4022472594 6.00597978223 -1.23661957402 2.19204491888 3.2348121054 -0.614622356085 -4.01346719073 
13.558697533 19.5626247121 2.38315381785 -6.17081556678 5.18389454806 -1.80401479271 3.73220624252 -0.380266643804 0.118801818143 -2.403844723 
9.04373415332 19.5765370936 7.94875492732 -9.38649694453 9.38463203964 4.24236963456 0.924911082997 0.448662098794 1.0668123595 -0.756866551861 
10.1761837716 16.1273877965 12.4140270877 -8.67508327527 9.03669694743 -4.06507153831 1.80038607111 -4.07211450669 1.25053067566 1.29675397625 
12.1565896232 14.7830215739 10.0050604516 -3.19996531339 8.91607917037 -6.03385142883 0.173406393422 0.727900604295 5.73529701396 -0.0309872048169 
13.723206105 13.3645190241 4.0834330062 0.944235430905 8.58704298202 -4.02351968036 0.193627755004 4.24054820471 4.6362503984 2.74960459614 
18.4080624408 8.25304150872 0.535345596553 1.07176405668 4.37602190533 -10.5343995099 0.874806936173 5.00410875872 1.35131113039 5.40912754443 
20.1620597813 2.74654454251 0.232268863888 -2.85338219544 5.0969185507 -5.89138746083 1.73550404584 3.54498227099 0.324828389651 5.75908544899 
23.8620177053 2.46885171985 -4.70309409447 2.65647199638 0.585622412271 -0.577326971408 2.57843501648 4.16643326347 -0.0624247725439 4.77150468047 
25.3203761186 1.5543511867 -5.30769620628 6.64557798532 3.37644826616 0.529673292604 3.44998952784 2.5918463174 0.00451052015768 3.12729446586 
31.2504296815 -0.807038950942 -7.13589325968 15.2826231342 -1.62570170989 -1.43495824392 -2.20971229076 2.66708729011 0.224840977043 5.63690408381 
29.3303803497 -5.43062764589 -2.42965341485 13.3788610422 3.91317867497 5.10227723168 -9.8125416847 7.56260099746 -0.676921657973 4.30400148246 
24.9004908085 -8.04672069866 0.619134431922 10.7533133201 3.05404081999 2.92430228623 -9.7964647709 9.04315127772 -3.00569046343 4.981174226 
20.5442577304 -0.417622323412 4.19753745732 12.8098335525 4.97852644954 5.02206077858 -4.17258856491 6.31091464388 -2.43522981193 1.87259324956 
18.18022004 -0.399275288109 7.17640098162 3.5107996495 2.91682624416 3.885892823 -2.5235142243 9.16963290673 -3.37281128029 -2.52904073215 
15.1936608996 -1.96601570389 6.92894090897 2.95321778542 0.906734558125 4.58832485716 -0.491946793911 5.81666047626 -0.651533822352 -4.77799416006 
13.6076386629 0.720616133133 7.30285542664 2.49008143392 0.922094077102 0.130724024656 -0.156401051848 6.13592804187 -2.67502360286 -5.065889384 
9.11378691304 3.04984759504 13.3516973126 -2.00919747697 0.445489561121 -0.301535034875 2.19106893127 5.40669157403 1.50592229537 -8.78589068632 
15.8584095281 -5.78946181262 11.3471624384 2.78701117272 -4.7772770762 0.181349378832 1.82540888903 6.55705449099 0.326469087892 -5.03851626885 
10.6586321098 -6.81305951163 13.5129338084 1.76221042148 -4.48451833713 -0.934745885666 3.57598349262 4.30272590564 -2.02472532917 -2.83855518823 
7.89215023079 -4.90766169574 15.3073008849 -4.19864128345 -6.13517450387 -2.88984306603 5.43267703827 3.26777455093 1.41278083739 -2.89714573398 
4.04056007939 -1.19870419094 15.8645297345 -9.95238123916 -5.69930856121 -0.706314735304 3.53850264931 1.36354325903 -0.254833119506 2.15042400956 
1.331136025 -4.34752700946 19.2895991053 -12.0429190345 -3.42482496445 5.52523628016 0.530833233127 1.6583312788 2.09107272645 2.12506915049 
-2.36160291838 -7.30502822752 19.112404571 -7.47630106845 3.6978812252 5.56446952922 0.416469501414 -2.1753259447 3.30024367204 4.62982776213 
-1.81460521335 -7.65719716742 19.2041114387 -7.29876134478 3.21874379181 6.71503696908 -0.453566826056 -0.0695413625209 4.03154762297 2.76043487247 
-3.57200321171 -7.0569701468 19.3357064897 -2.15667596684 6.16668284372 0.343022730922 -1.92111880539 -1.52636213201 2.92280744514 4.94999597789 
-6.22154717468 -7.12645905189 20.4258335208 -1.12830191998 5.84424035119 -0.0114771857529 -1.7788866762 -1.56984149566 3.97197368712 0.836480865423 
-6.8457837443 -8.85233768104 19.6416086494 2.81011545185 9.4717116372 0.501128075015 -4.85094292204 -3.32973748646 2.73813522637 0.110695866574 
-8.58523049648 -8.51821407079 18.7782636044 8.63972075 9.91120595826 2.06574648478 -5.8947186813 -3.5614954731 3.80486885195 2.26765568135 
-18.7995710869 -9.69622606978 9.58224679919 6.04424426538 6.64604379959 1.98404374384 -1.62878650462 -1.22464060204 1.96072826665 3.16985884777 
-17.8966204021 -9.68820370627 4.17764761603 7.47353246569 2.59711488843 0.8672193005 0.251014106808 -0.0610048431907 6.37153515736 1.91160436706 
-20.8327824976 -5.78413883353 1.36870937245 9.61347194315 2.1630050603 -1.45457972017 0.443252934426 -2.00952005009 3.74290205978 2.83809438859 
-16.5063279679 -4.61005943784 -0.30251115971 13.9008354112 -3.35303112966 -5.04475815484 5.38672300968 -0.257505899701 1.92575610748 -0.251461415749 
-15.6111866568 -3.76085880355 -1.45795163754 19.5718267939 -3.54399344785 -5.94802940234 3.73793188298 -3.10007361647 -1.45973656617 2.14810824239 
-13.3895318533 -3.72515434177 -0.800175322318 20.5889226463 -1.70294446809 -9.50517640487 -1.11931903127 -3.21501879382 0.74537499885 0.411384720578 
-16.8974495384 -3.05675183538 -0.721605784245 13.0497060719 -0.20918561886 -3.76405410766 -2.50938820258 -2.39436868212 -2.28196408177 -3.09017519622 
-17.3844959423 -2.89416214569 -2.56366229797 13.1414308052 6.48159457042 -0.544429163834 -3.64765357037 -4.20617077934 -2.57968406513 -4.94512373088 
-20.5678206497 7.85576183647 -2.07867881955 9.9979677529 6.71574263273 2.56634127109 -4.76923314564 -1.5169437968 -3.63550127125 -8.72800852848 
-18.0882252876 12.8517608942 -1.75838638427 5.40990634148 2.6743941807 4.1489177199 -4.50287313848 1.2921665193 0.419243081237 -4.74636981594 
-12.6072943303 14.6376846139 3.96533946317 1.23105201175 -1.05412689377 0.292300317697 -14.8788517586 -1.45914835447 6.09398984613 -6.68869511654 
-10.2330817918 18.4144745117 6.76585848954 -0.18280422354 -2.35822293187 -0.468720616158 -20.5449299168 -3.23781713703 13.7012431116 -4.1783075625 
-10.1772622584 19.5094291264 8.52311137224 -0.647201278361 -2.39885504552 4.19402595104 -19.039455889 -3.08681108437 11.2680874619 -1.71786031414 
-11.5314274009 12.3134073393 6.71468749031 4.38072162487 -3.55718846809 3.53325111703 -13.2572042593 -6.33480180514 9.07568748867 2.24823768209 
-13.1073581768 17.3105591469 4.29507682176 5.04995263699 -6.07167752917 4.89670976299 -15.6286400148 -3.8085736323 11.4355730688 3.9531867658 
-11.6718557225 19.7617750362 0.831366099844 1.45281458973 -8.74160194013 9.76903048119 -6.68020924258 -3.13752984097 7.54367119374 1.15611401826 
-7.75989624496 19.3698015262 1.6489649828 7.53464964985 -5.00142492914 8.29780913869 0.569694435801 -3.52628036224 6.22064222411 1.95134572476 
-10.4365844226 15.2228467603 0.938039424448 6.18413563493 -9.83189042959 9.34604884216 4.65015227974 -0.32557173612 2.16578531194 4.91780155077 
-14.5866746734 23.5777126307 -3.93891429149 -0.231816821407 -8.64154861815 5.40678210175 1.09375148146 -1.13313972059 2.34923776443 6.16463824374 
-16.1795023078 26.6502311685 -2.6127167646 -1.69774634692 -9.75676814582 -1.27078984845 1.7243672434 -3.78118218044 -0.160973536785 2.12752303232 
-14.0308891401 22.2231819065 1.7896335521 1.42398461898 -1.77103598101 -4.03832730087 1.00178831291 -6.61811033704 5.01778635353 -6.80384230434 
-7.80991104744 21.4000160652 6.96312268858 -0.340572990769 -2.08452368105 -9.3554609034 -3.4759428573 -1.76486973586 8.02718225112 -7.16779489794 
-12.6652541855 12.5786604087 2.18290079572 -3.54540627093 -2.57288246007 -16.6408945157 -3.59421058199 3.44783748918 2.27585469165 -5.84936477518 
-15.227131027 4.40151958848 4.41923390877 4.62626357023 -8.37505542658 -17.7791888863 -3.5405198745 1.859395569 7.00269261662 -3.04172000532 
-12.0126162967 -2.34268333337 4.12342727863 10.5020907496 -5.3475359884 -18.7944502367 -5.42758832274 0.332620038847 1.68061512809 -2.77198372651 
-18.044609764 -9.41460810472 -2.86829847921 5.09621488986 -7.38430455847 -16.6104389342 -2.90059867843 3.15467426121 -1.56149979789 -2.51294096198 
-21.1145013354 -7.35532674565 -7.17594634228 -2.67605861702 -9.44289686958 -12.0112361489 -4.41400096102 6.53615838277 0.612349454764 1.08933777963 
-24.2579611785 -10.3503407738 -14.104276405 1.82078077854 -6.2058543939 -5.03263220907 -1.63656168933 4.53493992025 0.352748182006 0.635335515597 
-22.3573093322 -10.8743721894 -14.8354603943 2.54621021384 1.36107304485 -5.06792496485 -1.84855018129 4.36621252355 -1.86144181403 -1.20420672894 
-29.5568204625 -12.3557822765 -19.4369976882 -5.05692958215 3.68470657429 -3.77705173086 -6.56594407245 4.03576597976 -5.60970944537 -2.29413241715 
-25.080301991 -13.3169434605 -16.5626061922 -12.1915813163 8.37535575054 -5.92461915163 -6.9535209019 4.64189967035 -5.08787135842 -5.23243000206 
-23.6389407359 -11.0786434835 -17.5618976671 -10.3377288674 6.80544781657 -7.07913050487 -4.36832123747 5.31258568154 -7.12402346819 -4.99780268787 
-20.7690850999 -15.3630491102 -8.09878013308 -5.83062339108 10.0051144613 -2.214385429 -2.8898882143 3.00068305298 -5.50982615285 -5.95543384588 
-24.8019723807 2.42869261859 -2.90763198823 -8.08649650318 6.39165474874 -2.79609300861 -2.19054621908 2.1644711786 -1.8185833176 -0.995139153242 
-23.3573606629 -5.43490651506 -4.40513560275 1.43374683686 5.88900194877 -6.24569659633 -0.596826385854 -6.02120854892 3.82224742073 0.198255983541 
-12.5411662596 -6.70768906049 0.487614022927 7.04192601665 -0.40963063299 -7.48112464612 -0.0375746742542 -6.26972456112 1.72892666634 3.57595581082 
-12.9651586925 -6.5547971782 2.00525066273 -1.26002159256 4.33138103736 -2.39067132561 -1.42551122416 -8.13801340856 5.34991857157 3.42371282892 
-13.5098770564 -2.14731405189 2.58611386131 -5.58728041268 -1.96404436015 -2.09376810778 -2.41702470213 -4.6436739194 8.37250771941 3.8984540218 
-7.23267811252 -17.2520527302 -4.36292068588 -2.72142689449 5.97422077288 -0.535859881861 -4.57687469401 -6.8361019207 3.3535237809 -1.8189081144 
-4.1531233771 -20.5020471822 -1.61981023882 -4.68043393255 5.52753902264 2.84508622205 -2.36878373301 -5.59159729758 6.74316600514 -4.06306107799 
-4.79966898879 -16.7093965906 1.30526369446 -8.41329734427 4.9943781173 4.80194164611 -1.28928891244 -8.30850500924 5.7344567802 -0.599027144963 
-8.11936983115 -11.0104240842 4.20150708311 -15.7668439108 -1.92514129444 -0.134229991812 1.8817788031 -6.46644760573 6.18614519998 -0.652160152363 
0.593457815916 -8.99690245682 9.25821874297 -10.826696398 -2.27203977986 -0.112020857969 -0.546938225136 -6.36502607549 4.94496928018 1.34747442471 
-1.54255608083 -4.25077101729 10.0414460033 -13.4672450923 -4.31837629609 -3.99696946724 1.36537539375 -5.55486347541 -1.55345595326 0.399612253991 
0.283897713177 -8.94717133501 6.12461320835 -13.5196916662 -5.71919951789 -6.15098539282 -1.82017725466 -6.57038710452 -2.68741392913 -2.28002988776 
8.06709118148 -8.74382902421 5.41181009854 -8.51158064171 -9.02450286256 -5.79887148848 -4.60805965832 -2.44568292451 -1.45857957821 1.45556399505 
11.122461949 -7.04468260289 5.22964503884 -5.77877984809 -5.30591249836 -8.63664012346 -5.55843639685 -4.26363417743 -0.217093581151 -2.08355718663 
13.7180024107 -8.30812210649 3.3940293926 -4.00371326667 -9.67780028435 -4.53497132417 1.32152167835 -1.55677312923 -1.04016371704 -1.66420482806 
11.2280719432 -5.81138758508 0.289268585387 -4.13278958705 -11.6376293914 0.195410511461 4.15287167664 0.866244938067 2.77383058056 -2.51977942757 
15.0337697544 -3.35197250817 -2.2542219963 -0.347035388005 -13.9406689853 2.08257760036 7.81880730678 1.34233256894 3.39268835549 -4.14606033291 
10.0310464662 -3.70034619316 -3.67166941907 -0.216855711482 -10.4982163059 8.30313211206 10.9085236742 1.84640490001 4.65547702098 -4.06840276575 
19.2175421201 -8.88325511034 -11.0576214158 7.64402835028 -11.8455614638 4.91851180247 7.27944740444 -1.60226261613 1.90243866357 -2.74372253803 
17.91484081 -5.2301851637 -9.90164825599 5.88366309848 -10.2067237234 3.72575789638 5.93644265322 0.850609558652 5.0676686906 -3.82599371282 
14.4677494829 -4.32215462154 -3.66283657858 -0.415117315544 -2.00590673817 7.37206181531 6.10358198365 1.7711135964 1.6826204408 -5.88931787628 
12.8740096771 -5.23862593384 -4.04824408753 2.88638455052 3.31167671782 13.1520144324 6.52812393703 -1.18657396161 -1.91825978586 -5.24338557514 
10.0138617716 -5.41246066472 -0.235804070343 -4.50162284407 2.81912815512 9.56738650897 4.74135009325 -4.44640487991 -0.0857603131514 -1.45412679716 
12.3051634589 -8.40921218206 -2.30453393685 -1.78882600443 -1.6565339096 13.5962202134 4.6040415663 -3.30989591522 5.28646671391 2.40688065744 
6.88017527254 3.74362771158 0.347690661427 -5.27310280606 -0.510681706032 11.0501530097 4.2478280403 -0.583589136022 8.26634066358 1.01341720559 
13.1799531889 3.38772748788 -6.56435627027 2.45840111952 4.53449563579 8.79014690283 0.00345273831142 -4.05885921455 7.7729793091 -3.54549742446 
19.4273745645 3.58600040356 -10.8992775857 5.47821116767 8.96249193888 4.64028175222 -1.60633774977 -7.22716195859 10.9229971092 -2.14198994275 
20.8461335257 6.1248906552 -7.10180937846 2.86723740794 6.63590348777 -2.26991415066 -3.53657765271 -5.48183880579 6.92177908474 -1.01869145554 
25.0024247442 7.207536553 -12.4364472304 3.42101079893 5.60662169171 -1.28642449127 -0.562001113176 -1.76471340193 4.64629332405 1.8823022606 
23.7194186607 4.0881397456 -14.4982058515 0.491049949304 4.3263812086 3.19619066072 2.83648573685 -3.41889983493 8.55029798409 -0.437290572305 
25.1271488359 4.42603376731 -19.3465497974 2.67671380842 1.29881906731 4.10919844469 3.77088851318 1.09743776609 3.19855594078 1.27081267585 
22.0651028897 7.2146660362 -14.1900976942 -3.25323268492 3.60537182166 1.96619939169 6.22452237384 0.904071675223 0.663895274558 2.71250788538 
18.6196765749 11.6741965678 -9.08080279866 -9.09986611456 7.02043976105 3.69827182342 3.04731282937 3.62972152303 0.41069453369 0.0490559316479 
14.9481373316 11.8776650701 0.554475832229 -9.28358772055 9.15345339437 -0.505647717233 1.54823529469 3.24636410387 -0.377204866525 0.237636786173 
13.9590934208 15.0732238522 3.77547228184 -8.1745558779 11.4202594478 -5.11383514412 -0.902426413051 0.95478900124 2.01789330497 4.63342113977 
9.44649435805 11.832541207 12.7145993172 -7.67799883953 11.5542279806 -2.13766412531 1.92481058562 0.810545258867 5.91029323168 4.13758436149 
15.3972819239 13.1954005563 6.91808933237 -5.41572395642 8.62898647734 -6.4096014696 -7.48876426865 3.69359803773 7.41367803291 -0.309761174705 
18.4039574905 10.7991084057 3.703853988 -4.96213453529 7.57916905213 -5.11431891909 -7.61529764499 5.28274841317 5.70562592912 -3.01477784404 
21.1915500451 5.51285638066 -1.15731569826 -2.07786142222 9.69402139029 -3.26869536344 -9.02565039371 5.45239160771 0.689946323786 -2.17178233081 
19.8535390739 6.93563768094 0.1854714698 0.297071137174 8.26321420065 -3.2495046573 -5.37159956141 3.79059668745 -2.9603574123 0.260727480826 
22.2842013295 -0.706592048459 -3.82170071264 6.39733531402 4.20872609061 -9.14814083882 -2.09777442481 -0.691376319958 -5.49582719379 4.58848861488 
19.761541011 -0.0209983850005 -1.9389018196 4.34711100283 1.02293629873 -6.73776594703 0.797706998548 0.0289849570481 -4.16414968273 5.56344767728 
22.1578270505 -4.41941493911 -0.263520250192 5.45001175493 -4.54596724588 -13.5823628451 -3.03987478739 1.8925558025 -6.80882818165 3.74955938141 
19.1115735078 -5.51632139596 5.32274198464 7.43965813394 -5.96155064627 -11.4216291994 1.61093456239 6.20806226943 -5.81066342945 3.59802417584 
15.6916688907 -2.33093178525 9.08934473151 4.01228442519 -6.7246405548 -13.6593232695 3.02480356554 9.09864321233 -4.68721566796 1.93425288454 
13.2089517384 -2.43648471787 9.92436535446 1.9411209014 -7.1228533956 -10.9262807319 2.32581656032 10.8120007402 -3.15055237365 -1.82801368768 
8.24169748838 -4.44417945392 13.2794678482 4.81595917088 -7.52999338583 -10.7923281646 1.04105628602 6.2896662489 -7.19224353209 -3.85165369917 
8.00229878232 -7.41300042647 12.1354136548 3.75833873313 -7.61517968656 -3.65002165001 0.220882784342 6.38008753412 -5.31318232664 -2.89129532952 
8.70021021266 -8.77533008464 13.3818873095 3.80430676652 -4.68457247001 3.34199940265 -1.63389327207 3.72938170438 -2.74240778018 -1.70240397933 
-0.183973958344 -0.79346348921 13.9933188977 -1.97874305854 -1.60384837972 3.45879775012 1.89951019219 0.00825571219216 -3.12322704753 -0.792399762235 
1.29309403048 -5.39813523586 13.474266297 -7.61271914266 -5.70162823384 2.84229297777 0.610656444477 1.53928486512 -3.61975898771 1.59042359499 
5.46051648899 -6.67937643082 13.2635546832 -7.69757806479 -6.30393076865 2.17407772197 -6.14091330176 1.77618619007 -1.93436478139 2.4306503766 
6.78831452027 -2.95079427182 13.3027417855 -4.64797392459 -8.06974043033 -1.51831232761 -1.67771726282 -0.754672373523 1.29624779602 6.58193455147 
-0.480313462529 -0.527513072856 12.0115583969 -7.52210479119 -4.31949651495 1.56463091448 -2.96259484997 -0.632204535799 3.99504333502 4.10563990118 
1.10225792917 -8.09602971765 11.05912967 -4.48072042318 1.32731033026 6.50284127875 -2.33662987702 0.930847777405 3.10338661077 -0.951459576738 
-3.59590672282 -8.67634612363 12.4622228697 -8.29979822817 3.96447065668 5.60510853458 -2.04974494785 0.834771070911 3.10194282494 1.83102305047 
-9.14626467981 -6.66870859995 10.9980492711 -2.9921505661 6.90105554889 8.0451826503 1.92252744893 0.893689011139 -1.14095149183 4.2605649391 
-13.9179135654 -13.953837402 11.5704260244 3.95917266761 10.4551143119 7.73253772334 0.783134582834 2.89707954282 -1.46147984686 4.16129155658 
-18.6933948105 -11.7527211262 9.10679425053 2.17516460943 5.33625826424 2.24980945263 5.16645779556 5.79083852935 -4.1680127952 4.40050645965 
-22.2408479145 -10.4042704807 8.67841248041 -1.68074592038 4.04236382177 -5.38258908197 4.66146270136 5.68472497041 0.983764919153 4.31699637867 
-20.8451632612 -9.8902549999 2.87234057561 5.76443189229 4.10349321623 -4.3682329365 9.61074862396 3.11222160551 0.697027115285 4.96722843411 
-16.375889906 -11.4547083542 2.63823357046 4.53331984512 3.66171172703 -5.29885066105 5.27695724608 6.56624036783 -4.10605953345 2.67958522392 
-16.2888285264 -10.9018988474 -2.79389242456 16.5357802784 5.35983189327 0.732654246677 10.4826682967 6.37104195686 -3.10424136955 0.455110985696 
-12.1662829533 -14.5052749812 -11.5736895089 21.9106396766 2.52529005139 1.65143410224 7.65198057359 4.68376512965 3.85718575899 1.97902695275 
-12.7786232741 -10.8830409151 -3.37619705002 13.8014072209 4.56742830522 3.17386519475 4.01326115229 6.74551752298 -7.74554415067 5.90308636447 
-20.4223120498 2.03336579654 -8.5920358437 5.16099524102 -0.503523517588 -0.240326058586 6.95473986194 5.07908739174 -0.671404836904 1.89266669952 
-22.1407146034 7.96129668123 -3.63930420332 7.02898872768 -5.61214494278 0.945897865234 2.48799932151 3.06862635092 1.23510752808 6.1165352364 
-17.9703925308 12.0662983609 -6.49403649129 3.53933036238 -9.922786755 8.19643557744 4.4828363154 2.42416730031 2.42885198601 9.67633398225 
-18.521198898 12.8454345189 -5.21611529407 0.933671065387 -9.62428403306 7.0085316393 0.31165413385 3.83424451974 2.96937872138 11.2915602821 
-20.4946888498 17.713969702 -3.0992925835 -1.07239482785 -7.15437712575 4.20298588553 -5.58299731143 3.08623606808 2.34033828063 1.04430618718 
-15.6758088851 18.5825932287 0.336526002904 -5.67615061588 -6.22212535085 4.80805929004 -1.84364125782 1.87976668087 2.43156048684 -0.926621271348 
-15.2049125713 21.5567992934 1.97945393191 5.09410741998 -1.88314711003 8.1545594707 -0.848478807072 -0.364856649962 1.73878721628 -7.45080277304 
-12.0334416833 20.7932540286 9.06704973818 5.64660696519 -1.75489049658 2.06587091886 -0.911105311675 -4.33876738297 5.1021203866 -6.11148453912 
-4.53225720428 22.1104364673 10.0009097439 -0.00990992466249 -2.93438863802 -5.79883517397 -0.149405274881 -6.50662579811 6.82085743541 -5.84023520024 
-4.84763733422 19.6315528591 10.0296505063 1.36330061128 -2.85761297674 -8.0845831197 2.27970646644 -3.17888977263 7.8686302799 -2.61643889731 
-9.87642389606 13.3798987054 1.88329364011 -6.91246762226 -5.22659133143 -13.9225898134 1.53075401082 0.674480022451 3.89070877798 -2.75314326678 
-14.9743574823 18.199641588 -0.505250801033 -1.82361185811 -5.65988787755 -5.94846188005 1.39550184843 4.56789987676 3.22054846131 -2.39923962357 
-18.5091357959 15.9282238073 -1.21991735564 -1.62969564558 -8.61278875027 -4.54861406226 0.850170592683 6.3817317017 2.1450340305 1.17866202039 
-14.5052120805 8.21563697782 -5.66909962202 1.04131442223 -11.4722779709 -2.93664199896 1.05396748424 7.23491863647 5.48026060296 1.82176914246 
-16.2759405714 5.05886421763 -5.21438966629 1.45942334465 -12.0620544182 -4.14856952027 -5.00627310165 4.96917051696 1.78423431272 2.96672480197 
-14.5469126571 0.760312833804 -7.0340167189 5.46109629534 -9.53542511701 -8.84128567602 -8.01265989467 4.90384345749 1.0800912772 1.277001103 
-20.7513955375 -3.48597904523 -7.60075685269 6.40323598875 -4.31359118633 -2.60207578275 -8.63289892516 6.28835858433 -0.666885534966 2.05416464847 
-21.2420251963 -6.43605148871 -9.10484305876 -3.58216304817 0.598367992166 -5.57830800362 -9.95687583303 4.51470120001 -3.39006116377 -5.0646329213 
-17.9235596035 -9.17215728291 -9.43542209772 -5.45975026318 4.49534575432 -3.95920071116 -11.5343605194 3.50429011203 -1.99798823383 -7.27519655891 
-20.6393271093 -6.88363070704 -11.6811445879 -6.26228485968 4.76867406941 -5.10867325313 -7.59633767968 5.29271215454 -1.84030437548 -7.00599101576 
-20.8599707225 -5.60445093237 -10.7336932731 -8.3329469551 4.87290939569 -0.127463455648 -5.12782111352 7.79670166255 -0.963607117298 -5.70989603817 
-22.8857928357 -6.54257232543 -10.1488412633 -8.53933979226 7.52225100054 3.98614117447 -3.1408182618 9.94906906369 -1.75131362977 -6.29008350654 
-22.1832423859 -8.71078282621 -10.0609702661 -7.4890876031 6.04610811584 -0.394697640556 -2.36243471615 6.63774717014 2.21243802579 -2.99182573179 
-20.5275033433 -10.301576749 -11.0627571027 -2.24961314526 2.68576909646 -3.87825781434 0.565970444511 2.54827069382 6.57543700138 -3.25284360946 
-24.4353396146 -7.86893336117 -8.70734988471 -3.96771663263 0.686462826209 -3.59433812537 2.11701010965 1.22191246154 5.27359652999 -0.49143314233 
-20.4144517321 -13.5529196885 -9.76527365177 3.24819901486 5.79708982001 -4.50753927999 6.74672969498 -5.05588990495 4.28745033504 -2.61717531382 
-21.4950530797 -11.8625932234 -8.07587580992 2.34791034794 3.01165522088 -3.47014675786 3.45822903613 -6.68794150548 2.90168675107 -1.30167285975 
-15.6743463285 -11.8732783835 -5.74165624821 7.00462933085 8.30882551532 1.12600075903 3.66781518385 -10.0419266146 3.39339659862 0.808085173825 
-7.45691320871 -14.6590649933 -2.20533760542 8.26242524271 9.62248930028 1.59530086176 -4.12256136416 -11.9685487433 -0.489831797126 1.17138363256 
-7.04109566786 -18.6816948398 2.74717166884 -1.30007639487 7.91571195473 8.57728478702 -8.89607209171 -9.81600676028 0.301908309567 -0.472766226363 
-5.79061338821 -18.8672973713 2.92786212083 -5.2556412288 4.31932976981 8.25005655705 -10.421223605 -8.57409395283 0.333585324404 2.78977504588 
-7.88098659147 -19.5150377243 1.08035725952 1.14661160573 6.32072827322 5.16716872684 -11.2513303596 -14.5837923769 2.85448457673 2.6276184173 
-10.0580499616 -6.97505743135 5.53649706934 -0.850057064149 2.81951240991 0.965844305991 -8.56110005844 -12.3902321531 3.39840220546 8.01789074604 
-12.3838247842 -8.43353819744 2.75712131612 -5.823782737 3.30354308252 2.1057304898 -1.68422392812 -7.86352989034 1.67127312264 7.9024402123 
-9.47903638576 -3.61010679172 -1.23323904091 -16.4536245129 2.38762830803 7.45080393172 -1.09781939415 -0.176579549982 2.40405279437 4.21379073411 
-13.9733344682 0.606187690092 -0.223847074306 -14.6519267067 -2.63659010744 7.74914603391 4.34988915144 0.12460482961 6.26625705358 7.89400702383 
-10.0932811776 -2.43374331622 1.40776687691 -2.50532171563 -3.3002525399 3.34057529474 6.10436293979 -7.42151236959 8.89199434208 5.57500949433 
-11.6450192245 -12.3994627511 -4.87065363929 0.0321339377649 -7.65124997752 9.98737165413 5.80565877155 -5.4452806369 -2.19901260644 7.29942830748 
-4.29850225035 -10.1585315522 -6.51244007951 4.87618765195 -10.508136882 2.04739809762 4.44911007401 -6.72184650821 0.0268361805974 7.82733817543 
-6.50546185106 -7.41836706815 1.56528896038 1.57933473256 -14.1636423452 -0.717706378149 5.57269587883 -8.09170551936 -1.7368649692 8.88236820418 
0.418467788879 -2.84634835969 -3.57258711008 6.26181281405 -10.013907764 7.2188015487 10.0043715811 -13.641988997 2.81301764563 4.67062314347 
3.8473678232 -7.95067725335 -6.52590791084 0.279721268465 -13.8609620311 -4.37693138159 6.73381473304 -8.6621818342 0.729838233719 -1.2992049625 
10.5757228776 -0.184943208897 -5.81201754778 -0.551324886525 -10.3494102381 -1.09174474165 3.28911373932 -5.35080205913 3.51393547271 -5.38236905518 
10.3668365053 -8.49581737786 -5.6446179464 5.68345719917 -3.97458226334 1.35560257521 1.98272357031 -6.03591536415 -0.154117746354 -2.6997737842 
16.3559358888 -7.2363490152 -4.4394254715 6.05333386528 -1.71912053393 2.59885466727 -1.2555289073 -2.19831135579 -2.46938492887 -4.20601047241 
16.1345119097 -4.39257328679 -3.41394603278 3.99794854862 -4.17741068888 -4.91920733462 -2.23179923554 -4.80669268326 1.53598743861 -5.00967451244 
15.615366931 -0.203184566447 1.47374707814 4.69627673286 -4.84779961189 -1.89077465345 1.04712179926 1.23033992126 2.75526125893 -2.45249546953 
18.1285844661 -3.77998543422 -5.62306772252 6.43630564119 -8.97433230394 4.23671230426 2.78166856406 0.528350810628 5.18176996268 -2.91994667021 
21.9213584385 -2.57489486333 -8.64641475406 1.72566395054 -5.70711340581 5.1651685323 -1.48969151363 2.13640509753 4.52528500645 -4.18009057203 
16.386613145 -1.97975593474 -2.29712241929 -6.38119533261 -5.20232192652 3.76723182071 -1.16231350389 5.41868160312 6.79775631845 -3.50579255197 
18.0402857892 -0.0998200771874 -6.11386563756 -4.63487828511 -5.66562328424 4.4030136317 5.70548528392 3.31986854372 7.72970783019 -3.42914561738 
16.4721375399 4.26351214658 -6.82523306642 -7.75143121096 -1.26474801347 4.11921728484 0.0638472874388 1.96577384873 4.61880545941 -0.985719679498 
14.203599516 5.25265908859 -4.47753254543 -9.5765506678 3.47027495349 2.53150469584 -3.40709582674 1.16594985435 3.14967158671 -3.5623749357 
16.154932504 7.95351877154 -10.1577727087 -7.95349615444 5.72421519176 1.87422023658 -4.47968025644 -1.94692701513 5.33493020987 -4.09844776351 
17.2820254618 7.48104581107 -9.97800068496 -7.35040015172 8.18533520991 0.217133766518 -4.66550729524 -2.70815349997 2.50227149254 -5.23362273171 
20.6660191302 6.34490993355 -13.4885919787 -8.52011329973 7.53820913617 -3.07680407957 -4.94212294382 -1.28386189104 0.0594332292988 2.23601905553 
21.6875070773 9.10551108696 -12.0350319049 -6.71725588494 8.65886495966 -0.759756582048 -5.05340639561 -0.302629957139 2.17525307146 2.42127120796 
18.5162529307 14.446983915 -4.92278350003 -9.30663615364 13.6993618748 -1.72509072139 -4.89845353625 2.01247715087 -1.07479077466 2.07593913275 
20.2511555559 9.07182188973 -2.74644016403 -5.12301612881 12.7095038581 0.0388585481636 -7.42222120582 2.84711879291 2.95984617102 -1.85919674475 
25.068661393 9.33550946162 -8.24048940684 -3.14525800146 8.65603383268 -0.520838449665 -1.70138840071 1.111853791 0.0780210427561 2.95183592228 
23.2562464093 5.94102990517 -4.75078157605 -4.1405880564 6.46646236477 -4.02287964845 -3.44075174088 -2.00158203306 -0.160562668435 3.9431413114 
13.8300749579 10.3951012893 -0.396290079829 -6.71256041814 7.28582035622 -4.86132483951 4.25307182699 -3.89556517733 -1.82529893173 7.05274357688 
14.8985364639 8.04954927218 5.63756597537 -6.8212425362 9.22670557799 -8.31950034657 5.05012582996 -2.03063584172 -2.74147108189 7.10446469339 
15.1571688192 10.2557670217 4.14171355789 -1.64122759655 8.48620457221 -4.22437873996 3.26911276626 0.835613338727 -3.88450023117 8.52704688755 
14.5646442389 10.2234497349 5.65407148007 -0.420513540904 12.6707777172 -3.28100333499 -3.46672746868 1.91725613621 6.68788488734 0.484442006526 
18.5170986315 9.07080807571 0.890436245534 2.0480231737 11.7434621224 -4.55937957986 -3.37198243943 3.10555363765 -0.651156946101 0.166675357951 
21.3163582055 5.98621214637 -2.78803447553 3.78963347231 15.503849271 2.57476828773 -5.51650418416 2.91657520842 0.111982734159 -0.80346454381 
21.3008994485 3.62908243508 0.423420879803 8.37201460146 12.6299236243 -2.33609043429 -2.28111330004 1.16398502619 -1.90753824764 1.63044259446 
18.2876956338 2.14167188117 0.260353216701 6.52534938664 10.5218808498 -4.16484258165 -1.28775087564 0.350164269322 -8.07363825381 0.816209965488 
20.3203665299 -0.914144377321 4.34622447363 0.856224716916 6.01906136246 -7.99762256578 -7.42134682317 3.36753481165 -2.58666203899 -0.465517239653 
16.7176802889 -3.1559917635 8.1209134412 0.172625438742 5.16741528462 -7.38368064469 -7.69123368349 6.35766724988 -8.9746323308 -2.32194644142 
15.0003580401 -6.60299047446 10.1596175333 3.60182473483 2.77124476774 -9.78234021086 -5.69777929635 10.6205667701 -13.3603326431 -0.667490877768 
9.43522606964 -4.28467976222 11.2109306674 0.779861114453 5.72640980978 -4.71768000094 -4.24845731071 6.96127165968 -17.0480937426 -2.8908180141 
9.57047008117 -2.45526974341 13.746486757 6.67812202887 0.767769458855 -4.21538114919 -0.585352772452 7.19640195942 -13.1733098064 -4.26873272547 
7.46347905941 -6.17926964544 15.3352635658 6.66074915357 -4.22665208494 -7.06595116833 0.394513693246 2.95754003084 -14.8280667853 -1.85129142844 
5.85483953648 -3.98716566801 14.5136353153 0.670124738073 -0.838380212118 0.0909449830649 4.12749731726 5.21106509121 -5.48307809867 -3.73584176042 
4.86750968423 -3.27311224897 15.7787053739 -2.13308199453 3.6506062255 3.63550402539 3.09536705883 3.80345129123 0.99260055025 -4.88161952474 
0.732667059547 -2.92221657226 17.784932594 -4.81493391576 2.48070152281 4.41109798231 4.7147851114 3.2018416079 0.425277172087 -0.912055783619 
0.946771070627 -5.18957814546 16.7620995407 -5.33544809676 4.75793369943 6.86952555843 -1.23656669486 2.90400721786 3.79558630411 0.23533727643 
0.597259538419 -8.72447716542 16.086728034 -4.79177019891 6.37630523897 7.66101985725 -0.0320406379435 -1.15635933133 0.968570320677 2.16681517338 
-1.51186897294 -10.3227688431 12.372198326 0.154688924477 10.0652266948 10.9562952131 0.125675898564 -2.55812028925 2.08031911239 2.52965120921 
-5.58084588084 1.59365833912 20.7991715003 -10.1138847539 4.39424499451 3.78711108616 -0.10112034396 -1.15590269758 8.26799006412 4.08151480091 
-9.10415420158 -2.37377833768 14.1593439894 -5.55181384245 6.79970335979 2.82298622224 4.39514738176 1.08360259878 4.6987648191 4.32389158138 
-10.5940667303 -4.0045924956 6.91115955244 -2.71721439081 2.60472693086 -2.1059222127 11.1578695194 2.32032339814 5.08068788032 6.709068166 
-11.9449568751 -8.02547020131 4.07539862316 -2.70698074237 5.14184487262 -3.99590531664 11.2305755631 1.4218558944 1.91295471403 2.44557810268 
-17.1280310291 2.51700723593 2.32101893088 -2.38500683438 5.35845649467 1.06296323799 7.38562154385 1.59211521905 1.93552425767 -0.614769956972 
-16.0126222351 -11.1821216727 -0.338827313178 5.80316742652 8.15323777291 2.33601479539 9.20969419347 0.103475047807 0.552916748585 5.14911767193 
-11.8013579057 -7.63421317983 0.044731674586 11.0371951781 4.92755958804 3.13086275499 5.86859331989 0.706829307384 -0.153388773313 9.7227862833 
-14.5285030879 -0.328751607234 7.2541261951 7.81884240701 7.73991452533 -0.0235023321539 4.68689102323 -0.21841161649 -4.42126633143 9.14781034371 
-14.8859208153 3.23421792482 6.77869653104 9.26219740583 4.72782945222 -1.0917417646 4.77752098604 0.138069701371 -1.22408873978 9.61189680802 
-12.6277278395 3.89697102495 1.32336885729 10.1216955584 8.01086237411 3.62278145766 3.69533065493 2.06658443908 -0.0411057801043 0.352521442976 
-14.5732923421 -0.605884005935 -2.77518975263 -2.18190128583 8.09490233879 1.44403955603 0.556360063534 10.8486656625 0.667646541615 -4.63169454227 
-11.2592045452 4.27420540421 -0.243967041968 -5.6823609907 7.47879409689 5.68100438039 -3.8854459075 12.3581030406 4.22816875367 -8.87734565707 
-21.2786770654 9.1921690588 -4.96564864617 -8.50389490903 3.25826748368 8.39217468294 -8.76623720944 9.75843945959 3.64929299206 -3.46629247803 
-20.1620150647 12.7361835353 -0.24876028274 3.42459059851 0.87005320401 8.07444043867 -0.359541204384 2.45868706962 -0.250903226907 0.0933436259225 
-18.6760255295 13.5315454184 -1.15007149467 5.50218359167 -0.0279235151139 13.3578094654 3.23725534819 -1.46104927469 -4.7204112796 3.53368128331 
-15.2927079711 17.7375904822 3.44576745772 5.11798452212 -0.0202462025137 9.01369233051 1.92072394543 -0.706577429363 -1.39857814178 0.275690563807 
-18.6653336746 17.7345162627 2.96130239355 6.31394830829 2.23828952805 5.44190363375 2.12461679134 -5.79864653836 -8.50419682792 1.10113807756 
-18.0594258424 17.3388121799 4.77351778249 8.23594862172 1.37182063152 -2.99989988006 1.08456706118 -6.01282362858 -8.33816822241 0.260595159375 
-15.9140954936 19.2212727453 7.05398654628 5.25217504888 -0.617020610467 0.135398459382 1.36197282764 -3.99226530701 -9.98821763597 -3.27999073605 
-21.1869635599 17.0826904654 3.24244032346 6.50353517777 2.17940824287 -7.04282401782 -2.37649260491 -3.8545876226 -10.0735726145 -4.40749806546 
-20.0533187212 11.8772847068 4.77941408285 12.0721952879 3.97742243927 -8.52256442016 -3.70277339126 -2.49758802011 -10.1234182633 -2.35883943475 
-23.2601245605 8.86812476935 -0.849854525303 15.2322621154 1.45997123178 -9.77534505996 -2.22554309853 -0.511468042183 -4.13007558221 -1.96469576808 
-21.2009135874 -0.393806480125 -1.75852196773 10.4084190385 3.29570843779 -11.1727527908 0.741212556223 0.363501825069 -0.00948967211534 -6.27580115043 
-23.6256600099 -4.01823318665 -6.42455118835 6.43342436441 -2.24924987991 -6.69053746013 -3.79096996537 7.1988818369 -0.191445212201 -1.00985092968 
-24.7709010521 -8.87162736576 -12.3182255768 4.29188823207 0.214036892114 -5.33704957026 2.90259318151 5.88882110715 4.1313216123 -2.04115241356 
-29.4131093292 1.79052158136 -7.07273645887 -1.75851497884 1.94938550023 -5.85913676692 2.66328723617 5.01263970525 5.03650146669 -1.38053304154 
-30.2935081839 0.435394655574 -11.2073950667 -7.74978454433 0.462807640037 -6.00950773615 4.5660577083 6.26172248071 2.57168751191 0.408026248246 
-32.4976674717 4.12903007705 -13.6170426337 -13.1193700775 1.41693262899 -2.71497086614 4.3325742563 7.48224667017 0.625719734655 8.55520049565 
-22.0309121434 0.725970439379 -9.27669477034 -14.1684990209 0.847044778308 -3.43412686261 3.42678616702 8.12524210085 2.21388492705 -2.79175549369 
-27.0279892325 6.14863736929 -5.84458528761 -20.2919813638 1.76302858452 -4.07843520531 0.568146736783 10.5226356494 2.55859388238 4.02633621113 
-21.2904839613 -2.72667382499 -8.53564406343 -20.9196806278 4.73153102475 -1.13645101339 2.01639533216 13.7752350452 0.601313890705 -1.03711244104 
-21.8500125392 -8.57153961986 -8.70644145423 -12.0352999567 9.51315538216 -1.66645415709 -1.88390970125 3.58511733046 -0.631485066557 -5.09524419406 
-22.5315426914 -7.57292936334 -8.94921320445 -10.344239942 7.44930092569 -4.49932944507 -3.29242207102 -1.73603220126 2.93619154623 -2.75505721876 
-19.0236117364 -6.52928410529 -3.22549518181 -1.1640268334 3.45871106623 -6.15074092968 -5.24448281975 -8.03417146338 -2.52304128494 2.35772410839 
-12.1138249969 -6.73911079845 -0.342546813226 -2.38654396949 4.02235936823 -4.99982639462 -6.16261352471 -8.62642413642 -5.94759119341 1.97384030181 
-5.69721420264 -11.2079299 -2.97621595737 -2.85816631875 -0.797619525588 -5.80827530508 -9.84136442549 -10.8103211715 -4.60317932418 4.08051249636 
-2.17486588209 -11.1787656866 -4.59244143047 -1.49038009941 -0.291158415207 -1.52632796703 -12.5526991495 -10.6971034458 -4.79439279253 2.96765449201 
-2.69123779266 -9.54835095208 -1.72171462388 -1.89500363692 2.11416448781 6.63229781247 -10.7303339348 -10.6790924791 -8.5333782448 4.14134652158 
-3.0867422792 -12.0268435861 -10.8227659432 -6.20784504399 -0.756217619985 8.27091648927 -5.36885061808 -8.89248135232 -12.4872962144 9.04538627604 
-3.89547230753 -11.5742270204 -12.4222015952 -6.69399263831 -7.94498196055 9.21885565201 -4.2137156831 -6.27690873342 -8.65413329077 9.35492777925 
-0.850789684733 -15.7372076868 -12.5546247334 -9.20220106449 -5.77586466102 10.0230562196 -1.67756627071 -4.92153384126 -15.9804847777 3.93509641082 
-1.0116187927 -16.2686455227 -9.83403472357 -13.1993060818 -6.30662037236 9.37875669548 -2.84176837544 -1.18687396021 -10.5898418758 1.98048542227 
-3.53929626668 -10.6222891015 -4.10298166784 -13.7844720054 -1.1661306748 11.195503843 1.954887148 1.16803372308 -9.97560784254 2.59207008967 
-2.24428127508 -8.60646903558 0.665368737282 -10.3137020232 -2.67052843228 8.63889606571 -1.70852737167 -4.07559732116 -7.59538069423 2.78342152021 
-3.01992853697 -12.3489874935 -1.03597115457 -9.96773112201 -4.70567666782 6.78347614269 -2.99406411891 -7.25341647774 -5.8695722301 3.54495135433 
-3.16652205266 -7.07963119288 4.44358051618 -11.3580875597 -7.80869120418 1.64654089611 -2.63883861978 -5.1726497142 2.96908584943 -0.233777467943 
-0.0117823679134 -4.31197509451 6.51298670766 -9.00902877518 -10.4924433645 -3.47413934795 -2.15619764795 -6.13733489701 1.46593624326 -0.0894576973272 
6.16521616737 -4.91069659087 5.59452391273 -5.78565085195 -10.8560333451 -0.126578560447 -1.86784438416 -4.64237210554 1.49862159527 -0.422189807114 
8.47592740327 -4.57767425813 1.43917470552 -1.68177153779 -6.77652172365 7.76666190799 2.20734371983 1.44533840081 -0.870102401929 -6.14155345155 
0.374942908505 10.3202489123 5.24681397828 -3.69891129629 2.97935934344 10.8857059402 8.85233715055 5.54886140269 -6.64996707291 -10.0691480324 
2.7329404746 2.2467994656 -0.268262509128 -0.693383823976 1.97608676186 14.9149807881 9.85884872898 3.50947450894 -4.29533091242 -5.98668093085 
12.0572623604 -2.08998557499 -5.38188400356 3.84772635464 -2.44428533215 6.16244202054 3.45887364704 0.961431747404 2.26968534577 -3.55843892362 
9.14760253231 1.94575538512 -3.39802729361 5.72188572553 0.0369264115267 10.0665931209 4.34114136233 0.516625593875 3.48033135419 -5.60696322364 
11.3615848944 2.63522884815 -5.18409768904 6.23538138235 -1.16895821762 -1.04349336313 -1.60826480523 -3.20810986367 5.7476125883 -6.16290642563 
17.9474739361 -7.5544810976 -9.82212105724 7.04035564656 -0.838544204354 4.77575087769 -3.06556311016 -3.95676478103 0.569919551269 -7.15305735987 
18.9607853608 -5.51293055788 -4.54586373544 7.76068150991 2.54566023445 -4.57622815419 -6.29703873522 -4.54509660372 -0.57214971897 -6.21458313856 
20.1001630227 -3.60249280311 -1.47352672059 3.33558389698 0.686620389946 -2.20080468296 -7.89373738998 -2.6438622061 -1.94910033491 -5.22924904086 
19.1700103588 -0.369665458944 -2.07190016647 1.20222310583 3.11523560317 2.15400485469 -6.64876792565 0.379144144103 -3.26307229627 -4.3563076898 
17.3735382322 5.55353247714 -3.91558043668 -4.80049995321 2.22631519755 1.35292589681 -4.45514573799 2.92847756458 -0.58179757066 -3.60872415711 
22.3860621346 1.73748738411 -5.76375483295 2.14335180929 4.67682671648 -6.11243314759 -6.94350280637 0.0247331078363 -2.07486764236 1.11287983552 
17.1851252197 3.38673800045 -3.44151607548 -4.45852654899 6.66853289084 -3.25696483581 -5.65150204784 -1.03918153293 1.09541283299 -0.227697667955 
19.8798955825 0.697831343325 -9.50660281607 -2.66315728051 4.24335944467 -2.78524322324 -4.0951102555 -1.7824506864 6.28645570874 3.32364725678 
22.8803058475 0.602709577046 -11.9780943887 -5.3795379941 4.08392051214 -4.36731486638 -1.87382865428 -2.23201265485 4.37674957121 5.8834255357 
19.5915083965 -0.161679963453 -9.56512937637 -3.85789540616 4.98778209166 -2.02794854547 -0.606943583064 -5.67753143894 -0.00343337301292 5.05651336182 
22.3805222099 3.56575680274 -9.42131602828 -6.46699412398 0.841759043143 -6.1964713687 2.27854434793 -0.294147825646 0.855827139016 4.88183644571 
21.1685110167 5.53752043783 -9.13581246245 -9.58806424812 4.42404134818 -3.70197483331 4.34260373802 5.76274378893 1.68374780476 5.97956455374 
18.9821763722 8.22678081054 -6.53322201628 -7.68763608189 8.371491552 0.975139400164 4.21818569472 5.13705864765 -1.0261265289 4.13464732408 
14.3826620644 13.2171901838 -0.00615642602111 -7.68077132443 10.0622349734 1.74376731198 2.44703982297 6.40923046672 1.48035475352 3.42528415967 
12.5414439418 13.4679046015 8.40447065841 -12.033118828 8.38429362457 -6.1705958878 2.4801899045 4.11611054313 1.2668651858 3.79892661616 
11.5946013159 11.2748980747 13.8706504425 -7.8809461321 10.8740755527 -1.79081083241 -2.25849448753 0.42249778702 1.25938094788 4.28029418315 
10.4859088396 13.0782020911 11.573188621 -6.66103766773 13.6266297676 0.853445843015 -3.37415670125 2.42825232483 0.726568459537 3.08134270807 
12.294964077 11.2497749857 5.65997482564 -6.72648125412 9.75282976616 -4.14099070478 -6.72985651568 6.74464655038 -2.10352361974 2.812785497 
13.6689838936 12.184363011 4.40684134828 -3.05012140406 7.57444405777 -2.46064016871 -6.07766137337 6.37164249291 -3.22078033061 3.34227146952 
13.7538498821 10.0476380153 3.94232483079 -2.44182316501 8.06561691256 -2.99467495126 -7.9927935318 6.90830322296 -2.01680172248 2.58005127747 
20.0512687799 3.50583818945 -2.62654577311 7.7154817842 2.87153694933 -2.7770000104 -1.21839344551 -0.351395400244 -10.5600980701 10.2217622235 
17.1016580663 4.24765994782 0.24715555438 4.53386351529 -1.46152042535 -1.25770320838 4.07045306069 0.761757843069 -5.03788283328 10.3987431214 
19.4017501009 3.1680375386 0.0208003646881 10.4116772308 -0.280645362847 -4.36706077426 4.58986871169 -1.75657405726 -5.35176425223 6.14692798425 
15.8809233592 9.5371388074 1.55164030385 5.17271953461 0.755893084818 -6.77375903404 4.05823952292 -0.108675007401 -2.25422144041 2.16528028401 
18.127028123 1.06072446746 4.5203020652 1.8925190978 -1.05405446758 -8.81642110613 0.293091436404 2.40177510793 -2.35974575869 0.565186655779 
14.2199651495 -2.5760969807 8.00058461676 -0.310005189617 -1.55440447754 -0.0626702046473 -0.921696082973 6.45360917405 -3.35270287624 -3.96730625134 
15.4869639607 -7.49132314271 9.2033505376 3.13283176697 -5.30616344993 -1.32163666482 -3.41240471217 7.2120076336 -8.59006716779 -1.56896669091 
14.1893997992 -5.31655341461 12.9768540526 0.984992419627 -2.3036080356 1.14426341715 -3.87533508685 4.01543261273 2.27977742756 -5.29377459596 
12.1521693066 -4.40057059044 13.2480861121 3.29261420616 -6.38751463451 -1.54547730174 2.57874013477 4.90536930917 2.64357720042 -7.60678446975 
7.25343065154 -4.69819025251 12.8496209119 0.140753196769 -5.80185552757 5.23148306307 2.64602109743 5.50591256296 5.66616641967 -7.47465232974 
11.8602743033 -9.42071543584 12.8451587315 0.874804923108 -7.28588065185 2.17884015799 -0.189607612469 2.88437601661 4.22959177029 -4.47273783502 
9.05742781178 -7.9741913932 15.0877646452 -3.57523186673 -4.79950754518 0.563321484799 -0.99977245866 1.51271016595 1.73479621868 -3.12682985404 
5.31241558346 -5.92599673681 15.9859193087 -6.72263221065 -8.55771714557 -1.82337804125 2.84825402014 1.02426967791 2.87643366604 -0.817517015195 
6.08177677648 -4.22176491434 18.1542102417 -5.03048069843 -4.63785573392 -1.76977180426 -2.76133147409 0.959891198041 0.868911340361 2.58915648871 
2.97224844306 -7.11723322806 15.2433223846 -2.94816164579 -2.61713650343 -2.3253890481 -2.08658346906 0.302443847839 -2.29180334156 3.99290953503 
1.7136360882 -6.79642154352 13.5692342019 -6.18788639027 -1.22344420538 3.37825582838 -2.26224917488 1.89507611733 -3.37004982836 3.34064967124 
-4.83794332254 -10.90326675 12.6235580171 -4.39482746143 -2.30277926955 -0.431286293218 -3.03792709415 1.63190505839 -5.35075670486 3.47125823388 
-8.97395179317 -10.749879991 16.2504863781 -0.704961539523 3.21631838587 -1.65536477458 -0.025341248865 0.701608625029 -5.75620647126 3.56637970548 
-12.7502813554 -8.65909580698 13.4249735648 2.16448831162 4.34246891033 -3.16731640465 5.64998519449 -0.125909568522 -7.24182238848 4.2836353144 
-16.2658679151 -3.69707013239 10.9487193849 7.14474188965 5.73587284199 3.93689488075 8.18517169971 -0.181179569246 -3.40563858602 3.15027726094 
-19.8790290652 -3.24847413387 3.92739147541 7.97360417854 1.63627781606 -8.9359472102 9.00995922598 4.31010755134 -2.8358901107 2.78646447075 
-18.1256007788 -3.62783819995 4.10811195631 11.9096762364 6.86053850115 -6.05027297829 11.2668730937 0.493208818401 -0.856664122504 2.14365006591 
-21.6691106294 -1.91518395415 -6.46630562219 10.9360947576 10.5830587488 -1.06143406615 12.4962189522 -3.8877012252 -7.48514994861 -1.74519785195 
-20.3089927038 -1.17179347884 -2.84287339087 5.75091040262 8.32289473555 0.273720226883 8.89841260013 -1.8310337575 -11.1199110918 0.0633612641018 
-16.210274937 10.8430765732 3.53196396926 0.968389900541 0.537768913887 -0.16529081395 7.35671829226 3.43067200675 -9.74383064146 3.37896758126 
-19.1339135407 14.4394842076 1.55674798397 16.007575672 -0.670355475965 -0.393074012223 9.3862810686 -3.275046448 1.71720497724 2.89227212587 
-21.5212275186 14.0290939205 1.52863210441 7.49708535829 -5.0622758961 -6.6168614054 6.44861224711 -2.79859124239 -0.443003838962 -4.9580027917 
-21.0383315566 14.8496620344 4.58903376159 8.09999263707 -2.37623028512 -0.563579495516 1.68637002937 -0.701433138762 -4.1615840698 -9.10746191102 
-23.3000327021 19.618253518 0.896738207859 5.37159149631 -2.22942873941 3.52986249225 -1.8158269249 -2.10897664623 -7.51540338332 -11.7163398447 
-21.3222020765 18.303271006 4.2102833195 7.85098325459 -1.88611448954 -0.0658353650279 -5.87345867912 -5.25520118432 -5.52564658333 -10.5572015843 
-21.6601627232 21.8110369039 4.53610814748 -2.55110979784 -0.882276455146 0.667543336539 -8.28917093 -2.62504787151 -8.13728559858 -11.568032708 
-18.4497951541 24.0621478372 3.43034054305 -3.13670759936 4.36869264053 4.68234441042 -7.46731933972 -3.82113422748 -8.94363349504 -13.4140062255 
-13.2253508506 22.5719463431 2.13047876936 -1.79004312745 6.32107763893 -0.877960274129 -2.29141766812 -7.76529082279 -7.77590013351 -7.78175734904 
-13.0978207059 25.2067334054 3.18921350077 1.0022116837 2.69696773214 -7.53691700981 -1.37990154435 -7.27683994076 -0.956137365002 -9.84551738154 
-17.2663146863 21.2303474257 6.03570832813 2.4559652405 6.2843780184 0.396662489822 -0.49803870007 -6.32996682674 -7.80975109985 -11.6805215998 
-13.9423149399 20.3448745616 8.68459166747 3.43605383467 2.03148466926 -3.00117845187 -8.19972160348 -3.36419333534 -0.303325519154 -10.7080411117 
-12.2878153397 19.6168262114 5.35082711612 9.34902987922 -6.10754310426 -0.861526536443 -4.54460880967 -2.7785507717 3.05896684491 -3.47669407703 
-18.0323837028 16.0769975498 2.97485486973 10.5139095953 -5.53014645512 2.25597862927 -1.38266457363 -1.01952798702 4.19937115258 -0.585120899209 
-19.1480720178 6.87485682089 -1.026564823 11.74261583 -2.68059502026 6.38899103326 -2.40506312021 -4.42895681639 0.508551820105 -4.16964248075 
-19.9349023814 3.05706723254 -2.52135689129 7.69683608316 -4.15085181932 -4.76449242796 2.58547804714 -6.36161221642 -0.280513360737 -3.65317659526 
-20.4059683884 2.30127721354 -4.31169389578 5.86456557007 -3.12593255685 -4.17128072155 2.00604257877 -4.09725130517 0.767650095766 -8.12317095947 
-21.7723887704 -1.13037446194 -7.1120191793 2.16629917211 -2.10885721602 -0.811855347639 -1.2555636627 3.03445223803 -0.997552402775 -6.38030244229 
-21.7927851423 -3.26594058299 -8.92969297725 6.78480054229 -1.40331585426 -6.52193340823 1.81969611474 -3.49818034673 4.52319891202 -8.34129978401 
-18.8557119962 -4.14583094367 -11.2427017972 4.28202187751 -0.515939869295 -4.67346205772 -0.716314074615 -0.495611815412 7.20549034206 -9.52788181533 
-18.0191857942 -5.38987871743 -12.7430288644 1.84988672034 1.67722091902 -4.46024210122 -0.6415439579 1.17911982589 9.02129398215 -4.55115929054 
-23.2475071989 -9.0045683063 -14.660160669 -4.8022980298 4.12072921984 -4.89162770217 -0.950283878134 3.40423734876 7.60898005898 -2.82380452546 
-22.2103809454 -5.13807297042 -10.5961968378 -6.90119218788 2.95357000098 -2.30126350682 -5.63396316457 6.67620717579 6.87347835104 0.72013810223 
-27.1137583106 -7.48130922702 -11.6318237391 -13.7847000841 9.38209269928 -0.98755146286 -3.03957026503 7.09597416648 2.3878473406 -0.178194146212 
-32.312040799 5.89286114059 -5.8070464015 -11.6347638276 4.23023697467 -3.08650889064 3.47773703977 4.15358382463 2.77247711445 8.7219460828 
-27.7756690706 -0.268856175426 -7.82028816209 -9.26993498352 2.36232848044 -3.53326421414 7.73225438073 6.25952090665 3.88960987056 1.83614198721 
-21.6362332546 -4.0509430931 -6.02367747485 -8.97572612391 2.62939198671 -7.16312137714 10.7066931002 1.680821527 3.63499896488 1.69875005906 
-19.7438064215 -4.24199141278 -0.947324446689 -2.79039931627 3.36002163959 -7.11288116315 7.40264857988 -4.20222332767 7.97059032091 1.95030721371 
-17.1953608341 -3.94156099243 4.33794354085 -4.40385179504 0.577765054217 -10.7376336198 4.21691184062 -2.87521369555 8.346155525 6.67063833579 
-11.9258999277 -17.1736850243 -0.728056452515 -2.28281656813 3.61748776612 -7.11955622328 -1.41292229302 -0.384248362503 0.735624312214 2.15225604581 
-9.03226173973 -18.6004677861 -0.00455729298646 -5.39255763154 1.19703850584 -5.10844855023 -3.30731809805 -0.803154492122 2.12963324148 2.77367225353 
-7.36879066644 -16.7052338112 6.30784156353 -7.59742656622 0.448143956628 -2.82746999634 -2.68109224745 -2.13339013529 -5.31147382414 8.481334608 
-0.441733185217 -12.3144753761 7.86298347404 -9.92263707256 -1.14834345587 -0.869217501614 0.321393173713 -1.39438648846 -0.531071036015 6.58164545426 
0.70927064444 -10.3226279052 6.99587929751 -6.81336572097 2.24929311234 0.806277110122 -3.38113933432 -4.42627469274 3.55401634238 2.45467792168 
-4.96488446997 -5.98683055285 3.14034416365 -10.5570430067 0.190163018616 5.24956334971 -0.480023588891 -0.773279704703 -1.32085519174 -0.494027550302 
-2.33376444158 -6.14555027705 5.92396736773 -6.61686087498 -1.03270403653 7.35059671294 0.0548314749936 -3.61059727488 -5.53678570297 0.937871179631 
-4.31957201104 -3.45871128757 0.0651375966556 -16.5865140478 -0.818110187512 10.8583521658 -1.75782414254 0.128217647758 -8.79058286591 -2.29347289081 
-5.3526773873 -7.69418797385 -5.21776497132 -11.1805245403 -0.175466208827 13.8017441772 3.02435171555 -3.89727544068 -10.9230320398 -1.95957202212 
-1.16484370769 -14.0317565894 -16.4332363482 -2.62375783614 -1.36744476806 15.2259302008 -0.996169858342 -5.99031870765 -19.0562762326 -0.0933119338694 
6.98300275119 -10.2684263104 -7.00407692933 -9.46260508412 -9.37305896981 6.78255051652 3.47949588544 -1.39209941785 -20.0080494882 3.59194671002 
4.86820550532 -2.89405865505 0.111185263892 -16.6399383192 -17.8209553546 1.90332203598 7.99260083652 0.132874382176 -8.87384531891 -0.962757467504 
10.8274987403 -4.82570287548 4.00050480829 -4.96684944217 -15.6723655907 5.48969400776 7.54889215703 -3.5151090026 -6.15420995764 0.438963996699 
4.44197563253 -1.78132385134 -2.69608681707 -3.86864284767 -14.1492887691 5.50072618877 13.2530532373 -2.49525074172 -0.653608793957 -4.50786989245 
9.84295846847 -0.163327084826 0.157984135316 -2.55996022867 -11.6939383403 3.36252069695 7.79549546683 1.17081313471 5.84763886395 -2.88152430415 
7.55718917102 -0.604526046562 0.319370778972 -4.63147158832 -3.08458017325 6.41570326555 3.81182045266 -0.24671007998 4.80326764625 -9.20128545751 
11.510071149 2.52510145509 -3.72848002167 -2.88768908592 -2.11225782021 4.00685968183 3.57518423874 -2.83949348342 1.17633097702 -9.14215871995 
14.490767409 0.597082723455 -2.96120356106 -6.15083017629 -4.6391295209 -1.91808783889 -0.230882144584 -2.49209597493 2.60988993616 -4.60566745283 
15.5217903794 -0.116071310821 -0.707065959137 -4.18573798234 -2.62063109588 0.0733261656353 0.601018376343 -0.972348054622 1.34417467919 -4.6744321495 
17.8207981813 0.622329614124 -5.53150788668 -7.44702997162 -1.97686281419 2.13708036379 1.46110908859 -3.88814274046 0.388278254528 -0.657810302743 
21.4215723444 5.45198733524 -6.74801541603 -2.68869719943 -6.5718878599 -4.76748936589 3.53809407842 -3.4253563378 1.38742530214 2.68389443625 
24.5050411275 2.65846003372 -12.1844399992 -0.390580783927 -6.33935356192 -2.56758692079 3.34346830243 -7.18375722101 2.63780510301 2.378476154 
20.6125835296 5.67270115592 -10.1534578549 -1.18772667177 -4.98684611001 5.00063815145 8.34346775167 -3.33434768024 2.36341662476 0.725431519851 
22.1512513983 3.4688986084 -16.3519926229 5.9776519155 -9.20983423028 4.86738746698 7.24800307298 -5.83079976001 5.52604438647 -2.16260177924 
16.799489543 5.20709019478 -14.4089137581 4.80296106281 -2.3560230048 4.97215487489 6.10403605335 -5.55166893711 4.13311904115 -2.84483223088 
19.9386907461 0.337167750163 -15.3153534138 0.16719406414 -3.2008508235 6.21498119418 5.76629705919 -5.88997078466 5.16091651003 -3.19665252542 
25.8088483874 -0.0906360225586 -16.1546261513 2.08806943971 0.797309601622 -0.394970073229 -0.702311434726 -7.22577366947 2.97502507568 -2.15407162175 
23.6731313953 4.89971800845 -13.8181917937 0.594654252147 5.41310494924 1.5176534156 -0.253872431091 -5.97765454818 5.66074355553 -2.04634568467 
25.5385409287 5.89293539971 -11.494125549 -0.219094857175 6.53130726174 -1.5779862988 -2.04005628813 -1.87682247823 4.21295507171 0.925190990714 
27.5587883498 4.16286723112 -10.099872136 1.36513499798 6.60408241846 -5.85545015863 -2.426341019 -2.80169617073 0.776626940352 2.47936498504 
21.5946580639 7.54587450195 -4.00857993982 -1.80828960623 9.93272882708 -7.72594294974 -0.385045142415 -7.37219852527 0.71954477666 3.84875116238 
20.2463395163 9.11752088403 -2.57392719274 -7.79785729032 8.51675228167 -2.87101864521 1.21730254108 -2.32145495445 -2.46279197371 0.993464292615 
9.9793298008 10.2040223057 10.9241967844 -5.29841238673 8.76287474943 -7.00445284425 4.52374993152 -7.04509319223 0.448493313716 -0.367399864073 
11.9801836427 11.3490434265 5.69742056542 -4.11065274579 6.3312075549 -7.96352346696 2.2872537738 -9.03647824161 3.98918326744 0.627619299117 
17.4451864113 10.0333531363 1.82374750249 -2.32344775574 2.43903800271 -11.5658557431 0.151520955146 -4.7438675176 4.88652597549 2.67150242678 
21.5512999275 5.43947680897 -2.06761341886 1.46143878514 1.88087392765 -10.8088877218 -4.91531357895 -1.58902244332 -2.41050502603 3.15912939442 
23.4733752011 1.12434614849 -0.811217976714 4.86454392688 2.17700442492 -6.64630370224 -6.63850414145 0.800915571087 1.92526575837 0.149735737939 
22.3420673735 3.6622756643 -4.17086113981 1.65542327255 3.70515165748 0.283299029533 -3.71639104411 4.03314498383 -1.91226419279 0.0325054785613 
21.4844591632 1.08840845696 -2.21540605202 3.46791411532 4.13127714323 2.27913252066 -5.75671473775 5.74811101507 -1.26009460327 -2.42251741194 
21.4175596992 -0.30347842378 -0.723850840198 4.11089360175 2.25528237653 3.56740158043 -5.29026229132 8.44833655658 -0.814399717514 -1.77370609061 
21.3528846395 -2.02568021107 1.74887376931 3.75040014354 -0.378769589014 0.63106447222 -4.50429359712 8.65938157171 1.87417881038 1.36786029381 
18.7256335181 -1.7466347552 6.7856530675 1.50782265132 -1.92634846667 0.00148820141868 -1.16626826417 11.9043285899 0.913364825238 0.0899800693203 
18.8783808407 -6.22559774594 3.07942422601 4.86561383879 -0.428176793892 2.61503611997 -2.32370502268 9.25019662909 1.21756386953 -3.16978005477 
15.7285645941 -6.33697466868 8.19703848051 3.43386087894 -5.40595336 -3.73640236142 -0.677015405795 10.6842636341 -2.67749867467 -2.01979808502 
9.71677389727 6.3136685267 10.2660472489 -1.75796547057 -5.4191151486 -4.4771132732 2.44766065092 10.780589469 2.4413976371 -4.15112015529 
8.96920560973 1.08009727965 9.88962889629 -3.74914198429 -4.89374325997 -1.55634403519 3.21550105561 7.61987438556 -1.49475256213 -2.14511904943 
6.76603550086 1.11537579339 13.2326021046 -5.57435865474 -8.39222734458 -0.408021413264 2.30381516428 8.4306908972 -3.89007586831 -3.41055333421 
0.69505332451 9.33630654506 12.6298191135 -4.83179343693 -3.295474755 0.214521103494 6.20113090063 5.84101839952 -1.64202556988 -4.70953111237 
-2.81435047977 9.55445375386 14.3849287261 -4.48689974957 -0.292210283697 2.27009016565 4.9491015483 2.13534846316 1.53204055639 -6.82352999557 
0.377043994295 -2.33944113028 14.7781688991 -0.758464525199 0.857791165966 8.83821667037 2.86380278989 3.62466943718 -2.9355628535 -4.76148099018 
5.21674868824 -11.1040492609 11.9362455909 1.05916279997 6.71028729451 14.236466384 -4.16160622843 5.11334313493 -1.98959288451 -7.23901337308 
1.34650373458 -9.8012709079 15.8332430214 -0.451068242295 6.47535775462 10.5871278267 -2.37425963949 1.75133526652 -0.65242961728 -3.47036014802 
0.473075112766 -14.3873473458 14.9394570615 0.666220842901 10.3234446405 8.81027965148 -4.14014563791 -2.43274573169 3.18016650145 -2.29118505742 
-2.9250203533 -12.0355911671 18.4971826432 -0.333005169078 11.2447678605 6.43617504811 -2.65413640343 0.736184916278 2.30034794771 -1.19452768541 
-6.99249784015 -14.8422991974 15.594375039 1.38330993584 16.359814168 4.48697652911 0.467199196597 -2.04277330821 4.29399580194 -0.609678347441 
-14.6949252179 -10.5760139103 13.0033737787 5.81906405564 6.60681619877 -2.20839857125 6.32346447206 -2.75769074679 5.71178835692 1.95522665346 
-14.3707942286 -9.88458058274 7.3654057834 7.0837895003 8.6376148304 -4.92075754991 9.46047602691 -5.41265502335 1.09385509639 1.97550051769 
-13.6583942921 -7.9152901724 6.59178039863 6.05308878405 7.4760842077 -5.90220584185 7.83465375713 -4.15392113306 3.7068440455 -2.78994175463 
-14.6054722325 -6.49093056995 0.642917983066 12.7576786007 8.73630981288 -6.01797341964 13.4296732353 -5.38272451646 -0.977304914105 -1.67016441149 
-14.3934008312 -4.40131245226 -3.85106974207 13.8800098976 9.11402580667 8.52188480987 6.6133269117 -3.80567909233 -3.85345793 1.58005945054 
-13.6932115005 3.87549024316 0.590687688019 8.09169928407 12.9049068807 7.00010092603 2.79013703962 -1.03023697431 -1.85606530614 -0.229658958026 
-14.2284361681 2.45604642049 -3.75352032936 22.9501406355 2.84482665969 5.53952815019 4.57289527895 -3.18934757966 6.43402127571 4.20773118645 
-17.2605415173 12.0806260391 2.80875710858 12.5711007974 3.77962954945 2.27313690618 -0.277889988432 -1.31114868075 2.08510396263 2.82334472614 
-18.7986633945 19.9697521148 3.75663351183 4.7830815623 1.01203405706 3.64066479211 -0.370192524211 -1.93708439755 -3.39947425735 -5.10391609609 
-17.1200366087 21.7122526432 2.00429422089 1.87941464595 2.50213715487 2.83065525343 -5.18978129963 -4.58406485882 -12.5382558735 -1.26662103254 
-20.4202189577 24.2834700146 3.24753256019 -2.63273899103 2.72520681096 7.18642395456 -2.66438957478 -5.82411845623 -15.4362688447 -9.10540505537 
-15.8695566774 26.3808609895 5.80906860075 -5.75519591272 4.82798677168 6.74141097974 -1.50995147007 -6.52684964672 -13.3747832412 -14.5070487948 
-14.4780246644 24.4652644876 5.86900335258 -0.216396342296 1.06698832448 14.3990304462 1.7105528964 -5.16564647764 -15.9111955162 -8.45328783009 
-19.3898368219 21.0169442701 4.11608225653 3.2688211798 1.56909373913 6.42071260899 2.74665452727 -4.28897493187 -13.1612796909 -7.99089040264 
-21.8487238934 23.5692445473 6.65508668899 1.98945311386 -3.63386121299 6.58638481444 -1.07887458066 -3.16462302985 -15.3566626701 -6.83052548054 
-16.0100072699 23.2563463422 5.04245011929 3.96281237294 -3.40283097019 -6.26663472366 2.48184496833 -4.82088140882 -4.05304429982 -3.27414777817 
-24.5327967696 16.5022340935 0.31662705239 7.60121619937 -1.30271118116 -5.88753322657 2.2966791794 -4.9510904753 -2.70809209611 -8.01040845138 
-18.4589667988 12.2738334779 1.99342752876 8.11530122116 -4.95625478042 -8.71717562161 -0.925212603566 -5.10550035486 4.53150886261 -5.57477228986 
-15.0242870714 8.64337533275 2.00024594088 8.45067231547 -4.89131282231 -11.9281086136 1.00580039852 -4.35438479646 7.64862634981 -8.22613726221 
-17.1668495902 -0.38721277866 -2.65544584455 6.35655308118 1.7558750536 -7.4384413713 -0.854791010974 -4.51684700703 7.77100280719 -6.52888241532 
-18.4702373809 -5.2543438932 -8.65819726214 5.12935859382 1.88444269553 1.09859403026 -3.41862859451 -0.419395512287 6.13888551282 -6.30520886242 
-17.0945937202 -8.52923957672 -9.49923410202 2.7950147001 2.54686224168 -1.56047822469 -4.14330526022 1.90602321207 8.64478009174 -8.22891547181 
-18.0376155191 -9.9102357737 -9.41208752378 -7.51843048527 2.40094856416 2.79468548426 -5.86289270607 2.6647490559 4.0924319173 -8.488101954 
-17.4043030776 -8.94175386398 -6.49125812844 -5.05296580489 8.96251621407 3.86764836978 -8.12623432871 2.57097572807 5.6391530156 -8.26380633278 
-19.0225154395 -7.59842753537 -13.7168335162 -4.23027532981 6.94558773131 1.18572970857 -0.0501040245455 -1.74674917057 6.22040370232 -3.33183752184 
-22.7094519455 -10.183036802 -15.9422991087 -3.94848658411 6.93711813592 -4.39975388118 -1.8658199271 -3.07694410314 7.44019966769 -0.367844082689 
-18.7897160627 -8.779206873 -6.92805331095 -3.5713170944 10.0148031361 -0.790409711091 -0.583719629309 -0.903792928315 3.80159663405 0.0975308852455 
-17.0659752598 -12.3162738277 -5.53248831124 -5.60133268865 5.66127135831 1.46494051187 -3.67113293074 0.85025931843 7.92251295327 -1.63897002702 
-14.5511430717 -11.7079520295 -2.32704299967 -3.26242506549 4.6505172501 -3.06593385463 -4.80121530405 1.74219788203 -0.651905116466 0.391327956468 
-14.0677743889 -10.6557506958 1.7197177483 -7.21314837943 1.0353233307 -4.41076829618 -4.31748688406 -3.45252307944 0.689331099005 2.75635276437 
-15.4387396864 -10.9223908732 0.389079724115 -7.31202542261 2.01853549063 -2.20251462155 -0.276580827077 -4.25158497273 -4.15358725792 7.44320792161 
-14.789018292 -8.70141331687 -2.29683882561 -8.43486541028 -2.1248034669 -1.90732287651 -1.67612245314 -6.43081925132 -5.99529548942 8.8505017673 
-11.471974819 -11.6232016287 -2.71727581376 -9.03950062924 -4.89342737181 -4.34543943201 1.6288196757 -8.38272137949 -11.3320733034 8.15447289566 
-8.51998287657 -12.803592691 -7.54257832751 -8.58218864712 -4.86950356713 -5.74784439282 8.1268897596 -6.85396092257 -9.27544722271 2.54683696447 
-6.39163947786 -6.72697283578 0.620206102239 -8.25539918654 -1.82867879105 -0.0894997832289 16.8594385195 -6.65028022288 -2.14213398635 2.23064031987 
-1.5262543222 -9.60384947128 0.619976263393 -5.79045796796 -3.12959917365 -3.00052494298 7.57537667537 -8.07968657604 -4.03599810931 -1.89310130634 
0.292991681432 -7.21526188748 -0.430114915199 -10.2510069432 -8.43151764208 -4.09364346057 10.2028957259 -8.64633894873 -0.642420019181 -2.55432625942 
2.76368310055 -8.22084712731 -2.01780937465 -5.5086311173 -9.88481924485 -1.70646998405 9.94173453231 -8.72312788763 0.662989025173 -4.90503216231 
6.17743068309 1.03306675791 5.61423790655 -7.24657516925 -12.9196743437 -1.17075351317 5.15155258965 -9.16054938038 -0.0956844993731 -0.614016751958 
9.98559165185 -0.914490863676 -0.403958800327 -9.55907093128 -10.1521309852 2.86797625524 6.02844261125 -7.44143760709 0.281560543957 -2.7388460052 
12.5430819919 -1.05119912145 -2.03076380953 -9.31114446846 -14.2357478131 4.23135674482 6.36614256412 -6.89469078022 1.13433899893 -0.954362326613 
8.66870137094 3.5236744385 -3.02935972884 -2.46185962417 -11.7496846909 8.23716231318 13.9241788576 -2.43510310335 0.666276238537 -4.41503095126 
6.70995693179 4.37203551406 -4.09557625014 -1.74586329225 -8.97954193036 3.04265538651 10.2011343136 -3.77707620196 1.64017513597 -2.63838340322 
7.92825992269 -0.919105706322 -7.24757104562 -6.56646699216 -11.1215072152 3.2035497203 9.09434227888 0.753911325691 -2.44269539516 -3.59273614271 
16.818348292 -3.66725468609 -9.9251099385 2.10282279637 -7.94382810417 -0.0657750103909 3.797348633 -4.50334448258 2.02488382977 -3.19010245358 
19.4989258353 -3.75347915928 -13.1240604865 4.62602156728 -9.26937663173 -0.13013711332 3.96692431736 -3.24139705973 1.1834238288 -5.81531278102 
21.736885064 -7.77827380272 -14.5198468977 6.12572594785 -7.26394269151 -1.03119781081 2.21968535821 -2.97925746587 -2.62402412639 -4.19400840939 
22.3704806528 -5.69061073093 -16.5780140018 12.0180326554 -9.62896462107 -0.276738238759 6.63002434734 -5.36329663188 1.12609359174 -1.54198609708 
21.3302113693 -9.00014168239 -17.6122635139 12.1153420081 -10.1122503468 2.79183057846 6.92998059623 -4.36154151566 -2.33944729098 0.978748855221 
22.5779638789 -3.79776502849 -12.5825280003 6.07016030854 -7.12681473073 6.95348738479 10.8076331904 -1.03958850573 0.580320879763 0.36953126239 
25.7610670641 -4.90935497437 -20.1891658961 7.68465334854 -4.02551947975 12.7619838987 10.2438069238 -0.000399753542581 2.76389564551 0.570361399305 
25.9306063719 -2.0549905525 -15.211144818 1.43410907366 -5.02858075092 11.3291199719 9.55928225147 3.87026807264 6.40626255784 -1.78015502374 
23.9315260731 -1.88189290449 -15.9064730275 -3.4172751042 -3.23649354304 9.76659250848 3.47793397357 4.41499851879 -0.415430077708 -3.04059035125 
26.7745230981 -1.39131514053 -20.2425725919 -1.05777864423 -4.31120762845 9.56669329569 7.49821775848 3.94586426263 4.41674332385 -1.49245900983 
25.473993623 3.81542341316 -18.4450840198 -2.77074640974 -1.95967144242 4.56275255763 5.36188418084 3.19246731069 2.33871603037 -2.9500899362 
20.4916134331 7.73423357763 -15.2485476615 -6.6579646499 1.888036175 8.31034491207 8.71827059852 6.07490296368 2.97195954649 -3.08381787714 
21.066128996 6.65683149924 -12.4874300379 -5.9014688073 1.65062797206 4.31154788805 5.26353521197 3.95435124886 2.84180552948 -1.11450831453 
21.1806448461 8.69402264385 -12.4205417512 -5.96455861122 5.76823725553 2.80198886759 4.01509240853 2.15311301041 -3.11914262753 -0.443207416816 
18.0282124876 11.0911241724 -10.4856547933 -12.4306664156 8.00069981907 -0.5240456354 4.3404955062 1.62210770049 -3.33445594404 -1.65092732842 
13.9028003605 11.2153842043 -3.56413975644 -10.4142722745 7.2996566783 0.456930476912 6.50572595467 -0.20837496594 -5.98203415233 -0.269369700454 
13.6063451434 14.7688031345 3.05300184968 -10.0156061545 3.20647162109 -1.96851031961 12.083737026 0.920294868719 -5.28779123983 0.0341945023596 
7.22164853326 16.4135163641 4.22298546848 -9.05156355667 7.35900548724 2.0365588436 14.3656950658 2.74105935237 1.44951519098 2.44313893936 
-1.23963436787 20.7161286333 6.62671557288 -11.6629652114 3.7602250214 0.00604918967958 14.6648150233 0.315417090605 2.3636081161 -0.85072031353 
13.9963807647 13.5140533875 -4.57033926996 -7.34713639227 5.23079787804 -4.91612432688 7.74302259357 0.308665121645 4.96596677933 -0.371756167316 
22.1872355008 7.01138898332 -7.0976765818 -5.64791422624 7.89634931683 -3.43127105834 3.15359167674 2.35060038735 3.66578488085 -0.433874778125 
21.1657880764 8.4617388474 -5.62296328258 -1.70519428513 8.27976476138 -4.17660177614 -0.44942337373 5.27737831452 1.04572091702 1.89396241784 
21.1899205087 7.23981355905 -3.81433343937 1.82635614283 8.55847198944 -2.12109711863 -3.01175206466 -0.203355715884 0.0483972910169 3.74943378844 
26.6589597165 0.171075782348 -3.91508591617 7.27126610502 7.44073111467 -1.23984662989 -7.44130057623 6.30358417475 -4.98974998851 1.64176802091 
25.1559446299 -1.24989464945 -1.8877208742 9.55592092766 3.78747768413 -4.48270544363 -5.66071792486 4.74951163105 -6.8428433934 5.1170171897 
23.9866658266 -1.39040585302 -1.44244792404 5.60613217003 2.26138202199 -1.19651814136 -3.45430361116 6.19829307381 -4.19356008437 3.7793050484 
29.0060848799 -5.24129608291 -3.29805908885 9.76296013111 -5.14280758507 -8.05833012339 -5.20905859125 9.59863319062 -5.2553942385 5.07948976569 
27.3748657595 -5.17579630881 -1.25503627979 6.42594256975 -4.26674841506 -5.00165058133 -4.95095569329 11.4637693904 -4.11392272283 1.26474590619 
22.5362265568 -2.13093568733 0.566563434616 3.93406003148 -5.55261216739 -8.28475982394 -0.869597096743 7.56395971392 -0.0577889215313 0.503584413413 
16.2082027481 -2.64126732008 6.94629740514 1.77356404881 -5.84417421375 -7.92554200656 0.926272580935 5.41448906233 0.0786929435278 -2.75590297656 
11.9277648655 -5.37053630951 10.770859119 5.58094277087 -5.60478571346 -4.9546864812 2.85159326499 4.21556292934 1.19824713919 -4.17494988226 
11.5337797078 -4.24120214627 13.784047016 3.65957205053 -7.00734419121 -0.480735334414 1.58413736509 5.26293720212 1.36335443229 -1.84405092902 
10.5210409051 -4.51258986227 15.8777684255 -3.55538557338 -4.54131088776 -1.49889227771 1.5892950246 1.42873874621 1.64200957945 -2.31916101669 
4.57191764056 -2.55834115607 18.5875738389 -3.50035594897 -4.11634936972 3.37361889293 5.54535973885 1.09007216922 1.21218514005 -2.67144488391 
3.47000100903 -2.57188543822 19.418138598 -5.67815957179 1.37831960581 5.64478621581 2.10961488483 2.04878267035 0.854981730643 -3.61386031869 
4.29871703028 -3.18927855596 21.2198351255 -1.41686084899 1.25607936903 3.84518277618 0.387155145111 2.56584009579 0.878826794797 0.956484275368 
2.97659970819 -5.78766313849 20.5472892937 -0.434062782352 1.59170160267 2.79792972937 -1.30936043748 1.90780085915 0.25928906948 -1.64093531052 
-0.873031033576 -4.67484519906 21.8693685367 -2.88454566958 0.261044421772 2.25500493825 0.634832194296 2.87698881866 3.1032900406 1.57703015271 
-6.72479952634 -8.93081528357 18.2830312143 0.760209042676 1.4245596304 -1.33673951335 1.54449996683 -0.311017827977 0.720664163558 2.41748862542 
-6.25903197923 -11.1298591541 16.2242053281 0.0922395701014 -0.913538816749 0.86643521127 1.87181808942 2.06302303982 2.88536729823 3.16654408085 
-7.8276060008 -13.3851828418 14.6326045779 -1.4048165078 -3.14575377239 -0.993105728623 6.27061980758 0.360768968261 0.272340473856 4.22975371438 
-13.4665791265 -13.4936878815 10.6432545645 7.2708655149 6.48442820875 -0.89758976998 10.7536849329 -1.3623370804 -0.723155284313 7.6578751886 
-11.6194567372 -12.1022559376 8.74467118324 10.6704131696 0.430207920442 -3.79283449998 12.5479984141 -2.71523237408 0.226280551663 5.0658830144 
-11.1041238774 -1.81495271102 9.57143019842 3.4841716814 0.023016825376 -4.76743283005 9.73247030752 -0.165329666986 -1.36291412711 4.6882974094 
-11.2349557326 -2.73034278162 6.40873776166 11.0284803996 0.870328953787 -4.11872835434 9.34470381469 -3.28516384541 -3.68617213245 3.35682347224 
-13.4969248781 -8.58743126824 -4.7679313446 5.33416883358 2.58921366035 -2.32845414055 13.5430132491 4.5372488147 -1.05485960859 0.0359922884297 
-12.2271866533 -4.72576856257 -4.61226557829 10.4814978157 -1.20974675251 -1.76020030809 13.9786916448 -2.20468704978 -1.68823265648 0.906320672576 
-20.706798751 9.50525976494 -0.508892923303 13.8282520545 -0.291424557262 0.556671840168 11.9881758832 -1.30108845637 4.87574093821 1.83002171974 
-18.7407598603 6.89823177478 1.53682082603 16.887315636 -3.83782696835 4.60305516913 12.2419626245 -0.085541186369 2.27545645392 4.5225198178 
-17.6385812708 10.4502347235 -1.30518726219 6.74439377563 -5.93477241758 6.93169481811 9.76812313062 1.02930477464 2.743284158 1.32986920743 
-16.8548372028 19.9602805513 2.80919099521 3.50600179224 -8.10140227518 3.72823822739 6.79043583773 1.83011911134 1.75481287673 4.07141870148 
-16.3888397382 23.858751348 5.65152612004 3.28200074303 -8.55579973034 1.68643717058 0.956677221137 -1.84029054044 2.89720483042 -1.12388746243 
-15.3007723326 27.3147478439 4.37284294074 -0.0583496609626 -6.11268464807 3.544500233 0.681234702087 -3.03907735752 -2.56479394157 -0.173353267503 
-16.0010171422 30.7855370155 1.1528912477 -5.16763305905 -4.78001964509 -0.53339802939 1.0180396774 -7.50974052076 -4.01561836974 -5.77694565766 
-16.7805298081 28.4290678504 3.97423710676 0.142863885439 1.01690316514 -2.02672940361 5.18478968537 -9.91018710859 -8.19601954732 -10.7462313567 
-22.339655298 24.7687843255 -0.318092626914 1.24887363924 -0.76358260907 -1.68239478859 4.05943521562 -3.27960034774 -3.56662811195 -5.27148690106 
-23.6407989258 21.4171145696 -2.72940984512 3.38204653298 -0.568027742536 3.87942037069 0.00107331014992 4.0625739337 -3.80783701077 0.412534964691 
-23.2951786244 11.5512027977 -0.50661848794 1.20176477509 -4.24426914955 1.34945163906 -0.800840560578 10.9959268227 -0.926059848048 5.22644436674 
-19.9791785144 5.46888977201 -0.642118360802 4.37179918414 -6.16995060555 -4.83107350897 1.31628110363 7.98943587501 -0.00381904446257 9.82876381257 
-21.8243798301 0.365608949067 -9.61508716972 0.11850690421 -4.04529293137 -2.03507983351 0.718063522583 9.75750665704 1.83892619745 4.24180234625 
-22.6783136684 -3.25365726101 -12.2307068881 0.955860459323 -3.90057121875 -2.09827648283 6.63131415092 10.5978895825 4.55004400659 -2.21345611611 
-19.7145467096 -7.22384660847 -16.3016151932 -4.09082451426 -4.75859192193 0.799208990469 2.13311258249 10.358333107 5.48222777535 -7.59438187995 
-19.4649453391 -8.33116723174 -14.4236006995 -3.995173101 0.129467152021 -0.459191449559 3.79127471789 8.9258489108 5.38655312981 -9.29193105047 
-20.5200866057 -5.28948242467 -13.1096889307 -3.82958639957 -0.0984190720836 -2.08513904739 5.13901435872 7.74477204202 5.21878080289 -6.25418233813 
-24.2116493645 -9.4401511694 -21.0005994511 -5.50489049326 -0.930145796884 -8.09850128524 2.14957479865 3.79233790413 2.43927496268 -4.22762664883 
-26.8793234433 -12.8226587464 -23.6605588364 -11.4543663563 2.11977262963 -4.9058236795 2.87414581566 7.14707570134 -1.34391558832 -0.310802256821 
-23.5208397563 -13.9373023426 -20.2031392094 -12.7514907068 3.19637411551 -8.40652998826 3.5998683086 5.24506525943 -1.94755016222 -2.35146620917 
-28.3544359249 1.825256309 -12.3245580526 -15.7128095133 2.33696729426 -5.37326947105 1.49350259555 3.92961049708 1.99734167234 6.10397254872 
-25.0952256466 -1.48815762436 -9.03112839559 -19.9047302079 4.97259561381 -7.00152487329 3.90574911205 2.34718613357 -0.00907652511431 3.36281625419 
-22.9979720913 -1.37191314775 -10.1295343871 -17.2710852691 4.69910196415 -6.0019403553 2.2692718782 1.60616590313 -3.42241823451 3.9110406672 
-18.707715685 -1.25364535126 -7.93645441065 -16.267837021 -0.163245002935 -9.35255013687 6.02094077877 -3.60925644243 -2.16063393437 2.80740964142 
-15.8606389951 1.23039281484 -3.06391504246 -10.7596987098 0.844386398067 -6.96557394656 5.34015925716 -4.50492112967 2.90562064063 3.00078611092 
-8.34471842783 -13.4380416393 -7.78433771264 -1.30411217872 -3.00698807472 -4.0321165688 -1.71584721205 -5.87420201663 -0.0847216208263 -0.514058944016 
-1.72134488732 -14.2760554065 -11.8295857688 -0.799646467518 -7.99049778047 -5.5048001798 -1.05049070622 -6.46439685814 -2.57781964945 -0.808332884254 
1.54905952437 -14.8513949346 -9.13182099454 -6.06933417878 -10.4412736419 8.69757859491 -1.59574071404 -2.80235880702 -3.1653057845 0.503011368752 
-4.34596807533 -11.0191762477 -5.26074077541 -12.455076524 -2.84385452075 6.68247839847 -8.46784266026 -3.54589565744 -5.70512865916 -1.88577648806 
-1.39449985509 -8.98288766652 -2.71467943904 -12.5266701266 -6.6287248976 1.1435330013 -1.03103282771 -7.1484942487 -3.02262408268 3.69114221686 
-3.23057553551 -9.25823761937 -2.02348613792 -13.3087171981 -4.51737604241 2.405912382 0.413358402741 -8.64354018596 -1.27015262103 3.38276262917 
0.527561977896 -7.98225341018 -5.27716489628 -10.4527818526 -9.46098214774 -6.15497949227 1.10411061519 -8.63497178439 -0.956617752798 6.01604624429 
-0.293243648412 -8.32317498028 -6.44071893446 -7.1570848204 -5.8739899355 -4.67480549696 10.3470216203 -9.15442781685 2.27092708671 -0.26707873203 
