-11.3520591348 6.91803750673 -0.244462491503 4.25977402882 0.903254324931 5.61000865719 0.474664685206 -3.63217660024 1.09451108909 -0.94800543202 
-10.8355013235 6.82310976678 0.502619336854 4.72975161584 0.00909613471728 6.62061341851 -0.0812468941738 -3.13677984503 0.235656340093 -1.34532360164 
-11.366601296 8.73493119892 0.51274047118 2.40858041252 -0.0441639011209 5.93506277539 0.195917297502 -3.3540401596 -1.34959052911 -1.94217289158 
-11.9476479132 8.12168848057 -0.617371659755 2.22712800914 1.24202168712 2.86312626548 -0.282727029049 -2.56361130751 -1.08461912905 -0.217672000697 
-9.43974348797 6.33387606893 -1.15452582442 3.13607853847 0.58059201158 1.04785994621 -2.29743754644 -1.64581899222 -0.0886644185826 0.224576267655 
-5.1863679408 3.47135425492 2.17394428654 2.97763037151 3.17689694117 -0.375592789705 -2.74302007269 -1.24520444539 -1.34765704813 -0.185707661543 
-3.15721234144 1.57045481348 5.47585620205 1.66191556865 6.71488264737 -0.876510961529 -0.491963312805 -0.131773370072 -0.0479583634748 -0.637453132921 
-5.01498464212 -2.62782914209 5.8317176484 -0.643850500176 4.39607370475 1.02436619567 -1.07284407646 1.11646555672 0.578399660103 -0.465678945592 
-4.53244897779 -3.12265752238 6.71237755105 -3.39035920437 2.96916506443 4.60117700545 -0.860327875581 0.497728098356 1.82337440894 -0.637062250158 
-4.63781513568 -4.32908592265 6.05127947085 -3.33610511677 1.48726696799 3.93689340322 0.0781746082848 -1.07076289332 1.7294836166 0.454774418706 
-2.44760295481 -5.32915187546 5.9579709634 -1.34489517037 0.476303866172 3.05407007275 -0.0795207294138 -2.52836647252 1.53099165805 0.840608321511 
-3.41253874573 -6.81006605216 4.80207197147 -1.60992261647 1.1845674456 1.98285657867 1.32859479609 -1.90542998229 -0.201734756347 1.51925526621 
-3.69606040045 -7.28275421651 1.69859749508 -4.3879595793 0.910214430406 1.5070479865 2.47256417658 -0.88394982332 -3.97545224858 1.52562504174 
-3.79989081967 -7.24043754131 1.46389761169 -5.04149077037 0.567359969799 1.67429465353 2.4471868502 -0.973451460308 -4.42796678173 1.54997668014 
-3.99309267938 -8.15582327003 1.63013169376 -3.31231419938 -0.314009374253 1.70982411019 2.48155771989 -0.425590653361 -4.7050255842 1.04561343041 
-1.90811038195 -7.45794497253 1.68740007492 -2.55724752056 -0.511149224606 2.18541063988 2.4527176615 -0.255158548358 -4.6043925702 -0.110310832051 
1.60498902265 -5.74619731878 0.304550887384 -1.0226024678 1.40696199071 3.03079728676 1.56028293952 0.249053946684 -3.25522725152 -0.384576790452 
3.93372060691 -4.66645332057 -0.842053644672 -0.126652991441 1.41436648235 3.40525860979 0.00265985405168 1.29825791473 -3.28061726188 -0.0508863997821 
5.99992903883 -3.89301348522 -1.88640770261 0.255745999246 3.33209951688 2.05775849313 0.323421907837 0.42134914992 -2.27261465154 1.4309202812 
5.16714040873 -2.73896041817 -4.33572421926 -1.78583248792 3.16202745069 1.77137730057 -0.238962283885 1.21744292478 -2.28210467961 2.50023425919 
4.01986791051 -2.86761671313 -7.1297407488 -3.41168591348 3.2760531595 1.11655496131 -0.155197869966 1.09465787173 -2.73329451158 4.39989772668 
3.41330035712 -1.06547965052 -6.54084899676 -6.44010253553 2.55883132805 1.26158359532 -0.254093604288 0.232914214481 -3.07310822079 4.18675440946 
5.87783359277 -1.02756488759 -6.05383618829 -5.71249704921 2.84582190055 0.406766281931 -0.847512069868 -0.059702734362 -2.35323350172 4.03236316705 
7.06201828112 -0.563204533627 -5.39385054056 -4.44135746015 3.745027954 0.406666380253 -0.585965027946 -0.558935129772 -0.74465710537 2.18875592727 
9.57154462819 0.468903145981 -3.09760177415 -3.73018343085 3.98096036521 0.963967381036 -0.768986068411 -2.030367899 0.926473728864 0.516534862336 
9.82480981515 1.25325203477 -2.617362282 -3.76045611617 2.9342976069 1.09834764889 -0.604562470844 -2.00954256273 0.498663615836 1.04744043209 
10.2700082793 0.80124749803 -1.97591981586 -2.79595530029 2.56390070121 1.1199473767 -0.296229221933 -1.69517144235 0.105076539612 0.996108174518 
9.57587808047 0.379421316475 -0.817515161925 -1.19892799128 2.01848952473 1.23514821788 0.674231624329 0.709273421084 -0.871134233615 1.00416455298 
9.56192901177 1.46608351673 0.835246349589 -1.25370802681 2.17356804485 0.824169769869 0.971217244494 1.19729110365 -0.0356962981987 0.945924169746 
10.28499373 2.28719276618 1.56772261909 -0.164338867223 1.88841340109 0.898659989763 1.13400738401 1.55018426169 -0.0554240538097 1.25410685255 
10.3130764072 2.64326976512 3.12770374463 -0.367090891089 1.41908246553 1.04482278377 0.875959369825 1.46588457819 0.245284185819 1.38642676499 
9.9083201085 2.77570465927 3.50311259494 0.69216826703 1.29708869647 0.581161113173 1.34121301539 2.72171453643 0.251667121022 2.45906768297 
9.32479238097 2.67731877745 4.24469427548 0.697210006818 0.956464694542 0.262337907729 1.73613056912 2.85708501533 -0.112365978963 2.41804990526 
8.58243742315 2.69421114889 3.18384473887 0.164276664139 0.272780304937 0.695175952747 1.58603496917 2.76122023387 -0.243334442662 2.52931436878 
8.69943725406 2.89420686834 3.21808981886 0.97243971985 0.375072860842 0.645739814038 1.99894953791 3.21366759269 0.152011514883 2.65377634072 
9.02549349634 2.56866543806 3.57779918708 1.60672925709 0.196527816135 1.04679548278 1.00556175079 2.93711055471 0.523600135907 2.37774636095 
9.40079454101 2.51828911435 3.75384374652 1.64686214978 0.193300857312 1.2806632454 0.444301864792 2.66161397435 0.784294156 2.28346433556 
8.85244580811 2.04390131931 3.89349731466 1.41319256788 0.362975311439 1.41595804458 0.518259612851 2.67455402585 0.814749271792 2.33715878111 
9.03078469616 2.17152958352 3.83687818761 1.40556480461 0.159204364504 2.03514865839 0.394534680262 2.67007809928 1.02595638028 1.78784793124 
9.42953872039 2.59530747633 4.26676020194 1.53715172968 0.359895053638 1.81158204698 0.593009638772 2.20207924854 0.729708744127 1.7591870482 
10.0834270337 2.65306959655 5.27045065652 1.80768396551 0.45935784017 1.88467024861 0.524708034984 2.12007494766 0.849760309063 1.66465000076 
10.3408560646 2.67570066028 5.02674862595 2.05358005918 0.43145502272 1.89885266636 0.487285855812 2.00443801315 0.515303878655 1.75149619646 
11.5701096564 2.59204189974 4.78813901789 1.81003219808 0.955083184958 2.19457360548 -0.0663160367856 0.572031095029 1.05160917118 0.771827548178 
11.4959068553 3.02377058197 4.58687985308 2.38551348954 0.336645892236 1.93225287201 -0.272317836556 0.501881424401 1.21539931602 0.641696805896 
11.5568969566 3.45953566823 4.34824775319 2.33810098092 -0.0905072165975 1.7753669083 -0.189943850091 0.244511986402 0.906862791824 0.229002599434 
9.46516893036 2.82285374738 4.57685188014 2.23946662098 -0.644440861802 1.6308484852 0.701913937415 2.03319789673 1.08536192921 1.05671311677 
10.0612899237 3.39629276481 4.62041111767 1.33656304643 0.0761418172961 1.56819523893 0.610005255854 0.719563687638 0.931270823211 -0.111674194729 
10.6220219576 3.04091416115 3.89244016841 1.09739105338 -0.154271561832 0.994102196376 -0.195080590655 -0.660565471962 0.520812627624 -0.0617563684579 
11.3836910748 3.16481209933 3.76522349173 1.05817388936 -0.106219147633 0.460456320442 -0.469852811486 -1.00503436126 -0.222480647911 0.0681738607092 
10.7105552451 2.83062556689 3.03799132621 0.696804729697 -0.218755691598 0.635572864023 -0.627679292476 -0.508378922261 -0.24830331095 0.399588648991 
10.2239263299 2.7069796339 3.21095918681 1.03307133399 0.0114316366117 0.596627423221 -0.631342503619 -0.148892155824 -0.16841969256 0.391629959129 
9.20284695126 2.60558280005 2.27126089461 1.18361987636 0.0792986904344 0.67451602635 -0.396545927343 1.12600337228 0.0364632259868 0.632909169423 
8.45289982283 0.918773297242 -1.16359329287 0.990833783106 1.01414909761 0.979406809942 0.180506608361 1.64495510939 0.519233247183 1.52115287423 
9.16484293292 0.501057513564 -2.84431491205 1.21822343889 1.82167504836 0.810211766801 0.409760741357 0.647665028715 1.12282374289 0.668406338553 
10.4723340397 3.50793429792 -0.349884771737 -2.01751070445 1.48929515756 1.07752118231 -1.12695669688 -3.42653942483 0.618001176998 -0.462578050848 
10.2206759101 4.12674322497 -0.189978016142 -3.24171124272 1.84826530825 2.42943413931 -2.41362143168 -4.40441759147 1.36586995702 -1.47564575667 
9.16000846029 3.38839249531 -1.78496869704 -3.21706966403 2.15833744657 2.84790662872 -2.40919565693 -3.36343656022 1.56336482832 -1.40305718439 
6.13981119523 1.74996064141 -3.8114742467 -4.07435662171 2.25427235748 1.3225657484 -1.20959886291 -0.979043082729 1.02765975976 -0.292894421407 
4.76698508109 -0.894689526 -7.10790189958 -3.59676120669 1.63790947062 1.40371330304 -1.66328100722 0.503032279967 -0.767712761659 1.42087194149 
4.4741533826 -1.51557372397 -5.55601806663 -2.67451427015 1.28503517588 1.67128509928 -2.05360886075 1.18575335294 -0.673015056625 1.74766111919 
4.94413775658 -4.18651413004 -6.79786899966 0.3274983628 0.0312434769324 1.08323823805 -2.12610848753 1.11260978273 -0.287358006365 0.0742177963883 
4.21964910049 -4.56790454164 -7.01121646766 0.00145442101451 -0.187515747015 0.749955402113 -1.51630678035 1.41864717553 -0.250875422038 0.145131853087 
4.86437960409 -5.19186783637 -6.40670231777 1.86228730419 0.810793562851 1.41403967186 -1.70646314849 1.5387013586 0.683381001449 -0.0586974875946 
3.98480681969 -7.88022278773 -7.32808382481 4.03307361593 0.394344441591 1.405196878 -0.866513201719 1.09954221704 0.94963418521 -0.648425089566 
3.33714332531 -8.39196214519 -7.51961565481 4.35740378938 0.30669134684 0.375594359423 -0.303679509276 1.51659716358 -0.33253783535 -0.183231688547 
3.63636731767 -8.25088424011 -4.82939722374 4.32556602093 0.0880036319835 1.70639648911 -0.73597510132 0.611607789816 0.070221633124 -0.765827231712 
2.03400186719 -10.4963802056 -3.12230275452 4.87359127802 0.472931273552 1.52156780762 -0.0371643405383 -0.700676320897 0.426969915086 -0.32549052953 
2.06374424858 -10.3577398304 -4.64056270534 5.69239135328 -0.0346423872323 1.08471742104 -0.26614695934 -0.997760916547 -0.376874295312 0.636467738655 
-0.810702969923 -10.0215427517 -4.62771655108 4.07030616188 -0.908153978286 -0.665564403102 -0.813747501726 -0.162584545943 -1.41004821867 2.25901741214 
-0.62934498651 -10.9831484636 -1.81888664506 5.22041092163 0.45042478367 -0.789075254618 0.402306292331 -1.18364946744 0.277324027511 1.17616997341 
-0.734273663714 -9.75322865047 2.14131055012 5.5454190109 1.44054838181 -2.35011967662 1.00507708873 -1.64495635164 0.499949610557 1.0907942999 
-3.33943931261 -9.398438454 4.46647401454 3.38009039686 -0.59250603678 -0.621560902206 -0.0121243009741 -0.605500393911 0.508214968641 1.53966270029 
-3.54549306527 -9.8115269031 5.57630666636 3.31351933393 -0.459474665205 -0.924195692069 0.24204770682 -0.732621291894 0.660179107663 1.50051434407 
-4.91007063993 -8.83742285729 4.34852603603 3.49703055503 -0.438756279056 -0.275356656386 -0.0136217628943 -1.34339921975 2.15775183601 1.27164998605 
-4.26499815615 -6.0952728141 6.07484299788 2.82358231642 2.59291351878 -1.19725592684 0.849604548574 -1.87295141909 1.17951611734 0.796016588233 
-4.62653418104 -3.69350692341 7.3836961253 1.21228180253 3.6647600893 0.00407063162057 0.242761094013 -1.09651885458 1.02492875359 0.303259056555 
-4.3260046029 -2.93709172376 7.51140150224 1.76552144367 3.57369523799 -0.00619049537109 -0.831364152597 -0.578186304737 0.902471163047 0.79472205598 
-2.71143601889 -2.51515096348 8.00895480223 1.38777079316 6.57894362682 -2.04695478265 0.296554779178 -0.375109539498 -0.0780689927503 -0.0431177751159 
-3.17468987743 -1.1883362821 7.52576140044 2.38304455696 9.21108953323 -5.00591999614 1.89255692916 0.335684623067 -0.389919199444 -1.44456148025 
-3.09073539091 0.717753731868 7.21001772038 1.43539253433 9.4751803077 -4.08839478709 0.340549391235 -1.07197812452 -1.18737228086 -1.95782284143 
-2.75745373535 1.61620557986 8.06519444379 3.39311842855 9.09454881953 -4.66116349739 -0.435236489363 -0.955551857474 -1.45387931267 -1.09806391848 
-3.03052810338 1.77784644564 7.36877575725 1.97244281077 8.87940335096 -4.35206572205 -0.881053164337 -1.99984770656 -1.41078772805 -0.929399513325 
-2.28869033882 2.34237323895 7.42368251231 3.96072968992 7.59911896708 -4.46879779701 -2.22216208993 -1.70600113476 -1.75672167104 -0.0529135826496 
-4.03298078695 2.02692726438 5.83159910899 4.29623053338 5.76212830117 -4.25462956354 -3.79895491821 -1.44387340927 -1.66756539041 0.694060724271 
-3.45697608549 2.41749619393 4.32965003205 5.20681732888 4.95372419828 -2.98110369097 -4.96432204805 -1.55908160936 -0.990468500831 0.504154263324 
-4.45915658285 3.55295723769 3.67341480666 5.2585173998 4.34648298495 -3.75872489794 -4.22057975692 -1.97844216515 -1.2448571776 1.17663813896 
-4.43105229813 3.58419211896 3.76329148475 5.43793769551 3.9619439002 -3.51098845323 -4.14335160845 -1.91030731371 -1.11319437254 0.969905357229 
-8.15566931404 4.63303591865 0.730449981655 5.76863200017 1.95020052346 -0.884743594782 -4.50010443466 -0.688485910226 -0.346111484973 1.66552971353 
-10.8069496767 4.66101569032 0.38840346581 5.47496382672 1.76706076371 -0.744980148933 -2.48066674313 -0.465200002873 0.685857208719 1.74635976239 
-11.648531575 4.89054348437 -0.760207031448 3.2994393798 2.20194835726 1.00651823723 -2.18147628111 -1.59369105899 0.223879770698 1.20935115118 
-13.9422896144 6.55021846743 -1.92261485596 3.15527571418 1.72442282925 2.70693123417 -0.3511564231 -1.46690412321 0.638818924074 2.69674658872 
-14.5562575282 6.4577892945 -2.92968844241 4.07846430654 1.86417742435 2.5852079456 0.976572407385 -1.24924904116 2.24849244775 3.09917886507 
-12.0891496126 6.65837402968 -1.71842558168 3.17788547928 -1.06679638461 5.26995562812 -1.44091231339 -1.57135088263 2.22005581517 2.81917677462 
-13.6362338792 7.70417771353 -1.81479764932 3.40760481727 -0.50906418873 4.71110117258 0.89537304257 -1.50688783031 2.07826906021 2.27480199326 
-13.3924919302 8.50699638814 -0.949797358717 4.60358003625 -0.696221650538 4.71180370039 1.06140500186 -1.37301243233 1.54712174224 1.85615874213 
-13.3664420083 8.18539923615 -2.29206710887 4.70323514008 -0.976660091003 4.58019064149 0.0984072981824 -1.84548086327 1.26312616032 1.62382158708 
-12.4315666588 8.34913652207 -1.56199361702 3.0680859243 -1.69343682389 6.47851037746 -0.798241326743 -2.41757781887 0.319030274331 0.437535077892 
-12.8864341495 7.9620916963 -1.92479616785 2.58258409783 -1.35763294133 5.66156017119 -1.10156589788 -1.79245185735 -0.234019892173 -0.265616536784 
-11.1760007287 7.44382394241 0.107693671032 1.88165479713 0.727354673723 3.56336282151 -1.73208051599 -1.97365748532 -1.60872793689 -0.0304378359401 
-9.37573334625 5.91082189632 -0.500329499547 1.04358764687 -0.301668355803 2.80077249833 -4.09419816514 -1.77358424989 -1.23229102667 0.163030532643 
-5.92313747765 2.57663460665 1.08665093601 2.26781756671 0.248499091216 2.41926208088 -6.23011017857 -0.48953588623 -1.11500709943 -0.0620928862652 
-5.03797807353 0.316628455794 6.18264867442 1.16910127414 5.05163146657 0.192457899734 -2.04994671221 2.22535647543 -0.067142344991 -2.1810227086 
-4.18814535889 -4.10385379628 6.65820091897 0.627212532169 4.12565620212 2.63834109807 -0.902161890419 1.6573821851 1.81899190589 -1.98179706871 
-6.00330241074 -2.22535591403 7.46583079692 -3.79892233263 2.75275376927 4.54906743121 -0.931823063309 2.02427829188 1.76828924786 -1.31252406343 
-3.98458390911 -4.64148767544 6.33340420421 -3.6925256568 1.53917943743 5.32119305594 -1.36609352535 -1.22890691704 3.26685988946 -0.597347636649 
-3.24665977084 -6.4949547051 5.0560419421 -0.656502795517 2.3181158334 1.81561641453 -0.166239252224 -2.41888723492 1.18782600669 1.08902853476 
-1.98701836438 -5.59045870275 3.78097542133 -2.5199469426 2.82950147458 1.94697464021 0.704666635019 -2.35974085068 -2.06576816305 0.199029819938 
-3.43207804051 -7.62048724642 0.532977558173 -2.52748906206 0.369106984593 1.50030759323 2.18682291436 -0.907355016295 -4.28372049635 0.994003503987 
-0.465408476894 -7.51901491007 1.81898824866 0.684253576115 0.566859216321 2.42350060114 2.38249729823 -1.35915637802 -3.16172714688 0.315925147365 
0.344243075554 -7.56571068918 0.197818536242 0.88793146722 1.3589148771 2.14646835425 2.48258308555 -0.447877024766 -3.00336385517 0.0346716390467 
0.435491929256 -8.07289012801 0.244881001079 1.8683432475 1.30193673522 1.96137078287 2.4626344209 -0.32223680964 -2.61288605809 0.350825438304 
1.50619703087 -6.80518353998 0.224779160349 2.15384357387 1.44070842985 3.58735011116 2.58799066273 0.195650046358 -2.37055905769 -1.21867037506 
3.02774849122 -7.09402957809 -2.40419025991 1.98672899525 2.99519204719 2.4676499197 2.14917642073 0.893962741252 -0.460305953004 0.345642022174 
3.69647408921 -3.78455819771 -6.12366656031 -1.84206450581 3.65513989993 0.544088862065 1.18501946614 0.925794718899 -1.76789289645 2.54832756895 
3.01008553357 -2.98745750962 -6.82855408009 -4.93190909644 2.75384353787 -0.406933681545 1.20268774471 0.961739364938 -1.7337744163 3.64189737758 
2.55105230571 -1.26330755425 -5.11104536819 -7.71138200764 2.34860463294 -0.270071824806 1.08457551216 1.20504376999 -2.47184499122 3.55623234289 
3.35060262913 -2.00090123185 -7.80048362662 -5.54452390324 2.6327654797 -0.759782282218 1.04552992248 1.20740449352 -2.11303879166 4.52475365808 
4.22015268874 -1.49494616872 -6.34411406513 -3.99618522574 2.82041141379 -0.699790996198 0.53819287427 1.33532187996 -0.910721618701 3.23930318117 
7.01322710532 1.20214887627 -3.35910229996 -4.01147801805 1.39812364182 1.45298868647 -0.410842787678 -0.734264259198 0.495857133983 0.0484986581932 
9.64170520223 2.88502308791 1.0754275356 -2.53677256519 1.59477552411 1.01999077112 0.00216032529638 -2.22125280807 0.2857516973 -0.967024624532 
11.5478518744 4.76966600066 3.71492750097 -1.70591112166 1.86502722858 0.495643134944 0.733188966623 -2.96549124013 0.00111610414773 -1.41041979022 
11.4059297567 3.69470470925 3.46320489198 -0.638483970135 1.89839814781 0.553597529835 1.39133325002 -1.03762627461 -0.190659172613 -0.609741107702 
10.7457194544 2.74750895604 3.34603918646 -0.444330509412 1.87650201244 1.46540886267 0.985971171013 0.665784853393 -0.0671052142032 -0.0378247639678 
10.1562856674 2.77317471817 3.52090208636 -1.10917290396 1.34676198458 1.58524108778 1.06692143491 0.716092854682 -0.0142629638815 0.243525523514 
9.71875600001 3.00447496113 3.76721381199 -0.636030857732 1.086060005 2.24093584365 0.957453827674 1.32673921399 0.296438443385 0.802424802187 
8.7668712183 3.07103738643 4.91278170363 -0.345444627647 0.356352127318 2.33606386118 1.00899782257 2.21342300671 0.184265936882 1.20779025586 
8.86379571614 3.49680363166 5.75243546532 -0.327632529344 0.280832144225 1.90745917264 1.006586435 1.83599527555 -0.0835650342374 1.13399024207 
9.67157804421 3.92769856375 5.85632828196 0.712143337274 0.310852610515 1.61801944257 0.677572943107 1.7289703751 -0.101792671901 1.33279098004 
9.32301133338 2.36272443217 5.47824631783 2.40603246973 0.393219184432 3.15053086067 0.797945088171 2.90914239025 0.350392208043 1.20750506423 
9.97518861892 1.86949655009 4.83071755315 3.08347481099 -0.723046067284 2.37628013281 0.413173360679 2.14200311222 -0.346350197344 1.75393260642 
10.064447739 1.98142054817 4.72163608692 3.644967798 -0.826236558227 2.46321032283 -0.101445790663 1.84031358717 -0.0898317071778 1.82220263829 
9.03064004873 2.41037289704 3.65489717505 4.07118976163 -2.0481573674 0.748200047505 1.17291879304 2.45031557686 -0.127740333797 1.90353309726 
8.6553359345 2.27127209706 3.08722304412 4.36918568726 -2.15327171351 1.23450363714 1.08356341615 2.86139714743 0.646933482871 1.81100087402 
8.74363061252 3.07644194156 3.12215898058 4.23009837465 -2.71194068821 0.726254619252 1.41700218313 3.50987521129 0.64026044693 1.89502799259 
9.41725547684 3.96561578162 3.75529728876 4.23835312399 -2.60420712102 0.726903375089 0.69248748852 3.32244334869 0.751875467637 1.8612761956 
9.27916589537 3.5821312734 3.73131299426 4.7204769821 -2.49423278424 0.34501149525 1.02241730093 3.99214412213 0.795710314658 1.93611677418 
10.0216542472 3.33051743269 3.81391698605 4.48490254264 -2.42628123442 0.149050405364 0.593534639422 2.62037929937 0.5222704939 1.64294181722 
10.6783863742 3.80742940707 3.55147426135 3.62040364248 -1.73671275227 0.243914120852 0.477421676159 1.77986377852 0.60361882406 0.825090265186 
11.2919368069 4.16903984002 3.31176222116 3.0061903848 -0.955633188925 0.0156733115595 0.154528154722 0.966967798683 0.509693089852 0.466878180582 
11.5510768937 4.3889505673 1.65954596427 2.04548165855 -0.418978550891 -0.715818062333 0.283750308312 -0.693930403253 0.403370940174 -0.319997682931 
11.8752546099 4.40867584073 2.53376083706 1.61418377177 -0.926188619303 -1.06195471147 0.0275407587719 -1.01355619809 -0.0675168102261 -0.707966685915 
11.2303560275 4.14232476398 3.165567305 2.06395969562 -1.86082553595 -1.36383265571 -0.193158130839 -0.19150555395 -0.979459764538 -0.0289848935481 
11.7765997004 4.40119070446 3.28699653887 1.62440332465 -2.05152631987 -1.03096661083 -0.300523413671 0.247350380968 -1.10204869226 -0.230000299561 
10.5599822771 4.15699765136 1.5986521132 0.454797244887 -1.84130910603 -0.55081733445 -0.126079712109 0.0541048632654 -0.129291556578 -0.616113373605 
10.4343163159 3.63246140518 0.534129940121 0.35680825354 -1.12039666477 -0.457041243534 -0.665984273993 -0.46999663521 -0.273523239477 -0.686275686473 
10.5837572503 3.9710267023 0.369001488468 -0.475598699454 -0.654519646257 -0.0362360742821 -0.813417077263 -1.33193671378 0.0907398185818 -1.12236903919 
11.19077106 3.3187745644 -0.375188215432 -0.658545192927 0.315376998004 0.385563489988 -1.26255086444 -1.98666846393 0.384044991081 -1.58824379081 
10.2004117485 3.32323240576 -2.37673465714 -1.44250035472 1.0289544431 1.43415213845 -1.66852103006 -2.33868646545 1.18291413507 -1.56471473034 
8.15067647698 2.21631997186 -4.21151249343 -1.51722635116 0.621684666768 0.766462166191 -1.72501594527 -1.3647725339 0.818519831592 -0.733866500816 
7.25278204374 1.37927021144 -5.54318067285 -1.15666608295 0.970114100597 0.653841297522 -2.03996618733 -0.915824722837 0.730045269489 -0.517268315829 
6.88547868541 -0.00692435482675 -6.24696967428 -0.264682428866 1.02617927616 1.52662990107 -2.71229015501 0.351579216809 1.3683597383 -0.192764238489 
6.61431865857 0.518115866495 -5.82547230943 -0.562258874542 0.891578670436 0.634922213574 -2.62934744923 0.294941430431 0.489468385654 -0.188649225662 
4.94761739799 -1.04675603986 -6.44774288645 -0.36931367071 0.405980712049 1.12618269104 -2.49296541517 1.41647699527 0.32352305398 0.724371315242 
5.30980910399 -2.59651831941 -6.95461985969 1.14203037535 0.0736690878093 1.81903254216 -2.16198745252 1.71705236736 0.497076045889 -0.467889013732 
4.48155059053 -3.29318199078 -7.16847753495 1.18206018797 -0.156945167581 2.12385845685 -2.20122661448 1.82859474453 -0.301213295113 -0.568177001693 
2.84355806035 -6.33514686971 -8.63702263912 2.67127713478 -0.624144095035 2.42780236634 -1.33562687957 2.41859594358 1.08776476904 -1.47412196301 
3.06707703851 -7.09557675438 -8.02123285711 3.23120710022 -0.56837967019 2.38543558826 -1.11622430668 1.64694434647 1.21134383984 -2.25974528959 
2.47854999356 -8.63399723721 -6.26180030476 4.07644493365 -0.433346084245 2.61511665011 -0.661081002349 1.09463442706 1.27521489812 -2.23653507234 
2.3849447581 -8.55857365019 -4.50787400227 2.49297611957 -0.959592850202 3.09034217249 -1.46704854277 -0.867794784249 -0.230701982184 -0.902758362062 
2.17428560495 -8.48099997197 -4.63993247657 2.59846758738 -0.876675916645 3.11379944514 -1.53712287612 -0.794961045619 -0.727643062619 -0.63916780776 
4.04880565886 -9.10676454493 -3.68227153962 4.57573665729 1.63136130046 0.930776077023 -0.560075174615 -1.40734364379 -1.25059403465 -1.35318251482 
1.22488431618 -13.9528938126 -2.69251289275 4.84686056156 -0.0576445801933 1.34444284408 -0.122085154253 -1.89840551501 -0.590515688457 -0.969635954777 
-0.496272543822 -12.0521902024 -1.02931022482 4.66455357071 -1.61771078144 1.35577494224 -0.627109782171 -2.43064995414 -0.813520410286 -0.431388499171 
0.132434115852 -9.31103381268 0.213848076192 3.42923602196 -0.57801911331 0.387610689386 -0.459349024732 -3.26661886757 -1.41412292613 0.168999338079 
-2.06212804603 -9.10934665444 0.844409117252 3.47989916202 -0.378885912517 -0.158034003678 -0.417057553626 -3.74434127993 -0.641395491964 0.81470089936 
-2.69833397545 -8.64199720902 1.48837557647 1.3834758961 -1.47458322648 -0.384494599536 -1.14074990258 -3.66979482025 -1.00453758139 2.05095143458 
-3.64226045229 -8.1948751557 3.95618949774 2.02933492522 -0.879778827447 -2.09059996182 -0.687258294463 -3.6000304644 -0.402694385728 2.69436447845 
-5.2505717584 -7.3601911045 5.8866469347 0.707653013186 1.30381554344 -1.54442402168 1.14442806045 -2.2679046586 1.73157488733 1.64150884145 
-6.35913590428 -8.05272298733 5.13519161151 -0.340127274546 -1.04066096442 -1.20008040088 0.335316451267 -1.33614833296 2.86906404045 2.38978215345 
-5.63200157022 -5.56118524837 5.60518252709 -0.165394901815 1.1921446005 -0.146972553511 1.12043708105 -0.816081342154 2.65726798316 0.331020006388 
-6.14954773276 -4.58225006714 4.80847261964 -2.19728963501 1.57548094003 0.363827551221 -0.218192494994 0.13889554121 2.83524415272 -0.366542705607 
-7.00967857575 -4.25557211679 4.54573655805 -2.11752537096 1.9039139591 -0.138034046692 -0.686515740992 0.696126800533 3.38044796902 -0.58858451827 
-7.14795499376 -4.95343133609 5.47068212868 -0.0107796303756 2.47452692718 -2.18442553829 -0.0537645995742 0.885785794879 3.11980229548 0.615078243967 
-6.02605457344 -3.6594648085 5.25447739208 0.789391680419 4.05564172184 -3.57945571248 -0.21472933684 0.907018179255 1.91887108197 -1.09815015733 
-5.21330084594 -1.62679823278 4.64413493457 1.18543704206 5.757588108 -4.52726396101 -0.999042740932 0.712441560812 0.197178470093 -1.24732599401 
-2.91973762244 -0.0738772253808 4.73578448522 1.76572182633 6.06588272726 -3.50366832047 -2.8219290611 -0.572201143578 -0.627552507014 -1.95331142511 
-2.94936873356 0.775788634757 4.24164902366 1.58848031014 5.85813196162 -4.50025916802 -3.56370652212 -1.7220484815 -1.2927558911 -0.708237183919 
-4.22060734008 1.808215625 4.2336422462 2.75898701545 4.68770308553 -4.62542300962 -3.66290060878 -0.795172717799 -1.48315469108 -0.269702288156 
-7.27821858141 2.43147365864 2.16275463964 3.70077332544 1.80916029227 -4.46296979828 -4.57930727692 1.52004353295 -1.75146328909 1.22271105671 
-8.14081054067 4.26230527834 1.46712807879 5.38693787354 1.18593512337 -3.67315920909 -4.6431534463 1.85767621336 -0.876001837833 1.03242856535 
-9.27414055838 5.16870371127 0.508665835476 6.61520877867 -0.521462400691 -1.71045908114 -4.83713733028 1.29232221438 -1.20991183037 2.0128052949 
-11.4100038701 5.51816905836 -0.697599707463 5.65551199381 -1.07417735407 -0.259715996481 -4.09458111281 0.627265707224 -0.710957714703 2.25363208915 
-14.7245907927 5.74819991926 -2.04857783049 5.406243722 -0.429772790501 1.65142859012 -1.98606815677 -0.600723072592 -0.0624673589355 2.17049849654 
-14.9576119135 5.61864899627 -2.21059675253 5.43397340465 -1.11022353967 2.44343151305 -2.42373467829 -0.207249298937 -0.12137096482 2.49208630674 
-15.8771945011 6.56474699778 -3.26895065853 4.81268247412 2.27533197974 1.72149918694 1.01406616982 -1.32742969128 0.914241299232 2.74381531906 
-16.4683738819 7.63017581037 -2.86550212122 4.30188559991 0.785941179892 3.38335001935 1.36705093065 -0.720659430922 2.2756403177 2.01573433706 
-16.061311408 7.71408895863 -1.87682953189 4.28556205146 0.454639817137 2.97538624337 1.7618850476 0.139916276532 2.54401056022 1.97957004257 
-16.0094376362 7.57797551901 -2.27011698349 4.37606199219 0.808499698965 3.07631169926 2.3018803488 0.247194197772 1.96076916286 1.46748185903 
-15.3576830573 7.65309600518 -2.79537437667 3.05926164385 0.545148729225 3.6665216663 1.67611728786 -0.299373357213 1.20946824998 1.35574220222 
-14.0062461782 6.54014288029 -2.4994314612 2.91484519671 2.23848664528 2.71643628949 0.650576963213 -0.94305876304 -0.0943132756777 0.719975719179 
-10.0919099534 5.22401835381 -1.55722937766 2.91305295506 2.76060694365 2.30594609532 -1.77480985355 -1.66506423149 -0.324816313215 0.200012594692 
-7.86318204772 4.66776546984 1.17276636148 2.0015611304 1.23250462001 1.67516388833 -3.60694946269 0.121878190368 -0.44723375639 -0.336880948243 
-5.86178432359 2.23179586331 2.33312624476 0.324106079801 2.27051344612 -0.327258913344 -5.82500607732 0.781962149035 -1.85497170818 -0.710108687498 
-5.55882488469 1.19073886079 1.96077519128 -1.97863513183 3.96337822028 2.17638172658 -4.34334898996 0.944306606664 -1.34367863563 -2.05840497534 
-8.01207881008 -2.68193952163 4.09209544282 -2.08741482164 2.08756523869 1.23936768511 -2.6382115099 2.8867347119 0.145419904075 -1.06525759455 
-9.00530868377 -3.62273194545 4.74221253029 -6.10296509731 1.68470314203 2.08861620408 -0.354124480858 2.0773215103 2.6304995616 0.0109271230133 
-6.90426823342 -3.77913181696 4.37352114864 -4.58911376067 0.607907314602 2.30393093183 -0.339478131671 -0.253603075832 2.48242279586 0.11066733713 
-6.61423472322 -5.91851702174 5.68032663407 -1.87492787118 -0.238695654185 -0.366380714615 1.3068147392 -2.16213688619 0.737964736623 2.13592603015 
-3.181100929 -6.01474761622 3.62601034851 -2.30356447449 -1.05564372545 1.4577672243 -0.380744767926 -3.17090539527 -1.0136394834 1.37071783701 
-3.10255153274 -9.70292449738 2.95884795936 -2.11503814985 -1.07583690835 1.78019805443 1.77817888205 -3.87599320286 -1.1302478743 -0.0780430656843 
1.21543670382 -7.52388798187 1.02791918437 2.44829840303 2.71164808076 -0.948249033254 2.2794261124 -2.96385537873 -2.01604159571 -0.807031790168 
4.38900141518 -7.13732957987 -0.445544651504 3.13634596786 2.60191747868 1.38244479267 1.16111441808 -2.20019911915 -0.438231748357 -1.5763253722 
6.34066831108 -4.19494659057 -2.76535226092 0.877336535441 2.03758400062 3.62171651518 -2.14779335441 -1.32216534131 -0.254467248421 -1.04667955695 
5.95861099781 -3.90803169938 -7.01715175971 1.81019272001 2.75696304299 1.25730537819 0.280059358051 -0.250672104104 0.515422874862 -0.686635809079 
4.01953797359 -2.95896828097 -9.94990323483 -0.621110569614 1.97075236978 0.655789532021 0.401233826014 1.00258164276 0.695907918059 0.778596085919 
5.55542482691 -2.17703360229 -7.56061762173 -1.32561717581 2.46869811483 -0.150512733784 -0.592438178028 0.206210732712 0.231287791452 1.04236090579 
6.64362566365 -1.32311898551 -4.94236131822 -1.35865362436 1.85795396056 -0.159654411386 -1.33479903784 -0.257325709509 0.680625914072 1.02812959531 
6.83568097486 0.279422741043 -2.96289956063 -2.90208693217 1.44349428486 -0.704872592675 -1.07327111596 -0.444919120069 0.543820207932 0.44957107744 
6.55749446976 0.118772297568 -2.44484402712 -3.41529392972 1.48290602495 -0.186013522599 -1.10681010387 -0.551944268065 0.319129217598 0.39360919254 
8.79335175527 2.43784462713 -0.903637523332 -3.61758014985 1.78672606541 -0.804091751144 -1.27806241421 -1.50377964392 -0.107447842751 -0.703166613789 
10.6854629964 3.82656085393 0.228526111871 -3.10157549676 1.44809534851 -0.981549635744 -1.1988142312 -2.72507528916 -0.000159615839381 -0.480184351355 
12.0783300722 5.02914074338 1.96786417288 -2.7763599923 1.38663040225 -0.419454923528 -1.43796842486 -3.47207541839 0.111914508832 -1.07930630643 
11.3423139287 5.20115870543 2.18429949341 -2.05705336508 0.790061342427 -1.09757522566 -0.668964385158 -2.04954439903 -0.245481452486 -0.629021852882 
10.8991296859 4.30300486928 2.35128439974 -0.164051726902 0.992374300738 -0.941099533166 -0.484880071087 -0.638986123892 0.0758058190397 -0.420576389068 
11.2748765973 3.89805309327 2.70948812815 0.00791439643283 1.02222152109 0.0620778344477 -0.516856285265 -0.344790829242 0.178882782178 -0.426801613603 
8.2958429327 3.91214080947 1.00657620443 -1.58111151946 -0.81654732833 1.17932180514 -0.137002367831 0.5966978055 0.393963906502 -0.202306530198 
9.30712123872 3.34158587024 1.55831531597 -1.26097579922 -0.33219964134 2.59798097045 -0.869367981981 0.508138656541 0.81416335479 0.163226912942 
8.4504551003 3.20994250733 1.09806010776 -0.77669541053 -1.18372323266 2.48927569021 -0.589690175314 0.991515204381 0.513181214521 0.166959753446 
9.30537154057 3.88674677152 1.49126454557 0.696158024911 -1.67327899338 2.17619662611 -0.68084642743 1.3274086753 0.787172452873 -0.0697140611018 
9.30142307053 4.41077318438 2.1998662213 0.66687668652 -1.75511475988 1.73400094331 -0.381243352522 1.21695331238 0.641514554198 -0.095545458608 
9.27576028553 4.05882060766 1.87793019891 0.909923231601 -1.80188927593 2.23760263068 -0.657095236091 1.2559330154 1.2449531563 0.0808875072608 
9.73695864294 3.96806952118 1.7955875084 0.805635262758 -1.37254074976 2.08411669825 -0.271198956515 1.14006363132 0.927654056529 0.121734402751 
9.37173134848 4.30333516844 1.88544550293 1.10372635237 -1.61138723435 1.8152549709 -0.27316638225 1.33842913528 0.759046729936 0.445485481941 
9.58155542584 4.2859574152 2.43800138592 1.62562482969 -1.50008259766 1.56951039842 -0.221375640061 1.59786298398 0.792426057941 0.834713683328 
8.78883471261 3.77547178098 1.91076085603 1.22217288846 -1.67991655269 1.68196639045 0.330518360838 1.82295713886 0.938939713139 0.804863426108 
8.89078362577 5.40002584896 3.02110399069 1.11815367963 -2.42053171825 0.237468211203 1.33957537709 2.04926009445 0.516099530342 0.454801537306 
8.84813352252 5.14355587112 2.92201458653 1.46494033381 -2.0097048176 -0.0191373854342 1.58837875645 1.96535607487 0.139505911553 0.654494907367 
7.97261892277 6.14129952425 2.90155499151 1.81461656308 -3.34275151373 -2.2324657941 1.85607903263 1.91752642466 0.94515570543 -0.280390372169 
8.73716732509 5.37915169899 2.65932811258 0.950314444321 -2.6349984507 -1.72767797501 1.73171959056 1.08119072274 0.279499975183 -0.161451484446 
8.81356287039 5.79799911585 2.85324665294 0.780930024203 -3.00248253531 -2.04061541949 1.33309745958 0.632097522894 0.0855418186098 -0.431759777824 
8.26439798188 5.22753857054 2.40231961662 0.155344194517 -3.05408678572 -2.20594963552 1.26265974202 0.53119212803 -0.201720102967 -0.142386606451 
9.10055867438 4.82709539298 1.61677818601 -0.203164777866 -2.4674953462 -1.59425469808 0.645756561132 0.0552846322227 -0.207717241277 -0.329068464 
9.31636031339 4.9964775022 1.98173462939 -0.201376191647 -2.54942957563 -1.40765936333 0.639759642742 0.0882455773324 -0.1713843822 -0.540552786488 
9.43721491981 4.51273812861 0.496960156453 0.57626334976 -2.1941205379 -1.82906199689 0.70671613212 0.44733961927 -0.267767854757 -0.012246616002 
9.37919711546 3.25785376192 -1.4842890692 1.02526307993 -2.1734659932 -1.73038742837 0.599340189113 0.821715760465 0.336536573085 -0.29305267564 
8.7566908586 3.08335048274 -2.0506206776 0.990782082951 -1.94781207881 -1.70609198612 0.594991392999 1.3955756312 0.549487504605 -0.309137316189 
7.62483907913 3.61268337677 -2.6930663869 0.080096236813 -3.60364416204 -2.07995507778 -0.318818954991 1.4486125382 0.49163111499 -0.636915731061 
8.38221003369 3.90216427144 -1.05884210006 -1.02407289525 -2.92613139145 -1.77058770703 -0.612018161393 -0.224743916722 0.338939323601 -1.32499858188 
9.21036283176 3.53205956762 -1.66171677775 -0.89283927669 -1.88378678556 -1.83769892704 -1.41426643467 -2.13124985653 0.981248790681 -1.40162300211 
8.37916980471 3.5516684153 -2.350510625 -1.5895875098 -0.776104776175 -1.91638398327 -1.32044174562 -2.07026211446 1.93495826494 -1.68074652399 
5.95988950799 2.78886919734 -3.25640094652 -2.9446856769 -0.875731361637 -1.52748069002 -1.87400759908 -1.02812751127 1.27531598589 -0.538917087934 
5.25758485291 1.22478666869 -5.98888744836 -2.49776971482 0.0622875959941 -1.49416676679 -1.36216426888 -0.366821512146 0.825553386187 -0.697345927859 
5.30833289569 0.83290931184 -6.94936071375 -1.5114826409 -0.234150353171 -0.746318041445 -1.89725515451 0.514486529583 0.736155930808 0.698770012822 
4.38803591136 0.0542734144106 -6.89606175519 -1.08993805796 -0.12831819531 -0.116477745301 -1.6445208901 1.11832094357 1.51453951719 1.17295462136 
3.94279302908 -0.948064325579 -6.4117963763 -0.733802410705 -0.0225281505901 -0.345236181283 -1.42972369081 1.85342644572 0.816363433515 1.13619556211 
4.44335272233 -1.20249218912 -5.81777887588 0.635198118819 0.218283953778 -0.420731554364 -0.984044504633 2.49928925057 0.995119689963 -0.125051566929 
4.15885830436 -4.45041054208 -4.91286035076 2.34904635067 0.960053586922 0.782777544802 -1.04038716839 2.3214295321 1.08205446799 0.287170694556 
3.39568632321 -8.42752451177 -3.34987628548 4.35725987456 1.87207920686 1.29386247605 0.723278686576 2.22967361384 2.12239775832 0.306060888265 
2.17296709178 -8.38061354851 -3.54152677097 5.32720434263 1.32258405314 0.122848102806 0.743576649959 2.79075916587 1.37190956905 0.996031457447 
1.89137708295 -8.37757495883 -1.55151793524 6.32709441433 1.9872592913 -0.755707205589 1.40622983637 2.89456693695 1.34290841711 0.160854456302 
1.31545224321 -8.9586920744 -1.754499252 4.61165447529 -0.469960347506 -0.348308869735 0.775503222279 1.86532479168 -0.756794850712 -0.517834568348 
0.55138448466 -8.94830297947 0.554693917639 3.27440063426 0.157380631238 -0.0889423976757 0.584103771123 2.06239873631 -2.3140532456 -0.55211874115 
0.152112445808 -8.88054391356 -0.0450696360578 3.03257418485 -0.130681052314 -0.221712967308 -0.185473364563 0.0126903575581 -2.22429606192 0.314336369866 
0.478194438132 -9.44730674669 1.41588031888 3.74545439136 0.45592611292 0.145056125784 -0.355715958642 -1.30818784096 -2.19072438457 0.0498979206532 
-1.93940964312 -8.71826298455 1.37257380265 3.06098332171 0.00383372903346 -1.22792649886 -0.283848784687 -2.22989409089 -2.82287120738 0.498414141647 
-4.4403756544 -6.57251477572 1.39223582281 3.50945108532 -1.91389963589 -1.01477994169 -0.620168284982 -1.23278368767 -2.44770766866 0.817803912823 
-5.09281266915 -9.07657609142 2.77342237132 0.381506813405 -1.87516516871 -0.983016232559 0.435057004173 -2.29284229385 -1.41750487947 0.817394132567 
-4.7114013298 -9.07998279049 3.46820711157 0.205622894564 -1.57969439398 -0.625032685013 0.479426781678 -2.08635983738 -1.56971824064 0.752689720425 
-4.88619822349 -8.51853293365 3.69568308391 -0.510220465266 -3.16324456549 -0.10530661026 -1.11702397435 -3.00453468981 -0.5667116237 1.48148447007 
-7.4596892872 -6.88429466688 3.84236406498 0.193317169366 -3.0926171291 -1.01867228257 -0.206451268599 -1.67898217194 1.15031088823 2.33916854928 
-8.76024990382 -8.7841981566 4.86464085537 0.145217268308 -1.67069225549 -2.12074569239 0.872802275931 -0.691770023416 3.05146565083 2.08450647187 
-8.4448438265 -7.6324197545 4.88881632386 -0.150198519639 1.78084971238 -1.72412751058 1.94082257322 -1.06620867378 3.44770019837 0.777346378279 
-7.83346096871 -4.03182801521 3.82594172242 -1.60366238413 3.03221647673 0.00453405611901 0.647249199546 -0.24454597801 2.91280257537 0.636561120347 
-7.77788252188 -3.98088983899 2.98871682002 -0.476219285203 4.17008996228 -2.92470509506 0.735400172048 1.46439472144 1.6008839229 0.826884159393 
-8.83469970405 -5.12634857353 4.98619363547 0.204979943011 2.89481998757 -2.87505884423 0.410843339504 2.56919024122 1.88531023894 -0.256668762351 
-9.70677577495 -4.42672810703 6.89342737486 0.54136776968 3.57803753871 -5.08529799569 1.73738835601 3.24385516946 0.851923701023 -0.685155572244 
-10.7054437074 -1.16029269646 4.03161700568 -0.0688281584897 3.21992095746 -3.75523536403 0.437598739393 3.31035588382 -0.565818971845 -0.660411803448 
-9.93800515588 1.44163763628 3.96045989753 0.311544780973 5.10205544827 -3.40332099833 -0.271176968863 2.79328818188 -1.0606099678 -1.2876887913 
-9.65892602779 3.15310840809 2.84414379345 -0.521233970208 2.96024013365 -1.45794401823 -1.82470525003 1.51024187831 -1.5888295939 -1.43302365277 
-9.67749192755 4.68127023299 4.05151796045 1.24211979391 3.49443250827 -3.68687891743 -1.0771057071 1.86875510495 -1.48247385608 -0.57168670071 
-11.0582728669 3.92839183417 3.28407823874 0.433000566923 2.55830061074 -3.41647637567 -1.03839419121 2.65020053028 -1.90517064001 -0.32566750438 
-9.51601067379 3.57184691478 1.95546870211 2.93157816211 0.818987150559 -2.08348411967 -2.5037381189 2.32293529581 -2.16073781212 -0.0477570240869 
-10.6850470393 5.19544621448 -0.375446509387 1.98016024663 -0.561708478216 -0.492562390378 -2.97192234672 0.2889868509 -0.716298405053 0.633772589307 
-12.2361440976 6.21269923719 -0.843340141415 2.13020289554 -0.186209121665 -0.795920142616 -1.93074011383 0.0269932764738 -0.317031002851 0.967451187118 
-11.6908161508 6.90772391254 -1.91870153405 2.66767316532 -0.808144489063 1.367649319 -2.0641603166 -0.780690041035 -0.525047455256 0.49089465016 
-14.6984348278 7.92593448425 -0.647488545165 1.04639034354 3.20458464451 -0.319708082962 1.81992202564 -0.910507577559 1.26052215487 0.67814851724 
-15.203115469 8.17240704897 -2.04064978566 0.536135255491 2.64058631804 0.920781239709 1.79456897902 -1.60498637554 1.22406154327 2.13110300285 
-15.3125928561 7.84808306465 -2.6892446013 1.63196079438 1.00756182173 1.62646134982 1.60998546198 -1.68502013492 1.42519822644 2.00496159549 
-14.4876106854 8.08500233135 -2.82239607104 1.23721373117 0.954761771597 2.48193782749 1.60071493245 -1.41458384413 0.830076832699 1.51081251995 
-14.1480351287 7.48970720935 -2.35342398439 1.29342842387 0.587486542934 2.70777671679 0.656893102938 -1.47702979549 1.01049602944 1.32029694657 
-14.5059599828 8.07985935281 -2.49603105416 0.305632324249 -0.405077190349 3.63303228515 -0.296694715783 -1.70536153156 -0.33205005769 1.5900156298 
-14.5952959792 7.98308990122 -2.72087465635 -0.204747819296 -0.184686621703 3.55305752007 -0.16354076678 -2.0279306232 -0.509053109531 1.61866363914 
-13.9285306174 7.65447356445 -0.78614316832 1.36455697705 0.443352970806 1.4359124645 0.26563284065 -1.31678032158 -1.20943999878 1.33179207245 
-9.9071439345 6.44064022236 -1.07007885173 1.91096687348 0.323651297622 1.32686017319 -2.2366723327 -1.71214278659 -1.89652322304 0.325157094075 
-7.86869734038 5.57112988493 0.819816060912 1.08907664139 0.30132719465 0.80349127764 -4.07023368243 -0.928629592371 -2.10333360897 -0.65090216489 
-8.86124802055 1.64405563036 5.24179200458 1.45446067449 2.51953499527 -0.0404058967752 -1.54632157202 1.80185209901 -0.782504242888 -0.0461181698425 
-8.67083699802 -0.722571066805 5.9754444495 -0.236981200314 3.19094152137 1.78841227109 -0.487111194186 1.59227650746 0.547987386667 -0.47382205811 
-10.0845914977 -2.48321695766 5.0076590088 -2.77987325347 0.386767760456 2.30477308635 -0.489054782476 2.49653783528 2.15958113795 0.762162255051 
-7.32539500822 -2.40463803534 5.3848972517 -3.66582610901 -1.23136509357 3.72942098874 -0.195820200781 1.63333301963 1.30852771589 -0.602345401548 
-7.99917029391 -5.79962287447 5.05609272335 -2.46698357352 -2.92286829078 1.36696574526 0.727958204917 0.677824457707 3.29984228165 1.40579762048 
-8.73480322021 -5.02500278729 5.20532025041 -2.88275445362 -3.29975258017 -0.776809110027 2.72029807798 0.746850712468 1.57922614749 1.23086539968 
-6.30544270731 -6.89928333213 2.94816254177 -3.71137222376 -2.58864275533 -0.507944387491 2.64106437156 -1.01331765246 -2.82155015963 1.47497525721 
-5.26085870222 -8.72872542501 2.59920366521 -1.95421545592 -1.57902876765 -1.39269705898 3.66137179761 -0.226203355456 -2.78566128894 1.78289853798 
-2.85137470777 -7.86335825385 1.95525669926 -0.57574207442 -1.08173156827 0.264250738044 3.9314382607 1.171643909 -1.9658484283 -0.629541708716 
0.0653427984638 -5.69751254274 0.192113280767 1.73334245641 2.6654144661 0.475612323611 3.55434773298 2.61560746591 -1.06988328598 -0.856468504992 
1.22777345483 -7.35192644535 -2.57986363127 2.14586745498 2.6599002578 0.327186883857 3.12414897002 3.61304856534 -0.720101906161 0.075902464381 
1.84154301494 -6.05716336776 -4.90578589537 -0.663447875747 3.85049353639 0.341146183352 2.35437648578 3.50705324929 -1.3568946081 1.6567016796 
4.05928315614 -2.91642330675 -4.71276265081 -2.84686278111 4.77292346098 -0.608969373836 1.6831887296 1.74106131792 -1.58465647937 2.99240582184 
4.25609429677 -2.60346788178 -4.83755436158 -3.19986919045 4.00680382628 -0.0848577427784 0.475336486701 0.351581430797 -0.648748672922 3.32521728478 
3.65284103619 -2.80299280308 -6.00854053237 -3.18304798488 3.27718827302 -1.89639580963 0.992836572275 0.929478397619 -0.710337609298 3.94649903554 
5.36361585423 0.816869253213 -4.94287961213 -3.44722198405 0.599308733055 -0.760497252754 1.66103353435 1.2005117977 0.489523514781 1.43319785363 
6.45514483833 1.04008073099 -4.25667543775 -3.0404144154 0.0939451641536 0.46975081544 1.14337690557 -0.0810945348902 0.46950987895 2.13323309983 
7.98840286031 3.1437446472 -2.31080692407 -2.55832666132 -0.181794790394 -0.703630545927 1.20154701158 -0.693605653759 -0.995746537855 0.885920231897 
9.28466764913 3.31562722034 -0.77689622577 -0.454598707229 -0.884760471854 -1.03688671671 1.95707379414 0.142075245126 -1.38876009823 0.838845470496 
9.97694431048 4.0544288686 1.89392556206 -0.998331323114 -1.07437093166 -0.31338138998 1.81631234561 -0.181069541901 -1.57164810191 0.39226814399 
10.5374436571 3.77928288608 2.40327953866 0.698764690263 -0.945844484859 0.106183169851 1.61847661747 0.39801138884 -1.48803043059 0.630759233016 
10.8558761456 3.90725843631 1.99686335391 1.36068891124 -1.18108400494 -0.307437899966 1.46060990277 0.396586022783 -1.49263934296 0.521346034384 
10.3520671129 4.6103880544 2.8150617952 0.434420039362 -1.61907215926 0.0370202864075 1.16562308161 0.128773765802 -1.47720201864 -0.289060910122 
10.3423816443 5.31636335667 2.9294682907 0.317767742047 -1.60155806723 -0.251530243726 1.16034576945 -0.0375190308379 -1.55462612555 -0.297897130333 
11.2524651614 5.78732973471 4.02783243658 1.41439740943 -1.37624073927 -0.542409204532 1.50434901906 -0.445430713096 -1.40605350463 -1.51174385435 
11.839703861 5.40769218535 4.03977200781 2.05992358452 -1.12690767744 0.168956721995 1.08305364904 -0.20179658736 -1.01285900923 -1.76317851239 
10.7922673709 3.64062442998 2.39697399008 1.92630194704 -0.514411393428 1.42525353035 0.998611506995 0.0139557111342 0.786350762194 -1.55983294647 
10.664259786 4.07538567391 3.21205844983 1.69516083639 -0.116026940715 1.27991762047 0.939858530202 0.194002426469 0.55304281816 -0.711993880296 
11.1916322713 4.0261348613 2.49803612136 1.70745951976 0.02915657714 1.56392704953 0.493009788857 0.191311710838 0.978927943865 -0.825864750619 
11.2080945747 4.05072423526 2.45681466767 2.15955367526 -0.223414353752 1.6086072108 0.537024452496 -0.203769409589 1.05897973666 -1.32654212821 
10.549045096 4.59328325754 2.14085496307 1.51826570888 -0.612209009324 -0.0279728065072 1.59772170979 -0.322866881582 1.12286656921 -1.14530089189 
9.93428434289 4.80616270599 2.0906476077 1.2660393885 -1.12603856243 -0.214171527163 1.88836156072 0.626708152367 1.11888308397 -0.919124435137 
10.5000607506 4.00210276186 1.58453686076 2.16807610622 -0.314623190386 -0.662430386237 1.38975933411 0.49800669788 1.08827648391 -0.664741885435 
10.266883111 4.71979013432 2.50675799344 2.46948490949 -1.55300059697 -0.724419554038 1.30262325025 1.38566643639 0.391869062694 -0.798033241253 
10.0505202094 5.03506555998 2.93264700387 1.64101346788 -1.87501515871 -1.75889316764 1.84871197025 1.25115657071 -0.161325019043 -0.84623243715 
9.55458840339 4.74122269369 2.87584990403 0.601869046035 -2.48049857986 -2.20972084184 1.6317133706 0.755196742921 -0.406599878881 -0.614664011269 
9.84022139224 4.6055160692 1.98318918576 0.603383130048 -1.91049033634 -2.2900769077 1.65173553761 0.276893291909 -0.684009331913 -0.687215356361 
9.86449175408 4.56264446234 1.4799914721 -0.511881464806 -1.88902764888 -1.990787183 1.00915333353 -0.328159508063 -0.797666050451 -0.520368603177 
9.86712283149 4.56481676242 0.809766892729 0.0115972235543 -2.0141972043 -1.8047467689 0.524464080778 -0.137322172289 -0.530729726909 -0.663453547522 
8.69221804956 3.84481119456 -0.322391711156 0.0586852012451 -2.51406198924 -2.25123041572 1.23934599648 1.16730834357 -0.58119875083 -0.348031429111 
8.53106633951 4.09111864106 -1.13456363491 -0.513509816523 -2.590293968 -2.34442713432 0.861206064558 0.992871490252 -0.35997166558 -0.372123196519 
9.42030960696 4.99440326503 -0.987919938843 -1.53431623832 -2.17418538397 -2.555375116 0.0168669046311 -1.02240429164 -0.208199839679 -1.36050199822 
9.36953251031 5.2438999442 -0.404055356483 -2.00862619322 -1.66220894518 -2.19303925639 -0.735155509094 -2.76947464214 0.507064037414 -1.95717500736 
8.20316389583 4.08915780974 -2.49543286118 -2.94536334461 -1.27594799938 -1.81627719784 -0.65020540879 -2.53098609221 1.09282060866 -1.90928400892 
4.98443166181 2.33350832147 -5.10326132409 -4.48842021741 -1.03410168831 -2.1844471779 -0.512078943253 -1.21067284308 0.324986660754 -0.0672669631787 
4.59039155212 2.20504709297 -5.57817814844 -4.40511800601 -1.65838653443 -2.7461742124 -0.300967136376 -0.955772353465 0.0630142585076 0.5341961419 
3.8834357204 0.90236602372 -7.7044470473 -3.1156681329 -1.12894803719 -3.26970742721 0.0127850978814 0.194902293794 0.388452703523 0.293910390272 
3.28761342699 0.183728709312 -8.60952945857 -2.09840118289 -1.35406968034 -1.86347601957 -0.17211835061 1.67815060665 1.25001207454 -0.313110663403 
3.371699709 -0.400203926677 -9.0099588683 -0.708059499269 -0.829532925353 -0.601659127454 -0.817182365987 1.99405547704 1.93067227692 -0.226771380023 
1.96607846271 -0.717175465485 -8.49448229434 -1.77022438088 -2.01276419142 0.290857509078 -1.50264548769 1.82767099487 1.2876721925 0.779812856759 
5.46954874314 -1.93732678007 -6.7747904312 0.397582442962 0.710088329561 0.345765892856 -1.35314190661 0.278609561429 1.78138678244 -0.641685035018 
6.22287923847 -2.26902873111 -5.65811729008 1.13856507156 0.819124350156 0.48698447807 -1.42519913188 0.604923024205 1.43278391687 -0.859330985659 
5.67514129495 -3.96747540736 -4.86392137525 1.93086461721 0.342352587476 1.06333532692 -1.18257454111 1.33391428184 0.750224237866 -1.99737358046 
4.63226157571 -5.37557874543 -3.29244328708 1.78203839173 0.616592320355 1.44814434329 -0.802049942601 1.59718638007 0.768898844359 -3.02254098375 
4.35881808436 -6.30453523761 -1.98138951338 1.81915917211 0.26601367521 3.18566640866 -1.21515201979 0.741151639379 0.718582588171 -3.48776702352 
3.22930732815 -6.49875902514 -1.73049521145 0.534204349623 -0.227998375337 3.88259872445 -1.24630797529 -0.441752234964 0.350139036524 -2.98058356431 
0.483998002694 -8.42117288017 -1.08702565561 1.14724502335 -1.55877335234 1.67711992879 -0.275042297954 -1.10156101131 -0.154341441876 -3.15309196474 
0.905667553374 -8.85051616514 -0.77042741711 1.08425840651 -1.60576776727 2.53202499101 -0.577493664606 -2.24154964518 0.29905379636 -2.2927293128 
-1.73633119591 -9.52662023079 -1.32987181666 2.629109511 -2.66807449325 -0.617472756893 -0.0696941175003 -2.62048846991 -0.494646822313 -1.29636630284 
-3.72980066612 -9.16744436557 -0.497882183678 1.578911767 -3.23960265503 0.239559641871 -0.020154275897 -3.0489178261 0.476312194715 -0.746120279716 
-4.83515920977 -11.1088556348 0.407169298781 0.881083564254 -3.44022260112 -0.810392834209 0.381224630739 -3.40053847892 0.753413663522 0.132937003652 
-3.1024479594 -9.32441248274 2.18019179263 1.57281128387 -1.95749118691 -0.516591360144 -0.325642870839 -3.0335332712 0.872909147525 -0.139185014269 
-3.43923038053 -6.93185048823 3.53035007897 0.424075441224 -1.3167386426 -1.13088722798 -1.51967866058 -2.34223825687 0.695505813764 1.2196935164 
-4.47289089505 -9.11927102551 4.02847152001 1.62547365232 -1.05541364934 -1.26560466829 -1.06333635804 -1.93523426219 2.75241683848 1.39590481138 
-6.98523891379 -8.89741506689 4.17842616019 0.207141556353 -0.241428348853 -2.07623134425 0.687618317836 -2.11462106227 3.47759794952 1.42732475548 
-9.10843346803 -7.31867685953 3.41222268678 -1.28693031429 0.716049752403 -3.00283567964 0.948716559028 -1.44799660108 2.99855641954 2.39640417455 
-8.46978760677 -5.52694712905 1.69557021471 -3.0442475349 1.04131789346 -0.384785408925 -0.95897912823 -0.836826366582 4.05226416419 1.1848874453 
-7.65852728753 -2.95035859039 2.35477926888 -4.86481248115 1.75314348543 1.2864290266 -2.20730008561 0.601997086933 3.36248980793 -0.171679084718 
-10.1434095272 -1.53574580617 2.52807462026 -6.4708464683 0.648170720725 2.10416798647 -2.01274575305 0.78699938955 2.3282579321 -1.1955359225 
-9.82994875334 -1.40572917356 2.18509636935 -6.45168967928 0.555172975036 2.12323876008 -2.43240451649 0.69678015945 2.50744773307 -1.09985623903 
-10.1067657552 -1.72847311939 2.97659694623 -7.17251658035 2.06067354051 1.85892572573 -1.93767405458 1.40787872446 2.905447521 -1.8457239187 
-9.89318250851 -0.555105154769 2.32546271695 -5.25395661406 2.21873026843 -0.491643355016 -2.06315645351 2.56725786511 1.23539268608 -1.99381764491 
-10.3157119873 0.550891945285 0.993105936864 -5.06714066751 1.32661959038 -0.271199449948 -2.61368529323 2.59046977725 0.0782010423177 -2.33176923951 
-10.1781049116 0.447653203307 -0.024178602401 -3.5338762618 -0.0543153640377 -1.68192687259 -3.30662715423 2.55384761041 -0.0975200044049 -1.86399387709 
-9.78420411874 2.39857227145 -0.263344042211 -3.3254349095 -1.49027505292 -0.786319792008 -5.31851257962 1.95520200289 -1.93640536348 -0.837290887305 
-10.987229405 4.48359401003 -0.562506978003 -2.05259253042 -2.3769179728 -1.60512604591 -4.84616450448 2.17164586743 -3.31998280929 -0.245229873417 
-12.3747488716 4.32351356846 -1.65373857637 -1.00239734485 -4.86751255422 -0.547325927516 -5.23433903698 2.73089836187 -3.76608756344 1.17010562667 
-12.739476237 5.4148446366 -2.59921951024 -0.766798893297 -5.50270831938 -1.0658929765 -5.54441023929 1.39433084918 -2.31893087802 2.06849628002 
-13.3246849567 6.17372933512 -4.81169248463 1.27557690892 -6.21071579888 -0.983985471591 -5.2489265129 1.7234572523 -1.46918861065 2.54619849391 
-14.608314503 6.88502818826 -5.95616520601 2.33090700945 -6.91002235913 0.0472712181252 -4.08436973018 0.694311064567 -0.750847567356 1.6009740547 
-16.0538160056 7.66306423113 -5.25157411855 2.52384979871 -5.20917499777 -1.40558484808 -1.26206950989 0.341671581026 -1.2276237735 1.37415571309 
-16.007687347 8.22661066891 -5.05323681172 2.4429053811 -3.72952482625 0.174458104275 -0.676108404462 -0.12537561617 -1.21651700073 1.21834264136 
-17.3609832052 8.61203128613 -3.93115033722 2.25181995069 -2.61071767791 0.467769934261 1.0469443589 0.398534460585 -1.8304724693 1.1192074168 
-16.7686164719 9.04540762251 -4.13881977517 2.70605610879 -1.67357958654 0.581858852213 2.61157846822 -0.163807851963 -0.585172734133 -0.449927412296 
-15.9705949008 9.19209398472 -3.83160939103 2.15785550625 -2.58865986168 1.49443891732 2.61763432989 0.0809386960312 -1.27349492171 -1.39442365525 
-13.8643547968 9.72969658516 -2.7080094951 1.83451297612 -2.03460220368 3.84619874489 1.21574252729 -0.36845275779 -1.90696852082 -1.69671685849 
-14.3815509849 9.21625061226 -2.57558251753 1.59760404879 -0.942339191914 2.44371909483 3.29982679009 -1.0512980186 -1.04867675842 -2.54953080507 
-15.620923917 7.7883137218 -2.15824691671 0.544143950088 -1.29252430106 0.899914808914 2.3119646053 -1.19302163136 -1.91321813493 -2.0838320668 
-15.6076165885 6.66079120693 -2.51138342022 -1.47736253176 -2.40072092591 -0.101797833025 -0.353690739779 -1.9297623027 -2.19806985127 -0.924192833922 
-11.5455996983 4.55422462396 -0.84169301725 -0.552728646878 -3.21589222749 -0.681693668131 -2.94762359253 -0.457399924102 -2.48054478186 -1.36835527892 
-9.83408391366 2.12355785912 1.43564121539 -1.91664248374 -1.1827682023 -0.241048703789 -4.09391882138 1.24587306297 -2.72321407868 -0.806607274982 
-11.0789808262 -0.0640744735959 2.24031716796 -5.3346262819 -0.901741238806 1.88336546867 -2.45627491569 3.50743917203 -3.3027589189 -3.2015413317 
-9.19360383783 -2.05394489808 4.67293811569 -6.38477898011 -0.651439400186 4.13504525025 -0.946796800056 3.00104354052 -0.0586436039202 -2.10322237238 
-7.35091461332 -3.92183128196 5.61010993534 -5.15076199001 0.268644567428 2.32726161977 0.0332314346147 1.64758150323 1.48347369776 -0.22040382862 
-7.53996160871 -3.89929099502 5.19204077724 -5.44335174683 -0.203483458244 1.90594357788 0.146746064693 1.62370129963 1.57188567744 -0.0562456102855 
-5.46742636592 -5.78749777395 5.07601672368 -3.95476032384 -1.52556298234 2.57887839849 -1.38123764596 -1.38048944292 2.26147588423 0.461406015886 
-5.2098286101 -7.78493273594 3.98413182902 -2.69964912309 -1.38561798692 1.57790682963 -0.475229808834 -3.06692419792 -0.0463497259883 0.899427132445 
-5.8097944737 -8.18264855588 2.61571440752 -4.40684521966 -4.68764316201 1.92959422663 -1.33510248709 -3.71233278316 -2.64651079678 1.23594897005 
-2.15931234024 -10.0752482704 2.16324621444 2.27780369416 -0.6948552602 -1.35246675139 0.386797968901 -1.42125577989 -2.98494920594 0.920656256085 
-0.866261317227 -10.3755450989 1.67962502092 2.79394971757 -1.82740033965 0.494472556981 0.711672343997 -0.541193053611 -2.13444493305 -0.38149955695 
0.972439262821 -8.07336106529 -0.99017335824 2.48385452583 0.509567206536 1.50830250254 1.26697661297 1.17618178109 -1.77202683397 -0.800534771011 
2.28680519984 -4.7892745903 -2.39631453266 0.145106149856 2.03017777428 0.719714217749 0.170949127939 1.82633776654 -1.22231793698 0.206608922581 
3.31761120396 -2.48823304766 -4.32003912771 -2.62142353115 3.44234037056 -0.253229951558 0.151818508847 1.20314311464 -1.53662162907 2.28533899704 
3.56593834077 -2.29469641613 -4.64932233917 -4.03891612243 3.86176548084 0.056476069556 0.229656686755 -0.0112133618402 -0.196958189184 2.71336947075 
6.06215045107 -2.24799885889 -5.22635253811 -2.71865547058 3.59868114491 0.596556085955 0.195295210557 -0.799490813003 1.274147964 2.32190961807 
6.68744468988 -0.374856186095 -4.63824793443 -2.73071361065 1.72125442023 1.27692870108 -1.28110360154 -0.781070922155 0.743736920844 1.42665763079 
7.70744896696 0.700375277941 -3.3036085994 -2.87593475805 1.51667795569 0.643914007969 -0.919746054373 -1.01743455224 -0.0249152778288 1.83944745772 
7.20075051281 0.459426173974 -1.70478188421 -2.93771261273 0.773833017582 0.88929985758 -0.315219328726 -0.509205104804 -1.36158031346 2.13306591209 
8.15818749278 1.46550000462 1.17991335176 -2.32956095116 0.295281632458 1.13645641018 0.260362344123 -0.0522303088878 -1.74848151344 1.57207704091 
8.16617085656 2.42569310255 2.28494629556 -2.03445970979 0.325713247797 0.818848258394 0.441316208568 0.314940245382 -1.63499955599 1.29051547666 
9.39913239181 3.55274133394 4.15982058662 -1.11633438456 0.18782920073 0.673582679001 0.273354568188 0.836431374194 -1.32707655544 0.882086042053 
8.24507515647 3.24931127664 3.2698501441 -0.28894209164 -0.0779837830138 1.6185914904 0.191793397265 1.61823924602 -0.464193920392 1.59052895494 
7.66975657661 3.15184726102 3.5283217004 -0.214137131516 -0.923098507609 2.14583340793 0.085409522482 2.33674440354 -0.44788121973 1.53908596401 
7.92994129951 3.32810120746 3.46849221839 0.7087394044 -1.24756501371 1.48733627508 0.124343561958 2.35181034411 -0.208323856769 1.12017076209 
8.21074461496 3.50971569619 3.61797019166 0.406118355575 -1.37288964611 1.25312010615 0.27519450594 2.14159941134 -0.0782376319464 1.03514048764 
8.76331084376 3.70779333167 3.37456514175 0.767995410292 -1.1598585879 0.730067220817 0.718184459717 1.92618813783 -0.256906593449 1.13144241857 
8.94079334084 4.00724815349 3.55370234194 0.459903030972 -1.07677355189 0.684844356904 0.734837547946 1.53221535533 -0.249780549894 0.7414332257 
8.63935724415 3.90176512292 3.07905729799 -0.276937057205 -0.842932938578 -0.017760362263 0.934430368677 1.42114471545 -0.119333608559 0.673904052591 
8.78715119 3.99877485044 3.21377962484 -0.167905050212 -0.776103866834 0.544052138771 0.705736526058 1.25926470148 0.0182797012011 0.623260569433 
9.0286607357 4.27234368467 3.61866301605 0.753759434553 -0.854420918416 0.422590392953 0.560590605233 1.37826047752 0.0154460823069 0.829641378189 
9.27664670089 4.67659188473 3.41904405424 0.85673045962 -0.919877292532 -0.0408787443722 0.678920993478 1.38265119089 -0.0654019051389 0.570364507013 
10.1287025376 4.9000446635 3.89124497098 1.37094908609 -0.674459378924 -0.0236783319246 0.600272542834 1.20846251085 -0.240324281015 0.456100961221 
9.9645175296 4.87008707018 3.36847834188 1.1325161595 -0.0195639339641 -0.00523299302927 1.55102957514 0.406134124756 0.172427109327 -0.249953201239 
10.3134289094 5.12858279231 3.2153108067 0.968049013466 -0.0104500513167 -0.333299489054 1.03714047678 -0.160070088489 0.454822236284 -0.359793472966 
9.83443425767 4.92062475195 2.68263281106 1.13031409556 -0.801038850997 -1.01080763052 0.906094173582 -0.0188245702936 0.371551558619 -0.312565463808 
10.0062724124 5.02492463682 2.64894235359 0.861883006534 -1.51739871343 -1.63762712347 0.930786142747 0.220320492372 -0.284626910073 -0.0991632588924 
9.38898958668 4.49417196161 1.20696369043 -0.435501426562 -1.81615700107 -1.22001477232 0.899424745276 -0.210760300479 -0.168102103957 -0.286696342929 
9.30586401785 4.18883417239 0.141112340278 -0.898750971845 -1.48624619221 -1.17558214753 0.893211048912 -0.53337542432 -0.367887891574 -0.465104086861 
9.08969180532 4.23763970238 -0.78005181519 -0.60064577468 -1.80488544385 -1.36696834936 0.794381761848 -0.781487993148 -0.305826252343 -0.576298999233 
8.67452972488 3.52929049009 -1.50361087161 -0.181930117976 -1.38123922166 -1.63814697987 0.881340297915 -0.40654468149 -0.283690515494 0.105874276166 
7.64552717308 2.07490623021 -3.04581801639 -0.0285891677611 -0.86321307719 -0.735582867075 1.30732911575 0.122012801571 -0.412193257056 0.4322816453 
7.56800410646 2.4181617524 -2.71467298836 -0.226484517943 -1.17754981701 -1.1738438641 1.02924441177 0.877039369757 -0.508023788863 0.51270524716 
7.30820131901 2.78491438359 -2.05357450084 0.334234707543 -1.72869604373 -1.07448820695 0.698109964445 1.2377289466 -0.107468829691 0.190475231766 
6.51038896428 2.732024898 -1.6005868871 -1.41084891475 -1.57725486135 -0.921489724926 0.0978799120639 0.65251336601 -0.234068892293 -0.00625411356785 
6.91563911993 1.94299592985 -2.98851445762 -0.587606451485 -1.2726327575 -1.82956885767 -0.189510330547 -0.23657012077 0.693163753321 -0.753937636816 
6.88100060241 1.51755813422 -4.51405525598 -1.65259376929 -0.835227418206 -1.77889476989 -0.759472843718 -2.47654770226 2.14585685864 -2.25272726349 
6.53501174015 1.0520069754 -4.43480555687 -2.51917124444 0.534198460519 -1.81154935303 -0.866052983668 -2.55754084082 1.98345262804 -1.58165519422 
6.30880895487 -0.359625669528 -5.13091179953 -1.96653608112 0.940815234709 -1.89580343972 -1.03862127307 -1.53642960449 2.15282789728 -1.23795781064 
6.06480751733 0.48401553188 -6.71326285914 -2.22600126208 1.75024065555 -1.41001198374 -1.13995440462 -1.14267672206 1.46853679825 -0.928033007161 
4.34558767609 -1.27189876387 -8.19713531459 -0.45389379436 1.52347635801 -1.93994793537 -0.180500101049 1.17100378417 1.34513333237 -0.432129767049 
5.62215233002 -2.25998671818 -7.32161028542 1.77075165896 1.46746602528 -1.47451072959 -0.135511890219 1.52794490508 1.69807962753 -0.412478764792 
6.22376896855 -2.98612614637 -6.42490650593 2.46171522048 1.23362575751 -0.652313419894 -0.53410733976 0.632775365153 1.55157283024 -1.76517145249 
5.44081629473 -5.38300162448 -7.51578602572 5.01874607751 0.674478044826 -0.336567180107 -0.0994328511224 1.07192994922 1.66950206605 -2.50678496806 
5.43719799496 -5.23593538557 -7.61781399389 4.86701247986 0.530259635256 -0.129908742783 -0.259600127742 1.46018036353 1.48017034312 -2.27525350313 
4.92457366269 -6.73894562536 -4.18167645563 5.61483606172 -0.172611466552 1.05996547199 -0.56130325808 2.32442880128 0.0348059754991 -3.14144135827 
3.3012942857 -8.13241038642 -3.54416193942 5.91929556499 -1.64222529026 0.293350689833 -0.208183321734 2.94659616796 -0.0136827503904 -3.18210804516 
2.79251805131 -8.42943457242 -2.80821897571 5.45661418388 -0.5897694194 -1.38247141951 0.512434088875 1.24694757871 -0.364859715975 -3.4557814695 
2.13063543067 -9.23377436236 -3.69345887611 5.02054622432 -0.652021452203 0.276191997128 -0.302958760641 -0.144260094625 -0.64033487593 -3.26903945411 
0.191374671006 -8.75305417516 -2.00910648934 2.11474727295 0.0614252413707 -0.563008538562 -0.458420685877 -1.56682514004 -1.65903494769 -1.28348202912 
-1.24502291441 -8.32500617247 -0.583753594277 1.32755508869 -1.26565457389 -0.174847862536 -1.14212958787 -2.30541595259 -0.980439381452 -0.39084509259 
-2.55840056371 -8.64576811367 0.453702400361 0.972268900715 -1.65427586835 -1.19375158675 -0.234640643196 -3.60031696098 -1.54970442258 -0.500419440194 
-4.23759537358 -8.04990722438 1.08275850834 -0.793684768341 -1.55130208925 -2.02245550032 -0.0188877189661 -4.27626863079 -1.14997581029 0.190379710678 
-4.79983722944 -8.4096454425 1.99052603602 -0.425090268569 -0.213032521602 -2.92051981827 -0.570505952042 -3.2670091421 0.0183596181043 0.414472742431 
-5.35807995502 -8.46314819567 3.59415169642 0.129329707267 -1.64633242537 -3.01754819666 -0.265451749787 -2.61959170814 0.503330999314 0.485106157258 
-6.76267784458 -7.07391313548 4.12082659769 0.0688204287023 -0.0543283392361 -2.27208279623 -0.0831373994049 -0.96875361748 1.60562561235 0.543454459063 
-8.36108367998 -4.87021401946 1.78119954163 -3.1195722519 -0.901440720589 -1.25239775737 -1.36310075633 -0.408608828716 1.36795065209 -0.407772085838 
-9.83454174141 -2.90387122212 1.72775837887 -3.91317124525 -0.225188032765 -0.680545451544 -1.29382600746 0.890993921768 1.02464338648 -1.56306734923 
-12.2218318663 -1.67684717821 2.09979470584 -5.99606168359 0.511552609178 0.273900927828 -0.0239784044905 1.873623451 0.704882597861 -2.03534659291 
-10.7937069911 -1.29989880478 0.8285564764 -4.42917744958 2.21850828759 -0.0803372156977 -0.180359673457 2.79760237569 0.389093599469 -3.28675696572 
-10.1904905013 -0.917474072688 0.244872850639 -2.53269884279 4.59347178533 -1.69541232185 -0.284864409835 2.30150583118 -0.551659868857 -2.71518632983 
-10.9526539518 0.157840416076 0.992012930802 -1.44795072407 4.05634357832 -3.05433584395 -0.383954835051 2.95652155455 -0.926965209459 -2.61823671175 
-11.0300223063 2.44049113899 1.26637709956 -2.31991351319 1.30560518256 -2.17263549111 -2.31109118769 2.38678436486 -1.98003160064 -2.60360589856 
-11.5785621287 2.62786623121 0.332263929186 -2.13022966594 -1.67067192942 -1.48207834576 -4.06082084723 2.3656426132 -1.25951219161 -1.94950926553 
-12.6629704604 2.86977155286 -1.86425180832 -0.467267990921 -2.89460683096 -0.217112740704 -5.78069476128 0.647599162583 -0.482151944746 0.88822930759 
-12.9332692707 3.87177978409 -2.32551688357 0.73916909503 -4.28751168292 -0.16153389679 -5.98245707974 -0.17359871025 -0.965163582781 1.65529533957 
-14.3428660766 5.25658051884 -2.65592853688 1.05009989858 -2.31187139761 -1.67504506839 -2.8786421176 -1.66088556985 -0.215246152387 1.33676906033 
-13.8655644378 5.48994439169 -2.88057031836 0.468098897493 -1.66848278426 -0.882040325503 -1.71958092113 -2.12400636665 0.825413687607 1.06849327716 
-14.1525980028 5.52699574289 -2.82681718495 0.0508439513396 -1.5338644648 -0.409517858661 -1.83449292713 -2.30462124509 0.974160690393 1.06368607706 
-15.5180691245 6.69142925372 -2.61516338774 0.661243477204 2.10105482324 -0.430811930143 1.79145946936 -2.35581258986 0.952669575719 0.370520687441 
-14.7526838339 7.01377646536 -2.6481511385 1.58838237168 2.20961214445 -0.762360706629 3.07170922814 -1.66661341304 2.08560454091 0.30132764694 
-15.4479174599 7.62143785033 -3.70062451389 2.53126077147 0.687389526985 -0.656731278003 3.16748195502 -1.98277462108 0.842847983468 0.201079025804 
-14.7458546556 7.87362650859 -3.12266045272 3.17631577515 1.82923392452 -0.10397102502 4.29714514881 -0.98865688221 1.30427649668 -0.022660590265 
-13.508539039 7.22967533568 -2.69484388846 2.76482410088 0.601354347067 1.71412229287 1.71498558035 -2.53458281792 1.71626879088 0.38718712414 
-13.2345462902 7.94804901447 -2.30966845569 1.06377529376 0.892225566792 2.86022213545 2.18540179144 -2.06653391946 1.36497274184 -0.717261474391 
-13.2995700049 7.97852219915 -2.23175393458 1.93488020178 1.09978962339 2.83668201491 3.14907859831 -1.21437942093 0.998903557247 -1.03805591187 
-14.3901832991 7.82173856553 -1.96754781609 1.81781975071 1.84515004825 1.53724832965 4.09955956608 -0.727126733849 1.13473825935 -1.67455969698 
-14.565947535 7.15674735978 -1.02019153618 2.55693650527 0.965063770121 1.97751115526 4.04560976757 -1.00270754098 -0.443905440545 -2.78553383197 
-13.8760806112 6.32909839198 -0.712734494291 -0.102110250664 2.24193335136 0.825320690925 2.4410885266 -3.29593222635 -0.250171983502 -1.47776837378 
-12.673011074 6.29872904724 -0.150523152167 -1.37296137831 3.51347458651 1.83534675954 1.27738330343 -2.32332468055 0.0214389916226 -2.73253708526 
-11.123917314 2.93819925321 0.460895137646 -2.39679085955 -1.05035568201 1.70766491909 -2.71918953705 1.14936632504 -2.03143726753 -2.69879906013 
-7.86258263036 -1.41116954818 3.06671653948 -0.987733695485 1.75039335837 2.14904025098 -1.61416114552 4.25480538293 -0.277414163246 -3.50402282712 
-8.51002198418 -2.05930537093 1.87072202449 -4.83625658256 -0.345652264443 4.35121386057 -3.08660534779 3.80631918466 -0.9325432814 -2.66855886776 
-8.08887956136 -2.91436753862 1.41869163452 -5.15378115982 -0.523436758399 4.04286639333 -2.10981362006 4.41533969266 -0.498211237404 -0.185089082238 
-6.59916975257 -5.11124695597 2.66703152052 -3.78732755583 -0.693607859405 3.04955708549 -1.12519989797 1.1271649643 1.61070632466 -0.0738864226822 
-3.81667508593 -5.60928590213 3.24311381275 -4.23769951035 -2.35171662283 4.94352367548 -2.39033519065 -0.309681702177 0.850125972744 -1.65998997014 
-3.02964778041 -4.99116541096 4.0349817006 -2.05368870372 -1.7626775949 1.23896267343 -0.836371029963 -2.97583034152 -1.40361204221 0.474951024366 
-3.5893298811 -6.69753697207 2.49604392191 -4.93824323041 -2.83405710488 2.69239286829 -0.594901786477 -2.38192573063 -4.44236576887 0.809162771887 
-0.187255038911 -6.53536151556 3.0540544604 -0.132123895035 -0.701632111498 1.40732454553 0.33108897359 -2.11670809179 -4.13151221394 -0.409170195847 
-0.265818429341 -5.694391366 2.66097303859 -1.02027512603 -1.72355393043 2.74102889779 0.318765083098 -1.28989625307 -4.55324580146 -1.47984870269 
1.95932419831 -5.28393016442 1.16670248249 -0.609382523009 0.430240471125 2.65887432904 0.316898798718 0.261069255958 -3.22879424596 -1.69970037023 
5.37646421037 -5.49746434274 -0.862208585068 2.13284358684 2.82853385131 2.7463643251 -0.867123134491 0.0326939200642 -1.23613819562 -1.64891285026 
5.2984678142 -5.59491805038 -1.09376030929 2.62877713707 2.94884570237 2.1222164736 -0.622535199997 0.381764397516 -0.872862550526 -1.3130703453 
5.60978652228 -4.97667343274 -3.23650361394 -0.244714779569 2.92946253501 1.73163207261 -0.614704729418 -0.129512160501 -1.17041035647 0.144102232515 
6.36066854563 -3.27303882285 -5.92848358719 -1.04482674363 4.5222410972 -0.549429033512 0.0312699828232 -0.190989461166 -0.931207541863 2.51030610546 
4.88933350804 -2.55689830048 -6.20000197744 -3.52141759418 2.89069514916 -0.861955919525 -0.29186597217 0.254610469869 -1.2563490348 3.48212460211 
4.85156132492 -1.23545166647 -6.98489464577 -5.00985986669 1.46731673116 0.163239825719 -0.718229935708 -0.278153460025 -0.769366304934 2.60908201415 
5.78680851708 -0.143175302905 -4.78303512726 -4.10123281822 0.957306763178 -1.21726087554 -0.706502848159 -1.30368387445 -0.369893023833 1.42424038304 
9.14405720491 1.15729769688 -4.81128473513 -1.87718582613 2.17974059272 0.109048298106 -1.42809255992 -3.47299041627 1.69635633432 -0.434960906902 
9.50279557674 1.82026992453 -3.37870069511 -1.47532111718 1.30506872216 0.717103470825 -1.30101470918 -3.17046350858 1.55756128996 -0.951879135345 
9.59194064159 3.28015160091 -0.433742349903 -2.84158843766 1.43228640995 -0.300513316334 0.443119469153 -3.28472919115 0.111482384123 -1.26483965921 
10.439017286 3.00602677513 -0.048236105789 -0.551436974746 1.2006555733 -0.855163301316 0.756191963923 -2.80384878923 -0.422967157531 -0.733607585001 
8.80762527611 2.83355080197 1.49149647933 -0.340801753757 -0.428574704052 -0.362793556484 1.35026815067 -0.265608356303 -0.945884371633 -0.428195798773 
9.3729447726 3.61136231262 3.53949347225 -0.808304492172 -0.260424347265 -0.229566520196 0.400601453277 -0.488824692382 -1.84187666127 0.242978321424 
9.26901736157 3.35101553434 3.81058987025 -0.382122169809 -0.210375650894 0.170418098407 0.539108842668 -0.3309144685 -1.34630869025 0.0864753836901 
9.29164299086 3.80007984126 4.77782520933 -0.148559295359 -0.38932310495 0.334037394314 0.33772954375 0.224579479737 -1.60249634312 0.362368035602 
8.51315653083 4.78966337948 5.00474490062 -0.194336146382 -0.776706729944 0.478224879463 0.518915928115 0.741919322659 -1.16130652941 0.625478441876 
8.87237187406 3.97619001073 3.94865282734 0.625450757211 -0.785736175035 -0.519488627093 0.917912214022 1.02085673294 -0.944962004845 0.692634355564 
9.82527098381 3.79197745149 3.98257096449 0.886041747067 -0.624908398397 -0.816483323858 0.486324129956 0.793091127802 -0.889032625557 0.725438208172 
10.495039464 3.68255717002 3.96589489242 0.248881428116 -0.106981654782 -0.452339549083 0.135997028299 -0.126403327865 -0.713206230708 0.157413366714 
10.9312759695 4.13695109189 3.84317166215 0.742485780455 -0.351091345258 -0.286759065494 -0.486325130289 -0.12019063827 -0.658065342056 0.313646124567 
11.6917957379 4.23308165867 3.50821736203 0.944963643475 -0.200934066147 -0.724680708329 -0.932145912743 -1.24326995245 -0.310542050784 -0.199570995946 
11.0785607943 3.91950960397 3.74827121305 0.930725040231 -0.418846239748 -0.972633084642 -0.831511137615 -0.656878592815 -0.458116388857 0.292464773385 
11.5429772542 3.54225479371 3.68052013022 0.665638548124 -0.0167995407316 -0.752782775311 -1.03663994678 -1.25823846722 -0.659772515416 0.0927776682232 
11.5221144709 3.57566983943 3.59140990889 0.929437238691 -0.587813924057 -1.03459747838 -0.836201881212 -0.799654660501 -0.570904747954 0.198021130838 
11.6475223961 3.75191477079 3.02032570651 0.45369052196 -0.844321265071 -0.922468672661 -0.707575015775 -1.26889221718 -0.464406340365 -0.185262352323 
11.8891513039 4.32153441417 2.68026147638 0.704344502409 -0.777221015618 -1.56371670371 -0.648556242233 -1.05676967312 -0.75709528517 -0.373225970182 
11.7766723228 4.31649009819 2.75217134621 0.513899551731 -0.735547613297 -1.56868065103 -0.695292152552 -1.06983990563 -0.753722632199 -0.255449832356 
11.8379906861 4.42822153934 2.09012974832 0.176680656324 -0.496249688762 -1.04427891186 -0.769593332854 -1.42997885555 -0.671327237326 -0.569294964065 
11.1048780095 4.95638848282 2.20620463483 -0.881429509202 0.0569858826432 -0.821601279854 -0.551812987799 -2.2316988225 -0.583532807812 -0.532116183851 
10.9365513148 4.61703661648 1.12387973309 -1.03951944911 0.0772400502966 -1.10604352099 -0.29660302528 -2.84246471415 -0.369293320508 -0.725824450619 
10.4999130743 5.1157303027 1.6717759139 -1.69391396264 -0.189345403682 -0.91454550725 -0.618946155488 -2.96265891842 -0.369761565514 -0.763236277079 
9.38972318555 4.71666827173 -0.0454649705048 -1.79442297986 -0.0910569060508 -1.60120715886 0.0946748159377 -2.357971044 -0.396650627938 -0.840190201421 
10.5542762373 4.54405220497 -0.40751449617 -2.10553898912 1.02816328902 -0.761626455589 -0.432766794758 -4.04578530003 0.450885151658 -1.38200002126 
10.3179687153 5.26663825446 -0.215139628528 -2.6496526816 0.795809749676 -0.0220449884772 -1.32419540004 -4.9120431243 1.17977592176 -2.05054807343 
10.605281304 5.21614480279 -0.257971246125 -3.50551152817 1.20227951868 0.518378233887 -1.95065620541 -5.28216146659 1.67031308575 -2.36141203053 
7.20763432039 3.28589078346 -2.62483879023 -4.69073449012 0.514065307662 0.193393565937 -1.3857276114 -3.15961576144 1.65144859335 -1.77507737706 
6.38433806731 2.30070608534 -3.01089508763 -4.62595772652 1.75705658762 -0.744312048197 -0.423413489558 -2.57492647107 0.9622641531 -1.25245568092 
5.25255066329 0.538948666481 -6.10993144944 -3.29568080758 2.31136310241 -0.780567147926 -0.381359326921 -0.963810189085 1.36159386815 -0.0366142909291 
5.8726194277 -1.47723067712 -7.22467534707 -1.9877767513 2.28469656773 -0.0669817226667 -0.385157967723 -0.107284799411 1.51171076072 0.638443332662 
4.90556906518 -2.21827185374 -7.2970545642 -1.51074097178 1.81679255704 -0.352993617681 -0.0752432597199 0.0319581917335 1.81242999716 -0.165311375937 
4.8685937441 -3.72753413938 -8.82657210223 -0.489712879624 3.28296153758 0.369081618513 -0.143865899453 0.109475217535 1.70778254359 0.446926032572 
4.72926909897 -6.45511231919 -7.46080711438 3.4455651175 1.6700297911 -0.107978586879 0.898727410365 2.3406570369 2.32594898354 -0.595499817559 
5.70557787297 -6.16180786687 -6.14403387972 4.90317744083 2.21977695103 0.344664487425 0.876732272646 1.90667187845 1.91824952593 -1.99319150052 
4.64185515673 -9.16065071488 -5.85345345989 6.13009459585 0.724012849232 1.65879688758 -0.00250996578647 1.65193432057 1.97166208165 -3.27750640757 
1.44057695985 -7.55565750078 -5.2775327311 4.06064921617 -0.00920920638776 0.543893230492 -0.0812198028302 2.48959852573 0.87519459001 -1.32814597163 
-0.498869417752 -6.28802226225 -2.80349225271 0.849205918956 0.5918987263 0.880842054098 1.2920880737 0.806844789803 0.604319806789 -1.10872376547 
-2.02296914499 -8.91982884571 -1.96503533651 1.81739595339 0.579432637259 -0.321478654546 1.90950421291 -0.468514096713 -0.310880982366 -1.22192829068 
-4.77745545101 -10.954074509 -0.577553667224 0.498664714285 -2.42047401287 -0.321849076761 2.61531570221 -1.63693398735 -0.207081329514 -0.833192059982 
-4.20562289307 -11.4002039103 0.00549221827287 1.32162234747 -1.54841208462 -0.95042929808 1.74787337091 -2.61699683393 -0.0747469695359 0.67007330152 
-3.96520891288 -9.63354243204 2.32414097038 -0.621707686241 -3.55851718907 0.195130518493 0.459344126413 -2.47917471904 -1.37564161302 0.381816887964 
-4.7444139972 -9.84315293969 1.97193601816 -0.351655376551 -3.57909039977 0.0899363864248 0.696219625624 -1.75796587265 -0.32751152282 -0.393955578003 
-7.08633560657 -9.77212728264 3.99212419878 0.118177681483 -4.0309258678 -0.190780537277 1.21545043361 -0.687133140927 0.827483052085 1.00300585136 
-8.0733200915 -7.34333492389 4.03057981482 -0.0324129320195 -3.60491189393 -0.0762600334561 0.561273477465 -0.569976560774 2.79418680273 -0.0397437465102 
-7.26812777567 -7.85067601272 4.00130366155 0.886437886681 -3.13932990348 0.856960606984 -0.111243067928 0.994601444757 3.29247916148 -0.093792473065 
-9.01063199141 -8.65356034438 3.15709387999 -0.89149783704 -5.13709374538 -0.340794461441 -0.332906686556 1.68283395819 3.93869707504 0.834678348127 
-10.6882872082 -8.31351364058 2.58094308671 -1.2378059132 -2.82160480273 -3.37699980791 0.66256137972 2.13911688155 2.57407998521 1.15811420049 
-11.869336564 -7.52799900882 1.13909803358 -2.48630501158 -1.32753224292 -3.00785370646 1.0075982838 1.96472248627 2.98152509729 1.90084206196 
-9.74017922192 -6.68374939838 0.432029270059 -3.37384183876 -0.393721172996 -0.692241715851 -0.469154178441 2.20733777378 3.27633065617 0.108658416637 
-10.6810713995 -6.13703626519 1.63425161229 -2.89462403922 -1.78299742725 0.355099266785 -1.01353445109 2.67915310068 1.69668638357 -0.573599559325 
-11.0570217348 -3.9188727512 1.77064516019 -4.49696587435 -2.84216020449 2.0319812405 -2.44275047788 3.99127532731 0.0429664177951 -1.38550335765 
-11.2001226327 -2.51774771267 3.1984685082 -2.55416259589 -1.28488555131 -0.68077995315 -0.811637454573 3.94944881259 -1.26358459594 -1.7476842998 
-11.2320063003 -2.06892507549 2.81044381607 -0.617371761641 -0.0513672793165 -2.62981948039 -0.606743062127 3.23431530395 -1.34572342171 -0.478682456311 
-12.6811045286 0.402873943834 0.907952445679 -2.12954322351 -2.70418004699 -0.676751717996 -2.27533740246 2.55757283879 -0.185887915454 -1.45898156678 
-12.8931156346 4.21786590977 1.16175109015 -0.15170096423 -2.74435501881 0.235328659053 -2.58041330056 1.19344253391 -1.1557348383 -0.864270374499 
-15.9492236948 5.69899892967 -0.620825712235 0.818207281917 -1.70357080112 -1.58041540562 -0.560244921892 1.24808314715 1.19494139472 0.505859344844 
-17.8278170735 7.33243510644 -3.39657337496 -1.13219873554 -0.637936281263 -2.00888083009 3.30584707205 0.152295211382 -1.4442884695 -0.348195534328 
-17.0200806679 7.26485951794 -4.14045180056 -0.0945393545309 1.17289842621 -2.39570388665 5.32053719174 0.309173306346 -0.175185645268 -0.299361319838 
-17.3874742039 7.87684761339 -3.51267493398 -1.21660806022 1.93476539537 -2.35739589758 6.30955822013 -0.335965036299 0.610815525961 -0.44012279377 
-17.8135076149 8.47968830978 -3.4086391564 -1.15264934197 2.02613667983 -3.02216385939 6.95137208284 -0.266046141275 0.790892538069 -0.861185644679 
-17.4051040844 8.16906329817 -3.71617901167 -1.53175965545 2.95125813549 -3.18137226483 7.90753075971 -0.852576295609 0.77236907808 -0.612291810006 
-16.9782683796 8.48850810608 -3.75690494307 -2.11954853855 2.4381467586 -1.94024911132 7.37544114574 -0.517001504944 0.148858290863 -0.895438634806 
-17.3558547892 8.21514531697 -2.7267735619 -2.14995465075 2.5697589553 -0.845902986359 7.34122273444 0.26240485173 -1.70914361932 -0.63413161886 
-16.1350845003 7.38404336378 -2.87099981029 -2.31325570681 2.78770685202 -0.618384785267 5.89294995392 -0.703498208703 -1.82989563561 -0.681175581816 
-16.5893692211 6.60601003377 0.0937701906846 -3.33777650739 1.53996449793 0.163649520861 6.07367990058 0.829217438968 -2.59392622903 -2.72999355992 
-14.5816181793 6.47914728801 -1.73708562654 -5.94205733274 -1.00276795142 4.52602813053 2.74256411776 0.974230649668 -3.55700595998 -2.4759661108 
-15.0426429961 6.4084911086 -1.60674338754 -5.17098807183 -0.785786617547 3.91804673314 2.91401196103 1.21636833749 -3.27203361367 -2.43353202463 
-15.3127252349 3.46983113582 -0.735157817755 -4.57257194972 -0.753825052216 0.306066338964 2.38754440444 3.59226920318 -2.43727754204 -2.70904455958 
-12.8298306276 1.53869014217 1.41824839946 -3.20038516295 -1.10213077601 0.599040986785 0.475394770114 4.99804099884 -1.59751395016 -1.95873482475 
-13.3952007159 -0.993113513675 2.62253272182 -5.34326477222 -0.543979513207 1.19780614485 1.37805292151 5.77713626488 -0.623567864609 -2.60900895861 
-12.7189670431 -1.49559264088 1.09492618129 -8.07917232235 -0.633402456548 0.128052213011 2.21089898807 4.54305883945 1.12528609317 -0.968958835403 
-11.6223440812 -3.17486232022 2.55625130678 -7.46709246999 -2.16896101283 0.472031270217 1.79342597579 1.48792682446 1.81183839629 0.872663006156 
-9.07782949707 -4.79057706854 3.33502014998 -5.39039021057 -2.96157666492 0.152140121885 0.835551946795 -0.14416972928 2.72289278639 1.39972563878 
-7.7521256105 -5.72881576438 3.92258384848 -4.43448446276 -3.14694716841 -0.650428902364 1.9779673561 -1.54651973388 0.80640474379 0.747889078628 
-7.92776915326 -10.1110291002 3.98867847163 -5.3865392422 -4.52354615399 1.65886399899 2.31872329515 -2.33355734275 -0.0640681429708 1.13023909695 
-4.76403049711 -10.0739287736 4.19000529758 -2.08681381572 -2.92200563369 -0.0800542084366 2.94743906712 -2.28281830571 -1.8814345401 -0.122172134586 
-1.88796804893 -8.93868982717 3.26469197904 0.345673554785 -1.11136943903 -0.631788676634 2.88893239626 -0.567316415528 -2.44809162901 -0.999631915976 
0.248445197877 -6.23565089831 1.0047641335 -0.3613614868 -1.84970878006 0.973286900253 1.23362332467 -0.164311770277 -3.19946955559 -2.13798216377 
3.09918426751 -5.22298491149 -1.37028269079 0.69797361857 -1.1493563221 2.03077413264 -0.374487953946 1.62868889271 -2.17425082561 -2.34090556462 
4.16511190975 -4.83486623061 -4.48179934789 0.120925621243 0.618362440639 1.59095607634 -0.549164584268 1.05297834296 -1.0453584063 -1.93286418563 
5.06781549566 -4.11212367447 -6.39488733964 0.0896260688559 1.51752414743 -1.33796469777 0.490935719667 1.00621006621 -1.56548596222 -0.0395493785467 
4.86033251938 -1.42208776053 -6.68621067424 -2.00440718192 1.41697686037 -2.38947938479 -0.518870454017 0.798243585241 -1.49150553694 1.97890696873 
5.04781680905 -0.0804384905729 -6.11356584113 -3.24825311792 1.61698546188 -2.43654804872 -0.656422620944 -0.229023952046 -1.10472085512 1.88559424893 
6.27974732451 -0.213587363364 -6.37602848008 -2.72490854083 1.35771911981 -0.861265407222 -0.694979185351 -1.24067520528 0.575843763398 1.65274629232 
7.99284487452 0.432168212907 -5.32730432656 -2.38006209512 0.435408609629 -0.868062189556 -0.493385842055 -1.04254376894 0.571594343882 0.588771846746 
8.01985351877 0.795822330926 -4.07538838923 -2.92654083069 -0.0696135992576 -0.961290434384 -0.522110539041 -0.625204633508 -1.03739228145 1.66366933437 
6.85779245578 0.737719208101 -2.69262645047 -1.5061629812 -1.689744178 -1.22461619946 0.607247700747 0.67107452106 -1.0650760063 1.17927106807 
8.67972492507 1.56928775581 -1.33120844121 -0.79650037857 -0.989909371519 -1.18626008614 0.991765402792 -0.247078915321 -1.13175069267 0.0757328159845 
8.79629453947 1.88742336725 0.838923321495 -1.27932977284 -0.861178165347 -0.268051655758 0.923307042898 -0.453189203606 -0.787990700643 -0.175968900997 
9.53195678934 2.92602237439 3.19554756071 -1.24444747712 -1.62425172437 0.139430920693 0.488688870263 -0.841319683599 -0.646468679966 -0.318849654426 
9.23126973739 3.07996309606 2.81382098355 -1.25129003973 -1.93199316981 0.0248756001401 0.509256084819 -0.828876004746 -0.420871083082 -0.404544734004 
8.96063248573 2.74240748821 3.49013353949 -1.83880372151 -0.957151473138 0.149911284615 0.677386444767 -0.862101516341 -0.159726248398 -0.674558520008 
8.49266139323 3.13256561493 3.31352447957 -1.20344125969 -1.37317574575 -0.0434498436262 0.95969358354 -0.0585615037374 -0.171886478534 -0.469534483019 
8.26716413662 3.50868983274 3.28960763402 -1.26563363577 -1.26833683114 0.769048831339 1.15698403282 0.0158520475598 -0.116346827428 -0.584974058607 
8.44355710069 3.76545684112 3.15731170748 -0.948297832172 -1.30741437578 1.02720264073 0.927801762005 0.320156114175 -0.0182531688054 -0.617746846171 
8.29656821355 3.89072464006 2.69080284075 -0.754232235909 -1.27458729257 1.29197187878 1.0565601955 0.522297920209 0.532307409181 -0.687081985604 
9.54176016093 3.32844208915 3.53123756072 -0.295778643261 -0.724817005743 1.91612299544 -0.0043358690326 -0.0292839204482 0.567875709823 -0.916769165786 
9.26016317332 3.67661717145 2.54475048656 0.153973111885 -1.1101083442 1.31550826406 0.14373030792 0.09590954545 0.952638513659 -1.2010200176 
9.15505630987 3.79723121096 2.58563121922 0.777953127026 -1.58956109114 0.374754602467 0.309668070948 0.387106318231 0.536251385675 -0.707241997544 
9.73863853862 4.22697934261 2.57217692771 0.875794461363 -1.41718971918 0.178220384118 0.309226635293 -0.388274110012 0.496151359101 -0.984835837005 
9.79996601238 4.3038437666 2.28067204069 0.494220906168 -1.19459463858 -0.420992980834 0.699634243131 -1.06231575777 0.273146910224 -1.34477966192 
9.9003188096 4.5768426621 2.86121545656 0.339724663511 -1.61491536468 -0.381066088308 0.197235066666 -1.05555682457 0.0113944895866 -1.24228959805 
9.49581577831 4.67568948601 3.12867408645 -0.00829325641102 -2.14985335213 -1.04826644206 0.221215729536 -0.461099794333 0.0895060932155 -0.848191661855 
8.52139206028 4.71368464689 1.36008395492 -0.637767898053 -3.02472081599 -1.7567893698 0.701312001794 -0.578510887076 1.14480977655 -0.789764298816 
9.37998167265 4.62816671249 1.08514572967 -0.577773828111 -2.71304591213 -1.57668904046 0.23631999161 -1.10904826803 0.673454261725 -0.687181007935 
9.49726021181 4.89143566097 1.01372261499 -0.794563411669 -2.3745718066 -1.15040672918 0.144164468499 -1.49526451926 0.617549243345 -0.601268045417 
8.32624223846 4.61773658549 1.11341377292 -1.25532746927 -3.03629709115 -1.59147218482 0.449841946216 -0.955450305372 0.520745851907 -0.725101241904 
7.14707331963 4.06649850434 0.14753608285 -2.41080386124 -2.62024998827 -1.56367739096 0.807230295216 -0.907073840659 0.648725540913 -0.792814424214 
6.79857719996 3.75398711836 0.158768254494 -2.87680997387 -2.42872371854 -1.88605098558 0.541307891993 -0.98035165928 0.475518413188 -0.79123678189 
7.12792759401 3.82029928575 -0.853360733944 -1.72996744774 -2.31593713681 -2.43772983367 0.584757597949 -1.08883734351 0.490912095866 -0.931813498523 
7.13099142704 3.28589900767 -1.78061258031 -2.00285255287 -1.64701795629 -2.26885212824 0.568248512719 -0.783116081308 0.189706932817 -0.75243164153 
8.27614080419 3.89027278459 -2.54146983385 -2.10038942504 -0.927661278388 -2.00910346198 -0.130604101899 -2.30060899973 0.85261166726 -1.14001761619 
9.16346506942 4.64488283647 -0.590809104092 -3.98911771356 -0.0539141095226 -1.70730625767 -0.809181512025 -4.72107297461 1.30965792219 -2.20642209983 
9.46728708529 4.64677353058 -0.734056354164 -3.75458883362 0.500275912143 -0.487662298166 -1.10201362464 -4.75469236193 1.98031850545 -2.96738964748 
7.9957789208 2.72510791894 -2.96926831127 -3.20255146657 0.385224753434 -1.65557387177 -0.865652572436 -3.44817053239 2.12821767919 -2.07892366725 
8.91595409145 2.08871393748 -2.8181111654 -2.2933546315 0.626229323131 -1.63195038069 -1.08983701693 -3.35818961681 2.12938808607 -1.6863692009 
4.13031832696 -0.231136955166 -7.32324880662 -1.92065093778 -1.23827450629 -3.46979396506 -0.352120849122 0.0784556069476 1.80421295307 -0.409981228037 
2.53089234496 -1.88327726367 -7.44829705774 -1.55350008609 -1.57466873911 -2.16547008621 -0.21123851193 0.45649211154 1.22758437754 0.369136580741 
2.41054735476 -3.56069263204 -8.53328279712 -1.07875035827 -1.92444877654 -0.76374205123 -0.270707874777 1.60597666416 1.31104983915 -0.173808433794 
2.33401739607 -5.44988614601 -6.33824368519 0.529296046188 -2.42045829565 -0.0610165991834 0.160393390347 2.34992132436 1.2292885187 -1.82761332953 
2.60055000367 -7.51850197568 -6.71433026955 3.3057536588 -2.02292999105 0.274050637024 0.204830334604 2.24488748682 1.59770151052 -2.03487372051 
2.81753050583 -7.53836145005 -4.19141461776 3.77040072008 -1.79390517039 1.20305451517 0.603289599758 2.13619207463 1.10126579474 -2.84471169544 
2.06709180249 -8.94996820025 -2.99990962389 4.24511298544 -1.19126999238 0.511349311383 1.09125198745 2.45272773246 -0.0106437016524 -2.29721194241 
1.10502642654 -9.79078086262 -3.05095119993 5.19384260318 -0.860450155256 -1.66960223318 3.08753560567 1.67549050037 -0.111882760256 -1.98980673797 
0.128493469191 -10.4164488981 -2.0850316598 4.57939377504 -1.43462686849 -1.33320016164 2.75735605533 0.807326989521 0.223367737492 -1.69803808732 
0.755524944818 -10.8917287454 -1.72572665828 5.57574754418 -1.24055196599 -1.62578151504 1.11764649326 -1.43588764407 0.203956175685 -1.35262878595 
-2.64745203623 -8.94431398557 -1.89860569406 3.10878681815 -4.07589885769 -1.99673714173 0.664741309848 -1.22123268383 -0.821644165126 -0.881897193319 
-4.20675476737 -9.50211915339 -0.775338702668 1.31872984383 -4.32559616521 -2.85242032457 0.560229990433 -3.08280340763 -0.673685030585 -1.15248869958 
-5.18882173007 -8.91612550198 0.454370718808 0.329011172214 -3.18681449861 -3.0010705647 0.589945533508 -3.7869155278 0.759165656911 -0.550839462902 
-6.4846668875 -7.16606243164 1.32084542565 -1.90466843161 -4.5731645889 -0.516910444958 -0.89729463295 -3.11372113862 0.841916889598 -0.710786814859 
-5.62673276347 -9.02638636872 1.94499008222 0.869434625256 -4.06840777053 -2.97485976853 -1.23842306956 -3.11105647454 1.60691158916 0.982263146763 
-8.58427352345 -6.90264024849 2.58717951188 -0.545930595191 -5.28886828373 -2.23087385042 -1.22410175898 -0.928119152875 3.26142020727 2.15273114199 
-8.93973143137 -4.42034807935 2.69194460546 -2.91069853894 -2.89769134419 -1.75661520792 -1.015702248 -0.291936657972 3.23775511948 1.62198378592 
-8.1898065087 -2.56408631757 2.79886024414 -2.48665173767 -1.91279495975 -1.34318352749 -1.24101281646 0.723455201826 1.74095572221 0.647562297541 
-7.9100104169 -1.80974175905 3.72230248843 -1.8899741692 -2.03739376426 -1.66997357014 -1.59197491181 2.04354509394 2.15452784292 0.208883832347 
-7.8464884373 -2.67488588008 2.4746742158 -0.581608426259 -0.167497912388 -3.33542383083 -0.438392792725 2.37754090769 0.766258751341 -0.590723987309 
-6.63999955829 -1.55618129688 3.06119854985 1.76651273394 0.0704601034067 -4.67022669923 -1.14927296712 1.5457891681 0.308009936297 0.441349210552 
-7.81719971176 0.204036508815 1.58988218859 1.55294633051 0.0599511302334 -5.18785741081 -2.59235753215 1.77423972333 -0.396057816202 0.194864800213 
-9.17828612616 2.02981966035 0.547678079668 1.68253186203 -0.224296159341 -6.10484873651 -1.57735332454 3.07644449979 -1.39193250776 -0.239896711335 
-9.36059419906 2.80114624738 0.105620905775 0.0618832169779 -1.26585139815 -5.97586247079 -2.77682354671 2.88340072004 -1.58480610642 -0.463502578757 
-9.98444584095 5.13081438978 -1.30670679561 1.09883253064 -2.38764353464 -3.91235787515 -3.36746081987 1.48633544358 -1.79681681465 -0.0876679848518 
-12.7211575101 5.49735631766 -2.18053484041 0.812391553477 -4.32884628487 -4.97008540294 -2.98825218044 1.6478171659 -0.172966963961 1.09017010773 
-13.5943452654 6.61924476274 -3.22304486882 2.28768096243 -3.19340844938 -4.09883479289 -0.98743853911 1.23756945463 -0.0264208365386 1.04553337709 
-14.3641245121 7.57202310336 -4.37934265688 2.07622502983 -1.03056262561 -4.66114234082 1.70250916261 -1.04615268146 2.51814174361 0.851284299468 
-15.8654465506 7.40755442517 -4.33457765783 1.35286711853 -0.242908334151 -4.76415314953 3.80248992867 -0.762739462691 3.38304765458 -0.201747220106 
-16.4723491968 7.4880861247 -3.84353360184 1.38329777701 -1.666924345 -3.5441268314 4.66082525628 -0.545046721694 1.91805636823 -1.13342075034 
-16.8412513255 9.37926657082 -3.53141236465 0.787613657864 -1.36516051045 -2.14083760371 3.85736859279 -0.553515658164 0.150765686174 -0.872063963177 
-15.7110262055 9.09915027233 -3.98817679017 0.750435893962 -0.952582326489 -2.01511722367 3.36899965638 -0.837792767237 0.806305929881 -1.62857844555 
-14.4810232564 8.05461684878 -3.90630827275 1.13712879386 -1.59982320898 -2.03057601484 1.84412415395 -1.33651299602 0.163649170904 -1.2849324859 
-14.8132734805 8.47804202727 -2.68802175928 -0.993061999441 -0.322399407128 -1.57473497643 2.40528754286 -0.546029046571 -1.75021024824 -2.31106730905 
-13.0150859577 7.36316640398 -2.44026801432 -2.44262444594 -3.4415595094 0.48046911884 -0.798389600763 0.132609154064 -2.7887495848 -2.06920710608 
-10.9025966636 5.36240345094 -0.429736020714 -0.505171597633 -2.2980312772 -2.35490601499 -0.187535805427 2.20776483759 -1.10572243806 -2.39205270745 
-11.6048018326 2.57440087145 0.731654713246 -2.19805708855 -2.07931922458 -1.41134880035 -0.88050160317 3.44560672438 0.661993003872 -1.7469831033 
-11.5534191282 0.937363896677 1.62021596629 -3.85212597561 -0.0233421921737 -1.32096499986 -0.590811778725 3.17821353132 1.7590196718 0.293498570466 
-10.3776253359 -1.36663657457 3.316211272 -5.07858372426 0.657884548445 -1.55198748459 1.7134324193 2.88799291261 2.65070439772 0.28579006773 
-9.89685379468 -3.17243303871 3.44539049849 -2.78246633439 -2.73503594074 -1.45602324231 0.0275540093764 1.94636256723 2.2552047195 1.52243870768 
-8.22794013607 -3.7694521719 2.8172800709 -0.159603104155 -3.86731461304 -2.27157308944 -0.610940462369 -0.0451510213731 1.699855469 2.38033358205 
-8.30483360714 -6.42178755878 2.28779262514 -2.30980830433 -5.01678019415 -2.63441318024 1.13455328217 -1.38088828688 -1.09542923661 1.88649233222 
-6.82520417008 -7.93157052909 0.718234898675 -3.18119540099 -4.95702951875 -1.36728981673 1.00279639174 -2.70117202372 -2.53095833017 1.48318623973 
-1.8818912251 -8.08270454423 1.4668745423 -0.0477690702896 -2.21190017166 -0.373005857259 2.22317456363 -2.47687858856 -3.5709682913 -0.310422940329 
1.31354834447 -6.53357205969 1.08433365572 2.89616429688 -0.093374837617 -0.834656582589 2.6378572739 -1.3156219962 -2.12613519394 -1.59711597825 
1.29526864762 -7.66638388693 -3.21025331043 2.55715975308 0.00244075105852 -0.624137224957 2.4631288523 0.785825046299 -1.25661543883 -0.616489909253 
1.72131645884 -6.90709527842 -6.4188483298 2.00542391849 0.329785328703 -0.426131135019 2.08649816036 1.98892304313 -0.0499564719283 -1.04660129195 
0.866493195642 -6.95554183436 -7.41067223065 2.48357670733 -0.230255191771 -1.30870338283 3.84670706599 2.89764700596 0.549424382577 -1.37641629681 
-0.00431896123402 -3.85674929576 -6.137046628 -1.38223886103 -0.386758770206 -2.19442564286 2.57995475067 2.57976569869 -1.42788470058 -0.418740040565 
0.212927287088 -1.71169406912 -7.12091321845 -1.88765524473 -0.407727135215 -2.71282475012 0.88892406012 2.01064531527 -1.01423705581 1.03141958 
3.05648488882 -0.835453386974 -5.97335344941 -2.03763391836 0.419990318261 -3.06399782126 0.306803882782 0.633302057248 -0.436142576963 0.668941847781 
3.51566387195 -1.56615952709 -7.75818003501 -1.27199283486 0.170719986474 -3.65539310914 1.1215090037 0.235899502758 0.222844198952 1.70442284015 
5.1058425098 -0.660633583564 -6.86485157675 -1.082252256 -0.600765927299 -3.2286218425 0.986260286725 -0.749765052961 0.652091561121 0.749498636852 
5.30958303742 -0.540986195944 -4.3886693571 -1.40051287238 -2.82797307584 -2.19184133065 1.19218664346 0.997354842924 0.1114523417 0.406580237642 
5.93327323581 2.09959081185 -1.24572312806 -1.89686709345 -3.87671669686 -1.75130251172 0.810420723779 0.844583935478 -0.461039099989 -0.365958734478 
