-14.8674981334 -6.55814891664 0.0965902945585 -1.98696078892 -1.08393138128 1.81022514952 -0.00703883863102 0.960423740521 1.35324566631 -1.03160936238 
-11.888893533 -4.98524801914 -2.70272687612 -2.62851741594 -1.2610301928 1.43257516185 -0.0963316684124 0.536837099515 1.03586558613 -0.606200339625 
-11.2244054015 -1.78283057131 -6.21346858885 -1.43264185718 1.62650438689 -0.432119606585 2.07887455759 0.566304232139 -0.121721299985 -0.0929308994853 
-9.05379932681 -1.57025602265 -7.03229117414 -1.49090636658 0.6415811271 0.555138300094 0.813518230423 0.716105312417 0.164640843165 -0.487621284948 
-6.53443418372 1.68964493552 -7.16419508878 -0.98522497758 1.16714034702 1.1595112073 1.40835862574 0.820005278849 0.842476751993 -0.699425690584 
-4.89260777449 5.0463085563 -6.61787408397 1.18117537385 0.368399734701 1.0813150684 1.28852050066 0.556482038882 1.99710667095 -2.68454710893 
-4.2689277123 7.2311511027 -5.01575960211 2.37420396022 -1.65324189424 -0.0465095165336 1.41814642855 0.264966850328 1.68065372144 -2.95396349253 
-3.30111617844 7.96746989322 -3.97978197915 1.94161650257 -0.774368956091 0.697062434494 2.31093347157 0.726721748035 1.59832493884 -2.46105468148 
-2.64450715212 8.8494065647 -3.13504878965 1.39000011708 -0.618955375315 2.06074865495 2.64639186888 0.569436176027 1.92974000965 -2.57896946648 
-1.13867604703 10.1745037284 -0.122218823034 1.46543568926 0.644632368129 2.03706568754 2.77453474049 0.342870055992 2.10977191793 -1.94687602906 
-0.97139502709 8.37739401316 -0.901374730377 -0.371098413489 0.565096922719 0.899519587561 2.93775076432 1.22731428143 0.816898268453 -1.2324452628 
0.735211672447 8.36576844857 0.767091226299 -2.31808265756 1.36378362325 4.52210869108 3.05246218357 1.14625605182 1.45068116118 -0.774574180279 
0.427908836373 6.99967682276 -0.282193216674 -3.17263423285 0.949612548817 2.98851953913 4.11335614007 1.18407869344 0.910229517998 -0.482344452293 
1.34476946845 8.05521059957 0.742102668371 -3.26901110351 0.876068281983 3.12417279641 3.45749673077 1.6383805119 0.629732165873 -0.49320402985 
3.10876741553 7.77987660255 0.484563272335 -4.94085136896 0.0428548632915 3.56670842344 3.94809791486 2.36505725245 1.01412423905 -0.148445079067 
2.84622642629 6.79188203745 -0.667242884468 -5.06164256228 -0.0632940840397 3.2302859343 3.56611042916 2.42052266925 0.777649210546 -0.43230045004 
4.02480373599 5.45513570006 -0.700728250365 -4.87779031712 0.973800093273 2.2322462717 2.13619177156 1.93518225856 1.18616961158 -0.481932491324 
4.13073382015 3.86470903851 -1.72566107666 -5.87166006655 0.957033901687 1.96595810418 2.69956452428 1.38380429065 1.38123841641 -0.943886149058 
5.12598373282 2.9904414647 -2.08458511069 -4.82808238533 1.23113554988 1.2413343362 0.00196345780914 1.66911857106 1.32773164376 -0.463184692555 
6.04177460507 1.21166236236 -1.75128642594 -5.05618956828 1.65517335592 0.175948700128 0.0532254895541 0.56997710057 0.480357275529 -1.34447308645 
8.09483189601 -3.26364877849 -1.83596898763 -3.72454832143 1.05456559013 -0.391372311076 0.738883184918 -0.783129624745 0.483059904965 -1.91863167812 
8.11849552695 -3.05570872811 -2.52667707606 -3.85578852908 1.46572078366 0.476072673686 -2.30970204533 -0.449639554375 -0.0935274988193 -1.82443283026 
8.29127921435 -4.09645087855 -2.9225742339 -3.13735952066 1.20556247021 -0.177233013718 -2.71199435575 0.393458862758 -1.15680715444 -2.09390527172 
9.75078427182 -4.25011715906 -1.91981869048 -2.38689084639 2.3792343587 2.29974411332 -3.91289227508 0.753432815759 -1.51708220233 -0.789027768633 
10.6117385467 -5.69115089904 -2.69450498498 -2.07082297495 1.68696528675 3.08585061341 -4.701424254 0.932699843013 -1.53751089553 -1.73752534265 
11.8276054628 -6.70156862599 -2.70961483144 -1.34415103123 1.07702664982 3.84889696998 -4.49525967187 2.16393769809 -2.02431165925 -1.49490683249 
12.4545650677 -7.28970110098 -2.27279906247 -0.154511333488 0.595037211047 3.57451386613 -3.1524606819 2.94856664744 -1.66558842161 -1.06263969693 
12.3813922247 -6.97810377869 -2.33633532017 -0.363330829988 0.349195886711 3.72936919316 -3.92262942097 3.34410082833 -1.71167455175 -0.796820721801 
12.8540248589 -7.71207041567 -1.50775852637 1.08117589334 0.138401050471 3.68616200521 -3.22124359716 3.77019458097 -1.62610723395 -0.736585815521 
13.1348707063 -8.07102257229 -0.323798225845 2.1818891269 0.141124078043 3.23037593688 -2.61245740441 3.8974667379 -1.84736821738 -0.462657950248 
12.8750428392 -8.4266204636 -0.697456209143 2.32521929013 -0.519161330479 2.71148412374 -1.50043924648 3.59278252377 -1.96528351273 -0.750722997927 
13.0792756564 -8.63689744058 -1.05515710307 2.48373592294 -0.679863230709 2.88958603787 -0.936432402274 3.93975604762 -1.88675214278 -0.583799749263 
12.8305525421 -8.76825232636 -1.63862564487 2.12614173946 -0.889669878683 3.20644705631 -0.544242679013 4.020569503 -1.63278334211 -0.883516091582 
12.8110975911 -9.03886634897 -1.43361143665 2.22128806044 -1.05975636905 2.94418689789 -0.747480397154 4.14451024039 -1.7905704937 -1.22047832084 
12.7771402479 -9.08932799685 -1.54225448394 2.09811414641 -0.811573993062 3.65801384623 0.0640326335671 3.88889730055 -1.48936358755 -0.955526066468 
12.7920542381 -8.56686511981 -1.6106631713 2.68379501699 -0.490633112843 3.81879102964 -1.0203444564 3.42776179116 -1.13568147372 -0.447853421559 
12.712136746 -8.60239844634 -1.74054829578 2.48777042661 -0.815325339173 3.39007088074 -1.02317278256 3.50595085671 -1.10695992631 -0.551075331658 
12.9853298638 -8.91741065022 -1.77973540673 2.33464194126 -1.71683320675 2.99841681113 -0.32230678317 4.07642203563 -0.742542385317 -0.224469856546 
12.9859964995 -8.80150333791 -1.70434547245 2.29192202172 -1.88842727504 3.29097393577 0.0408130657447 3.75881383961 -0.738165416572 -0.277686750741 
13.0848344513 -8.8151907854 -1.47157958634 2.41290085143 -1.79596185277 3.15041505707 -0.107344793847 3.94408982833 -0.877820398981 -0.253862828461 
12.4267265321 -8.26559591844 -2.09819879057 1.39191961417 -1.33333413706 3.01264492746 0.201682388752 3.31916270402 -0.77443296094 -0.51888360654 
11.9117336548 -8.17484303586 -2.89335476096 0.231855602714 -0.994752955926 2.80855948785 -0.847349683219 2.44369660819 -0.985074594822 -1.13825433102 
10.9770873498 -7.62575399936 -2.30608161865 -0.417399784968 -0.0751669200628 2.46220359458 -0.766612263217 1.01550383266 -1.24775290553 -1.32312097444 
10.031095791 -5.48018982886 -3.42022806313 -2.61488079135 -0.904060073494 1.52702603141 -1.4224912259 1.50605546473 -0.505239884268 -1.16973406512 
8.95226919718 -4.8851618123 -2.5643942101 -3.87505478609 0.393976451569 0.577941500441 -1.08571592284 -0.880912821417 -0.547962279947 -1.09054990067 
8.05910399928 -4.16760792725 -1.99649738705 -3.90794082287 0.725435649468 0.0915898194933 0.287342189524 -0.910661006809 -0.345732474394 -1.0845991392 
6.68629998395 -3.44018656738 -3.30474682005 -5.64943277726 0.707704282658 -0.181022195097 0.336248759842 -1.44218142327 0.297699609952 -1.69985409158 
6.81883124838 -0.255660863395 -1.80204165499 -4.72921565409 0.9559807845 1.00736419953 0.67969885493 -0.965532176712 -0.192772134731 0.183122194325 
5.69453779864 0.30354724834 -1.22819193315 -5.33508674833 1.08986289397 1.38280939725 2.13768525466 -0.833972968213 0.338170148253 0.0166550039791 
4.91021668672 0.990026183291 -0.976980989 -5.28835810662 1.20079382421 1.9180912055 3.27511609356 -1.64290639153 0.357514061125 -0.156462328082 
4.06406055226 2.53771785282 -1.52711960495 -5.13275809237 0.585440853186 1.82597884393 2.54491520857 -0.708170987297 0.200762542903 0.293118209512 
5.09759213955 3.72318273713 -0.085713659854 -5.77343991501 -0.606372787649 1.78609795047 2.9694997437 -0.389902306586 -0.246198466672 1.05414326317 
4.7752491329 4.50915761349 0.366343899657 -5.85419497305 -1.43730397268 2.57186809088 2.57873204583 0.216715528908 -0.508409667461 1.23468106503 
3.82846041392 7.55850626126 2.40758645642 -4.4551320288 -0.722841368829 2.19913088372 3.05626750124 1.16873325701 -0.269363236437 1.18307379331 
3.52106208486 6.70205289832 2.28169414512 -3.42626242896 -1.30964661329 2.51663461713 2.94720705755 0.597819005206 -0.849346360049 0.810104607248 
3.21380599759 5.2618689725 1.50686197483 -3.50439145991 -1.64250639421 2.53595799836 4.34787711694 0.0220032653461 -1.41822680592 -0.0535066000433 
3.03319682808 6.23618832025 1.03307512195 -2.74549374296 -2.11780383794 2.44069639544 2.34755056152 -0.0912753328128 -0.509193247033 0.137917041491 
1.55521838333 7.93118010305 0.423639163619 -1.1407044568 -0.781799883563 2.21509381502 1.3877663474 0.541218514258 -0.180816254195 -0.582087975811 
0.29648933058 5.91374237088 -1.99724497705 -1.72194658035 -0.931808482113 2.49532156481 1.36171338766 0.576040168117 0.0280787316954 -1.87905086349 
-0.174681926992 7.82714256778 -0.854637603101 -0.239626747478 0.686252127929 2.94493129793 1.027804962 -0.567132569659 0.237507528055 -1.0029878508 
-0.219280452625 6.76834642565 -1.87905002196 0.338327722607 0.531980183173 2.53254158859 -0.406397678875 -0.726718344296 0.0895204533617 -0.248127194792 
0.268607934262 6.27500208736 -1.73750448375 0.0663785666982 -0.147533398506 2.77952789202 -0.850874819885 -0.87362927558 0.358216816795 0.136191593332 
-0.0689829503974 5.49702893766 -2.31858491834 0.57822039319 -0.762472285065 2.89097680187 -1.10246521255 -1.44307274529 1.19345104596 -0.855481144311 
-1.54587137619 4.80330504504 -4.11720368371 0.748617196646 -0.92344828978 1.5682439303 -0.484075960153 -1.10083759835 1.29750359534 -1.01343214142 
-1.57352560072 4.33658432469 -4.50729738247 0.624024189475 -1.20533281031 1.69164692196 -0.471996532431 -1.20924990905 1.51961089828 -1.20088565665 
-3.58919458622 2.99653190732 -5.38843647679 -0.125556948941 -0.360875896994 0.557492548541 1.66384105275 -1.68136765176 1.6027742078 -1.50483734177 
-6.17477941434 -0.740631439768 -6.0048595653 -1.17612276721 0.666780178324 0.934498453106 2.93961161985 -1.67788068803 1.85227905438 -2.36847193822 
-8.7533796747 -3.0934373953 -5.46750926791 -1.46527360248 1.62423128405 0.082556895554 4.24470103065 -1.11115678473 2.17303054948 -2.38092063787 
-9.24165124369 -3.9482201059 -4.44168489181 -1.61151285476 0.888621793279 1.55254380458 2.88216730888 -0.451966770427 2.73762624742 -1.72898219545 
-8.23983987552 -3.22408654773 -4.96831394711 -1.419425715 1.30478529868 2.52273778205 1.36038996146 -1.07133173032 1.49095372829 -0.855591277601 
-7.13691248808 -2.81418119383 -4.40957080806 -1.21005102013 0.106358522434 2.13676980724 -0.945758709267 -0.829578650545 0.940709340214 0.110508336014 
-10.4740077158 -3.40562480522 -3.37077525613 -0.481851796875 1.74886183527 1.46043600475 0.401601251204 -0.248476501208 0.690902686247 -0.0272553528692 
-10.6242223064 -4.92174616957 -1.92675825653 -1.39217789148 0.510673925687 2.74653560648 -0.748021436267 -0.234772279376 1.01735988396 0.0992487805519 
-11.4247982161 -6.3441399261 -1.38330448635 -1.60411264673 1.40702642089 3.45588626143 -0.223887533442 -1.60702625257 0.403339908522 -0.262638296759 
-13.1942525224 -9.20296380117 1.86086516995 -2.30793411344 1.37722275367 5.15521311214 0.373072144037 -2.98639593801 0.955367437527 0.0445415286743 
-11.6880401148 -5.71064220245 -0.281819151702 -0.662463362242 1.72536221213 3.27943856621 -0.0841601212366 -2.42261803322 -0.213163653911 0.494784474435 
-8.51690631924 -4.91431148927 -0.960415998564 -1.44041881546 2.29626434591 4.71824518855 -0.689583296197 -4.25130467443 -0.651298314604 0.313261874496 
-9.32750835051 -4.506679431 0.183688083367 -1.00803054781 1.71410899302 2.61787754356 -1.23213102024 -3.22739418449 -0.983818811705 0.756226270775 
-9.19374036358 -4.4418352082 0.496728431135 -1.20772708643 2.62488110522 3.81555948088 -0.993145703169 -2.74935167552 -0.969735724077 0.589049979462 
-9.15488719807 -3.9373994413 -0.694361538089 -0.879990102736 2.60394847845 3.30488078796 -0.883049063177 -2.183949786 -1.60378878817 0.0938595415731 
-9.3386285907 -2.18313677408 -1.41129486428 0.0326324828939 3.84814373155 1.90961131399 -0.111151623657 -1.89188799066 -2.68183974099 0.373652675949 
-10.3628967857 -1.88237231221 -1.43376034157 0.790591039993 3.70726465607 1.59506211239 -0.378762642668 -1.66586037949 -2.65656988747 0.00622670205759 
-13.9313418319 -5.93088569103 2.2393469118 -0.9496761569 1.3777982625 1.17472863259 0.918025765492 -1.5120561685 -0.79915005468 -1.15389420307 
-14.8167552704 -6.93744668375 3.62112369727 -2.04999486094 1.29513271069 2.96674623461 1.6362747197 -2.18801797854 -0.303881636366 -1.22486909429 
-16.1358372801 -7.40907291945 4.55012532119 -2.05162376383 1.01259047452 2.68472746784 1.22175267964 -1.87528596314 0.1725631807 -0.946962398836 
-14.7559484687 -6.54090773214 2.33733879834 -1.55896639842 2.54579945456 2.63175758493 1.73726724656 -2.84444801603 -1.22480319474 -0.641333538161 
-14.2658309118 -5.93998569144 1.47152053061 -1.31050949794 2.972173635 2.82909000296 1.73237902555 -2.12125246841 -0.741152191746 0.822275247023 
-11.8906803747 -3.81291182405 -1.57691857192 -0.939708343221 2.54049531596 1.07513211449 0.66674833098 -0.297727629282 -0.600405894166 1.35598896148 
-12.3421643612 -3.83548954309 -1.44498498742 -0.81837529883 2.41873663754 0.860745252814 0.966180030235 -0.423300080489 -0.558222164256 0.973948617677 
-10.6100050982 -4.12715864383 -2.1393369186 -1.12691571348 0.276157754867 1.18433792465 -0.50766932223 -0.566183468546 -0.0491648580001 0.141193824437 
-8.99547369364 -0.756607312928 -6.18439485804 0.294174173739 2.28173363932 -0.539153892104 0.388898738496 -0.109043946978 -0.726580018221 -0.241635596706 
-11.4220520323 -2.30732839218 -4.78506048378 0.430367868872 2.39561806463 -1.80182130135 1.20516797551 1.03843641606 0.493926514754 -0.678278432118 
-7.94001513071 0.386233299952 -6.7969818665 0.312482539693 1.51123009308 -1.91143590913 1.28972254748 1.08744066711 0.68414618357 -1.3558881325 
-4.40540538894 5.2462867446 -5.48877096415 2.15927617008 1.51503557104 0.261297134995 1.00079949908 0.0319670849442 1.37916507971 -1.88639201325 
-3.53940460881 8.23153544469 -2.31560972361 4.68783824514 1.45662172923 1.45524524784 -0.216136116611 -0.763208892588 2.16454140859 -2.22967485298 
-1.72236466239 8.57819736091 0.247188710723 3.72538529375 2.03572544014 2.49946319829 0.00153785982336 -0.899932063527 2.34094009897 -2.34717651562 
-0.694142789362 12.06985291 3.27974417071 4.27555791357 2.88009939927 3.73280512211 0.577292369595 -0.930377953413 1.64382843679 -1.49925720969 
-1.72906303067 12.1789483373 3.35308308258 4.93035689809 2.09557432645 1.12198535072 1.61107563559 0.112664475575 0.640801955212 -2.07294687826 
-1.13936170982 11.9092345907 4.51427453864 3.56464800209 1.68744149959 0.802925375865 2.66200741079 0.166729896341 0.593848743318 -1.76983879026 
0.947039465288 9.82841911393 3.97856129787 1.93996526421 2.23484276658 0.500653605259 1.15871568365 0.0610832650446 0.254564696759 0.154729835317 
1.34653032695 7.10242747491 0.9081468976 -1.75368474085 1.62094339961 0.649002424144 1.19714212354 1.33451475249 0.189562180746 -0.262071003788 
3.1556941886 7.2104456973 2.9450158824 -2.45501182194 1.70604468504 1.40417945165 0.675891154669 0.770983075415 0.464118492277 0.181905335187 
4.01773751461 7.09938379964 2.64682987568 -1.82287386506 1.53843075356 1.29828715804 0.3778981694 1.04399322909 0.395467682306 -0.520253986709 
3.94756176828 5.6082584055 1.71195570805 -1.43987196232 3.25111034886 0.670101147944 -0.393899047072 1.15001817766 0.560748753738 -1.6130288138 
4.85688987659 5.3647928404 1.73457758075 -1.59032444297 3.89200427867 0.125355647362 -1.12045077332 1.42345427535 0.944879424471 -1.21142214077 
6.75362867109 3.48585457561 1.66530688985 -1.68884901486 3.7308136086 -0.902553248882 -3.12750017372 0.757511301606 0.577676905285 -0.0322853884355 
7.24255148629 -0.193318401501 0.230431868162 -0.644336348458 3.26661898733 -2.1916888807 -3.87748255071 -0.0149737746516 0.26734955848 -1.50442259274 
8.80109027333 -3.60307518511 0.464008934937 -0.706508286024 3.70214462547 -0.823381901712 -3.4504725442 -1.50261963241 0.243221851516 -0.596504279063 
9.27279284007 -4.95997697925 -0.303733734952 -0.538145838259 2.81259881071 -0.049432003168 -3.53625928106 -1.84842988473 -0.25615795017 -1.04692886018 
9.51188940777 -5.25112818539 -1.21982668441 -0.623967394273 2.30052824987 0.789351956841 -3.15891886692 -0.579735850817 -0.0520779170312 -1.00976845191 
10.3174407542 -5.65589016816 -0.921538318326 0.247728704426 1.35691087395 1.31951175324 -2.80526634522 -0.174463669001 -0.223706511236 -0.963687831878 
10.6405542131 -5.96889451216 -2.15809403812 -0.372943492223 1.09864693995 2.07319727408 -3.30725862404 0.197359507535 -0.712726475786 -1.95170922933 
10.7723939357 -6.13117007756 -1.91501716653 -0.594618191669 1.08842600952 2.22951901674 -3.03055500484 -0.119512379961 -1.08968906128 -2.25720321272 
10.653409883 -6.14053077048 -1.95211556206 -0.487492560013 1.19075671792 2.08064026621 -2.90079381318 -0.16129518442 -1.02717871919 -2.42400915645 
11.2593286236 -6.65131814711 -1.30788717489 0.73551056223 0.614944031173 1.67711828633 -2.90204449396 0.435609937319 -1.53280188298 -2.11671185449 
11.1902969126 -6.69873956554 -1.68261474978 -0.0705989513926 0.703772065343 2.14249522127 -2.64674731661 0.0882463589105 -1.31966832064 -2.06397530292 
11.3367191481 -7.00020919686 -2.38882688685 -0.452127750014 -0.126530372648 2.26306428253 -2.28932664969 0.947779027302 -1.4370663072 -2.08093530136 
11.8527324822 -7.5864477679 -2.07667820296 0.66488322946 -0.864683559688 2.21278609824 -1.38578874 1.64533477117 -1.44128458839 -1.80365598093 
11.9349436495 -7.69345308562 -1.60287995825 1.32808845911 -1.02754335314 1.28813073033 -1.15794713066 1.81034570849 -1.56618007374 -1.38432829486 
11.9628462462 -7.83007516059 -2.23695125305 0.0570762851869 -0.161793326168 2.7028962288 -1.55650596077 2.00781238462 -1.26528786777 -1.65491582048 
11.6783794775 -7.64610869596 -2.53011183275 -0.288109694497 -0.273203735524 2.79585463083 -1.86003918343 1.73569821862 -1.32746876505 -1.73953787036 
11.5865999268 -7.29705649165 -2.16332939204 0.323187557249 -0.130063084467 2.1301899923 -1.90016419836 2.00789306166 -1.04221969384 -1.21084543584 
11.4303421291 -6.92164745039 -2.02714940745 0.236133210925 0.304730816251 2.15155274752 -2.22448219463 1.605084993 -1.00056277283 -1.96722986565 
11.8393082507 -6.77749408056 -1.17459167985 0.899817801761 -0.0854906402246 1.80337926287 -1.8663857328 1.12345894448 -1.07813566437 -1.44958746381 
11.4201844986 -6.47344010985 -1.89477367876 0.459950222232 -0.407813626246 0.865537147247 -1.72128196769 1.69803956689 -0.496831527809 -1.5073814573 
11.7694429964 -6.38398157203 -1.18863434463 0.950634459196 -0.885254799092 0.500779254642 -0.904370496829 1.52417417055 -0.13688106047 -1.13022535443 
11.3416908167 -5.0314773284 -1.02596427017 0.143172846208 -0.613529741382 0.0131710204659 -0.570465763986 0.768103995878 0.388016491128 -0.715425905846 
11.1484981741 -4.12961746435 0.345923945676 1.15793798535 -0.527535087061 -1.0121222226 0.397022080862 0.178644835902 0.287716887555 0.251901895508 
9.94001083191 -2.73672882741 0.279162747073 -0.336335704527 -0.354881965019 -1.71710295801 0.102574704521 -0.400737684411 0.640490373588 0.318345570483 
8.82891912904 -2.53093552287 0.00829153611649 -0.658762675615 0.0391628196053 -1.70188760609 0.474402627159 -0.282932995449 0.318305225817 -0.40901738003 
7.40135497421 -1.61710997649 -0.263167073842 -2.20614419866 -0.392925606286 -2.53236204997 0.247378530726 -0.328467018898 -0.0256998814698 -0.660801695956 
6.14456952009 0.174973049794 -0.205215450061 -2.6865890665 0.141070651497 -1.88038327192 -1.47837177979 -0.719017357079 -0.431973697627 -1.08220325836 
5.51746231347 2.28301125036 -0.174374168242 -2.64333628025 -0.0613834619447 -1.99658228648 -1.86011299085 -0.247468079521 -0.865004337248 -0.790371528075 
4.53710127055 4.69900372376 -0.16766936839 -2.96969589299 -0.203196417634 -0.939570469558 -1.49803992432 1.34364987016 -0.360582335024 -0.754333964345 
3.74916013318 4.725793671 -0.20782355943 -2.84022706521 -0.189566614035 -0.613260191504 -1.25275269818 1.60809411934 -0.346444891663 -0.753296008233 
3.46020816573 5.09168952411 -0.486652665803 -3.85608955191 -1.34031423686 -0.852197230508 -0.34506593127 2.447421968 -0.0441010799072 -0.49598513 
3.38568558036 4.94045300703 -0.0778338081506 -3.80521319527 -1.59734876048 -1.46631017776 0.177283172715 1.97034601455 -0.678508498973 -0.388611581762 
3.264043396 4.86003778643 -0.125854227008 -3.85853379051 -1.6738932641 -1.50762528156 0.374361521348 1.9282678351 -0.522635576788 -0.560545224893 
3.74274813811 5.88730159086 1.07229918318 -3.35943137419 -2.75815899732 -1.85903814134 0.440367872811 1.94327765064 -1.07134572087 0.358429172624 
3.08163328365 6.37075561406 0.115199432371 -3.28519016541 -2.60928918569 -1.67169550222 0.502324319397 1.35466168204 -0.628741068382 -0.620085609957 
2.16096968762 7.14822776293 0.935938080237 -2.43097059923 -2.71226074501 -1.17198352121 1.27921940457 0.632165859552 -0.609572185594 -0.975596124943 
2.00515625533 7.12428714067 3.40735150897 -0.739291650463 -2.68726352404 -1.51669658921 0.25002590486 0.56730275413 -0.481514422971 -0.91576243733 
2.2017653559 6.49974233492 1.96250640348 0.391948348673 -2.21506010788 -1.64266459783 -0.925757941785 0.0107303014189 -1.31386791975 0.231581858755 
2.39123943837 8.23203301612 3.5930891651 0.178157088514 0.226355988603 0.68204707371 -0.668627086956 -0.518291919892 -1.29764306595 1.08087910463 
0.940306042322 8.03977441857 1.62030233775 1.52952503081 -0.0847357525555 0.767948729609 -1.62599293335 -1.01977381929 -0.772183093045 0.588866969903 
0.729614130078 7.48592264694 1.19049405323 1.1464024616 0.112965335813 1.45444942886 -1.3773608935 -1.1761257476 -0.858439898633 0.101806365873 
1.11162551788 5.53932666536 0.426970175184 0.457450216964 -0.767417904658 1.7556462972 -1.04978016302 -1.42290591287 -1.07250273211 -0.297064580203 
-0.781090496998 5.42219025435 -1.30877352136 1.65945381343 -0.759090131693 1.02820813143 -1.63206932149 -1.15740621464 0.0490644657501 -0.905493322322 
-0.840722896106 5.59234856916 -1.64866376419 2.50728052238 -0.969337699138 2.12249579677 -2.82309251822 -2.09630231798 0.922987337268 -1.54720677714 
-1.64879483849 4.86941593279 -3.85172028536 1.76156443719 -1.15928761797 1.25408544147 -1.63524957162 -1.75667312225 0.552598537612 -1.7546998025 
-3.69241788207 4.62668162975 -4.13339724889 2.40969481844 -0.837226799245 -0.0783526350529 -0.973029447945 -1.64728158798 1.03543410292 -1.49818458723 
-4.44237710151 4.11242891174 -4.35240487092 1.930305618 -0.416975959078 0.447346649045 -0.0252075998951 -2.19633029711 0.914272225683 -1.23109218153 
-6.73681080319 2.17763043032 -5.62740901533 1.18349518049 1.19416571143 -0.786048883057 1.77106414122 -1.65497411231 0.224420238434 -1.56990909665 
-8.07918924867 -0.349721726347 -6.77667132822 0.301565475369 1.60630724169 -0.537199687264 2.37184196433 -0.190560700334 0.507165870659 -1.81879447513 
-8.57838665783 -0.00769631087311 -6.51417340011 0.523348335386 1.20848741467 -1.35349429453 2.14665021965 0.188436824952 0.517429766081 -0.721226604868 
-9.61171449481 -0.84523328531 -4.50518173771 0.255330632883 2.38282015573 -0.154336837282 1.77823609854 -0.228572136689 0.12083381174 0.237307352713 
-7.65362992847 0.172367951702 -5.41577615781 -0.0203724588376 2.31219208461 1.36091481131 0.105513690093 -0.232136308523 -0.247994298595 1.5347290567 
-9.54972014276 -2.13172430377 -3.74037767629 -0.149668993915 1.6771291696 1.58610684163 -0.611512777629 -0.621073266453 -0.331971035199 0.224845578696 
-9.27761073367 -2.81009598183 -2.19571070373 -0.0453643672509 0.190677384644 1.57077138941 -1.5863870986 -0.0121254710579 0.384398627497 0.834242373449 
-10.1651909971 -2.80440587433 -2.70186081851 0.0143657694838 0.885860541576 1.74789632851 -0.767807866896 0.203685424298 0.479109680658 0.830477111807 
-11.4426336373 -4.30498016504 -0.348372362826 -0.301346295047 0.805218048705 2.63564845222 -0.731456243928 0.515091937524 0.937375973625 1.04234507921 
-11.3016756193 -4.14680487251 -0.489355595894 -0.255963956946 0.637847501739 2.66659500731 -0.982138170152 0.631151691731 0.907203623501 0.95455468663 
-10.4628557049 -4.14649498436 -0.454595086873 -0.927437256359 0.448068362187 3.07505216577 -1.04376702985 0.752101004133 0.859609862891 1.50756165007 
-11.5584802295 -3.84147273086 0.27709822919 -0.280785501454 0.818693604565 2.23748847058 -1.11948021974 0.335773526915 -0.0824260226465 1.31544842054 
-10.0681250725 -1.48221226685 -1.78176656718 0.265961965 1.8981335491 1.39273000944 -0.71140951074 0.0215404201597 -1.31348852418 0.764466427509 
-12.8403530239 -4.05867017996 0.781788860205 -0.355596727459 1.32082068223 1.31111193169 0.435373075898 0.0461723231902 -1.02266986586 -0.856488113697 
-11.1734437708 -2.18146508868 -1.31655636431 -0.221072090512 2.00230993976 0.765250291082 0.126191726853 0.559103841586 -2.00170939632 -0.819884351776 
-12.9204616457 -5.02898624748 1.02475561799 -0.466120061546 1.35564704512 2.0860536461 -0.796312715935 0.444119516617 -1.64948889575 -1.48846523128 
-12.2096449164 -4.14485221798 -0.369844904434 -0.370482998789 1.88003621291 1.71094863782 -0.969937678469 -0.287363635912 -2.58735531678 -0.71089730824 
-12.4317774828 -2.93416778825 -0.969419775429 0.529012837418 2.98271291933 0.297986163781 -0.320983459627 -0.221580478255 -3.61378826331 -0.570350704604 
-11.2292976274 -2.58072007402 -1.7465121772 -0.276714161844 3.39888028691 0.911830062198 0.101681281846 -0.567481059365 -3.84705048838 -0.430655267177 
-11.1035756843 -3.28249077574 -0.543781969862 -0.468166759855 3.76177453042 1.73806945282 -0.00261978655517 -1.53987205176 -3.94712532872 0.239340032256 
-11.6262122471 -3.54772284072 -0.441171000121 -0.476425892763 2.970897292 0.415603390397 0.0957734177263 -0.566585696627 -3.3508094782 0.0756911736089 
-11.0461763482 -2.02910094144 -1.85305106226 0.137158045254 2.98195200997 -1.68190617158 -0.19753844345 -0.418341447692 -4.54878874466 0.0426612862419 
-10.9136163106 -2.487278979 -1.50789771682 -0.381065021148 2.37649643282 -1.13176285579 -0.0928158716002 -0.906332375606 -4.73318055202 0.224635159158 
-11.2435679069 -3.01271900857 -1.24693090745 -0.715315553497 1.86183097138 -1.17829982372 0.461041884738 -1.05250324353 -4.52310090919 -0.13742373694 
-12.4195360067 -3.27042278949 -0.535890145785 -0.242264111596 3.06179579003 -0.748688952987 0.954719067735 -1.39733236426 -4.71525587201 -0.569595048143 
-13.8860703955 -3.66107824081 0.283948870133 0.111063793121 3.75474768119 -0.998970833354 1.40907688935 -1.18128975495 -4.55078338938 -0.596588711166 
-13.3025127226 -2.79763055993 -1.85177182412 0.222998002096 3.52430670005 -1.8566866879 1.29360608659 -0.500763290355 -4.14158526067 -1.47959741403 
-14.9689514385 -2.95810156964 0.0868506672603 1.49976442831 3.10727761935 -2.59638666177 0.673280870734 -0.775616234808 -3.18212671787 -0.924864863016 
-15.7710999428 -5.27410314411 1.35092582926 1.02950550975 2.83936896177 -1.18319749929 0.60092855309 -1.00665659147 -2.15637223001 -0.915662681574 
-13.6173829257 -4.12697613059 -0.554800035264 0.237979811885 1.55376502774 0.0996001234402 -0.676033713744 0.730897442737 -0.177883898952 0.19062502377 
-11.6600498447 -2.43746228855 -1.26198202558 1.03129598676 0.7375549996 0.0882632206978 -1.86417457174 1.23179239927 0.285417491586 0.93001300694 
-9.98946091717 -1.65163807823 -4.85531720985 -0.0617641754028 1.41007316033 -0.180539358839 -0.401128124211 0.401394720088 0.197998308585 0.9258802651 
-7.89323062225 3.04307713416 -5.72006608769 1.69047602242 1.84539893813 -1.61703459417 0.712899008422 1.61940106743 -0.463784481754 1.39046910191 
-6.01470574596 2.99321982983 -6.46996775729 0.788347330423 1.16671838337 -1.11680184748 0.333252581478 1.55266778887 -0.273972776166 0.274008757619 
-6.33473998724 2.64948094486 -6.28780581782 0.922292032485 1.17610214956 -1.6396146191 0.442811436037 1.46391969015 -0.357276757829 0.241862753827 
-4.85218836276 5.36872572373 -4.47210475296 1.85556176105 1.18379154791 -1.19354948687 0.104507656001 0.954930459308 -0.321518584435 0.50410370219 
-3.86584315596 6.76771815357 -3.62861021153 3.36502143397 1.36055482878 -0.982823836443 -0.629789554878 0.760513116844 0.40299416888 -0.625440702709 
-2.46258559009 7.69300446987 -2.01611274099 3.1818252005 0.843734919479 0.0574106009341 -0.767282984 0.217790321469 0.466460843702 -0.798303509362 
-1.19459654197 8.84548209921 -0.152828813389 3.41992966756 1.41555630106 0.0851364461885 -1.31135364662 -0.0864007403059 0.196401993152 -0.398150954535 
-2.00889998074 9.46262239084 -0.0903182627504 2.73277627765 1.70823512156 1.19681400722 0.745203786969 0.00369504503448 0.554463418622 -1.25051300955 
-1.59480556197 8.55431910908 -0.715686383936 2.42027812584 1.82233733052 0.334062730244 -0.232806404424 -0.24402478785 -0.198088485403 -1.67488563282 
-0.540794859549 9.32676702273 1.57619697008 1.90860968534 1.88679602697 1.67560781269 0.444821024373 -0.0526321368155 -0.331255712364 -1.04868431562 
-0.761105588125 7.71492474338 0.623914980488 1.43152329771 0.813591856943 -0.651303822706 1.38903191046 0.63518477107 -0.565096773346 -1.50074169172 
0.611127741752 8.01647295992 1.95975267101 -0.639221490225 0.792965853036 0.442219877103 2.48691704456 1.27172467101 -0.601892952625 -0.364471932241 
2.47403597918 8.22782770537 2.21533089455 -2.36054802232 0.0644515905786 0.627740176188 1.59878311809 1.85440518742 -0.027992750993 -0.171256948256 
3.57629232072 8.69624530428 3.34835462908 -2.5058688712 0.570832170136 0.952870154517 0.678938012933 1.81544720938 -0.196077707492 1.45253607093 
3.90472235258 7.41871494335 2.36846393138 -2.43915683624 1.45176335483 0.375728224008 -0.429370256964 2.51663919308 -0.557355094052 0.887878520954 
4.22406721112 6.26529609675 1.64982647848 -2.27780889855 2.04702853839 -0.331655607196 -1.44321172425 1.8415123423 -0.767590303598 1.12148027588 
4.52712441154 4.92923484036 0.736636345562 -3.4845788192 3.44703431999 0.646484405501 -1.04208828255 1.80045270784 0.375703467525 0.51047800958 
6.06525729688 1.8974820481 0.24183136678 -4.15431946728 3.31653933736 0.224623069375 -0.924872360907 -0.15418514064 1.05363461018 -0.655802801561 
7.06787215156 -0.529484690372 -0.333658251812 -2.54940088528 2.18951354887 -2.10546927266 -3.57522504935 -0.787780532763 0.375645728057 -1.17182408754 
8.88798267647 -0.391146339679 2.68855516005 -0.936804822176 3.11739021838 -2.80069089783 -4.15921505147 -1.73341052312 0.877166459014 0.563525401982 
10.2185838526 -2.08141124735 3.35396869823 0.204573443331 2.72479757807 -2.59364183461 -3.83258977873 -2.3585120098 0.401799246647 0.637024003558 
10.36456969 -3.43012951256 2.01413483481 -0.297213340545 1.78314862088 -2.05680356012 -2.42430509954 -2.09638421242 0.820083963104 0.329379737301 
10.6076311547 -3.17693194816 1.04181436388 -0.288262028391 1.3456600567 -1.97383452151 -2.11831008957 -0.445446373314 0.305934679744 0.993554536068 
10.9995655117 -3.86205382807 1.25892636467 0.603962824668 0.419058895888 -2.37850741374 -1.75845361244 0.0556086474197 0.123707071404 1.09632680032 
11.2126295953 -4.48953621663 1.48368376102 1.46526438814 0.37997945604 -3.02005692329 -1.57493748046 0.357975462554 0.15945891162 1.03468918904 
11.6393348879 -5.0901135498 2.27728189116 2.66531450582 0.0876450056002 -2.3718433785 0.25126876906 0.171514054149 0.0342132558722 1.20385021377 
11.447600695 -4.98973862856 2.52007290664 2.9894278056 0.281332170194 -2.63873489769 0.306839907466 0.0442101570343 -0.0285033893708 1.13043154363 
11.7981088999 -5.36431163347 1.76979446389 2.36680036218 -0.226030407574 -2.26737355525 0.696640487462 0.268874126324 -0.0622584777256 0.866777133935 
12.0122212824 -6.23766856607 1.8482004366 2.60605035866 -0.113201732331 -1.97534636944 1.2159784126 0.176926530292 0.162187088855 1.29465773217 
12.7985999304 -6.44733143489 2.10271125233 3.19448295685 0.491683362401 -0.63086230208 0.82061198692 0.423404684069 -0.0496352337372 1.82816163811 
12.8756392874 -7.19127883109 2.32387820138 3.87335813762 0.326159086996 -0.166473365509 1.43133608356 0.302745391766 -0.452173119691 1.67285220145 
12.7074008597 -7.71541586613 1.75763780996 3.95009195413 0.477996702282 1.11990798788 0.47021642264 0.569160764264 -0.897659102871 1.7099015293 
12.864165361 -8.11522026138 1.82014533625 4.49751567197 0.550116579728 0.423844985031 0.339596083458 0.569513266217 -0.997998025568 1.7324956794 
11.8355258674 -8.29683507485 -0.396883845078 2.93635030296 -2.28739738631 -0.431454642172 1.89634710455 1.39725106785 -0.594831816471 0.0711449017872 
12.3436454618 -8.40597450139 -0.48045268289 2.69548085317 -2.1662301634 -0.166338417035 1.70318525548 1.59797350816 -0.318557921343 0.362679587318 
12.125175931 -8.57351918575 -0.802124821225 2.14180495195 -2.42227929384 0.164326051934 1.7151611536 1.58706454846 -0.717291255435 -0.0489243185783 
12.1314656037 -8.3948822035 -0.513430056964 2.42566170921 -2.33094528389 0.128378237348 1.86129368085 1.37527050998 -0.866976756697 -0.0263948325764 
11.8935331695 -8.70369861681 -0.876223684633 2.62921916487 -2.45860805406 -0.386521965384 2.18236803323 1.74661099073 -0.463277396884 0.294151084808 
12.0819733922 -8.81224498875 -0.0658209557075 3.28785987912 -2.45847875863 -0.457930050995 3.26536094152 1.84549287952 -0.717982565596 0.719318668785 
12.1140719377 -8.57484269307 -0.192716772754 2.6159899046 -2.90639058494 -0.819566187184 3.2318069786 1.91130485573 -1.0608220876 0.630035657323 
12.8438975075 -8.50176635457 0.503604381507 3.02365994796 -2.86581834058 -0.666834190188 3.7537293247 1.61783408872 -0.76757395079 1.5154201771 
12.0582957048 -7.11012403766 -0.458422661341 1.63240514015 -2.10872432089 -1.17152904871 2.79646723395 0.820296311495 0.241987507908 0.852424795506 
11.4046709415 -5.94419194012 0.228198145584 0.949523262941 -1.71207065474 -2.06142258409 1.35606535811 0.112959854515 -0.00271696495806 1.17658137536 
10.7317074793 -4.76426603332 1.21184152955 -0.302240449499 0.313112847041 -2.58864002229 0.159521918867 -0.990302142515 -0.0980351415042 1.23765804077 
10.4692805704 -4.23560879863 0.90795289876 -1.86564676357 0.724501331413 -2.36723700152 -0.857028933107 -1.85151816441 0.178017359593 0.347623286496 
8.95943238245 -3.39571205373 -0.288693532212 -2.72682544101 0.767505008013 -1.59348048726 -1.19420054276 -2.14486684757 -0.213751159141 -0.370377017049 
7.81937741222 -2.12909917787 -0.958785120712 -3.7360116243 0.772567655093 -1.94534501571 -0.56291562558 -1.55638694801 0.215930765219 -0.0305674082231 
6.84402003392 -1.39641713559 -1.71878647806 -5.01299650402 0.0980978093412 -1.37989580238 0.65630570197 -1.07609331113 1.41958619138 0.0691837903417 
6.17564744834 1.24130788934 -1.33526329823 -6.48355925327 0.0272796921831 -0.209728676603 -0.0920628342277 -0.199712061059 0.0494116376214 1.30946838981 
5.1198056359 1.66315878792 -1.05888739447 -5.96317394298 -1.42776609973 -0.487049891424 -0.449054630725 0.724545413621 -0.698097086302 0.858245080868 
5.0240219922 2.6558943677 -1.75161758845 -6.06020015618 -2.08762364921 -0.159524851107 -0.309178649146 1.56051413151 -0.492730329001 1.3074680096 
4.89949006347 2.33746764002 -1.98708287028 -6.07375700383 -2.02597662851 -0.0624214407531 -0.126904832822 1.58050095637 -0.355873020399 1.06313815914 
4.56498860128 4.58411181223 -1.17252768622 -4.95831070288 -2.34743868506 0.0256480062395 -0.417171977808 1.63295319852 -0.499557619746 0.971029652356 
4.14116571881 5.42818595078 -1.15481354551 -4.59745572678 -3.01866438016 0.832001494403 0.681732975807 1.49467883204 -0.436580135771 0.596403181422 
4.13746164448 4.12147857304 -1.62178838273 -5.00312641763 -3.26690943747 1.0029662927 1.24628394828 1.11595896558 -1.24360133122 1.25971517453 
2.24541866475 4.85278028501 -0.943925291078 -3.16111069204 -0.841842392316 0.739134784331 1.59681249818 -0.104322371204 -1.46545698643 0.390740687797 
0.85247126869 6.58959124767 -0.137584533667 -0.953138287536 -0.609955266051 0.674892650563 2.26696412656 0.121339042785 -1.25311142531 -0.396728998725 
1.94971962259 6.29004494425 0.944562211269 -1.42698185001 -2.18909348525 0.735310578478 0.619786041878 -0.22662598334 -1.63114403649 0.14297926595 
1.32181058845 6.98983021719 -0.559445408024 -0.112677954103 -1.81428475053 1.43010200526 -1.14724551508 -0.491502304718 -1.4334233014 -0.13082014178 
0.361324985455 7.22305019397 -0.650880461475 0.565847384536 -1.43893189958 0.134993156293 -0.5067302687 -0.57444286287 -1.55961756829 0.0774068485914 
-0.375541180392 7.55139602639 -0.502890476712 1.25276852022 -0.845559536257 0.58739066432 -0.901303789257 -1.22317475892 -1.66625498599 0.364651849314 
0.642009265429 6.09905710339 -1.02343671618 0.748865006805 -1.09854824469 1.23982519289 -2.06059689359 -1.75374959268 -1.03275211925 0.851446146595 
-0.146813330377 6.33117813241 -1.45716340622 1.96614643751 -1.26944629453 0.538798869775 -2.57019181718 -1.56669014149 -0.287428578573 0.130774967671 
-0.88484708839 5.49587280138 -2.24841516663 1.68701444275 -0.953260554321 -0.684411940069 -2.10181290631 -1.15835394011 0.0883940870244 0.0543861061859 
-0.881320156605 6.13499100625 -1.47114130784 2.66173266319 -2.43210749352 -1.35624943149 -2.50249989382 -1.35827510888 -0.168682182971 1.01008835859 
-3.77114547357 5.03839033398 -2.94963778077 3.12749318442 -2.19191226691 -3.61173906568 -1.27299933862 -0.362546750629 -0.640356035192 0.723959811827 
-5.63404979166 3.04066799216 -4.58024572382 2.07098190921 -0.911215604902 -4.10698143111 0.348569046497 0.0286349149335 -0.132624797298 0.420455850004 
-4.87042703697 -0.650969784023 -6.35941816397 -1.57971277752 0.538665306142 -0.536601488862 1.51176417808 -1.58627904402 0.101586526718 -0.193535119688 
-6.40260433567 -1.20129157328 -6.87848128924 -1.19029450916 0.367944007012 -0.28469358531 1.63224956866 0.327245435717 0.760132036246 -0.0579611665169 
-7.98561977967 -0.423879268105 -7.69204649737 -0.607612862458 1.69319856997 -0.671433767608 1.9273290921 1.14178714869 0.450953380131 -0.13979407167 
-8.15939573654 -0.554165706327 -5.88510955015 -0.403178004958 0.276757189221 -0.402119251745 0.656398791484 0.422900816549 0.34979584257 1.08985444536 
-9.7209728279 -3.08069478795 -3.69473465777 -1.24398747566 -0.358663331355 0.461879189368 -0.119586554504 0.408009690155 0.94082404772 1.48538192118 
-11.0229511031 -3.76077163017 -3.65311610346 -1.00875868396 -0.424468886622 -0.274211516325 -0.190328499748 0.393996138999 0.477659629245 0.833396336436 
-11.9899310639 -4.46039791562 -1.25888924158 -0.538761067558 -1.06161986889 0.547886722891 -1.00940198674 0.819200802459 1.1712223153 0.510375669181 
-13.8075064174 -4.95947227574 -0.746371660322 -0.091338177114 -0.167571435391 0.538751839513 -0.0170159245188 0.362750301549 0.326148233565 -0.390315454291 
-13.5105670995 -5.58623545482 -0.0295366812854 -0.301866651957 -0.79279629829 1.23461595355 -0.701413554662 0.426264434889 0.946459285701 -0.322445767976 
-14.9714808157 -6.82044590929 1.61286268514 0.0151863281962 -1.37005069226 0.162748952105 -0.487729696097 0.154081056469 0.595223660648 -0.71800767131 
-14.884923957 -6.71772888118 2.64130471909 -0.0939213889348 -0.708462540066 0.711594542549 -0.328865737345 0.035891542142 0.216696230387 -0.0875250178721 
-16.1576967077 -7.56877531134 3.94520797298 -0.489629874135 -1.69632108198 -0.0317045322579 0.217856144168 -0.0909225533281 0.0235279006639 -0.23899677386 
-16.144612116 -3.54921794091 1.8675723066 2.57942147383 1.3704979325 -2.94729085369 0.575031359404 -0.274448814654 -1.91734815436 -0.545981032338 
-13.6840677933 -2.97914372112 0.540172173089 1.53840842555 1.34742573281 -2.08051254906 0.223122646215 -1.02565879167 -2.49752386379 0.57935468997 
-15.1399794306 -5.1329405494 3.36689316676 0.700064227208 0.811247535647 -1.24377316744 0.745837283403 -1.11428362023 -1.31632176518 -0.176538269229 
-15.0097992972 -4.5654819831 2.26900943841 1.31640201599 1.57780709206 -1.43477796219 0.751836719495 -0.621928716573 -2.09731755258 -0.303497015605 
-14.2035648569 -3.89052000329 1.10563740713 1.19975605452 3.19817267976 -1.5034279859 1.47188477247 -1.31958098954 -3.72406889372 0.145432544188 
-15.6028268103 -4.43683429501 2.52264325131 1.79819355095 2.51896435869 -1.67390646907 1.21198673737 -0.857241566252 -3.30434148442 -0.499598026476 
-14.8550374528 -5.11566090925 3.71140553963 1.01590897438 1.89150258288 -0.583721037756 0.814613498585 -1.51851253604 -2.59384613074 -0.242158285677 
-14.9640992226 -6.65014063061 4.38447860431 -0.174108644922 1.20485921215 -0.263411126683 0.918037201598 -2.15699875644 -1.54332292623 -0.532840656683 
-14.7257297284 -3.51232459881 0.0667791486653 1.5263786796 1.9703534102 -2.6112766214 1.5045048834 -0.721742519689 -2.30974459877 -0.237551155332 
-14.9844741178 -5.93711825212 2.68944521972 0.287146240483 0.811368744921 -0.612596623358 0.538889834262 -1.13220894374 -1.60564811959 0.446268527316 
-15.45952202 -7.03355767905 1.92859585824 -0.358324519028 0.236543701041 -0.706057136546 0.888856388406 -1.18445895125 -0.879857645591 0.448341745398 
-13.698049417 -3.13633400606 -0.328941212014 0.952428816592 0.265110985524 -1.81705963273 0.494796298698 0.79009180904 -1.13996677011 0.459305180792 
-10.4666618229 -1.39966418084 -3.84345530021 -0.150570071423 1.71267000886 -0.301824169902 0.794921191134 0.964673754449 -0.171692522776 1.25434040736 
-10.6909759231 -0.935204795539 -3.78673004898 -0.365619151588 2.89256717493 -0.561109791636 2.28484825618 1.57026769258 0.985766539957 1.96761223557 
-8.25798058503 -1.14688813195 -6.36765026157 -1.23638239784 1.47732064982 0.225597547642 2.89030159179 1.29241113157 1.9824616098 -0.127871783116 
-4.89749131899 0.644980613022 -5.89875952618 -2.07134396168 1.89831763963 2.13883925279 2.57266343277 -0.338624136612 2.10587141076 0.217544809377 
-1.2708762483 7.34989454721 -2.68090494621 0.981995062631 1.16962437226 3.38824146822 0.138867781666 -0.279918721544 1.97617862917 1.14220065348 
-0.346764991526 8.27172555336 -1.79968362275 2.56958401277 -0.00940856628845 3.12434519532 -1.16760390951 -0.889852661861 1.86617232649 -0.42175995444 
0.843228593814 8.07109856199 -0.872253038361 2.19645926079 -0.69015651723 2.33721929444 -1.75228331535 -0.697693901361 1.40113222069 -0.554624935014 
0.150562487301 9.47912401116 0.300413844584 2.57791768738 -0.0821548841716 1.74757556379 -0.438408263266 -0.547010030357 1.02958780996 -0.956091112464 
-0.777806542388 9.97119269374 1.39039308477 2.65860526133 0.176730285837 1.25855532486 1.08971580372 -0.515574484036 0.664842233358 -1.66338669046 
-0.910852485098 10.049878984 1.09823432192 2.92487157644 0.264815934987 1.56303122212 1.15925004484 -0.821646295 0.921548997197 -1.93919184825 
-0.669464867449 10.6745587851 2.71668772936 3.0978547655 0.419580222964 0.163817121413 1.80248009575 0.0843362512229 0.482379245804 -1.58309073685 
0.773078807802 11.0512076519 3.75416482328 2.12515442086 0.000344881104703 -0.297130245463 1.91560826288 0.624462326098 0.530683618693 -0.318141051639 
1.8963405768 10.4650100708 4.50822540117 0.0420167738413 2.187727329 1.21140502663 1.29719536542 0.525143972978 0.96935492368 0.617629221062 
3.39253074482 11.1256778215 6.30946818412 0.0920319914896 2.36652138573 -0.240245803703 0.149446590209 1.22634333749 0.0579107386446 1.92259902666 
3.90533937838 9.1890768947 5.56667439663 -1.45985631601 3.37312155779 0.0642234507544 0.238396455377 1.59022906499 0.26414572413 2.08499520265 
5.05130376156 6.48223380487 3.01814604161 -2.77059468009 2.79653172111 0.154279087855 -0.662414607205 1.56837419769 0.015334179259 1.37651562452 
5.69126008586 3.73465050665 2.02163581326 -3.10651027528 3.85302719167 0.0358716497318 -0.754249562172 1.39876599326 0.734425064765 0.314835135259 
6.81005938941 2.6409613545 1.58946792031 -3.4932556007 4.39470662714 -0.325822932433 -1.27373806832 0.0158979499031 1.11454206675 0.684811027034 
8.4969199925 -0.744228146772 1.83917771116 -2.51810525256 3.57963447469 -1.23540033037 -0.16434420729 -0.783199732001 1.40396750687 0.560866240379 
9.39975488553 -2.62353087266 1.83232542875 -1.14656090464 3.09038375182 -1.24476251669 0.0338267842593 -1.38079280282 0.748284534307 0.361598708472 
9.76952492089 -4.72677773918 1.69624752081 -0.304962812168 2.91404177319 -1.35530473909 0.623071082654 -1.03140120169 0.497052328739 0.192190264974 
10.7291313611 -6.17533337947 1.31503706948 1.16155336205 2.18483527377 -0.489213382665 0.288219542544 -0.623608857085 0.0839306573721 0.512228289176 
10.4429705111 -6.71104582103 -0.673584616094 1.02543285405 1.3343678732 0.166073867598 0.477144891279 0.128719940482 0.248236236185 -0.268586947887 
10.7460357133 -6.63724194511 -1.24713245229 1.63035680939 1.18934919043 0.610824253415 -0.539557253635 0.434101950391 0.405476065451 -0.689041161188 
12.1823572868 -6.910314871 0.289458765388 2.48460047195 1.09985563368 1.37794203464 -0.672106662909 0.0329387262992 0.0785365753456 -0.398979931049 
12.6029122968 -7.79813747105 0.0496115838604 3.29647890367 0.16547466951 1.61690538739 0.547219983929 0.359657524464 -0.11431002431 -0.337043213556 
12.8148821792 -8.13774477377 0.366249290532 2.90057327019 0.408572221217 2.343172577 1.46625639345 0.580178828938 -0.203610327169 -0.311634865398 
12.369948812 -7.73370539809 -0.575869257404 2.1192461129 -0.229173917598 1.86351333055 0.877432863379 0.693547230278 -0.166503509678 -0.622529837788 
12.8379794426 -8.12282580508 -0.48462911614 1.99860101836 -0.511338544941 2.14928040306 0.808923418478 0.90799797627 -0.396170881767 -0.447729563708 
12.5561863629 -7.88834009121 -0.962304486697 1.41738671736 -0.469783230521 2.13030158394 0.400970491748 1.14811856946 -0.285482668312 -0.472972452747 
12.6459058918 -7.89551006352 -1.07484520797 0.993976987607 -0.718613564091 2.82082418634 0.503297643733 0.420662540974 -0.457604677989 -0.697995790986 
12.8405178492 -7.29357681214 0.017495115815 1.72898844424 -0.317570969243 2.62120775366 0.303882175391 -0.0172359519954 -0.654365286743 -0.317459550088 
12.9325090885 -7.06052682346 0.177672534342 1.91691528995 -0.0941974000896 2.22685819543 -0.364288078658 0.121038614867 -0.549358850788 -0.234672371822 
13.054165527 -7.20280008902 0.0763079262466 1.60925411835 -0.27424616843 2.24343871142 -0.182837670614 0.15578340736 -0.547644894098 -0.397335389325 
12.9436487083 -6.78574241206 -0.0312870545291 1.36082931625 -0.193778575654 2.31203548279 -0.605275756815 -0.226441962387 -0.606661778791 -0.352615449715 
12.9295059727 -7.24431428366 -0.142579667366 1.43126752445 -0.49564717813 2.345884216 0.290822878284 -0.0282487320031 -0.795791298317 0.265138159081 
13.0484499479 -5.8566347488 0.744389804775 1.40730066677 0.00216075350836 1.93980583419 -0.05996881767 0.293447240971 -0.0867950510524 1.10355804247 
12.3705918497 -6.02617691837 0.65033235199 1.24947818696 -0.193362154495 1.50793729039 1.30673788202 -0.216424453665 0.0385975537053 1.12170617149 
12.2361641245 -6.33509368108 0.906807609243 0.927234134367 -0.0181316632116 1.41041125991 2.30698447625 -1.17909395732 0.0238134625183 0.877648142371 
11.9426625993 -5.92972585995 0.476654448356 0.563389889509 -0.635767315997 0.487333954195 2.25559481457 -1.45804662576 0.179903131545 1.48497330445 
12.3481391684 -5.79016349483 1.43624505675 1.54238602619 -0.657365000892 0.0134015457722 3.76518207764 -1.19373175089 0.45919172061 2.0885895808 
12.1142233127 -5.03723104412 2.67098783086 0.931690681234 -0.210873713099 0.165926998263 4.02265756311 -1.86579278025 0.309527976292 2.1230534425 
10.6632218689 -3.06205041576 1.7260541572 -1.11372074469 0.568306110796 -0.710339916267 1.37985591131 -2.19146535908 0.355635748053 1.49604125788 
9.23309543263 -2.19529382911 0.752000373824 -2.24901925452 0.261239247774 -1.07381024798 0.856827868599 -1.68421634867 -0.034824199419 0.505589390391 
7.38498535622 -2.44953654963 -1.75636169633 -3.74633937247 0.337595919294 -0.729830761825 0.563778909976 -2.16699282927 0.639395950483 -1.63628350676 
6.77853127743 -1.91247923028 -1.65760017674 -3.66766031082 0.234245386188 -0.565225565434 1.08407435635 -2.62965363805 1.63150946927 -1.64408231616 
5.28629539026 -0.603156473326 -3.0423052932 -5.72534879305 -0.597120151232 -0.413204181343 1.47871683222 -1.83777309957 1.12451794084 -1.07051285256 
5.65268025099 1.4485378601 -1.77226787842 -6.64136348908 -0.482817935375 -0.233850324255 0.928128769581 -0.953480605732 1.47366030703 0.524528783182 
5.7774991364 2.06859328773 -1.70068100618 -7.0828425881 -1.6680773822 0.450762914789 0.733821515608 0.167874501454 0.183441401022 0.966075739106 
5.54246451854 3.55354140465 -0.0240864869654 -6.13776378875 -1.38059982658 0.134295715416 -0.108100477265 0.227894513484 -0.252183187369 1.87843608881 
5.42865791952 4.51700378566 0.519586862508 -5.45287762787 -1.78886134554 0.263210654237 0.462701653496 0.307261522148 -0.661248783417 2.24561697562 
4.47219833361 5.18984564479 -0.351435297359 -4.34690877849 -2.72671635655 0.9420245025 -0.51052284674 0.586135175885 -0.923294684891 1.04094609006 
3.37200613872 4.53862255887 -0.958271522942 -3.57165340146 -2.97370877134 0.0588505484597 -0.067907263427 0.340716959598 -1.08604297446 0.408345283397 
2.75187786071 5.28036199602 0.0297007131282 -3.99862791797 -2.46389999049 1.11955651636 2.74180388495 0.217072430897 -1.23761510994 -0.179770768836 
2.21090322856 5.85585004321 0.580057108354 -2.89613089172 -1.34907322528 1.09793579558 3.21369652575 -0.385580552632 -0.875632933164 -0.00206348169593 
2.93583214704 5.87594086017 1.68970961156 -2.80947960887 -1.60731627572 1.31166913652 2.22036237905 -0.956425260339 -1.79453834204 0.659973332245 
1.91573908109 7.20656643258 2.59596054346 -0.894677657212 -1.39234852935 0.866415409677 2.24158645642 -0.731370085024 -1.76398187579 0.301348086829 
1.56577486766 7.65403706854 2.61026351831 -0.384781602381 -1.48037811506 0.553627994219 2.58550880915 -0.635406593992 -1.4817839283 0.10029692357 
1.68852917669 8.20746364049 2.42403540289 -0.403802075229 -1.58972606237 1.11928714111 1.7631175916 -1.1052331334 -1.56181839814 0.345608308247 
1.29742427744 7.62687581336 1.92230451427 -0.565793791049 -1.74599266421 1.49941428492 1.29871454197 -0.91554598123 -1.74379167275 0.110991094944 
-0.265164453295 9.49569554493 2.37282440482 1.59496826656 -0.628034990978 1.42926980442 0.904561723801 -0.868895973578 -1.02801697905 0.126672955763 
-0.373688368455 9.64203269704 1.90328116552 2.19733047389 -0.509707048033 1.36193761934 0.392730078285 -0.910305388898 -0.981125424682 0.630469887607 
0.340182743033 10.0875817525 2.67994061709 3.69642480388 -0.795379216011 2.51977875255 -1.09013044929 -2.18553083376 -0.450553895067 0.156307108937 
-0.316552970833 10.2953221713 2.01080952627 3.85592250741 -0.0866988849928 2.20068762813 -0.783047275119 -1.79384160474 -0.263814109697 0.544776818669 
-0.906460889731 9.73664662935 0.486779652684 4.09860458397 -0.324752559156 2.0353358835 -1.09173556125 -1.35633455718 0.807401599155 -0.073829382321 
-1.81626285116 8.44748503011 -1.30537419058 4.20952322671 -0.0302811711772 0.958404662293 -1.06814009482 -1.58188095362 0.960704425395 -0.781314020198 
-2.09362347446 7.33674851328 -2.58972509517 3.11588195008 -0.627028120738 0.329353468892 -0.624154729555 -1.62769252394 0.508453951879 -0.878447835742 
-2.53638586335 5.53855784182 -4.60100003666 1.99427722969 -0.965531559959 0.050540925304 0.633164168845 -1.71784641131 1.09143471127 -1.31822827922 
-5.01455930861 4.26690464045 -5.45085622662 1.63722490677 0.731102449646 -1.67817197053 2.03829147589 -0.30291058886 0.395701582218 -0.881277116811 
-6.95965855125 2.15828101317 -5.27549231359 1.51957493885 1.47866530114 -2.39561688772 1.61455325333 0.570002462466 0.457416342579 0.228442233367 
-7.73890107379 1.10801200882 -5.35809745287 1.2976455092 2.15258644174 -1.89175880078 1.95299677447 0.383407730614 0.381299701451 0.0860710634294 
-8.36425881592 2.16474369904 -5.1489393372 1.80229568068 2.62563631222 -1.94758127515 1.69007267574 0.700028462578 -0.720160883707 0.651285754407 
-9.34012409557 1.37448191781 -2.94574961603 2.25003894642 3.49125333364 -1.01773819788 0.322279486195 0.359494386769 -0.169458833658 1.12240112837 
-8.90615882521 1.00367367409 -3.15135322171 1.73966778428 2.79111743306 -0.256973405819 -0.734103638506 0.936026573531 -0.0732564449633 1.68884068774 
-10.3983692778 -1.33146488333 -0.459563039155 1.61134301849 1.61506845246 0.16027432548 -1.67570932133 0.383417348315 0.56670215995 1.88469646964 
-10.4489717939 -3.39724891428 1.63670052141 0.866897654384 0.357351348043 1.93278346869 -3.03438570785 0.0209472049204 1.30276270223 2.06503910229 
-12.5415668988 -3.95442770708 2.41746564907 1.3008657816 1.48130521002 1.89497921596 -1.91150695291 0.54950168729 1.32378385671 1.31209833369 
-14.9998248633 -6.35483388526 5.8452126654 0.895326356903 0.0233396849564 1.62455477722 -1.76077451201 0.102747580053 1.63482971846 1.11445482644 
-13.0147645879 -5.65480885682 4.65898831718 0.418308426177 -0.70211202513 2.87980547605 -2.45046376229 -0.397980466142 1.06178518867 1.37987063838 
-14.0489224108 -3.69496205844 2.71089082194 1.59196488462 0.390592090316 0.509725045798 -1.34872046292 0.0469932251184 0.0169703291989 0.861826224579 
-13.6335810567 -4.39138070258 2.46063136882 0.539480100494 1.52500820157 1.40923764848 0.190238446572 -0.799068471108 -0.137822577785 0.608545386254 
-14.9299345973 -4.94096741641 4.16798901671 0.340611762871 0.625039361847 1.12098281574 0.347566545263 -0.34691229447 0.340661955564 -1.02911558784 
-14.9811421042 -4.23667228953 2.67168160952 0.658518268845 0.845387375356 0.241940049441 0.800238347684 -0.186866716836 -0.165617453227 -1.10367919717 
-14.2137510631 -4.80863255088 2.54971783368 0.43641014843 1.21125897077 0.512910567404 0.394110927495 -0.55683596309 -1.09772712765 -0.931081161824 
-16.8588795197 -8.22447515803 6.88096700463 -0.591611509671 -1.10687163607 1.51928679524 -0.218133716446 -0.744371678986 0.333121091492 -0.715264121154 
-17.2513883526 -7.92845689577 6.76501825997 -0.266424486532 -0.899946809591 0.721480151174 0.552039659507 -0.428133080771 -0.22764260492 -1.19489344986 
-16.4207713476 -7.92549962839 6.24256907625 -0.519704035857 -0.998864132161 0.712927869036 0.546549410856 -0.292678432821 -0.254286831656 -1.27337749229 
-16.8469735808 -8.04977852134 5.80476159163 -0.307487372522 0.447412707944 0.344047103603 0.831053413402 -0.776206636629 -0.92064476149 -1.51598271137 
-14.0812679366 -4.94299575254 2.41838026486 -0.179573804965 1.96614143685 0.00666638008962 1.29940087566 -1.04155494216 -1.89178688726 -0.994353470522 
-15.0141171398 -7.9303388086 4.80778572537 -0.871272446674 0.559865502936 1.44627904709 0.694510998499 -2.29187175433 -0.942606392068 -0.633894188123 
-14.9203072362 -7.45753770416 3.21642697454 -0.400165772324 1.29452216968 1.22194566041 0.622157718987 -0.797261986626 -0.569093423414 -0.299427761417 
-15.2054331709 -5.45783367067 3.11046404491 0.881373331394 0.449821168235 1.24691324143 -0.188954909783 1.88136633345 1.50066666769 -0.0173863278303 
-9.09676744709 -0.242121685469 -4.47304306927 0.201141666285 1.77920997318 -0.472241265831 0.585000958671 2.50834378732 0.577595079537 0.830806538737 
-6.40494405893 1.83588816199 -5.91462168031 -0.410330120963 2.76047410752 -0.121032058162 1.58616684694 1.05710068667 0.577232591612 1.81741347107 
-5.26725037466 7.29651315837 -2.27116095263 2.42927408799 4.39327707053 0.171650053342 2.51637539986 1.44325186318 0.745665574169 2.00217462429 
-4.95055687514 8.05176654721 -0.501125887059 2.8390055352 2.82517526996 -0.0801462763306 3.22733051757 0.18583509528 0.868652550241 1.21807454511 
-2.5069874431 13.2960883213 4.05748802976 4.68775165607 2.88210641774 2.39523908071 2.71903207614 0.00609924227242 1.06811943664 0.664957150991 
-0.724145054808 12.6887456857 4.43478090298 4.40304497271 2.17709032004 3.53770833733 1.20333436237 -0.616158689997 1.13655923793 -0.184254706904 
-1.00011188094 12.5612667441 4.90816727429 4.1760049549 1.9395940091 1.86744985079 1.14881366689 -0.57554544725 0.662857996698 -0.189354872164 
-1.00148384806 11.5620065741 3.72089121791 3.57808291274 0.293472720162 -0.393395124095 1.20196180328 0.0420573379467 -0.264221766769 -0.97834770196 
-1.61654919273 8.77948110694 1.2129456641 1.61414027492 0.273327988683 -1.13385844581 1.92441895803 0.21517793116 0.210232286953 -2.16257436064 
-2.29110178326 10.5426305461 2.67390289726 3.39500963462 1.73625938322 -3.06737397679 2.89793448673 0.956296968817 0.78327809988 -1.89707233274 
-0.163779627785 9.23872180608 2.27469661764 0.573836517073 0.341797113585 -2.8113398958 2.44881464217 2.45442187678 -0.300395838155 -1.57641019227 
0.133005420991 8.83325165914 1.9760729004 -0.294484005492 1.02244683353 -2.44396896326 2.06452404019 2.83887792208 0.210576897361 -1.78506373885 
1.39841832404 9.63353619984 3.05356515635 -0.525986117086 0.837036445903 -2.00766817925 1.25041201494 3.34232456408 0.149785644325 -0.498806571826 
2.12613916829 7.05657018199 1.29768455374 -2.62614355102 1.52731413132 -1.43793539939 0.943148473442 3.88493711276 0.652726782936 -0.923943478538 
2.42558672997 7.02403813229 1.67597241926 -2.33047847326 0.893780433667 -1.72641460035 0.504703175212 3.8361697976 0.420543423306 -0.830594869943 
3.7575418593 6.41960838653 1.73868798862 -1.56885450429 2.23231577758 -0.861193496904 -1.2090036794 3.21507979239 0.706655224682 -1.01413573057 
4.20238769977 4.6164585379 3.02852446938 -0.790767007598 3.49010594804 -1.5207812711 -1.01301505742 1.68182511723 0.0755032269594 -0.428867757453 
6.38146488004 0.962910874276 2.14239140004 -0.938214705771 3.23138246431 -1.78651745131 -2.81712735842 -0.79002009462 0.299459992448 -0.972248633635 
7.7404045919 -0.208704085841 3.23172695043 0.0580993175814 3.29211364565 -2.06079454237 -4.20476261839 -1.51922481425 0.165401953292 -0.865691342458 
8.75767687705 -2.7744314085 2.4321845319 0.153414518489 2.56337997523 -2.10513397308 -3.54000145628 -2.72081758436 -0.248165603414 -0.985891279992 
9.86219036126 -3.63279229059 3.15347719992 1.40458453762 2.37375252938 -1.566637264 -2.53817025726 -2.81268128238 -0.172748691253 -0.349181158111 
10.2340792247 -3.33279351186 2.42443233464 1.82280635902 2.46589181002 -1.24072671022 -2.49192539428 -1.94423745873 -0.377465552872 0.469088928526 
10.42710613 -2.99870024933 1.62476312417 0.770053784281 2.76701415766 -0.767308806465 -3.31043647182 -1.28604118 -0.6073268135 0.35848796384 
10.9180199663 -4.95343405545 1.62750497129 2.07425730096 2.51718200311 -0.672934157374 -1.23739835348 -1.16695516932 -0.443317773892 0.811021472532 
11.8477939998 -5.35381486796 1.61652012653 2.84720405246 1.43563278751 -0.887415604903 -0.552169025598 -0.568154430152 0.125111046121 0.784779250832 
12.317355613 -6.49487081058 2.09289854779 3.37650382679 1.23025361482 -0.194901974936 0.708266635443 -0.465957480099 -0.598941310074 1.13702415981 
12.1957024488 -6.61746161804 1.83156123991 2.74807633412 0.930344599955 0.49113171993 1.14311787906 -1.06446435012 -0.401494277106 0.7012175764 
12.1951882026 -6.66346190004 1.68157706997 3.31561469129 0.395123048418 0.183751813478 2.06172429801 -0.509333542356 0.222121205687 0.503859550886 
12.1513746859 -6.21022644422 2.60317571559 3.91835952053 0.488217852238 -0.346535618031 1.4449984142 -0.211857121462 -0.0963884413004 1.35479002948 
11.8809344272 -6.09499977253 1.83179784397 3.22973926022 0.417046358411 -0.183510418832 1.01662059101 -0.43755804337 -0.193430709437 1.00652209111 
11.9573688693 -7.10832059893 1.19942309465 3.81937305172 -0.639696598987 -1.99850506462 1.61356939673 0.472428951459 -0.465371456324 1.25489688946 
11.8222372599 -7.04925687369 1.30154241652 4.19793130376 -0.778238413303 -1.94656004694 1.92459140084 0.549203666196 -0.26132215845 1.34959994672 
11.1044586056 -6.77597438411 1.68745466409 4.02204487608 -0.351328336733 -2.61625307286 2.55756202436 -0.211297280508 0.00126583424609 1.0372386525 
11.7464902757 -6.69632887642 2.24097992335 3.67671474809 -0.250368970678 -1.46740586068 2.01625538231 -0.866051662164 -0.603173178268 1.04093524764 
11.6888608292 -6.6243763596 2.53116589334 2.90459808891 -0.260922316001 -1.9938933501 2.09503973427 -1.62655122377 -0.611280497895 0.78431411712 
10.7350480229 -4.74058244901 1.61836760037 0.679506405712 0.444224753277 -2.03435996476 0.367005797385 -2.19812078387 0.268948864366 0.546477345308 
10.3422466583 -3.40042800037 1.32885857943 -0.619452377953 0.58190841002 -1.46113275714 -1.08926450612 -2.34476658277 0.1364311751 0.294007951598 
9.80315641613 -3.30705241397 0.887119854762 -1.93226885455 1.01495562922 -1.51406203853 -0.597334102474 -3.31630086139 0.495449794696 -0.224106537684 
8.19213658447 -2.98338758497 -0.303971967998 -2.70505046152 0.328120306001 -0.740758521109 -0.623142180066 -3.85548067627 0.330691779418 -1.41482127034 
7.88023849916 -3.82362857094 -0.438810714111 -2.63000494739 -0.0344686168114 -0.788762769399 0.0875347051484 -4.19339910559 0.518142994266 -2.02533484042 
7.13360628396 -1.83507833835 0.656532627103 -1.76447613079 1.16003958611 -0.668834804641 0.512185384794 -3.56152401109 0.0531332064421 -1.1276974413 
6.58694376488 -2.82038579976 0.342812091111 -2.78558446749 -0.0479679163534 -0.0445927904071 1.89868226157 -4.19868115916 0.384321927505 -0.796644458497 
5.88687644463 -0.970500179303 -0.366718820951 -5.05425570714 0.291360842959 -1.34984415241 0.7308707949 -4.20740339454 1.17164631648 -0.548167883266 
6.3300622115 1.54422617174 -0.201694698588 -5.29614313022 -0.795636558576 -0.519782765138 -0.310164954064 -2.22007204678 -0.0397828356152 0.300738386376 
5.48461479693 2.66612592517 -1.20127941175 -5.29498459469 -1.33634413333 -1.21134620741 -1.1265213842 -0.447866589081 -0.0578000225352 0.629299728383 
5.55561444143 4.41673163895 0.508555436954 -3.75881259913 -2.15679218964 -1.59230766953 -1.43870123213 0.460223432347 -0.71861379657 0.760838955756 
5.41800876393 4.72984738736 -0.0430566548303 -4.84246263296 -2.73886079046 -0.527481155202 -1.11806442847 0.136491650542 -0.78676355669 1.17206593728 
4.95068652921 4.38288344412 -0.543044271722 -4.48154286282 -2.71184324949 -0.258431249982 -0.855092011139 -0.791428928435 -0.441974183444 0.605587390344 
4.28828102299 4.92955687411 -0.434134131119 -3.80980218133 -2.57991350685 0.142544912518 -0.668808238159 -0.510189335314 -0.513287527017 0.527230679437 
4.2157381546 5.28546262937 -0.106607676983 -4.18983416547 -3.79153952906 0.751357580414 1.61164485857 -0.240339415771 -1.12033818745 0.3676939143 
3.42369835616 5.84699859023 0.450355563852 -2.77181397085 -3.18742784679 0.331799558019 0.990339844267 -0.0532273050499 -1.50597786237 0.530250382845 
3.30769902851 5.92961460262 1.13850541847 -2.57111256646 -3.30555903106 0.48277128759 0.867867582991 -0.788476027566 -1.51712769687 0.506924212685 
2.4602181705 6.96269121008 1.99170027036 -0.610974330339 -1.57289262126 1.42570532998 0.290578710461 -0.742692383599 -1.47306533832 -0.339365725327 
1.88376323806 7.06207993301 1.21335185082 -0.555873438805 -2.67563812235 0.29355591564 0.126144789207 -0.643105996286 -1.80479777652 -0.0837197906304 
1.68523893771 7.96618940098 0.598825385177 0.220154218816 -2.7006395407 -0.494312294283 -1.18032790482 -0.604239966921 -1.41656085788 0.0323093230892 
1.18360686133 8.30537078529 1.58289874195 1.60054168324 -1.89359400752 -0.123937587384 -1.9638850733 -1.05597426971 -1.342567864 -0.240537814686 
0.943764544724 7.52280618523 0.141497245064 0.00592136124644 -2.54584099342 0.356934339638 -0.384087531676 -1.33561463345 -1.00603906381 -0.27913554628 
0.531862087917 6.77225460293 -0.863711436677 0.166305490565 -2.58580563257 0.325366192145 -0.823300675504 -1.67861339903 -0.496375014326 -0.277774228714 
-0.105688601914 6.71252243072 -1.70266397983 1.18452685838 -2.03039782169 -0.221545766818 -1.41114711234 -1.57153557039 -0.501654822638 -0.168257086982 
0.609195705505 6.17184830911 -2.00130120042 1.24324717143 -2.2075039212 0.702620777887 -2.16386675394 -2.03166590046 0.13303818258 -0.435646758006 
-0.576006635709 6.59517054514 -1.99194516014 1.93679728311 -2.74319384948 -0.476613336636 -1.66715062617 -0.923099669559 -0.151882549836 0.760515692922 
-2.40572287316 6.0458320636 -3.05554023805 2.14446771493 -1.96279906111 -1.13218893912 -0.709882804857 -0.833374091285 0.127980979462 0.391189657744 
-3.36388227193 5.27271297213 -3.89341780982 1.54890392689 -1.83697568735 -2.02422428535 0.361862987215 -0.786243764012 0.206757293373 0.114286850342 
-3.46655103771 4.80524468399 -4.05288217769 1.5833133953 -2.18896639815 -2.30075707981 0.277719534698 -0.888090108623 0.468428937474 -0.0803800588634 
-3.81684641363 2.09269145581 -4.24077640134 0.0947932485579 -2.5194476906 -1.55789043815 -0.551098761539 -1.50990002059 0.46007613804 1.33049977884 
-5.19897690648 0.688378109516 -4.07343879169 0.0440293578431 -1.69812667014 -2.13448746029 -0.507174220692 -0.411608676151 0.344682900459 2.16450896337 
-6.62174545498 0.0907600672889 -5.41165567805 -0.324321646529 -0.386398189915 -1.55692607493 0.389448552237 0.600321051189 0.188119049318 2.17709610825 
-7.94098909116 -0.832799558481 -4.65257945153 -0.176123295789 -0.246747014976 -0.910013795126 0.460233445453 0.783278310601 1.20186249197 1.49529458889 
-7.71055081684 -1.3136685461 -3.68539459347 -0.97813989159 -0.38284828572 0.0562774920537 -0.224099268723 -0.0805482623458 1.15071675545 2.21381833181 
-10.1078576505 -4.25932154175 -1.96470873955 -1.31236128134 -1.79918864378 0.110844255912 -0.947292641966 0.33352002079 2.09989070261 2.07572699649 
-10.6116078772 -4.89702851094 -0.0454451843142 -1.23926958894 -3.05544900206 0.945044152424 -2.23095284265 0.913858140711 2.42886269046 1.60101615267 
-10.2299715996 -4.59498068735 0.158273326049 -0.410404967136 -2.66298849815 0.586680853232 -3.28890137915 0.430954551935 1.67359088432 2.08395738154 
-11.1083748475 -5.09905834846 0.970580109486 -0.469824405341 -2.1633900144 0.19467836003 -2.64779929311 0.600574330874 1.38112031561 1.67611067612 
-11.6536891806 -5.69224746701 1.67764369207 -0.412796902017 -1.74347905081 0.653427308981 -2.94020500574 -0.146220266052 0.823788861093 2.33088596551 
-12.2585970623 -3.60365520357 -0.123653937673 0.729483200047 -0.329942966323 -1.10258029489 -1.18649449341 0.115800594009 -0.388288287066 1.83254442863 
-12.6959943296 -4.51468394461 -0.88988284548 -0.303627220877 0.479979855703 -0.622607619897 0.891521349032 -1.3244945141 -0.587483934194 0.187017750634 
-11.2927477385 -3.05301681938 -0.955546588629 -0.100311986623 1.4555447923 -0.207088621839 -0.114056137387 -0.064347889637 -0.743223399997 0.646422762721 
-12.2418488868 -4.04240442577 0.944333559944 -0.498940180747 0.135422919639 -0.607019914598 0.152585318341 0.702785934101 -0.929322897161 0.0656408544617 
-12.0203961975 -5.39302639676 1.38394487083 -0.968212379386 0.687977793633 0.540414380823 -0.551921947653 0.16643660351 -1.38972083383 0.0693879971125 
-12.1672048248 -2.81227856948 -0.952702496644 0.190642698794 2.31896890618 -2.01141268971 0.353841414826 0.866157366049 -2.86118374261 0.718154396194 
-12.2056414103 -2.35698116278 0.149091432403 0.622243919438 2.39079026768 -2.91319929397 0.355545862334 0.835931063081 -3.17782874766 0.5997300025 
-11.8102349045 -1.97815681589 0.566046990546 0.428476251789 2.60077488353 -2.9289992256 0.335181690945 0.774927728882 -3.77830559266 1.23692946259 
-12.2008728647 -2.91347805716 0.407001180213 0.210080753942 1.89347399931 -2.46257491689 0.454570098181 0.641579503217 -3.45035472381 0.366696811074 
-11.804262857 -2.42066867005 -0.869349645017 0.651472930497 2.35583808497 -3.5612959161 0.660521502238 0.322403131042 -4.14395156113 -0.202017852424 
-12.4167377667 -2.04935637658 -0.79724827825 0.445838484144 2.54615076272 -2.51149430948 1.23377075797 1.14459147321 -2.55735866851 0.170395936716 
-14.1278015763 -3.61325878934 0.337355480641 0.215596248932 1.32960537907 -1.97539420945 1.05741221086 1.02432907402 -1.28701806015 0.0297396713717 
-16.2921140386 -4.08115810867 0.702759596713 0.821207141901 2.60870322902 -1.81151752928 2.57288041147 0.538578267251 -0.661451540716 -0.37258397351 
-16.2605598167 -3.72588372702 0.289926811557 0.874198743707 2.87773428981 -1.982628328 2.726412889 0.726267819417 -0.595356417508 -0.319645580835 
-13.6708425042 -5.5713484344 1.61216239025 -1.45638062346 0.415432386925 1.60896709424 0.895382411863 1.17982361581 1.68686039142 1.89116084802 
-10.546343778 -3.20790461305 -1.35691904772 -0.800077540531 -0.011863045052 1.56147053005 -0.494867825519 1.15129592538 2.30889285886 1.59537628052 
-5.66454289406 -0.674509142089 -4.35020768946 -0.706033557686 -0.249460800957 1.78533856127 -2.0365349313 -0.363455706155 1.17403183566 3.35263027415 
-6.65071166707 -0.719418286549 -3.57016057703 -0.416094374138 0.0841038192291 0.8476477786 -0.872495863483 0.0328412528543 1.4063981388 2.27438509484 
-2.93288771128 2.64663991017 -4.02005709331 0.65468844621 0.524884372056 0.834590998151 -2.3119874273 0.453160022071 0.989505538444 2.97789216125 
-0.99942865689 7.86531688766 -0.799279053228 1.66039770463 1.90060608875 3.31894391257 -1.05019824846 -0.457348710515 0.854303778216 2.69132709936 
-0.644458480427 9.90708584681 0.957490203733 3.6285415193 1.5938166821 2.95769855847 -1.64205528144 -1.36815512352 1.15287019386 1.98572819843 
-0.38429785666 9.35206315683 0.785074259093 3.8003953022 0.766925761534 1.97209961776 -1.83449532265 -1.37971965342 1.03078847726 0.921896805492 
-0.746684431187 10.3506233222 1.73120410379 4.22429154386 0.881112607679 1.82261029321 -0.978177966983 -1.57088172079 1.15060741633 -0.15761316384 
0.49168015287 9.62022669038 1.54472290651 2.74153882643 -0.0601387048899 2.45057037343 -0.816667435657 -1.48445436981 1.34502919401 -0.404042844885 
0.499689341464 10.7787206389 2.77722442206 2.18957721485 1.14849076034 2.57337842597 -0.0798346787472 -0.821592579984 0.812174255662 0.111388402198 
0.21893534191 9.77740754508 2.37830330172 1.91836943215 0.971853884584 0.742392661347 1.44784986102 -0.0151816781753 0.823454758371 -0.788956535171 
0.382927762272 10.6904093936 4.74172734984 2.00896233501 3.39471657882 1.38890945786 0.943803951515 0.937766007684 0.522472641193 0.345300252771 
2.9340881555 11.1316830836 5.5377948071 0.644803184606 4.14503826867 1.43073855844 -0.791323678461 1.74912475338 0.543657956302 1.98475548454 
4.18483880055 10.2500877207 5.48809898491 -0.542850052447 3.38860973603 1.49408711989 -1.38265731121 2.23463029035 0.0532176490452 2.94321921814 
4.58630370281 7.60213739747 3.20057814897 -2.92656788991 3.41897078315 0.763858945987 -0.852248837603 2.66542634492 0.650666339395 1.4517164379 
5.15915529111 5.95454412264 2.10793367864 -2.4980314701 2.64438806653 0.0765178614489 -2.27842921786 2.94520036725 0.689756744697 1.07675066261 
5.6422967698 4.3761682991 1.94617911931 -1.5585692614 4.04738628396 -0.43037294636 -3.76266442773 1.7498191985 0.690502565576 0.758491163447 
7.83382998469 1.05249873018 1.93628968023 -2.53580762463 3.96231207898 -0.796049436541 -3.80823747108 0.547902316117 0.921823761852 0.143053559308 
9.2668298034 0.842291673695 3.17498335061 -1.76707593616 4.4213434238 -1.32107039501 -3.885532778 -0.110030418154 1.41850640308 0.321830996139 
10.1828564068 -1.4291429963 2.7783012652 -1.55867387168 3.99597108005 -1.43154783278 -3.21058311988 -0.840746402542 1.85457134366 0.366758512508 
10.434942758 -4.10507691119 1.67042448419 -0.533831435985 2.88105015555 -0.735003805625 -0.918052376018 -1.04805681956 1.87844615838 0.282621341622 
11.9622297866 -5.86354117791 2.27283688349 1.98182557792 2.10175169664 -0.393002246776 0.628619276146 -1.29565937539 0.541619661274 1.47363469516 
12.151866866 -7.1770620879 1.86802625294 2.67569623175 1.83820578074 0.599202758542 0.572236630209 -0.83676975507 0.224081863699 1.81247706567 
11.8747685102 -7.0501106122 0.858692759148 1.22864845313 1.96780885439 1.16644050287 0.823828835096 -0.833504888358 0.749438936461 1.29100749394 
12.1592073605 -6.52637003138 1.2536298663 2.4499681028 1.7671864792 0.735247516886 0.965241008175 -0.530834364736 1.19447634335 1.5443331897 
11.6720022435 -6.62854569678 0.166968837865 2.37291909203 1.17609574865 0.913980687374 0.217594404787 -0.100591390069 1.09213246323 0.622418243517 
12.0285211435 -7.03579468981 0.836412021504 3.22993317568 0.39355094544 0.711119925525 1.77350534004 -0.0464547402658 1.13228143319 1.18952673793 
11.9671610907 -6.92293307278 0.745265820796 3.05364319161 0.528111613075 0.561174966747 2.5024704786 -0.333308948081 1.28101226954 1.02679406202 
12.1437551821 -6.84113203663 1.27878250375 3.65517308344 0.384820588141 0.308730037024 2.14992140571 -0.460503824571 1.20012824925 1.1795074637 
11.714317399 -6.34123865525 1.29226529762 3.64221992914 0.133880551173 -0.184752242971 1.79242787785 -0.179116324563 1.27185321007 0.656572748404 
12.0180405098 -6.78065139385 1.39371312399 3.78192018476 0.418079070209 -0.0175068892759 2.52899846855 -0.600456314524 0.855304502713 0.892794815583 
12.2788592771 -6.86652279554 1.28081379196 3.2728947435 0.214602208192 -0.11640353533 2.17214961404 -0.675210110421 0.637720491753 0.929502510283 
12.035398557 -6.33495280579 1.25536775899 2.69745985333 0.00383249415527 -0.0916325913812 2.21180431055 -0.891539985662 0.617010337372 0.950463716257 
11.9979827322 -6.16019312569 1.49336670362 1.99154069386 -0.0312313274145 -0.0497395941809 2.87072524651 -1.40136242811 0.709677681281 1.55380225668 
11.7108925695 -5.48436494856 1.32973879341 1.4017099219 0.0240473345024 -0.321569792027 2.3046239604 -1.35808872512 0.605299776556 1.52175514891 
11.7452650114 -5.46450663275 2.31888611345 2.06732462787 0.0908913474195 -0.676033669177 2.89113856556 -0.865744125915 -0.121962521462 1.61147462664 
11.964127447 -5.41592164721 2.77374046969 2.18321618783 0.457041427031 -1.08357644082 2.54390246754 -1.23293406127 0.0502951349529 2.15332618664 
12.3176639162 -5.2666758604 3.12011557024 2.33635780611 0.0152434279501 -1.25184266489 2.09708668315 -1.24025449814 0.0607769611786 2.35689557776 
11.8237937441 -3.97775749844 3.18412621463 1.52075373394 1.21760194929 -1.55471242175 0.834254447021 -1.76017448995 0.40038189282 2.30734304012 
11.3524974312 -4.2819314926 2.2008871328 1.2564951471 0.675279295669 -2.05723270118 0.693723098032 -1.94236272701 0.399883136953 1.55580374103 
10.6419951855 -2.90349682953 1.87214561669 0.170204717614 0.312034974663 -2.83525251275 -0.281307244083 -1.66359815166 -0.0895762842646 1.08461993555 
9.20306136626 -2.36843644681 1.28154990289 -0.726830529441 0.641675244779 -2.77821799661 -0.904053670953 -2.01522861168 -0.776924477656 -0.160012647955 
8.30105727184 -1.40622036832 0.13362615601 -1.9352317997 0.819793425481 -2.44867079143 -2.00312683842 -1.46136903726 -0.327576567721 -0.390552184901 
6.47733216669 -1.08061486487 -1.00863196523 -2.7760821662 -0.0666698432114 -1.91932535196 -1.46527871801 -0.801801275566 -0.284183435208 -0.929581356112 
5.61546341658 0.653550512874 -0.66002801288 -3.88064465542 0.723143593513 -1.88493710843 -0.712143432023 -0.981752519516 -0.607694698344 -0.35233032846 
5.27008072028 1.92780459063 -0.373600259471 -5.25668745115 0.456824983491 -1.93060483413 -0.282026038878 -1.14485657372 -0.0162405170475 -0.0710537915966 
4.79732153138 4.28071761677 0.685300327007 -4.5167377406 -0.474935885109 -1.3824593072 -0.666167520474 0.343978273241 -0.741945427848 -0.154675385814 
5.53356588081 5.64757037802 2.9022423047 -4.30270737733 -0.044764849091 -1.22202725649 -0.0368122603782 -0.268231015146 0.364292274154 1.15214365282 
5.21521233711 4.92548728706 1.63186261144 -4.36745730308 -0.997451065439 -0.425036680332 -0.216076351903 -0.0373110880196 -0.238218715592 0.687807149355 
5.28963344294 5.97491820049 2.47727141641 -3.74031276082 -1.41845255041 0.524247205659 -0.270175411398 -0.263858485997 0.0300980807201 0.927698733866 
4.75702160112 7.62345147124 3.06285799525 -2.37506746138 -2.01294959324 1.12367467926 -0.614022022174 -0.206594177235 -0.761077633653 0.459209684838 
3.79730502852 8.24127441486 3.34770745235 -1.90592751488 -1.71661311654 1.6508629287 1.18718464599 -0.308806301818 -0.662972486344 0.0454271358262 
3.93696758246 8.1367336745 4.18754336146 -0.993036497304 -2.53797870505 1.1792909506 2.11430000157 -0.799348088719 -1.5563448376 0.171692860779 
4.05397038799 8.32460116659 4.40238291011 -0.678795998434 -3.560472368 1.26333552112 2.80507410671 -0.882661348821 -1.51424161621 0.406367310858 
3.59240284973 9.12346279841 4.97553813874 0.738396718557 -3.42133090609 1.03290191401 2.00276245641 -1.04050405397 -1.23562992026 0.43398078054 
3.64784964757 8.61799151696 3.62531171152 0.0984261160885 -4.24688465103 1.55824519185 0.664624766165 -0.974687505653 -1.26512943407 0.51666860819 
2.77746614652 8.5649767653 3.0814632326 0.735019877449 -3.32248231011 1.33901235097 -0.313279564157 -1.08926618562 -0.818445495663 0.411885903314 
2.65206317332 8.32197190055 2.35563649974 0.279274474774 -2.91559570169 1.49536617242 -0.503488965248 -1.56912970325 -1.01225073148 0.832089084425 
1.90252050094 8.74744990287 1.83463719657 1.18661923145 -1.83232980826 2.0294571479 -1.20405556843 -1.14725521533 -0.812790292481 0.608624444101 
1.43539021717 7.57388216269 0.220575425957 0.669191515696 -1.93668254048 1.68396693864 -1.35111752044 -1.15523293822 -0.820556155772 0.28233873022 
0.74562103562 5.41517953216 -0.696576424799 0.676974736464 -2.93837489121 1.6508887104 -2.24267960907 -1.47702741089 -0.78493082765 -0.0477899867926 
0.0778599261042 6.66964535405 -1.42649311623 2.45935871551 -3.09547399757 1.06645062972 -3.05861659096 -1.39974938692 -0.734634552499 1.33533308165 
-0.871406275167 6.29806647625 -2.27851911589 2.36295639887 -2.71581856737 1.093028236 -2.10852707246 -1.22696484284 0.268686091521 0.467713680182 
-1.20971298584 7.10700692975 -1.34058969806 3.4343429689 -3.58970423913 0.00906923308618 -2.2696044651 -1.71840733786 0.00615013302935 1.38245379973 
-2.3240401446 5.4111631618 -3.2207330912 2.06847915061 -3.24873971685 0.103098169071 -1.2647055579 -1.52206993193 0.0974966280537 0.781641407982 
-4.10052974341 2.50103037082 -5.16458904383 0.431765460015 -2.68887981508 -0.738186618872 0.00975885781574 -0.879484886422 0.139079132779 0.436514669849 
-4.75218343375 0.722684855496 -6.29271461306 -0.349508991268 -1.82684816657 -1.22406324456 -0.0395608661439 -0.552255712931 0.263900529463 0.79446853092 
-5.59783109623 -2.12505859154 -6.01754824685 -1.51789921288 -1.03812405372 -0.298671001483 0.436436066406 -0.795794389531 0.691256207654 0.755361733896 
-8.65911796691 -3.10809721853 -4.18289967892 -1.54300578642 0.106396521574 1.04850731753 1.59007313824 -0.291592123425 1.14520001527 1.54670544198 
-7.61800588119 -0.0113422388091 -4.65948400152 -0.083848256001 0.826747389036 0.160211413379 0.479459551364 0.164168015918 -0.133217501205 2.70001010307 
-10.4209211473 -2.61420930232 -2.69397318187 -0.74747314339 0.64990856551 0.0743444250164 1.4193333981 -0.343614987692 0.824778691976 1.82054660882 
-10.1301374783 -3.61078828373 -2.02856143864 -0.813332068297 -1.04682178052 -0.55330619767 -0.842742171008 -0.000861063708664 -0.0533020416892 2.35113410697 
-9.47054816556 -3.60696227767 -2.10457182505 -0.857063989164 -1.73753550133 -0.748500733495 -1.19793937802 0.0502019670995 0.113609606545 2.508611303 
-10.0301221975 -4.33469277459 -1.12525510008 -1.17390430412 -1.91423958351 0.25639677309 -1.55088063772 -0.441072666621 0.47957371002 2.52820535092 
-11.5190026055 -4.57502106487 0.745764896085 -0.639974390052 -1.89045520829 0.532624165168 -1.85656604475 0.337417490175 0.973289440991 2.44354478271 
-12.1043298013 -2.54501715984 0.71947961878 0.320378136148 -0.979463766712 0.279118907267 -0.993962120749 1.12664210614 0.122905866067 2.7470545803 
-15.5538680705 -6.057436108 3.36639988083 0.0283101520087 -0.482534563369 0.876597856528 -0.450243955236 0.456106908291 1.18472750769 1.88117196125 
-14.7857854588 -4.88831063466 2.24865288105 0.29256239781 -0.43014421938 0.441242052207 -0.117402310086 0.661800120566 0.141015742232 1.99529597271 
-16.1839089052 -4.26893274666 0.861863357106 1.1691427549 0.211824239349 -1.03139710905 0.94250492827 1.00124993661 -0.136321568645 0.681129273985 
-13.0695217217 -1.90922197367 -0.80137069965 0.952143253742 0.47704396602 -1.07015106973 0.396243381019 0.307750356589 -0.740815294977 1.18658881617 
-14.6857192608 -4.21183304264 1.05359502001 0.0739503665299 0.172101595608 -0.0977046541725 1.04216294003 -0.751129667624 -0.38439929837 -0.0788466759138 
-15.1757749029 -5.35308569584 2.8046180633 -0.936296345341 0.322704029803 1.60050529165 1.11638722221 -1.02255936457 -0.0292377306806 -0.334049629624 
-15.3704870905 -6.35661063157 3.35289725586 -1.84206948805 -0.054566151922 2.35523918014 1.31616201205 -0.660482643712 0.268953077417 -0.682076865847 
-14.1720605226 -4.93065012459 3.10875764489 -1.101036339 0.260168144704 1.19265640398 0.936710927968 -0.101643658529 -0.482634721876 -0.290273376363 
-14.3536778063 -4.73088870482 1.9227879514 -0.970380506646 0.303391715223 0.367933475122 1.452541506 0.223371123375 -0.510663218865 -0.436693214114 
-14.8414222177 -4.5574707749 0.672105414541 -0.873640202841 0.262673731428 -0.55741255225 1.66702467475 0.564468601093 -0.856346178218 -0.571170040506 
-14.7657973338 -5.75193102888 1.72932537589 -1.0993463574 -0.69634534645 0.375612419789 0.331809678887 1.45600676389 0.220440581437 0.153862388675 
-16.4303918557 -7.14696317363 3.90732934597 -1.21743005122 -1.38837309825 0.898274250464 0.441363841747 1.57576724833 1.22176284392 -0.0989373206422 
-14.9673650683 -5.17207552697 2.08871754989 -0.15840602007 -1.1943702129 -0.154495683602 -0.24736084272 2.54421240703 1.87742906793 -0.0248337574535 
-11.3256562078 -2.4499304311 -0.718663137258 0.505619506384 -0.410887701282 -0.804181952805 -1.22366492405 2.29863670581 0.998675160836 0.505545746801 
-7.78316216212 1.24089675891 -4.5979172677 0.711989951093 1.34309868106 -2.00105051474 -0.135003909376 2.04112130549 0.4668803911 0.789667378899 
-8.67888385456 2.49875403004 -5.42536819724 1.81033462334 1.00632795336 -2.70442888443 1.74436518393 2.31116122271 1.22673162743 -0.580632956989 
-3.50287080757 6.34591878605 -3.03238921402 2.54371961376 1.50517682346 0.70268899703 0.0686756132376 0.214426918577 1.66476907424 0.260620199341 
-2.49024221627 8.44087487812 -0.436773493329 3.6411430631 2.12179015752 -0.111941928935 -0.414000071642 -0.126640029877 1.34597045747 0.302896244045 
-0.0393203688779 8.97186524004 2.12117642708 3.73490331455 1.934022496 1.13743779473 -2.09598839911 -0.737565312234 0.944790714441 1.1485281756 
-0.579193624864 8.60146986664 1.49842741407 2.99609747807 0.727279496868 1.29399524935 -1.40875818521 0.172096573565 1.08653778605 -0.457346461358 
-0.705039655629 8.92574979612 1.63715323413 2.97274972387 0.915366767771 1.38779729653 -1.10492832296 0.161985631591 1.15131398865 -0.573837846798 
-1.6530868266 11.1362148748 3.6469013225 4.03317230823 2.49751409009 1.7647435033 0.513084717064 0.265077642927 1.0072815416 -0.490185584797 
-2.09777953831 9.86506001485 2.34308549957 3.26174689715 2.50237086665 0.118977841174 1.20137348576 0.813241447973 1.60611201589 -1.48136419887 
-3.52463313236 8.93508832049 1.56477413515 2.8837661752 3.31071086869 -2.16870882545 2.30718860309 1.66519734346 1.300255843 -1.32154254716 
-1.58875226318 11.1026661607 4.17311932372 3.05651909043 2.79138369019 -2.12711824707 1.68769085375 1.99102730205 0.743398731474 -0.108230165808 
0.564044254182 10.9008936133 4.15422849216 0.856073267339 1.89537492096 -2.11214004829 1.21423263429 3.17753002991 0.632111022964 0.870500358415 
2.31343804644 10.4806112941 4.88192726211 -0.0385121470479 2.75115789111 -1.38725724002 0.483185424567 3.55051769817 0.291734752154 1.59932322589 
3.97101468848 7.40622902384 3.04007317761 -1.59831822976 3.3395175769 -1.09380261911 -0.750331810744 3.59106907695 0.968753627485 1.53168838502 
5.18533904518 5.20296630545 2.61922595556 -2.1078138322 3.60130226293 -1.53837888353 -2.86418988487 2.99205162955 1.00542148386 1.17716907396 
5.46270922029 4.09966124521 1.78856613428 -2.76392171586 2.83760474835 -1.80208665752 -2.09578921773 2.51816549578 0.936889778019 0.712343928084 
6.86231966964 0.464945441675 1.25258140653 -3.59994238024 2.93631528159 -1.54128697033 -1.52970146428 0.852782964808 1.81101225099 -0.0263205650594 
6.73053459825 -1.15425443621 1.72858864913 -2.57832644199 4.0581842524 -2.20756781396 -0.702738730043 -0.485394496451 1.93107362787 0.674028467082 
7.58106975283 -1.95773658095 0.912754280457 -2.2893898053 3.84816914675 -2.2942066775 -1.3904325885 -0.855197029915 1.50426026029 0.384855978507 
9.14557766792 -3.65807706401 0.55251396854 -1.54457449113 3.36649732153 -1.50062709478 -2.20610108579 -1.49584890927 0.604059916109 0.656664694703 
10.3941440313 -5.57134607996 0.534230857339 -0.669864881366 2.63943449215 -0.575528033169 -1.57482602768 -1.57084035767 0.0895481266729 0.819298694657 
10.774854625 -6.25990057434 1.07328805367 1.7323541595 1.29540153018 -0.988929855069 -0.177654745207 -0.794342288725 0.224129191871 0.78783099162 
10.9626220931 -6.31163857595 0.645867040272 2.33133968519 0.623481245096 -1.85026808444 -0.00476642268922 -0.0393936543523 0.190419244915 1.13729757545 
11.1578497842 -6.33906035129 -0.308337230661 1.79122359518 -0.110716490278 -0.697496331489 0.0695819675271 0.566549189662 0.357352324033 0.945241938096 
10.8418424103 -6.49634008461 -0.530973434567 1.04515127112 0.0897370282593 -0.708456330577 -0.777524455256 0.356884992759 0.0896574878339 0.0558206769654 
11.1567564855 -6.60642517922 -0.559325289252 1.44221233091 -0.375221269309 -0.882503093817 -0.571685716981 0.473305992084 0.426233734462 0.132743360005 
10.8296253421 -6.2713755165 -0.744950485419 1.6799649554 -0.411758192774 -0.596099796193 -0.235906840814 0.354238464037 0.864106777198 0.12183522961 
10.9975406751 -6.76635554582 -1.08672954087 1.82834703889 -0.525808712305 -0.225350922847 1.36384021229 0.141970528127 1.33261435349 0.361697315289 
11.0422008048 -7.15236097951 -0.677490826805 1.52497898866 -0.476437428515 -0.0621528406161 1.93776864361 -0.735687434038 1.05237407682 0.728228622149 
11.9128283017 -7.60459055788 0.955350411583 2.26660869021 -0.162394947568 -0.377703759915 3.11251738568 -0.496605967676 0.89212154578 1.36095407782 
12.023550823 -7.6265351692 0.760805049469 2.49119172246 -0.694536068798 0.0545221806241 3.69049010392 -0.438819225378 1.05563896149 1.46613252062 
11.698923321 -8.06045263135 0.100126745346 1.83498996296 -0.535254986386 -0.248506133248 2.43721257492 -0.610297251634 0.759106830105 0.644694435226 
11.2860796349 -7.51621306893 -0.128490024801 1.22696977082 -0.7306956631 -0.429845542581 1.81445059799 -0.769063612953 0.737220974705 0.52356928477 
11.3903781319 -7.04035650232 0.498056440273 1.046877106 -0.616057492087 -0.174638641537 1.78693894538 -1.32937492215 0.470601276803 0.448246293158 
11.5475545106 -6.79860661148 1.42225719741 1.46651761177 -0.696861936603 -0.924572098812 1.96632449681 -1.34088423652 1.18036242025 0.823446185367 
10.8048337732 -5.37403024479 1.07333028812 0.0920898465664 -0.198559612153 -1.73219457202 1.04587364571 -1.69144542336 1.69665365563 0.901661263458 
9.78902265394 -3.46064185119 0.280596985219 -1.35947991526 0.164636474941 -1.4714187331 0.0681309436197 -1.86669972089 1.4078996322 0.148741665261 
8.30288668882 -2.32669241665 -0.606188036842 -2.97955694002 0.840497807128 -1.81293649959 -2.12864046351 -1.81360211423 1.61437329815 -1.26737830777 
8.26131509857 -1.05304721163 0.560372024069 -2.66639284412 1.1193587928 -1.25870878026 -1.21908366956 -2.22798442229 1.33267946172 -0.849575375684 
7.60728380455 -2.83282610315 -0.338786310796 -2.88924651377 0.221264806265 -0.210354576581 0.704707490656 -2.85214466295 1.1538372147 -1.16118676548 
6.84351647469 -1.50299068279 0.539975234057 -4.09670171325 0.769262829474 -1.0016097006 1.67929191672 -4.04477667368 2.55138275222 -0.597586514714 
6.01056141087 1.57314884826 1.25655165158 -3.88838260781 1.27161217608 -0.238881939983 -0.123026932652 -3.25798035384 1.14842946631 0.0660471644825 
6.32816568628 3.57772812248 1.72223079867 -3.8643731879 0.346652761831 -0.490298090071 -0.973383771266 -1.42821042783 0.862740902646 1.3544281288 
5.80382122789 5.52260115638 2.033116679 -3.46697086273 -0.117165508125 0.291582724322 -0.954370364187 -0.813176891402 0.881869932457 1.92400353733 
4.96772438602 6.52263196383 2.4795061857 -2.26083254366 -0.348485984731 0.141102531044 -0.917035681316 -1.00600817628 0.0941041469032 1.91756710932 
3.02529894218 6.39129885585 1.71378989149 -2.20374711063 -1.1646088206 0.651387317099 1.18743646607 -0.751348947392 -0.611492567364 0.625930430832 
3.52989144351 8.45913918347 3.71824762553 -1.32462366523 -3.91269450141 -0.248868599823 2.15366859518 -0.095549852122 -1.55762480614 0.0520017062051 
2.81161090488 6.95315889193 3.3488229332 -0.0867163163082 -4.87591259985 -0.464626707906 2.54457461566 -0.137317304743 -2.81775882595 0.104511267666 
0.969094943959 5.33206114679 0.616631250974 0.173725758941 -4.60262144843 -1.68578051228 0.0710473689842 -0.340764379308 -2.66697391156 -0.450392979649 
-0.308289931465 5.75136581381 0.442506110615 0.984675004306 -4.4148448582 -2.2383294079 -0.899873417543 -0.760634659626 -2.33476527004 0.0767223794484 
-0.482837125424 7.24049914506 1.69443177134 1.42520142776 -2.92253044018 -1.52797811232 -1.13762248992 -1.54138141895 -2.3498750824 0.145950265207 
-0.973303489282 8.36573814518 1.54556440766 3.42360108495 -3.0277870005 -1.48157270718 -1.59854703041 -1.70541279432 -1.2320741018 0.0997882327698 
-0.563724543936 8.07246002959 1.12931683873 3.35257930612 -3.87832149883 -0.703773990703 -1.5449744848 -1.50101587213 -0.369461655171 -1.08437717461 
-1.45145751318 6.49008365495 -1.51783047239 2.68417129625 -4.10428470827 -1.1800817355 -1.56752179862 -1.42583903297 -0.488875674939 -1.07698537064 
-2.49682821785 5.76805935536 -2.18107054751 4.25281279374 -3.43591966515 -2.50781353129 -2.65011690523 -1.47614730945 0.105452296354 -1.7601645154 
-2.55124056414 5.66674917202 -2.12790504213 4.1868449229 -3.66224741499 -2.654898131 -2.37536408589 -1.21457431824 0.332780594792 -2.06065759094 
-2.52006637514 6.27756272469 -1.98759144699 4.24765370418 -3.57568487669 -2.59509490383 -2.37816775633 -1.37314395828 0.350510749553 -1.44659127778 
-1.51067450024 5.64642977862 -2.68883898901 4.29538092423 -3.04220336887 -2.54165220903 -3.61097485608 -1.41595529322 -0.157257898868 -0.582081797909 
-2.6358344436 6.20234167965 -3.51293434422 3.96057808985 -2.83347134977 -2.45645505644 -2.01525451173 -1.1093143798 -0.386531506522 -0.507161330284 
-2.92420367493 2.84283340125 -5.42874652729 1.41829080902 -3.85736612489 -2.41393538096 -1.55336978228 -1.21288630874 0.0233712644583 -0.39778341495 
-3.67933053769 2.76325191691 -5.31712772225 1.73908349342 -3.6346864999 -2.82229343166 -2.00554849329 -0.390337030471 -0.310943726852 0.0386441690832 
-4.79955963722 3.18679979773 -6.01733874776 2.87737813098 -2.80611271484 -4.12750050386 -1.44469631763 0.469499943338 -0.437850796348 -0.113726289592 
-6.93289044854 2.2035027922 -6.76663181138 2.48670872556 -2.53690311115 -5.2251482009 -0.0523090012028 1.67485028827 -0.42566668556 -0.421122345992 
-7.14874046019 1.71326420632 -5.11465549106 2.11614401061 -2.86996310736 -4.79719151796 -0.628702840044 1.27744268608 -0.546285664351 0.858400675558 
-8.71495893268 -0.450630881747 -5.33397222024 0.869035202541 -3.10517559604 -4.43492935552 -0.342251501692 1.24404709101 0.0551631063144 0.564493335978 
-9.60736495795 -1.49380140174 -2.49900256797 0.857262126646 -1.91472318304 -3.5366833423 -1.3842517928 0.645671264815 0.301675720859 1.25628274435 
-10.7365012819 -4.24582662736 0.614520959686 0.284407057764 -3.71722549102 -2.09214516713 -2.67607831563 0.864149969934 1.47197657403 0.972586877445 
-14.300558698 -7.32039183301 3.86706399815 0.320206852247 -4.22659737599 -1.57860345656 -1.24722403284 0.843371231935 2.6855072042 -0.927962951271 
-14.2022125206 -9.88512860116 7.59195008782 -0.905327621218 -5.35474323831 0.737551183709 -2.81331753637 0.167381441023 3.69616971865 -0.793824924261 
-15.6642676964 -8.30792148297 6.15723346949 -0.0453035270953 -3.53302045194 -0.618356203765 -1.77321518632 1.13756766378 2.61285799539 0.0026349811527 
-14.5824155549 -7.79158956235 3.50710818614 -0.830890472088 -2.6989294339 -0.177022819846 -0.967386563732 0.365535853935 2.10138452579 -0.0954020861627 
-14.2036447239 -6.65979980323 3.31608418496 -0.715714706021 -2.79067370995 -1.05631061723 -0.941267748386 1.25183507151 1.27034170459 -0.930858167099 
-15.9341497236 -7.67728176571 5.40446594616 -0.504881534335 -3.3613905908 -0.89132971776 -1.02232453151 1.2283438043 1.56661438034 -1.90197875673 
-16.4329232223 -8.75049865436 6.7814083979 -1.12651009565 -4.25647858238 -0.730481831449 -1.53176648316 1.51559473045 1.64794738112 -1.64455908061 
-18.0653174082 -10.2701034002 9.13327218204 -1.14269342113 -4.34642010314 -0.227631381294 -1.05434090939 1.19623864347 1.99550810777 -1.72616440056 
-18.058959705 -10.0776111751 9.92296766941 -0.811572341819 -4.56900715592 -0.850765157102 -0.987299982917 1.47499277684 2.09654469452 -2.108288826 
-17.9842520502 -9.33916426472 7.56882393392 -0.373085174797 -3.68177665103 -1.65776725198 -0.270287133282 1.4380121231 0.916798628581 -2.38388734714 
-17.6291404654 -8.88766610202 6.29295754479 -0.507044751737 -3.123524033 -2.2778431201 -0.213426214031 0.605989190244 0.389049067949 -1.90986399405 
-17.4144900995 -8.60007796921 5.8629999531 -0.306360816749 -2.81957261875 -2.2546909984 -0.924054133946 0.944284266583 0.355007790489 -1.58388588614 
-17.5544769208 -8.8551402507 6.31459891365 -0.313339884046 -2.64335629308 -1.58055891721 -1.07225452241 0.682174463377 0.581100967333 -1.96057595304 
-16.9855906586 -7.61298796459 4.05766238674 0.039387542321 -2.19904051749 -2.31894189314 -0.658039858138 0.634121773366 -0.246190303164 -1.46462435196 
-16.3543248953 -9.92302312418 6.871228283 -1.69153498396 -4.21435138495 0.405215426924 -1.53946265691 0.716567241361 2.07195428789 -0.319987957709 
-17.3156316921 -9.98941765187 8.03836401744 -0.852525465848 -4.44989380734 0.873900935077 -1.705504637 1.01942248343 3.4752360943 -1.21603314707 
-15.6818614178 -7.64417154263 4.44066770594 0.347029771466 -4.59598960753 -0.24583790419 -2.52621044592 1.92531582223 2.46989064066 -0.851773157145 
-12.4186825221 -5.30851459778 0.31056129342 0.422802958565 -3.09482506106 -1.42698543192 -2.42014989771 1.65051525029 2.15708127761 0.764766585625 
-11.239357976 -2.39113345234 -3.51720284323 1.02830370091 -1.0202292802 -3.21223385795 0.169924497201 0.98650063141 0.960400133406 1.33087066983 
-7.57261258535 1.13428215381 -4.79093392949 1.29817340437 -0.603972645449 -2.16012748334 1.07921061195 0.79881985902 1.24360114986 0.669280928244 
-5.31496421762 2.18953208291 -3.2681839891 1.42894411552 -0.617055463035 -0.833140601341 0.440035629462 -0.531508500565 0.856352756296 0.5381681653 
-2.24529921015 6.37482221599 -1.21930020152 3.43919942583 -0.280444140282 1.66307180711 -0.880746891532 -1.472906894 0.977999600019 0.79868467175 
-0.671839343406 6.27974323229 -1.24266166426 2.50361576318 -1.3813919102 1.1560128245 -1.67175258384 -1.64521447865 1.14322019059 0.152538205016 
-0.459221139108 8.65960274261 0.368448293334 3.57885753488 -0.641586051802 1.14932516352 -1.29540937785 -0.969507544388 0.815556314202 0.011591311706 
-0.987362631256 8.6642447578 -0.392422885065 2.11681267683 -1.58022387985 0.134080056221 0.557431990072 -0.160476136386 1.08321778717 -1.53406979994 
-1.08320293771 8.73845013163 0.114382793849 1.55650085542 -0.646598040441 -0.220482416399 0.57188902573 0.335118426768 0.875252599269 -1.74462390146 
-2.18816645622 9.88681111138 2.20354793148 2.0660530132 0.690715837953 -1.91925047292 2.31410396984 1.14088982781 -0.247560686974 -1.19815507705 
-1.54647156011 8.02681361749 0.319249255673 0.523240266455 0.590176640644 -2.86934456209 2.50401841506 2.57490973659 0.68106855593 -1.58025296204 
-0.802517460202 8.25527832298 0.491175282397 -0.106618838792 -0.295946369058 -3.5805067127 2.82168924161 3.90718613585 0.245428837557 -1.30326897229 
0.729009804336 8.77369136261 2.46359887697 0.27369642168 -0.263878539977 -4.20916896273 1.03002857083 3.66693136661 -0.0620217573406 -0.615708804742 
2.18701795857 8.79722704444 3.37933536798 -0.213466243117 -0.153671278609 -3.15016732064 0.899266958407 3.5833466257 -0.158043832192 0.111258630408 
3.09936675155 5.88938825935 1.18584453529 -1.77583644477 1.52709296593 -3.251265046 -0.50035214231 3.96075699558 0.411343365968 -0.327985047703 
3.67749832747 4.49833314807 0.531272315279 -1.60384108907 1.61599842425 -3.47070317678 -1.82343270391 3.84509902515 0.108141158472 -0.812363149249 
4.23202276531 2.61069456431 -0.238960037966 -3.0622036243 1.90099286572 -3.35284301032 -1.70676965125 3.01663699064 0.494162304749 -1.06370533843 
5.58889861361 0.823434066593 -0.192671306086 -3.44343470181 1.94520663612 -3.35661999773 -0.783644719512 0.699900681457 1.24958108115 -1.81828472784 
7.72646616259 -0.501661150275 0.531308327934 -2.74292194744 1.86370406019 -3.63998523461 -2.19388285128 0.188309144088 2.49335861833 -0.726460230353 
7.90152866298 -2.18288957689 0.66720878167 -0.956855876708 1.23022582902 -4.58965929714 -1.32926010532 0.336138582096 1.63359976429 -0.842398102836 
8.18727390431 -2.86266896017 0.586972271403 -0.9243008492 1.05875877617 -4.20202777145 -1.17362828854 0.167792802769 1.72471746861 -0.995326322057 
9.40877085197 -5.02931069648 0.0139398831594 0.607629635227 0.507264201681 -3.51483095312 -1.37740480262 0.379916098718 1.11479789589 -1.6270558614 
10.0027946976 -6.7417941161 -1.35555197107 0.548378749768 -1.03526721892 -2.66971409676 0.0464011109483 -0.690553582468 1.00666660867 -2.19477908503 
10.1987233133 -7.44299615753 -1.10551075829 1.75372134749 -1.32016259292 -1.49546713664 0.519128796453 -0.0737841920057 0.434773145956 -2.66201422892 
10.6689798533 -8.17684581728 -1.04034914332 2.42509700512 -1.65059226703 -1.30377628605 1.93590778842 -0.277477145431 0.420804890093 -2.23979830836 
11.2863556 -7.41011676347 -0.981979750219 2.98679838535 -1.75930794344 -0.819718660486 1.1994029634 0.20440116796 0.152410150673 -1.45367501186 
11.127187257 -7.38281380431 -1.12516437243 3.30237571838 -2.12692697231 -1.47508856261 0.975937065974 0.61926282143 0.404260737688 -1.42279503407 
10.9428505323 -7.29272645723 -1.20848037007 2.78994813785 -1.8071495594 -1.51620188462 1.09380709459 0.543826971575 0.284768738025 -1.06142962743 
11.0747731722 -7.19472374267 -1.50891335038 2.08067550148 -1.82008731744 -0.8623183628 0.877472570053 0.333828433869 0.436507222061 -0.907457306387 
11.8907796374 -7.87826808947 -1.37450459344 2.67633656286 -2.22188353258 -0.119122137939 2.43687288826 0.895637623414 0.829131553378 -0.441469895964 
11.2539673693 -7.37113227393 -1.90394303268 2.61644210495 -1.89664413813 -0.358394699665 1.90812189531 0.809085033453 1.06275517522 -0.680011538848 
10.4938548315 -6.91296793887 -2.05893203016 1.61397321704 -1.98990992057 -0.886658422947 0.587883989128 0.681511991867 0.751852336252 -1.23848051426 
11.0644968573 -7.4231828277 -1.66312962648 1.91900714482 -1.8916667285 -0.129830785105 2.36029324256 0.518462148709 0.966627614919 -0.665903419491 
10.7955221793 -7.03405339337 -1.54636503057 1.73005593406 -1.60474203573 -0.444456873215 3.18894888625 0.0523268938501 1.70114874602 -0.979932445561 
11.000249477 -7.15332251997 -1.22312551036 1.45965019059 -1.98903934645 -0.883881948287 3.3267492606 -0.269699013144 1.15470176818 -1.22309473262 
10.4562206358 -6.44218356026 -0.962295044039 0.77082131798 -1.79634405449 -1.66376203573 2.88719666618 -0.737792573273 0.772897875577 -1.03814991334 
10.3544878607 -5.32675085513 -0.499556552881 -0.451781448913 -1.50534820459 -1.43661578121 1.29668818921 -0.961271533499 0.431514842849 -1.07780303262 
9.76904736631 -4.8281434377 0.0704682525562 -1.26393405442 -0.964916935983 -1.70532743316 1.72517811211 -1.50054227102 0.902111863802 -0.857464831008 
8.80792973526 -2.96324443676 -0.158775097929 -3.0573493325 -0.317588242015 -1.73591572958 1.12487787652 -2.41730372412 0.90016867389 -0.711601386546 
8.73856660271 -3.14088006215 -0.779302951244 -3.65158554549 -0.647878701472 -1.4103070474 2.27770780281 -2.36412832092 1.30538464084 -1.27260972585 
