10.3138158589 9.73853064559 -2.89045000121 -3.85657900829 -12.6614737041 -2.94096830682 1.65311168427 -3.26690118929 -0.0620234889 -4.90340164244 
13.6717061205 6.46518878172 -1.20368457103 -2.62928004276 -13.5637959967 -1.83040713254 -1.42977272615 -7.76713453967 3.40322784574 -7.07660798404 
11.6579655679 1.6651506853 -3.61305303633 4.12214554013 -11.2284798147 -1.8292900987 0.808965875289 -6.8636160234 3.08484016853 -7.98115160612 
8.89401547584 1.0954199621 -3.99608398107 10.5136950022 -14.289106266 -0.389073290925 -2.15478417828 -6.94691393397 2.35355147487 -6.34844284207 
10.7996737542 0.896226727939 -6.80097415133 10.2589546802 -12.0940241884 0.50373902894 -1.39552591167 -4.90609660322 0.589714553647 -9.11878478173 
7.76450491181 -2.23434920243 -8.34183847372 6.7060113839 -11.2325141805 0.26676099266 -3.32086725526 -2.2477131739 1.59100888031 -10.0158320268 
8.5534885399 -6.62300262847 -9.01613743987 4.10853158245 -8.1029951592 -0.528194961024 -5.25862742305 0.722459705222 2.09575074441 -8.24623459943 
4.27466262936 -8.24206041269 -7.62473242699 -0.149343673766 -6.7830140043 -5.15228079619 -5.98592666869 3.29933894481 3.13381353992 -6.08453437089 
-1.03248427781 -7.91377432729 -9.48401375498 -2.40285230322 -4.28756641657 -1.28191262847 -0.686215597474 4.95024425217 3.58351132134 -3.12909405651 
-3.86880951001 -6.20711653259 -12.5684079439 -8.37667674069 -5.65976256645 -0.798316786746 -3.65215797973 7.47818460005 2.07628421569 1.14778940444 
-0.747482601341 -11.8793391489 -8.41777140714 0.590592025895 -4.17440534363 -3.10646424262 -0.231385203496 7.82261551328 -1.42227354826 2.02814299594 
2.39942178737 -10.9946624153 -8.8342274164 -1.94907481399 -1.30626129019 -7.37172477326 -0.670503900545 6.37114749891 0.885735379846 -0.325134440242 
2.35809877203 -11.2011896165 -7.58054894188 -5.39199979574 -1.88272307969 -7.12172497575 -5.01816387064 6.90277284927 2.92665074632 3.53376902622 
1.57398979602 -11.5199680662 -3.61805665996 -9.91188369257 -4.22250520529 -5.59902535001 -4.28728438337 3.69540872101 -4.17755535159 -0.858923183294 
-2.79335610441 -13.6209239856 -2.78101675146 -3.80017598211 -2.60777769231 -1.98311794254 -0.684972781106 1.32412378047 0.833864742253 0.632478112185 
-6.00782992039 -14.7603352633 -1.83797445741 -2.58768665137 -3.56325399297 -1.56227543017 0.223205738159 -5.84240184387 -1.71765430758 0.513036263146 
-0.856066386811 -16.5996347232 3.07224329433 -5.36432802936 -3.48121640627 -2.13793479835 -3.89668504319 -10.5158239013 -1.95397885717 -0.783467179789 
-7.12564700953 -12.9676798085 2.91729680326 -7.30983503791 -5.40248007858 -0.502819120481 -6.99066891501 -10.3048713115 0.980016111632 2.51942403106 
-11.8855058971 -9.74245176311 1.1717985876 -7.11412145066 -3.09054865664 -0.628937117762 -6.34256311332 -6.85197267829 3.79315837481 6.06426390956 
-13.0032898814 -12.0338255358 4.88506196118 -5.13731048478 -5.3282329525 0.182812341993 -3.33983015128 -8.62044320837 1.89337480594 7.04497393152 
-14.87121697 -12.8894190894 5.86016216164 -2.5665678177 -8.02847670903 -0.667730318967 -2.40714960202 -6.30072221487 0.947069586792 7.91446069376 
-14.2417959169 -10.6730607093 2.63892601319 -1.61603683538 -8.48437500126 0.273456775819 -2.06832175871 -4.580374217 2.25885132773 6.55969248505 
-14.3269937274 -7.29257419439 1.59941426679 -0.312571639265 -7.26535386652 3.75627256605 -0.423491310865 0.116404845036 1.12077200445 3.90917177982 
-18.0242878684 -4.2316670387 2.75556544695 -2.5880042566 -7.06014641451 3.57234695587 0.510627641826 -0.355967767474 1.08111581417 4.56615877076 
-16.8187377679 -3.1947749275 3.83278737287 -4.03864717952 -6.31756396286 4.47664131224 -3.05272422932 1.09763822058 3.93281200008 2.06986043744 
-20.7249862659 2.85361337697 2.09041139208 -1.82300830423 -6.61358123238 5.51726439213 -0.573343179138 1.41051760538 6.16206300525 2.66118001241 
-24.589285638 4.24296529015 2.18521154149 1.1723168969 -4.18997992724 4.91237442251 -1.11976062961 5.79949185705 0.210350286376 2.66508466062 
-26.4149026023 8.02759866656 -1.61063355201 1.63305774025 -3.24682432115 4.31273969458 1.64565440631 3.44059963395 1.44156719556 2.36242328847 
-22.8937805538 5.26141300371 -2.27153501589 -0.493113677407 0.011820711171 3.02371413757 4.63685300095 0.999230854442 2.72462965191 0.0347688424877 
-24.0303391009 9.35368835757 -6.41538850897 -2.8758548823 2.68236749884 2.4113371397 3.7922605876 1.20672477139 0.377638556267 -5.01603874973 
-26.8954996026 12.8533288208 -5.82201817526 -1.79887448141 0.79149317287 1.14589462679 4.93071153589 3.13049345694 1.71240835566 -1.80591040601 
-26.481355594 17.0027407942 -7.42559635451 0.291659836064 0.463716714664 0.186059474811 0.24382045102 -4.17243691232 0.692106508394 -4.71882371728 
-23.3323487781 16.8035963457 -6.7504717934 3.58429329148 3.67160247046 -2.8758372569 -4.94292503727 -11.2361416254 1.00856752834 -5.93766304388 
-23.5770219334 19.5382818534 -6.21818738333 1.59218669518 5.94732161848 0.450949963312 -1.30687309455 -14.5529791634 3.37272474859 -6.89533996368 
-24.1255704745 16.6696916695 -6.57513321296 3.07890753297 3.49351310479 -0.39464340329 1.62046235149 -12.9971584594 4.03676434657 -4.86536808237 
-25.05598764 13.9855705054 -6.64981953661 1.015825415 0.746036852022 -2.67783956914 4.74267664012 -13.0602073198 4.52663517465 -4.99919042377 
-22.5295203102 12.5501435504 -6.75580018816 0.617285257319 0.972152660789 -2.84047841264 3.42147418144 -13.6302792597 1.23790477711 -6.31190733015 
-21.7126858309 12.0742891732 -6.17251657706 0.805847167501 1.04523990633 -3.07492490552 3.85522498209 -8.91160927868 -0.129445172586 -2.8893442252 
-20.077150361 12.8190986004 -1.36622954809 -5.65167486295 5.07865213829 -5.74186962159 -0.436295058627 3.69999505096 4.16042922021 -1.47626565363 
-24.2911869515 14.4079435173 -8.02721663354 -0.85418435973 2.5898748985 -3.58643850305 6.08704832932 -0.604718458106 4.70474053759 -0.402977225494 
-24.1333607373 12.9912545743 -6.26968158559 -2.70248938265 2.29142124175 -4.12739804815 3.75207478852 -3.01821039545 3.19604663416 -2.84544912095 
-24.746089112 10.3096731254 -2.44235000412 2.01864148826 0.354710409612 -4.34591626024 -0.0511091960218 -4.01379000437 -0.594011603425 2.20881434182 
-21.6578158997 8.26758589902 -3.77850727529 1.19356046731 5.45620633438 -6.49166356363 -0.550319540255 -11.4445560486 1.66272827596 0.764677668044 
-21.7255996338 13.9667000413 -4.76080496953 12.6075856543 3.12183305939 -3.9042725863 -0.24967137588 -6.29760321959 2.92207227267 -1.12949757177 
-20.5500093643 10.4767676075 -2.60694910389 9.11552057701 6.9571226301 -5.27608958195 0.911108349176 -4.38810389016 3.1632230399 0.0758034218027 
-20.9635488295 8.68274626979 -2.07774440194 9.44351577269 3.5858230242 -5.57761771786 3.18812699865 -2.90882891825 6.69613487776 1.88048304161 
-16.8045967756 11.8663240575 -0.890653365021 7.15200882262 3.2680363516 -6.58208382559 6.86271946218 -2.99568783804 13.0802255365 -3.94045774046 
-14.7422581821 11.0544640764 1.48625999268 6.24375672237 1.2649445338 0.589661514785 4.35437262698 3.67027109383 11.8063648491 -5.2070723388 
-15.1133514949 8.25908702683 5.44025750892 0.307805671238 -2.4610528488 1.98826973278 3.35472129857 7.04784715094 13.9526994287 -4.34829893618 
-16.2628803648 5.2844498452 10.8121724492 6.00631026174 -4.34598680323 2.06882603511 3.25049861014 7.74860161407 6.07569726473 -2.1882006872 
-11.0578494846 3.76243605915 12.559595933 6.46043713217 -6.33525193212 1.85807512786 -0.601782664299 3.692753568 4.49653399743 -6.53144816485 
-14.3032559334 2.74381321472 11.0121721581 6.16836069059 -7.82619972872 2.78738139287 -2.7371149064 1.28223535933 2.1821815667 -2.86390050054 
-15.6954967902 0.817228185894 10.2396969576 5.26252706204 -6.70963900167 3.68342017996 -1.12297469277 0.428261064037 4.4217456807 -0.794891384205 
-18.7702032901 1.22513946567 9.06968818869 4.24406330779 -7.68197309951 5.44800847056 2.44930860225 4.28475339758 5.56489026809 0.843043757429 
-17.8974900421 -1.17543850521 6.30608495051 2.84929075728 -6.39377745497 5.20742350356 5.62399748747 3.2553847644 5.08400169433 -0.891517115206 
-17.6091830514 -2.50794760297 5.70196203955 5.68507365686 -6.17254222969 6.97160682593 5.86541755621 6.29074671043 4.66544812525 4.05234446937 
-15.7647733648 -4.00134562553 4.35159852362 5.59316088263 -4.6792385619 8.15248729866 5.42552293909 8.32805088738 4.8379769164 4.32544173175 
-14.8503824264 -2.24388444265 3.05540636763 3.4084732182 -4.189067068 6.92468600367 2.46871450741 10.2008372804 2.86601089382 3.88079377996 
-13.9431307882 -7.16951134099 4.85150761792 1.28377290903 -1.71739278619 2.56397005648 4.12477246005 9.73399975404 3.20348253761 6.69099669376 
-9.35820246062 -3.47250509747 2.33253208983 -1.33116173373 -1.37868223474 2.60494146051 4.18570142505 8.85699834077 5.63293844742 3.96596466385 
-7.74597337718 -6.96099097214 0.436918132656 -2.59312329318 2.40211961782 0.482330055204 7.17732020862 6.85433092829 6.02815966553 3.81315868927 
-8.1142554682 -5.92574462835 -4.17805981144 -8.05384130804 -0.453539295768 -1.50362520602 1.07212948704 9.30200648299 4.77736402556 3.46948480738 
-6.84085112477 -7.63388291613 1.68950863382 -5.37496875549 1.98751449471 -5.45086563567 2.69448989287 5.0466949439 10.9481001953 4.09385704766 
-5.68447991424 -6.86273358637 1.03861055241 -5.7723922846 0.845548014862 -5.14785578026 2.76705076837 0.624250732469 11.1654147675 1.54725283034 
-1.80461182116 -9.83391539161 0.548770755957 -5.5176880088 0.553636358602 -6.94916845738 3.2562414925 -3.10915233231 8.93476088353 0.764565225544 
-0.249007554666 -13.3131619461 -0.727857297404 -5.6938396717 1.95993764038 -7.40563870184 5.54553274512 0.540016361072 4.52449166961 3.25785969869 
1.36237121145 -11.2959292682 -0.614817204937 -5.58932451986 2.95455681987 -6.13724449663 6.68720044348 2.12539907968 2.88880860774 1.75245343985 
5.37967620064 -12.5307244189 -2.98635730796 -1.9564433322 6.03458328054 -5.62507680456 8.10270270427 1.8630353016 -0.98915585714 0.810415157036 
13.729335688 -18.740832644 -2.21085614491 -4.55755584302 6.37047710052 -6.39008742422 7.07330094016 2.12582485686 -3.67517608588 0.752302825151 
16.8592942668 -17.6709451511 -1.93157278084 -5.72802723281 9.29633991046 -4.77289762539 8.4462672497 3.25990041084 -1.35683535334 2.62130368383 
21.6327684649 -13.973379732 -2.14027667542 -5.61416403715 9.15465614297 -3.69374911486 1.18789450659 5.0098194501 3.3189847214 1.09386580813 
24.7884404874 -15.8283419408 -0.314743224636 -2.60020638058 7.77088064329 -5.23127386003 0.608866438735 5.78433486826 0.459949393708 0.895673593617 
23.9035323906 -9.99054402338 -2.57843618512 -0.164883399669 7.08533661623 -3.02691699438 0.729277029098 5.19844113662 3.44260400168 -0.0859060629081 
21.8055639467 -5.23559346517 -3.55413913022 0.979339325742 5.38771637499 -3.07460261476 1.39421243305 3.20067850357 1.04318838078 -2.020699329 
22.4314988057 -6.8072005283 -1.67405173091 9.63308008758 3.33381493688 -5.05668102999 -1.0590456625 0.907321674678 0.995046949717 0.14215277538 
27.4503880789 -5.89083767831 2.24785348679 9.8134450297 4.34294291355 -7.34460053348 -1.05664145021 2.23648818915 0.859893202289 1.61365726635 
35.4534267861 7.68366226777 7.15176874945 2.41179763988 5.07537983379 -8.4790827089 -1.78239717535 0.831706323612 6.2255589738 5.04041183081 
34.4920388288 4.93870811104 4.14945760082 -0.657698591044 7.25736397045 -2.28291870657 -3.76274413564 1.73454230821 6.35843667036 3.14538375617 
32.3112875114 8.42304113383 6.37869674254 -4.74393695403 1.51130051977 -7.97065566623 -3.62511487606 -1.02328108555 9.08979214221 1.77514223279 
37.1871409908 6.08571132398 8.15335620784 -6.49486641832 1.98684083668 -9.26951409348 -6.24362398491 -2.09937019117 9.11651669906 3.60339131959 
36.1833697168 8.15833499091 12.0117473492 -6.90410312919 -0.0474156557238 -11.5223230829 -6.71389484541 -0.504003066128 7.78612446604 2.6479516094 
31.2963278536 9.10954079056 6.58312163253 -7.34908511065 -3.52142187611 -5.01777177261 -7.22333657062 -0.206440157708 7.30040148575 0.729016395892 
22.7588372806 9.99959526101 -6.83817116134 -19.686719858 -4.58539551719 0.128185920514 -8.63835450692 5.84341100892 3.16466881126 5.05656089066 
26.6445435268 7.84836302426 1.2048525864 -14.3377893347 -2.45745946579 -4.83873773809 1.70930695576 4.86062526212 -1.2379909744 3.94072577556 
28.3964089483 12.0128032652 3.87789194019 -21.1211518214 -0.730513092582 -5.312612146 -5.75552245022 4.29584292044 6.88902447508 4.74005787809 
17.7125781313 12.3333478058 1.4074350466 -21.7877412948 -2.29436331218 -2.40829755195 -5.12723441275 6.31325053382 7.04096319118 2.02854211173 
21.3863381977 12.2795544901 -0.786182880987 -23.8958995117 -0.0284448874254 -4.17036428234 -8.5629064131 6.80258757044 8.64330638282 3.05622450592 
28.1919633005 10.6390395628 7.03204494671 -20.8137285489 1.9267094865 -5.30907520389 -7.24784597145 2.43119911794 10.4387182347 2.18038043472 
31.0719637929 15.428621821 12.9853005768 -17.9718434333 1.04926986088 -6.84139085192 -2.41277680635 -0.68401543915 6.64954535293 5.64835096949 
21.9421832255 19.9881689993 9.6129741023 -14.5775198239 -0.187719777275 0.254346607663 -0.877169510397 4.57746393504 5.67751077597 4.32984581846 
17.3372207094 15.4399798976 2.54318695883 -15.3927684693 -3.21486709139 1.62384625465 2.95182635502 4.44079419224 -0.0667708297327 -0.12113005149 
12.4570717103 12.724696572 -2.08222387257 -10.5526200291 -9.39551030371 -0.560741286916 4.66589668762 3.7622221312 -3.75441739502 -4.47907902082 
0.129040194326 11.360977125 -2.23120794255 -10.7236823445 -8.23989116314 -5.33002794296 4.39426295383 0.417281505478 -3.03884904324 -5.53380261845 
4.14160766659 10.572168308 -4.53193040688 -6.74448975644 -5.04772712784 -1.29475118514 3.34089027664 1.28431862229 -8.06100510977 0.18820948971 
12.6116744691 14.4862771253 -4.3091325447 -2.4484094379 -5.95019661991 -2.8580388889 5.85739698383 -1.55166180364 -8.17385114543 1.77800047041 
17.1494874397 12.3559822162 -5.57904956717 -5.23675306689 -10.4877137708 -2.21392914238 2.34592444211 -0.689933485762 -3.96883756232 0.933765165403 
22.820753644 10.17114737 -5.12956528353 -3.37299965407 -9.77673548546 -2.73281883514 -0.934193549788 -6.98694514904 2.95692316645 -3.35321292184 
19.2897867667 9.62247196481 -8.08552704004 0.458831459568 -12.2336198632 -2.64300055597 -2.20084538559 -5.97635401075 7.74202898757 -5.39773090625 
17.5142277779 4.52036910784 -7.72235638601 6.66849965582 -9.48240675934 -1.4258707052 -0.160862979205 -2.63093746363 7.68180783293 -6.0206957711 
10.1086795206 1.78699313 -12.1121967268 11.3822366828 -10.6574789417 -0.437641484724 -2.88529611208 1.78487363309 8.53537199587 -4.97988104659 
5.7540059344 -4.61507380629 -11.4602926176 9.10498073699 -8.27740483381 -0.516014430341 -1.64057227794 6.66158312597 5.31755737231 -4.09238048839 
5.42966182417 -9.86625093403 -10.5665515414 10.9679432221 -9.46169874328 -2.1762029556 -9.26892961377 7.65119080576 0.726059757679 -4.53027201181 
2.02419928345 -12.9813442115 -10.1070139737 4.834554394 -5.74951273186 -3.44620370698 -3.89035101969 8.07218697279 -1.69452845933 -3.20046279069 
-3.25010139875 -12.8938007372 -8.61522833708 6.97105633446 -7.17942919974 -2.78075494445 -0.122419703541 5.00612272098 -2.67342549682 -1.37015021132 
-1.70650117436 -12.8495712564 -9.72092398905 3.22134374474 -8.72942951965 -4.20479992295 -0.573463081696 4.23831523021 -0.419164343179 -2.4669253407 
-1.43144759298 -12.4854431777 -10.8283354984 0.72690282735 -5.63135958937 -4.57675552394 1.68685392897 5.01514100492 -1.14762969869 -3.0468823271 
-1.86002679706 -3.57555331643 -9.08014670268 -6.31211251255 -9.44457946001 -5.11340634814 1.47273627851 5.4724217932 -4.10788868145 -1.46295677743 
1.06336668384 -8.35285226817 -7.12809590944 -5.72710885767 -5.36420560078 -6.68907592204 -0.826914831619 2.39879542235 1.38960940241 2.6405394892 
-4.89960123913 -8.66667348642 -6.27127694212 -2.20536364821 -6.35679750626 -6.80532681824 -0.611116359454 -1.11148930958 2.03248201317 4.66657549144 
-4.50034513639 -12.7500452468 -3.35065576421 -7.08426172319 -7.12321496268 -6.31861747779 -4.3877691236 -4.16544866276 1.64178803577 3.46949734606 
-10.646791811 -10.6574680046 -4.13221776768 -5.51240817302 -4.42432902719 -2.99414165281 -0.100558317834 -3.77930301451 2.16519598555 5.62270804707 
-8.66072608822 -12.8772755436 -2.03771278309 -0.941890448978 -5.51295634935 -1.39787294624 0.846111617739 -7.95533449718 5.61017106387 6.04878420468 
-12.618212444 -12.9680619103 0.168382344776 -4.08389939588 -6.49237816007 -2.50097671164 -1.16102027125 -8.02921880009 4.30335993967 6.59407544723 
-13.6758554418 -12.7669400552 4.19715318697 -2.12178204629 -6.66634562792 -2.95955549267 0.574578201175 -4.30910460757 3.32017204248 9.69222319238 
-13.7950495536 -12.429956496 6.53539784952 -1.33806600464 -8.47673289109 -1.33882112087 -0.91677648429 -2.92486910759 3.74571306326 9.79916734555 
-11.0129482552 -13.5363922436 6.32189546404 0.540457549008 -9.84894590289 1.69298987924 -2.7352933457 -4.3549932116 -0.240984766546 7.44122909806 
-15.7379787952 -10.6573973782 5.00373904464 -4.87341887608 -8.97117794759 2.06624979375 -3.89123358149 -4.27829883777 0.305904672265 8.55736116275 
-13.9321131072 -10.0763589255 7.50701703487 -4.17392689216 -8.16412974395 2.81105500593 -6.33385951214 -4.47283567195 -3.59950041001 3.73069069579 
-12.8574570428 -8.97409752263 5.79484052439 -6.66057585468 -4.98523873713 4.21096555952 -8.63188267917 -5.1459175429 -1.09816632355 4.44761083844 
-17.0572190858 -4.25764406984 4.26634697085 -5.83615718941 -2.35059627017 6.26043988181 -9.4747314164 -2.12076069199 -2.39254790549 4.02897493843 
-20.0840831284 2.5219640287 1.44760526549 -5.21259912657 0.702535735235 3.12572077357 -15.2050431564 -6.43034024269 0.260187140827 1.88007350885 
-19.878297825 4.81225585595 1.70295397639 -6.01630348609 3.88483531732 2.18987931151 -14.2809744792 -1.77158724201 4.12729849978 -0.61890221913 
-18.0937254255 5.18156345977 -1.33099775674 -7.30451883497 7.34200289444 -1.48740756124 -14.6569279603 -5.70398119615 7.31382270078 -2.95439596402 
-18.2849854338 7.64533488633 -3.49543666036 -4.4488869733 5.85018193914 -4.10284937328 -8.45494738462 -6.88613495232 7.25291848799 -4.36390540741 
-18.6252261012 5.44211781601 0.328285261396 -2.13790801992 9.61682248572 -4.15034404343 -9.8460405509 -7.94685442632 3.62367684381 -2.91184887635 
-15.1895132395 1.6164739007 1.37850367294 -2.53540163303 7.44112701904 -6.02446647308 -8.89970719206 -5.73105309199 3.53144382368 -1.95106845247 
-21.0381454572 5.81562205705 -3.26025325772 1.08051008635 4.4120324241 -7.50204348123 -10.9300366594 -1.84261077111 -1.35418591435 4.13796610727 
-23.6706884945 8.09800719385 -3.03351345996 1.49395695668 1.67294421891 -5.52273859393 -8.32986982038 -0.517893027733 -4.4589083142 3.5849484374 
-26.3905407094 9.22925260525 -4.41490722361 5.07419017026 -4.54738697457 -2.65971271101 -6.10880588219 -8.09016324434 -6.19442975372 4.97299772217 
-27.1369158769 10.2463494211 -2.95847982971 6.90341034165 -1.89027768338 -3.8968311547 -5.83013446337 1.44483247945 -6.89130050243 12.310074937 
-27.4691651254 10.1270385201 -6.18652169099 4.4306413887 4.68703833434 -0.993185808991 -1.58637086428 4.74222256337 -6.98937812786 11.1590837613 
-29.3131714668 13.4359538144 -7.96998176886 -0.623173834574 6.13359093143 -1.09582547601 5.16702325285 2.48508251091 -4.63465547533 6.43297268676 
-28.7036388147 13.4769554154 -4.16925742188 3.80418363044 7.41367819122 -1.34438128896 1.66714148466 3.64828845189 -6.95711798744 3.84061665219 
-29.1413787577 12.5272327639 -7.5147868714 4.91578485593 7.54010343213 -0.18007594564 2.61658380039 2.0871008462 -5.73227020041 5.63820850786 
-30.5240631627 13.2579998836 -8.57551946086 2.1478909815 4.87743779507 -2.84164359493 3.68274804569 0.0869348772577 -1.23975943395 3.75680003036 
-26.0841294376 11.6166854806 -6.13715661678 -2.38921508913 4.91255034978 -2.31091016894 -2.01194941341 5.03854856206 2.6988632792 2.45433005602 
-23.2200258695 7.90124137941 -2.65695103635 -1.66317140826 5.65110229199 -2.54439283569 0.0983830014912 5.02423348596 1.93813774349 -1.57223608928 
-22.3949970113 7.97482549047 -1.98061516689 -1.91478147519 2.64867756977 -2.07012434942 2.05898759949 5.17675390685 5.46619048026 -0.856710821869 
-21.2545720924 4.98925654465 2.06160697246 -0.580390632278 0.752222095537 -0.356225625506 1.84630634058 6.97179364194 7.735444282 1.20627648651 
-16.4899298507 4.59019759648 4.27934099973 2.49063637411 0.176259448947 -1.02777349688 1.63949456111 2.14325953886 9.92614649677 -2.4426467849 
-15.5601578339 4.46621176261 4.14092211515 2.83780678248 0.812693244567 -2.40649468651 1.22212925013 0.277147319182 8.42871254827 -5.15996493325 
-16.4820622929 4.79510352019 8.67660943134 6.90110568877 0.364059841067 -0.21310356721 1.93281631388 5.99308974867 7.51594692147 -3.27840943824 
-21.8923064746 7.49378281425 5.94899639221 1.00158708524 -1.98530693534 4.7539752449 6.47061058939 8.5814553622 3.95587994544 -2.24838459905 
-21.083615795 -0.920921661031 11.0861676463 2.33548518867 -0.278123749793 3.10192824303 0.367260855084 6.54292247877 -0.394187930037 2.90708742457 
-21.2356330402 4.29611030338 8.01402532092 1.21937827436 -0.768943712593 5.52634247228 6.08941249635 7.49494217782 4.1163165405 -1.75437347732 
-20.3541329552 4.35294680003 8.59059014776 1.92681324266 -3.60078583989 5.68914049368 5.16774447213 7.02662375605 5.80018023086 -1.35614647532 
-21.1142869639 1.72646763389 5.40166110749 -1.24217503446 -5.10838580918 6.67080397737 9.19812662582 6.30617769507 5.29703337939 0.164833283446 
-17.0705594809 -3.75160284507 6.97657181824 -3.82468117567 -4.53407985486 2.76445174329 6.52543718547 1.81766998317 4.71726715405 0.908438732566 
-16.6658390618 -3.85860065642 5.10982770443 -0.733466060683 -4.58005645426 4.08700652902 6.21390855954 6.42215894611 4.50470743016 1.98087839893 
-10.9379748319 -7.77632546892 9.96860425888 0.669636207837 -4.03437384683 0.563901886474 1.77871136097 0.181460795588 3.20422205867 -1.02201624536 
-9.58330597467 -8.15515604989 9.626123469 3.98107761075 -1.86375532405 1.33542304505 1.29634728349 0.134131645463 4.30341145886 4.35041823027 
-0.10739755171 -9.24515215912 10.8711126488 0.290192023933 -0.273414335828 -0.524228462224 -0.600858972711 -0.444480952315 4.97478604825 0.934963881128 
0.275122616745 -9.88842715831 10.7033371519 1.64238822625 1.483491863 -1.03522167517 3.49588432554 -3.75926892163 1.27960610839 0.24156950922 
-1.31498713611 -7.1589981896 8.2208193129 1.88493854557 1.84618341261 2.86153060647 8.71956126025 -2.83342510284 1.44354998895 -1.4408201862 
-1.57026063056 -5.25251800386 5.33184152497 -0.656627505871 4.1273901884 2.9791654717 8.75815909619 -3.17940345354 1.43728944438 -0.614078410682 
-3.6934122817 -5.31333929421 -2.78317147828 -9.50570572314 4.413247715 2.65825369199 8.41114556937 1.18204629767 -3.91297801003 3.22747763541 
-0.276801631411 -3.93326812475 3.26784362063 -10.1523659887 10.2016144479 0.273060254839 5.93981423727 -0.265429937152 -1.41673106118 -1.10480958169 
1.19952032484 -3.54735547693 0.839106555523 -12.481077253 9.89722086129 3.77043164721 4.44142929873 -1.32843343362 -2.45517853107 -0.97694216739 
4.02946572342 -10.4489200176 -0.626212434001 -15.9994671198 6.56527291483 1.25100419574 4.02055746735 -3.22963871289 -8.07225089371 -3.05097390336 
-1.41007877848 -8.93348065008 -6.41856582808 -12.0328178954 3.3674978778 0.725885947288 4.37456765221 0.528697056603 -7.96097071269 -0.927272960756 
1.86777937976 -14.1275124723 -4.65706081669 -7.78978326096 5.22961706918 -1.90130381545 6.24190017667 0.3859970021 -3.14022242845 0.0989045204336 
8.57985957957 -17.2471443034 -3.87234865969 -1.10754028791 2.31894105639 -5.04154692231 2.67624963658 -2.30572989079 -7.09904914684 0.518434242894 
19.8105526241 -22.1889605287 -0.698232232434 -0.0161354789009 8.55106942514 -4.78588841441 3.8936901502 -4.22817023728 -11.5497486885 0.450469248614 
21.4239034291 -17.9952735004 -2.01293521368 5.53114792235 6.77953203117 -2.4450671242 6.40763741577 -1.11107738916 -9.04842927554 -0.560879933676 
27.5020359176 -16.1065144871 -3.26415136686 4.8135296342 7.24350103651 -0.0675607924648 2.54425942444 0.0757293276969 -4.88334596641 -1.29362554978 
26.3531180114 -15.8392948052 -4.94027592334 2.58484049272 8.12660187519 1.06760722261 3.08881780226 -0.0130071133936 -2.20102383299 -2.21673177427 
32.8483921922 -4.25898242778 5.29358233676 4.27007149528 7.76172912383 1.78859326487 1.06938151447 3.2676202632 -2.1186805015 -1.98081344538 
27.8532100703 -0.874471620099 2.88056303395 5.85761165918 1.59761790145 1.44598149373 -4.71396681431 4.97563632736 3.33904709845 -3.68758817749 
29.9996907379 -2.50868998595 5.36058574347 3.18154499022 6.30253102734 -0.23001872792 -2.89694836113 1.35664883853 3.15801459252 -5.35550744735 
30.7445774823 2.83932077022 7.75430704592 2.91450849739 6.15707951293 -4.20344562833 -1.26492371158 2.57059006971 3.14439158243 -1.1479600371 
40.4699580427 9.92602937294 10.2270669504 11.027491949 7.51362674315 -8.33930372192 0.430545910209 -0.476635974977 1.00957959298 3.25397545133 
39.075137425 11.6634225535 8.25759457808 6.16696969591 6.52701526885 -4.16417146619 0.396065621025 -2.40932598033 1.023317143 3.39466407779 
39.0269464037 11.2114912089 7.21562358929 5.04287737609 3.18429656205 -2.46702637148 0.0270520997301 -1.61436451888 -1.96818234542 4.10252145421 
38.9573396097 9.30746195761 13.2211886213 6.08996004578 4.23036534874 -5.50058339043 -0.18189818287 -0.699865468046 -2.45299332832 5.1390935932 
42.0733466373 9.99894573376 10.4815867018 -0.532019830053 -0.110252797354 -7.99600599806 -4.11923421698 -2.26110646482 3.04633606448 3.92945263699 
42.0094492127 11.4345895406 13.2721714721 5.13247375735 -2.5292146194 -7.85960640876 1.14487900631 -1.34718209771 -1.74768782875 3.14310724467 
41.1350620041 20.2993724592 12.0636700266 9.45796983643 -3.09565992217 -4.0882788654 4.72747137901 -1.36758004388 0.183691707926 7.002698726 
35.4149708889 16.1220404028 7.2498758845 2.51459237598 -4.1273414973 1.11553722357 1.72742383103 -1.27410348807 1.64771343748 6.50131192831 
38.4089774291 12.556247763 2.51963094463 -6.12033490941 -1.98541105901 3.72615084112 -1.81867516876 1.9826441738 0.361802101751 7.46380638367 
19.1344513229 18.4838805285 -4.60389032976 -9.29667934829 -2.83367695173 9.96730779177 -3.09413146501 9.79806411263 0.248574172264 12.1850582077 
26.9152056995 15.010700749 -2.88017488526 -16.7393369856 -3.3612142753 5.68704555967 -6.57156315452 5.93817791839 1.53085861099 7.13318095739 
23.9311238117 22.232365048 -3.30873654255 -22.2577587551 -2.9768711293 8.80848498751 -10.009283758 10.7393702169 5.60046672176 8.72234466143 
26.3451804856 20.9669689332 3.52498196641 -22.0460105909 0.319089878438 -1.63169145541 -10.0219394487 6.6136163517 10.5498512304 6.44946995029 
8.32077501346 16.7387676697 -5.46931927603 -27.3992010355 -1.28516480074 -2.9376278504 -7.84934864917 9.30000522804 7.1267494356 0.595082936698 
6.88528776843 15.0564330841 -8.81823677092 -20.4750734374 -2.93664053204 -1.71531416259 -3.97732366453 4.14178260308 3.73730425143 -1.28961903338 
-2.54307366808 18.3289042443 -8.83051207557 -12.1771013294 -7.27598087217 -2.06073833447 3.87041862222 -0.858930161626 -2.41235297012 1.12808941488 
1.98036889513 17.0784863765 -5.84154116711 -12.2378418568 -6.51565097915 3.34843420447 -5.02992511721 3.62622219254 0.183978911387 3.71983870869 
11.0058441908 13.9866483713 -11.8336496896 -10.5020788504 -3.74026134183 11.357603173 -3.42698783259 2.80039727742 -2.59801904303 8.31956262002 
18.2497550783 6.87715003858 -13.3735516734 -1.9227592067 -0.588852218905 15.2325132095 -1.89642400309 -0.852257895206 -3.61978325434 8.42616075825 
23.2385923716 10.9838300599 -14.2672849433 13.4656577531 -1.17058658686 17.7255182695 -2.83368725968 -2.26554791833 -0.0409615841746 7.65292490752 
26.0563726448 5.46008367045 -15.3255859613 15.6347482758 -1.92224353611 12.1515755094 -3.30270454461 0.235579399173 4.42336854624 -0.394918679686 
28.0104045814 -5.68720110549 -17.4922214355 10.4618594633 -5.2306752592 5.95716533539 -10.1483239338 4.44631564254 1.61674380435 -2.95598548393 
23.7006832092 -6.69846204473 -13.7909514738 1.76907256887 -3.12593444929 3.51633401159 -9.58318486519 1.40129195782 4.9129672398 -5.09987125553 
21.3170116988 -13.4215961259 -12.0335056868 2.90517374237 -2.20171341351 1.78147639735 -10.7112447685 2.09483922285 3.20099844037 -6.23556878614 
12.4165997948 -11.3854717337 -15.8740189898 3.9430147232 -0.265046643492 0.462820947478 -4.77072201663 4.67604968696 3.27949949335 -7.88587866658 
8.88661901255 -15.0662683624 -14.2375168865 5.76357626901 -1.74410440947 -3.33343285017 -0.0777369768039 3.34960277194 0.871096619463 -7.36041914938 
8.76924366356 -15.0640701474 -10.9185027046 4.40657420127 -0.396361812031 -2.42438914942 2.53446518582 3.37166353085 1.71240217712 -3.80357922395 
9.12233638651 -14.9832157616 -6.68422672432 3.76142720279 -0.129161503818 -3.87767574046 0.48017547231 0.515074914927 1.09910687235 -3.20025720112 
1.28025062078 -11.8717625499 -6.72994835913 1.21681910532 0.328662534085 -3.22362605121 -0.122393256264 2.78056633061 2.16845144178 -1.07903147635 
-9.13480043117 -9.52497803923 -7.1943699248 1.26624083494 -2.93700821425 0.465407282776 1.43854443452 1.51483218261 3.54246659373 2.98178341281 
-14.2201555277 -10.1557653596 -4.06250524601 6.27586576214 -7.27348029098 0.717778347708 2.17601814715 0.329986885755 2.30693993705 7.58722301283 
-12.9292232195 -12.2585004304 -1.9524446261 6.48945148707 -5.81752954903 2.10580830675 3.79145629486 -0.620032694509 0.587836387727 7.54769046644 
-13.922798619 -14.0333860433 0.611203007727 6.16340872455 -6.24712555993 -0.0773697347595 1.06283569324 -2.64000141431 -0.64923580143 10.4562235114 
-14.0682067601 -15.5400869869 3.7875647936 4.39033474744 -7.73506995966 0.719139800722 -1.93484859934 -6.8858876952 -0.608774908546 11.0283054399 
-10.3537769666 -16.3717009651 1.5204338647 -2.36951909964 -6.40051093086 -1.82861276802 -3.1762584803 -8.88491182852 1.13302266129 7.79908683 
-12.6627556673 -12.7783105492 3.28898428375 -0.791448658719 -7.18437554023 0.861893958791 -3.40786613895 -9.92513930904 2.47084194183 6.3885596268 
-13.0406837797 -9.49362347393 5.85294985106 -3.91619945162 -9.67085181683 0.657246540353 -3.30227620386 -7.95548496588 3.18938668973 6.68320114262 
-11.7335122922 -7.93118982964 5.90325022275 -4.96204172075 -9.50117951706 0.150378946902 -3.53593532004 -7.01320735883 1.95717101971 2.87108512894 
-15.5487192839 -7.30866997374 5.25313847485 -0.710858809241 -8.62234827558 0.0528878942064 -4.55816501509 -1.23177382675 -2.13817487647 3.20760936574 
-16.4578735362 -7.8404309528 6.03139242281 -0.453612560659 -8.69361087021 2.79088637753 -2.56311566987 1.09724630824 0.778243774009 5.07014142578 
-16.2883719482 -8.74617788947 6.89593020992 -3.57619670363 -5.89136685441 2.10965621188 -1.91063212368 0.793295832353 0.885672919269 3.88021615872 
-15.5094025254 -6.68803368319 6.18399513734 -2.85849303556 0.385309020097 4.63123449935 -3.1234469995 -0.269889053556 -0.547596764409 1.03786772111 
-14.0428397841 -3.91145156393 8.25505533051 -2.72459324638 6.50016174229 3.80810318937 -6.92946629995 -2.8171215505 -2.23605012864 -6.96629253307 
-18.5316500927 1.47117625228 -0.934710700383 -5.15309622173 6.73953278012 2.6102992447 -5.29599909526 -3.64046367798 -0.864296436374 -4.30170549281 
-23.5069038224 6.14320873776 -0.0248653937205 1.63226968898 6.78276048054 1.25282156121 -8.2242809834 1.18748251882 -4.40705838918 -5.22384292658 
-24.4691378461 14.4063895627 -3.64772676069 -0.949492088295 3.72643438255 1.78185784702 -5.51339524853 -1.18273210711 -3.00429028813 -4.63523639984 
-24.3456208543 14.2668478938 -4.40029708585 -1.00032165923 0.772630856082 -1.21165026109 1.90050158402 -1.746165008 0.774273302625 -3.10711312849 
-23.3770473104 15.642038381 -3.77076215982 -1.35745629599 -2.54908742249 -2.61318159936 1.21000415426 -6.70762114012 0.682789727362 -1.97624283296 
-23.4994220336 12.9420929068 -4.6077637512 0.354335451313 -1.62676377856 -5.40597870556 0.00516469232099 -13.1201528197 2.39526316463 -0.447042168015 
-25.2554234185 12.5166528124 -5.31368870934 2.91035868354 -1.57340936105 -3.8057204823 2.05193365615 -10.4586009887 1.94083574465 -2.70143432015 
-20.4964787421 10.2013520947 -2.36616331221 -0.352608890102 -0.313196669841 -3.70591993235 -0.639460719535 -8.31418550059 -0.899861542285 -3.14577845428 
-22.7056156496 7.79570221691 -1.64902225704 -0.840287390311 2.21458447672 -7.96451130185 -1.91483971801 -9.08662248635 -0.485483649311 0.574988189431 
-22.8331152762 8.05678559452 -3.65405162614 -2.7269943935 3.95625470893 -8.35987838931 2.18388417351 -3.94860133574 1.50299886314 0.751008378901 
-19.8885173691 7.59214156136 -4.06371021518 -1.50794306575 4.59611768683 -8.87432597737 3.42992327936 -6.95838220695 -0.110492763598 -2.1582141919 
-24.5462393718 8.72557513609 -7.57863000083 1.05091380964 5.5620661094 -7.54880170685 8.52402940712 -5.02763593394 -1.9950438278 -0.851231303015 
-26.3675718358 11.3087424168 -8.62993948531 2.94426610738 6.19863083726 -5.92092546998 7.95892676749 -6.9866986489 0.634165901197 -2.12683137221 
-24.6099457387 10.7974940798 -8.26285475421 1.8987750921 6.36359570512 -5.40848911294 5.26005627101 -7.74369911486 -1.46361002482 -1.84476911514 
-18.9906880603 9.50913424817 -5.62993129141 -0.00486371019849 10.4441051678 -6.32752393427 2.13366798875 -2.48100380625 8.55473275972 -1.70733805565 
-21.7382283109 13.5110479861 -6.00595644413 1.09833304453 7.55387964193 -6.11459637963 4.45485187417 -6.6914662313 5.55996757597 -5.26676101903 
-18.2434716642 13.170411805 -4.91379766206 -3.29649015416 3.87479046716 -1.83667335232 3.07042897779 -1.96666827121 9.63703563266 -5.53493276094 
-12.9529109258 11.9353082576 -1.99783306259 -1.97741141649 4.09446623316 -3.78513513369 5.15683095022 -0.826507535 13.5260723359 -7.21100961116 
-14.6287618394 12.896750068 -3.03422239499 -3.26606893082 6.63018751402 4.71499049739 3.96095918606 5.07595493668 11.3973276466 -1.77603354674 
-17.8471696638 11.018018672 -0.695731309023 -2.05903582706 5.08175045647 2.52300601246 3.38070937945 6.05608985535 7.42421061334 -1.98454337131 
-19.6191936604 8.08410077349 1.92571305755 1.7051510549 2.67170351909 7.58407801243 9.86489027977 7.37936345157 7.09602001249 -1.14264328989 
-20.2390440073 4.21844695443 6.87567767344 4.72225338353 -1.54871386405 6.64083280429 7.16576152729 9.62902024326 1.88278081919 0.331689809732 
-17.2214868008 -0.0469446470707 12.1741871994 6.17050542477 -3.41980197621 5.93880290101 1.35953317724 6.05322856383 0.858882767956 -3.0719434061 
-16.6395163287 0.249646500964 12.0249508827 2.38188296832 -4.00883388648 5.94048303811 2.79989070684 5.98106448054 3.64315823433 -2.37944506369 
-15.6952915038 -3.63773431273 13.4858210097 1.57191172605 -2.92779161458 4.65896469868 -1.49300089517 2.9425093419 -1.09083877701 -3.51689414101 
-17.117969158 -0.572087482109 13.0305046172 2.3346592032 -2.09212255042 3.6168492401 -3.75377943289 0.684329454169 -3.20039419458 -5.81773037139 
-14.3694188024 0.865151801637 8.38878213084 0.435216309286 -0.235520430952 4.86549807774 -4.35573843684 -4.75431678759 -1.05976425261 -7.77230959189 
-9.88062075522 -4.78325972471 8.17726783121 -2.13352408665 0.478773733969 2.33717960569 -4.77423080653 -7.35943912591 1.23653929879 -3.87584657918 
-11.1242184542 -5.86168887587 4.36080457543 -4.4400145342 0.847531214312 1.73474528059 -3.55967667078 -8.23174416477 4.50656713048 -0.234696638269 
-5.86285085275 -9.77039212439 6.35722099147 -8.09620684697 3.11793547649 -1.00147904633 -5.30390301071 -10.8266608825 5.32368156752 -1.27699097974 
-6.43495560486 -7.17298941387 5.96834725932 -4.93426858749 4.37613470283 3.06409643936 1.17829367597 -5.53195308249 4.46198044241 -2.28551745646 
-1.27871802924 -11.2387155697 6.93218321027 -5.53998271904 4.65348026231 0.730018927112 -0.789602480495 -7.87951084664 4.68465534786 -1.72420254227 
-3.55584005313 -10.1635720159 2.48880384279 -3.14489036684 7.8270785542 1.32092513225 3.28970246531 -0.859434801782 5.18290340435 -1.48001474488 
3.83397458082 -10.7843136676 2.5548393614 -5.58303108659 9.83406976373 2.70592889225 3.07369487649 -4.79104985626 2.98860220715 -4.57775742754 
1.73255727122 -7.27479517858 -0.961956220971 -9.25742200751 9.45282663356 4.83070535447 4.84691396544 -2.67330283465 -1.5503377497 -4.98524728235 
-1.53175026313 -6.35143631286 -2.16712467058 -8.91013419406 11.976074284 2.22404213857 6.56775716792 -4.59626020902 -0.966030086301 -2.42211088739 
2.88707252973 -9.11096366382 -1.02771923784 -6.80349688019 13.3165279091 2.98612863433 5.44108584432 -6.70292248669 -3.18451486464 -2.83191509193 
3.94702453062 -11.8288765824 -5.07697634724 -9.09364560616 11.7698386922 3.49587445573 7.41722582481 -7.31490126662 -8.29395503365 -1.55751352226 
1.30063048929 -12.681352338 -6.90229055557 -4.64594261286 7.99170118965 2.64278782783 3.96323241015 -2.40402962227 -5.34528541258 0.680473615955 
7.33406709762 -13.9380370235 -6.85381448621 -1.78886281883 11.9068575092 4.17973128499 4.93260408188 -0.542728236901 -4.391351513 0.886623700426 
4.80147940791 -14.7777967651 -10.420006184 -4.98841083391 12.3313474191 1.40968800311 4.91572610399 3.07072421856 -10.0615385089 5.70627562673 
10.4360725395 -13.4642819873 -9.09521820484 -0.805471621545 14.6212038389 1.17537625656 6.25298940338 2.9773062919 -9.61663709919 4.79401029302 
12.2765004433 -8.74093794927 -7.93450823717 -1.61866437343 13.4779230508 2.13325221458 8.24927040904 2.81694856075 -3.05825071255 3.00732599 
14.9220431164 2.20363979528 -8.80425754304 2.59851199739 9.6259964211 7.24611300701 10.4723471929 2.71672593871 1.70357334234 4.2006419335 
17.587142949 -1.86313940449 -10.2230014043 -4.42108152583 7.6853213227 4.10470362554 1.34955916947 6.20295140211 4.7496630657 4.97183115736 
20.1431051672 -5.44516222652 -1.34506200828 7.09030867193 8.57096888183 1.47646953558 4.47530923551 -1.82074357979 7.01789844723 0.312778150325 
20.6565545379 -1.89547004996 -2.76768667408 8.31085058142 5.31530684311 -1.45028499473 4.35671187728 1.31319880662 3.77669589956 2.21155697029 
24.2909500591 -2.85984443732 -0.191245283802 7.94077457723 3.8537568434 -4.63989818244 1.0202909403 0.0250912271909 1.76474861806 0.584262042081 
30.2426585657 0.868787747932 1.86154214426 4.03731732089 8.35613872018 -3.6699880312 -0.693570804612 -1.92715526327 1.45169944522 3.75433520171 
35.619743757 1.17334457955 5.28327001917 4.30991156133 10.4824415877 -6.52698677687 -2.85045030041 0.0422472241589 0.0691558117998 5.69973013426 
44.4868452412 3.66504428063 4.84213891846 -2.34191172676 10.1468869716 0.595039538946 -5.17570965975 -3.15402120289 1.6014712307 4.45559102936 
35.4157581311 4.54002902251 6.22308279901 -7.99644290059 4.88790499658 0.209136250834 -7.03821939912 -5.68235182495 2.47614464954 1.57778760061 
36.4825554845 7.70593631148 5.44370573517 -9.19307782381 5.30425180146 7.08061607597 -10.3482468059 -2.70606512059 5.78867826942 3.09070540192 
44.263502759 6.94754176353 9.22603967928 -3.14470706147 5.23659851115 5.69823737826 -6.92506719258 -4.33589159344 4.34252915453 3.21622436315 
41.6455885538 5.32283032541 6.07638450094 -8.34239636464 5.18245267017 7.58614787344 -8.19431959538 -1.46720871619 1.87239753469 5.3992438471 
39.6538811452 15.3624339997 6.05772525038 -1.71317140466 1.4141174564 9.891386956 -1.97825750866 -3.24534689978 3.85822925575 9.39022578223 
37.9661512227 9.79357558663 3.58157413475 -5.00444926216 3.13639367774 7.23118680915 -1.28716955343 -4.88943019332 5.14296825851 6.32134041499 
29.232872923 13.1676195286 2.02588486406 -2.66784246848 1.50120499206 11.8825404414 2.28282088302 -7.09088894061 5.05087414108 4.36284038045 
28.6691705196 15.0954082524 3.75917331449 -2.70179269797 1.38043669952 8.92159377823 3.59332955762 -9.70319330214 2.79020240604 0.367230323775 
28.6846578916 18.9646132639 4.10554000883 -7.54647582961 2.08512055657 12.3260413689 0.35685373607 -1.78822204068 4.73856061748 2.3092551685 
22.8692077726 18.6593924423 6.11253041998 -11.1373066704 2.47720299406 11.0396472778 -1.55834733926 -1.39248863236 2.71054731712 -2.32139977473 
14.2215169023 19.0491924237 -0.0675962904569 -12.4365951469 -5.26752663875 11.4055343903 -2.80344859165 2.1070657335 1.22856378 -2.56171354204 
9.53069371974 15.1316881056 -3.20552583765 -14.6672076821 -3.76421064975 5.0867219767 1.82568083451 3.46588064735 -5.16007590911 -6.43513497989 
-0.868778721845 13.6989940954 -1.72287030362 -13.3736805295 -7.24811000034 -1.08881551874 3.09408959186 -3.21079050848 -3.07980064406 -9.52373064394 
-13.3113404075 15.9943967493 -6.26391249947 -9.82172220029 -7.19037220068 -1.3086555205 6.45205259135 -6.89020175974 -4.5887635442 -11.4333218057 
-4.76177234934 21.9227342833 -7.97477531886 -15.3713557868 -8.78092910505 -4.76251444574 -2.13117134615 -3.40357063016 -2.35578988959 -8.09653203787 
3.01756235831 19.3776907107 -8.18970532149 -13.6272674988 -8.63780704309 3.05947482459 -2.88475288803 -5.53998939132 0.237065389383 -4.50735322177 
16.9141672412 17.6393779065 -6.45188595252 -8.84950884458 -10.8781970607 1.76226977392 -3.93797912931 -3.80906387315 -0.807635156804 0.549211423342 
15.0210363994 15.8466135435 -5.50411676597 -1.01923650319 -12.5295727428 3.00398696828 -5.44304296813 -4.28005511455 -0.334878364655 0.0163309558491 
25.1399784985 8.91809491451 -2.04073846403 5.48625714877 -8.6076986214 0.382491359915 -1.65395132895 -5.43358952506 -0.266990624919 -0.378572991993 
22.4562840911 0.163565146243 -9.26851265672 12.174716547 -5.69823534258 0.0312422499216 0.0832565345665 -1.29160875401 -1.704298094 -4.23078985113 
17.3100394674 -6.27376181084 -13.6060521137 13.5872255507 -7.55356451648 3.14510158214 0.333545090265 3.89900180863 -2.29070853543 -5.93454488583 
13.2528191411 -8.37999429494 -14.6690864762 8.55029121444 -4.50357555144 0.484067724426 0.257271141262 6.43283153338 -2.81669888578 -7.57728978468 
8.79193544137 -8.41019544648 -15.4980504333 10.1316232634 -4.48434019093 -1.83231313823 -3.57325804474 9.09888973462 1.77674065282 -5.5170573009 
2.92621471737 -9.71071891287 -13.6646519043 6.70204359689 -3.7215822968 -3.08181403956 2.42938589932 7.13891605258 1.82075730738 -7.02573799449 
-2.13205174192 -10.6961903464 -14.0564635067 3.8227460978 -3.56922071954 -5.51874431502 2.95376917777 4.78060385467 4.11126118484 -3.61062544762 
3.01532227271 -14.5069144451 -7.9516610352 2.95821722619 0.0859569747463 -6.1179606443 -0.91579649393 6.88325104556 3.29436166805 -0.816158031182 
-0.428805711906 -13.5314794251 -10.1699573298 3.52941357611 -0.9717310749 -4.65143232861 1.79884544545 4.64644764162 2.36523056738 0.784907542262 
-5.71429415238 -10.2824434479 -11.9970428699 2.64448782205 -2.38888678802 -1.83032489722 3.46257804712 3.71668425416 5.83900490493 -0.0525855616553 
-3.60909633531 -10.7402949537 -9.99502407524 0.499510288648 -3.00258868871 -1.4911528924 -0.0886738145531 -0.530748586142 9.6638153174 0.704278123569 
-3.70050933012 -17.1651469377 -4.0306445707 0.710075889191 -5.12667307942 -0.488345467604 1.58717575517 -4.14386269675 4.53830004346 3.03863344028 
-1.73473878574 -18.6634282294 0.0610416935639 -4.29639226136 -7.37890235258 -1.21351364408 -4.41713369935 -9.52040846645 7.29934706971 4.48429155897 
-4.74735646253 -17.5177277379 1.98717061292 -5.69000331772 -9.59087246768 0.713203679012 -3.36797529221 -11.2629225954 1.94317183624 1.37858531193 
-7.01031209645 -17.4131072516 3.42744159849 -2.25915824132 -9.58510035884 -1.27714097288 -3.17980774476 -11.9910494045 2.8031651028 2.95498854252 
-8.4796989328 -16.9584096549 2.90022585202 0.141307047303 -9.00400348532 -0.275890335021 -1.66688076874 -12.5462875605 -0.162881605027 3.80607969542 
-9.36429796393 -13.767816592 2.56728517245 1.98020026057 -6.29825627059 1.84724238099 1.75625722861 -7.65855684755 -2.34002874693 1.20386838878 
-17.5253155342 -7.54043998023 5.54568883045 1.55224055991 -6.39478468973 5.78506345453 0.392352318345 -0.959789751249 -6.548844064 1.61963393244 
-18.8496797644 -5.40622336755 5.27619143185 -0.551795312742 -4.16385817633 7.49314153732 -0.957557133145 -0.131486839562 -3.32974420567 1.24931097862 
-15.3710701076 -2.04029076615 3.52314203983 -5.3697667371 -2.71579114689 8.82470386299 -1.40701786138 2.43191765375 -0.359832642459 -4.47323768496 
-20.2973812026 2.89181514492 1.24399135605 -3.36438553376 -0.948730057402 6.29824530461 -0.569122198972 5.13898630988 -1.8437511388 -4.82093714527 
-19.3775272258 3.98584329216 2.82138605439 -5.81122608152 1.98633662761 7.47271931894 -3.0794469725 5.95741937185 -3.70646810797 -7.28014486686 
-17.4942880478 3.9079147542 4.66758468732 -5.84469007646 5.83246063979 6.85053900735 -6.5525958779 3.77924845865 -1.78804839588 -6.83392565083 
-17.5809172147 7.33204348205 5.28260529487 -3.0629207158 6.2964501024 5.1441831616 -7.39414172663 -0.959789169581 -0.712621462296 -7.16433057897 
-19.3991686969 4.40100804968 5.31871012193 -2.16806592695 5.30386997733 1.2945350154 -8.25783221114 -1.38054844415 -3.09959363873 -4.71945653831 
-17.2074546852 0.655343018536 3.14967460168 -2.75843793938 3.80148328333 -0.199083289805 -9.06961685722 -0.604114533793 -1.80370758158 -4.29538823034 
-21.2222248978 0.29644698018 2.68905966064 3.24718265424 0.362697711209 0.637099627296 -6.23060717179 6.33055419745 -6.22051791599 4.1150245414 
-21.4044041642 1.82695815975 -0.0374830823417 -0.0696546588437 -2.24051963804 -1.40475287773 -5.53154114724 7.91005608803 -5.1903145104 2.17353647317 
-23.0049082052 2.49518185899 -1.82008809042 -0.325644274816 -7.21410010833 -1.06188689022 -1.19740545031 5.75437131946 -6.41578480874 2.03810124793 
-25.2542853955 7.20589574192 -1.38485176501 0.478527833919 -5.36755806364 -0.673597717548 1.58504822003 5.83971422823 -2.61085960496 4.14958422142 
-27.4826464886 10.6375145931 -3.80846026766 2.36220187655 -0.13083013797 -1.9688108815 -2.29313004807 2.62412057097 -4.52076703697 3.21612459044 
-25.4221364206 10.9976109487 -1.79041359079 4.71847554277 5.17719053515 -1.37829737381 -5.47751128323 0.77669675209 -3.83512506885 2.55374008574 
-23.3708914506 10.1905733019 -1.93243372513 4.1771084735 3.94493546635 -2.69560915549 -1.86534071024 2.69079865115 0.771695791098 1.68349911133 
-22.1207475548 12.1280746383 1.6137134201 5.04018298931 7.34186224669 -6.65186034337 -3.00927605258 0.367853262659 2.82544013141 -2.68578791558 
-22.8086615925 11.2308061902 -4.74934023127 6.24031266074 8.51336520864 -5.33364900569 7.70746057441 -1.8318841916 3.63498332642 -2.20738943097 
-23.7092810417 13.362765562 -4.51405246217 6.46979416972 3.89307853014 -1.58488917674 8.97191837144 -2.40387482378 7.29158121069 -4.13798575718 
-18.3882713731 7.71061785239 -1.47744861971 2.64429239101 11.9594322751 -3.781898657 3.40821691056 -3.03633275558 3.98542724217 -4.25629106534 
-14.6171371621 2.44104083601 2.94268764102 2.87262942197 14.2776603698 -2.2115088527 -2.07520722363 -2.23347126537 3.11981655157 -2.43441763131 
-14.7242332376 2.60028668578 7.79187264101 6.6142898099 8.50815281963 -0.868065948521 -2.55130152073 3.35292662081 2.25124401005 -2.61299064644 
-10.9703968684 -2.73954100007 13.5201807129 4.62101001157 6.75575663707 0.116210951079 -4.8270904626 2.29605308112 3.21142007478 -2.85248485308 
-11.3021432121 -5.70687092875 18.697224354 7.07733914866 2.35175788163 -0.37418511958 -5.71245828993 0.778064730181 -3.24018805261 -1.8598726247 
-14.2821927728 -1.47581111318 17.5277580447 8.5946834091 -3.5024289731 4.1750970217 -4.97179175094 4.29437882035 -3.53552054534 -3.05602628413 
-14.5197006429 -1.34926763851 16.678030318 5.29705624707 -2.81841298799 2.92837324567 -2.79651402015 5.27186078468 -0.22214173232 -3.96789514892 
-16.4359170738 -0.728561038595 12.9511100232 5.52536099545 -3.96833804517 4.03226218865 1.74694725328 3.94392320047 3.32754462963 -2.4540597522 
-20.0703208516 2.63983625473 7.76920883208 5.87976446721 -4.33455300497 1.98600675136 -0.776051211538 4.13464350899 -0.013675395869 -2.90593399793 
-20.4896362704 4.88388422334 7.12713323655 3.9186363251 -1.75163943619 2.94560921724 3.8956609618 5.83483036937 1.96327125589 -3.09016827479 
-22.881307537 7.36918101547 2.3553863185 -0.179120866495 -0.0380896390977 7.29497980949 12.9098007514 3.83222809086 -2.35905229411 -4.55085213482 
-22.7309099444 9.55656416823 -0.0591719642748 2.36842306756 -0.48809970817 7.6716544591 13.2402195535 6.00972385017 0.489290638298 0.673842324202 
-22.2278397963 7.52121778617 -3.01631751762 4.44267265603 2.90098522162 4.61696039573 9.00949824005 3.78076238801 -1.09591190441 1.59921849045 
-19.0127101685 5.52317193623 1.03304637202 4.0071744603 0.65278125146 7.26935307043 11.3856447492 5.8959361345 1.9608336963 2.08311318 
-15.8182507833 1.89219890487 0.842177758768 2.19790423659 5.54138669623 5.53933409158 8.49720599144 1.46041645082 1.38340863342 1.56246397251 
-11.2565962679 -3.20365764871 2.44235233268 -1.69408480231 4.56875445981 2.42819500929 2.90472148265 1.22184638847 6.12607946064 1.25685175388 
-6.4895581146 -9.04733543349 1.42838665752 -1.71474814353 3.36521612872 0.620514524242 3.56380528771 -3.17328895478 3.62943606577 0.479945140801 
-6.63185914344 -6.71402906342 2.16145916071 2.14225899695 3.27971961684 1.92233708051 4.73288871236 -3.76469536619 2.23011419529 2.350794907 
-0.281916019246 -8.58421283326 5.49981552616 -5.3735393905 6.62287473973 -0.542032136773 5.66018282086 -5.41350233001 6.06935246411 -1.25970612064 
-0.59249519401 -7.63415773571 6.91795936126 -5.95584896093 5.61155291335 -0.109289786331 6.38801219642 -8.01836878556 4.77448580146 -1.20771398159 
-0.414705137823 -6.40898470293 6.02643240865 -6.36651812596 6.27015017085 1.36450542372 10.1338396525 -7.26289121912 3.50710799501 -4.21728675234 
4.01616151926 -10.4464113793 3.34570551211 -9.59543328587 6.31636103474 2.71094099824 7.24046132033 -5.86068967719 1.87602638166 -3.48053790047 
12.45613046 -12.1781357865 3.06105785862 -14.2384625176 7.85512358215 1.94438939284 3.21871713482 -4.6830572911 1.37490459514 -3.4928983096 
6.78738684416 -13.0110031073 -2.33668373307 -10.0989476582 7.79991385168 2.37618892413 4.0842166241 -3.61857463508 -1.88824314923 -1.63292538818 
9.57907735662 -13.067308098 -3.60775203753 -7.98029152306 9.00473231899 1.92678294516 5.13950648084 -4.04500495121 -2.82213909422 -1.03079581393 
13.3416204429 -14.4995171858 -3.34077249823 -6.42449282766 6.30921172286 0.714645199622 7.55340084466 -1.37424549012 -8.53242327906 -0.446769116114 
18.405842696 -17.4664185824 -2.01154982473 -2.25825968597 8.76059499982 1.38149820977 8.5523942755 -1.09612468293 -10.8128725269 0.208576132278 
17.8067328839 -17.0996187176 -0.756525010351 2.39840593494 9.0508332959 2.30509523221 8.47882151736 0.513381368988 -8.81680720443 0.994503311532 
16.3020257356 -6.75547384443 -5.9037856818 3.77068294212 3.81554775721 -0.210163640175 7.91893506414 4.38606083255 -4.17586539032 1.41642825288 
19.7902376758 -3.5762687488 -1.09251646862 7.88986219549 6.06134199219 -4.00095470826 4.34012549294 8.89272167166 2.52063771655 5.30425171996 
24.9394456782 -0.750261322771 5.71159897922 9.11666121954 6.75023091813 -7.70704683229 3.44794037742 6.32526140503 1.07522114297 5.99652735953 
22.3034137095 5.79647972088 7.33680554473 5.34678380197 4.7558175276 -7.44760625005 4.13346119305 7.59674361551 0.569709966906 3.30589918479 
7.70608248533 4.46420807467 -5.48801047082 -2.55573762338 6.1990533818 -3.66058591424 3.13890804768 12.1775292804 -9.35628541051 2.59598315568 
21.4193371892 9.21862440049 6.2319668169 5.51391705136 1.34060817969 -4.9374002156 2.41226416087 10.5472530062 0.502223209089 0.0835540005488 
25.6149357817 8.02520987057 12.7884806718 -2.1932361127 2.07571060191 -9.27111106786 1.13845200998 5.82266430105 3.77189661854 3.08833920525 
24.4663223111 2.43096059399 10.6139354879 -2.70075996614 3.40885358431 -8.99084781193 0.082976409068 8.23525314317 3.91454431078 2.87598116492 
16.5926472085 -0.095002049859 3.89247091359 -11.1912405945 -2.2583839752 -8.61864248416 -2.68162489621 7.93417031502 0.16059358754 -0.642082589614 
27.1609976483 -6.28737856462 10.7542305572 1.37276074872 2.69279920406 -10.6968025977 -0.6292170378 3.00157256986 -5.69433793052 0.909572178677 
33.5130085396 0.350991661541 16.5131583735 -1.26511063953 1.64374950928 -13.3508264759 0.892056431244 2.8893649097 -2.40043004612 1.14286336557 
34.4299594724 5.66057991283 17.6306774799 -0.598819017212 -0.118547687812 -13.1448366732 2.12411923024 5.67968690652 -6.55024436925 1.09127313234 
35.9458492253 12.0690590089 16.7078168381 6.80579102721 -2.86434397911 -14.7261381104 6.49150833511 2.35065573728 -7.21625133419 2.12049563448 
35.7862064212 13.0544074978 10.9099884619 6.44614334004 -1.18477160932 -11.9251515616 11.9600145719 0.25352660863 -8.55130470391 1.18892930833 
34.8002214862 22.3466935748 11.5097888859 6.0648302057 -6.65515644081 -10.2807984212 13.4976386708 0.591401389918 -6.55738747779 0.980129743764 
29.2582981471 24.1709690888 10.2639273342 9.23790555687 -8.50616646589 -10.4340081467 13.655650915 -0.672272727256 -5.99649808872 1.02980175943 
27.1629599798 22.8483175367 6.71238619924 7.10224313253 -10.1192680554 -4.95112250763 13.5326429515 -1.20736535954 -5.87753809669 2.45223660515 
25.731055307 17.8811225186 9.28648582743 -2.86723079018 -11.1746291482 -8.95671722999 10.0871630173 2.9641856464 -8.34842028991 0.54931396022 
26.232773758 13.6489746634 12.0569095965 -8.06387311205 -11.3232064766 -9.90685865605 7.01393164089 3.60607043568 -10.3695842892 0.0927705758722 
23.2396779059 11.5013794273 8.34627744251 -16.3740764618 -8.0451861867 -10.007411321 4.17718604883 5.85439098029 -7.11117215543 -3.64872242616 
11.0556677039 12.9311411794 0.469736188265 -17.8081229949 -5.51662789381 -8.151243368 4.59501710018 9.63733554296 -2.80036654983 1.06753184742 
8.12967835117 11.4925338046 -3.66978433037 -19.2004060795 -7.41938026634 -8.35881367798 0.645144088612 6.68502690839 -6.30254853386 -2.49904548532 
5.34927962654 14.4574504712 -5.07389737678 -12.1237107463 -8.59398326126 -4.03815799457 1.22630879256 8.67005704644 -6.88455238275 -0.110958298124 
9.49764325439 13.2772368476 -2.30388490032 -1.14887562726 -9.47640012061 3.87976814693 5.12403152074 4.48148369162 -8.25465554506 -1.13394504916 
13.9381967971 10.5256448059 -1.83672337327 5.36540897675 -12.0124501376 3.04663400158 4.18446879658 -0.16392601045 -6.88612067091 -3.35156301272 
12.4792647756 6.48415345949 -6.6845126672 2.34733730711 -11.9105456289 -3.22283588349 6.15978212464 -2.79036112369 -5.73105837267 -7.16035776276 
15.4734379266 1.01127581283 -6.08231957857 7.87417669694 -10.4015575853 -2.27718930932 0.184326200673 -2.51465259583 -1.2999031885 -7.70803478378 
12.1538656629 -0.356121937941 -7.95288319055 12.8156036128 -10.4926937848 -1.38220234378 -3.94009411288 -1.22333932654 2.40449213483 -4.56382522321 
12.4877243567 -2.84898926636 -7.71854711579 7.84220442961 -6.91233998974 -0.690824975927 -6.9585788557 1.3395785694 4.6497993204 -5.44103836962 
5.45473061429 -0.0712652433073 -14.5685614456 0.450525108862 -9.079748799 -1.18259506257 -3.87842419347 5.09053661672 0.438279373225 -5.76780387148 
10.8809419779 -1.64386759592 -13.1712276087 9.31367293542 -6.51923855902 -2.17693108554 -9.8221376954 4.71714401483 3.36513466194 -6.29947376868 
14.060986902 -6.34408976307 -9.21900169986 6.79148920717 -3.31713265208 -3.1924706247 -7.31444617592 4.46528165171 3.8904545862 -3.7134689566 
3.55942232386 -11.1545685712 -12.9505097487 4.8448748892 -2.4103485191 -4.07786445107 -1.94906807343 10.0825182374 1.8695468726 -0.711742343402 
0.932594108832 -12.1127561177 -17.4720821384 3.4052810394 -2.53686649343 -0.991440528209 -3.13295936905 9.91628064366 -0.653735933628 2.0065944036 
0.146196985697 -9.98859744744 -12.9812098514 8.88684916399 -2.66313619681 -3.02985469725 -3.68271464399 6.69280031745 3.78096550046 2.09182251111 
-4.94893773944 -10.2887892329 -12.2418919841 6.8928967602 -3.90563194853 -0.83581237131 -1.14510443188 6.58166020039 2.27084195572 1.53982762981 
-8.693513692 -12.509068902 -13.3022188979 3.39859578767 -2.0925705847 0.80385420724 2.20591609021 2.31937261934 2.31653033003 -0.394776737065 
-8.78674238816 -13.746268683 -8.88344462573 1.44166162932 -3.13327475402 -0.0419506470272 1.92480905018 -0.925368304615 3.64587853993 2.05177242315 
-10.9754164827 -15.1349269877 -1.23352152848 1.15238032036 -4.51249628198 -0.610161649943 2.40605523038 -1.57630627189 -0.158319031712 4.91134139295 
-9.21701630269 -17.6380222096 2.84193032569 1.37432545487 -7.31116840483 -2.12630858065 -0.134528434879 -4.97613533508 -1.23096373638 5.36854562525 
-11.4021126488 -14.4314643863 1.30672471769 2.68990087296 -9.98986016208 -1.94423767661 -0.861190620052 -5.02703318619 0.4164504831 6.11416714313 
-11.7507165609 -14.4613722882 0.444572460431 1.04208480263 -12.1611962463 0.0023035755654 -1.45529118314 -4.89122352352 0.17078336185 6.89786926824 
-11.3861467797 -12.4463400436 3.40911954948 -0.0781307081686 -10.3948464196 0.882943414725 1.54531036569 -5.56459323187 1.5025499853 7.59998467071 
-12.4200088997 -14.5501434645 6.67968536761 -3.24749611197 -8.46367805704 -0.511871247675 -2.47679814979 -8.56204359907 1.99151076618 6.15536596835 
-13.9485757161 -9.98403018902 8.57396034729 -3.65813099155 -8.32355524046 0.758447326281 -4.9724331174 -7.34363446836 1.79952621377 4.6181441839 
-17.8617247032 -4.70063291424 3.99613272 -4.84444705759 -4.28321741879 3.92579431772 -0.969261369349 -1.52136528788 0.715802768674 2.36444624247 
-17.710695733 -4.78515129711 7.33253843419 0.641493365815 -1.19385451462 2.69718974319 -5.93189562863 1.16751037702 -2.6116454434 -1.27418960325 
-18.2749968379 1.26009660104 6.05658104486 -2.3004530233 3.77311630162 1.77627365025 -8.8830859079 -0.530591513599 -4.55597145413 -5.56622149584 
-20.9555352356 5.83686270185 0.92944004695 -1.22195700988 6.19178743533 -0.243816312499 -9.02355698272 0.186192169028 -3.29255453591 -6.44028115233 
-23.4091353945 10.4129030551 -0.301413302614 -4.19418359623 7.61797841297 0.839047222073 -10.7683720305 4.63388528511 -4.65536052901 -4.55966605341 
-20.9279561067 6.25961863483 -1.32805645407 -4.49115306386 8.40849310318 -3.49891872415 -13.2850813499 1.20204893773 -7.09621013553 -0.583728767657 
-25.4965023873 11.2088314021 1.8262692809 6.984349886 9.08425160413 -4.97880918383 -16.6974087452 6.02694164339 -6.97108341205 8.51374332607 
-24.9698598088 9.86535118148 -1.63196872367 16.1559749327 3.65513496272 -7.25306908139 -12.9036067237 0.110878787174 -6.73257472333 13.2058898762 
-25.4543582984 11.5421871338 -7.95731067027 7.91298258792 0.424213497638 -4.67505348354 -2.30804863519 -8.98923444479 -0.828536983858 7.55733366031 
-26.7528795272 10.1115032198 -5.23576954464 11.5009377591 -1.29551278765 -2.56161231704 -2.30998913761 -5.19708363696 -2.99072122052 8.77659657948 
-28.1294788447 11.1590981859 -5.75177789054 10.3228681879 -1.50211963795 -2.05190208183 1.72268202543 -5.89226963937 -2.94103529926 7.30255229373 
-27.5880255329 10.987488303 -8.0982298291 13.6909843345 -2.37553707813 -1.95946013494 -2.77538768102 -4.29047688738 -5.00277768756 9.77522919069 
-27.1638669859 13.1101633877 -6.82202641443 15.137323535 -1.67830739822 -3.2699638294 -2.61437406213 -0.168468674503 -4.62552469223 13.7425506935 
-26.3189930561 11.6959254174 -5.60358719662 19.8553194315 1.18719839856 -4.54150727533 -9.00837653593 0.894864936868 -8.30536917794 17.867349235 
-27.2203762677 11.847577435 -5.11762931949 17.3553155559 3.29687152085 -7.05958321941 -8.71417051936 -0.8791817614 -5.33158575245 14.7108157792 
-25.6098253421 13.2332273788 -3.18715528113 13.0048076369 4.4245492905 -8.02574463751 -5.57394479508 1.89958749857 -3.44919759432 11.0716893336 
-25.9864663509 14.7132725641 -6.6191166773 5.98778609263 3.97315353939 -5.5165446053 2.0088740039 -1.69580699707 1.84755353707 1.30665385056 
-23.5008886129 14.8759578877 -3.38359313869 3.56445468986 6.07455345269 -5.96014719782 3.98894994376 -1.94155692489 2.85141494736 -2.78557354743 
-24.1938504652 12.2626988765 -3.10114861011 2.57318148291 7.92621386886 -3.62202490465 4.03577813087 -1.30084583833 3.10921645992 -1.95499561601 
-21.3204774985 15.2087615489 2.50722130628 3.66099023379 10.6281170118 -2.1301892997 1.28579425164 0.324709850936 4.3334306772 -5.0061310651 
-15.7568051013 12.8230157362 3.21596725091 -2.34998512375 6.18978040233 -0.0584513919317 1.47657558987 2.41048961249 9.00135530785 -7.27898605452 
-14.7993013548 8.99035904668 8.79059233798 1.03633834074 3.36447342484 -0.0205484437563 -0.728373593228 6.21965377627 6.7308111735 -4.3583550785 
-14.0386297344 8.84360783434 10.0339839685 -1.09101873509 4.35078600516 2.15786087487 -1.63354499965 7.18796099003 5.16798238288 -5.43163254138 
-18.9228810811 7.16280387533 5.76123295205 1.09473296913 0.83204859182 3.40251901527 3.03080188381 9.72616909896 1.34189110026 -3.44847231736 
-17.6942663998 4.48034323008 8.10474608558 2.30385950439 -0.625570945315 4.84027343412 7.44253951687 12.2035014627 3.15091065757 -2.04653054709 
-17.7692195565 1.02929961628 14.164064955 3.00290434111 -5.17872280388 2.94511792866 5.4991253235 8.45228027032 1.50876281214 -1.9435997873 
-20.748779145 0.656031489989 12.6183119333 2.52480513821 -4.84663291099 3.54075933814 7.1250992186 10.9017611366 1.67909301374 0.901463454849 
-19.2608530648 -2.64881097173 13.3498732088 0.998260663 -3.70268636871 4.16926984521 7.04929597556 7.33261680393 0.00920635562939 2.38188505257 
-15.7620947563 -5.63649803253 13.3503921108 5.36992278209 -5.07596360901 5.1934276271 3.71872658568 5.54758517968 -3.78503315344 -0.56752724763 
-16.7205570604 -6.46266562059 10.6912553524 2.11545340674 -2.75522983635 4.06685364954 5.13336902127 4.89720703073 -5.00881279363 -0.360867560491 
-11.2559399737 -8.38456598736 6.49991153379 0.584294175288 -0.1552296946 6.71359215905 7.97863361138 2.7922948386 -5.9873340031 -1.54430779776 
-11.8543514835 -7.74692177904 3.18903267131 -0.838017059556 0.393841611832 6.44343392234 7.78322302445 5.64684746475 -2.6768774797 -0.0334544547688 
-13.9302932585 -5.7774395633 3.12761544961 -0.986615596098 -0.928720654514 5.41094441901 9.36000108233 8.3390508373 -1.02854880062 -0.0638034626149 
-14.9773091157 -5.60185648092 1.93978011037 -8.08959637624 -2.93103559468 3.37563232181 4.87331115255 4.78418612073 -1.46899466088 2.07300075343 
-10.7868958271 -6.23239450448 2.3305210901 -5.71061886311 -0.884600003607 3.27528307276 8.09770610485 3.68231733835 0.617223773866 0.34792438212 
-10.7387970709 -6.92670257491 1.60841120893 -2.62090152602 -0.916977911218 3.38466498755 7.60168257507 3.71276212208 2.61817764276 0.777500727127 
-0.762837112668 -11.0738545714 3.76003245066 -5.28910989138 5.62595439772 0.86533276097 2.41718895114 -3.92055534461 -0.801212841623 -4.00125983866 
4.12478987306 -12.391169439 -3.00286983773 -10.2551390624 5.04212255353 2.03045312273 2.05167664927 -3.44825978609 -3.85196065758 -3.40991937213 
3.70791651986 -15.8085972144 -0.832298653798 -3.27047954063 7.44854313693 3.05757400052 9.14413837057 -4.75387683472 -1.95542076051 -2.30932147028 
5.9839739681 -14.9906694917 0.531018592101 -3.80413839345 8.36791007285 1.73060866982 6.61529259994 -0.502756918537 -1.43541031575 -2.26905624342 
10.4924208116 -11.0852654348 1.20206922124 -3.14113026284 7.49315294224 4.67314603669 2.1795478374 0.694160444901 0.0777277615943 -4.39442667038 
14.8154109644 -8.64109887447 1.45365776077 2.19691111108 8.60103211776 3.92619054628 1.35836046883 -2.72815752044 2.78094602336 -3.53094300993 
21.9607812304 -9.67039691267 1.57020079087 0.91098731389 9.66121459907 4.13197923012 0.78720955241 -2.56796720949 3.36083261667 -1.92860862426 
21.5256014611 -6.15095419981 -1.10115015357 8.28191844545 4.78269455565 2.35370265989 2.22624393793 -0.5070638322 3.19939009498 0.933795918627 
21.4444787185 -1.15051905024 -3.0326633661 8.97481416896 3.51144151493 4.08200942347 4.310046549 0.884203462359 4.66297934015 3.71912111504 
19.4172988291 -2.64678679042 -2.66358811181 6.98084497125 3.12876196623 -1.92135175942 6.49656703297 3.3228572073 4.36927340563 2.51189250127 
25.8099991151 -5.34859051227 1.4853755204 5.58194789836 7.44844472625 -7.7850546455 1.44977687709 4.27301953425 4.47426103162 4.36958791321 
27.6417018508 -0.733869005066 5.0194608899 5.61351652375 5.90708415403 -9.94660468609 -1.38573822348 4.66883581317 5.3243713791 5.019635964 
27.5120134 -3.14106571662 2.85050946343 7.32834305729 7.18399608846 -8.381660085 -1.27969417263 6.61820524156 1.59214264915 4.53598086249 
36.4403850638 -0.926403345971 8.26280730964 8.81700428856 6.40009785751 -11.0546766066 -2.53850471451 0.971240487075 -0.0826716457301 0.337535151516 
41.0252996513 5.80999925727 6.59232071383 6.67107141824 5.34128835871 -5.30497349672 -1.37653832136 0.338148058996 -0.357343005098 2.84316907504 
41.8395353681 8.21120356099 12.0353822717 8.62824978428 3.89761960983 -7.21626289712 -1.8687388726 1.83589165381 -2.3755192604 4.2517816904 
43.0333577321 2.44086864397 9.94507327933 1.86832565191 -1.88695059667 -8.73283904482 -5.12942007212 2.3066514119 -3.39893670502 -1.88228942755 
40.6206272349 3.45507016233 11.1519408935 2.60898244076 -1.20705365568 -6.83883367839 -0.0918860967253 -2.63881923522 -1.30771708843 -0.470589661614 
39.8667032318 1.33069987341 9.84504707025 1.7970354156 0.127674500162 -4.94240618361 3.28670864984 -3.8669646758 -1.3921460892 0.963465040027 
30.5729293347 2.85998366505 9.00298822831 3.14976411953 -5.23707800759 -6.41921357735 5.37016453141 -7.7347531508 -2.78035467472 -3.99710773285 
24.7437908054 8.69295259478 9.10041375439 4.22370855533 -1.74182751116 0.133473583676 6.86665739264 -6.74304392086 -0.684576599983 -1.73798341915 
12.4472187964 11.9726027707 -0.77674362451 -4.44775361346 -2.99752604626 1.23869028598 1.66718294483 -2.35382512028 -1.6676711603 -1.46959463047 
11.5303808549 18.0498384223 1.82253322403 4.94241589698 -7.43398430779 1.00874234835 5.90754336909 -4.92939742853 2.49045051768 -1.92360761955 
19.3520664536 26.9252829757 4.77885322998 10.0789112035 -5.20718258989 1.35565560777 7.96977285602 -3.1202684995 2.00676910514 0.388355405578 
17.2525007864 23.9614154887 1.43706241586 9.27392954283 -4.00904460662 0.680425579504 8.63975611617 -3.0370474123 -4.60755096352 -1.30922141805 
9.38093069351 18.5549619529 -11.389356344 -16.5138153546 -4.69415108584 4.43133709872 -1.67447362631 3.55046465017 -2.37791956146 -0.578847435841 
19.6369685155 15.9762617395 -2.23779892903 -5.88316186197 -4.19566496561 2.57250426611 6.96232094983 3.31803213973 -6.7725538342 -0.353310831984 
14.4379428395 10.0010006854 -1.11180108606 -11.8846218489 1.79784745172 4.27444659154 8.28924681917 3.9643475502 -8.34256358584 -2.56190157618 
0.63250832512 7.59307959809 -3.95985544443 -20.5560961511 -1.77044350746 -1.79950041153 5.76133642406 -0.265021524632 -4.4522111449 -5.5185289285 
-3.98371440573 8.48088555225 -2.80883625863 -11.9374098296 -8.49316268912 -2.50141948536 5.75763277515 -4.08119011896 -7.79860009675 -4.91895978852 
2.75705094234 18.431783319 -2.60173883404 -1.83158545764 -7.09912859597 7.62366666299 1.88820659933 3.03684318615 -5.05096188611 3.62422697973 
8.15300182139 9.8718407153 0.287956318176 11.5095270776 -12.0954036663 8.41738551546 1.39105985926 -0.898002512372 -9.95910827817 3.12300492659 
15.173784272 11.2173508254 1.20584434952 10.976819207 -13.0688188728 6.95598503058 0.131499875695 -3.77949979009 -11.983243633 4.0442777844 
22.1098843939 10.9071660967 -2.41175159948 8.11974821943 -10.9812024901 5.67419527294 0.204375391601 -7.96937535346 -7.07937843487 -1.9780721635 
25.2932973234 7.29123977346 -3.52336928249 11.4613424698 -7.48199655787 5.98176879121 -0.253988339819 -7.29181635489 -2.64033040577 -4.03309466636 
25.7547408685 -2.02731923152 -4.43866528658 8.78897408158 -8.17747930332 -0.769653617291 -3.2972376395 -4.72556488981 1.30598872855 -8.72275421787 
29.1651520131 -4.488220007 -4.10975312722 5.9052299858 -9.07221632792 -0.000634814540624 -6.67322285327 -0.351657904008 -0.738742289177 -6.55600745356 
22.3233245084 -10.7433932697 -6.9857039334 7.59376427401 -8.76894453777 1.56678771793 -8.37137405203 3.0731760058 -5.94928558718 -7.96825774244 
21.254590393 -11.0930338185 -7.29824977334 7.11852378716 -10.2848543677 -2.76519439653 -6.64657237458 2.62269073681 -5.83032119918 -8.04617395539 
12.4992638547 -10.6558668958 -6.01302394746 7.17807804606 -9.03487438678 -6.0784829107 -4.96382306347 5.701504539 -3.32482235504 -6.60098634326 
3.04115362931 -7.00900345662 -10.6965912539 5.22216490765 -9.38893335844 -3.71481192738 -1.64624088781 4.58466132755 0.155832375696 -5.7898042715 
6.00222461677 -10.4273921276 -7.96975686992 3.70109736913 -6.92547111359 -3.3103323185 -4.51616790655 5.79191817317 2.00245318931 -3.25980620271 
3.56787726954 -10.4254120637 -6.03847307111 -1.79893677995 -5.39704131993 -6.47296977126 -3.08334249517 5.17938377392 1.46774171348 -1.98439169721 
5.58177881119 -11.7029069225 -4.53956402331 -3.38860091747 -3.01160563511 -8.09908412316 -2.94765127792 3.0931167347 2.25208123846 -2.41316609373 
6.93166588192 -11.9223209018 -5.5567070493 -6.97008709616 -1.14397361306 -6.40778336312 -6.25022189576 1.13859083496 5.96195160671 -2.25216883716 
1.12349853555 -8.03878801848 -6.40930168518 -6.87013451411 -2.56505570877 -7.84732370567 -5.17180752301 3.68953545121 3.20776314243 -0.238387896463 
-2.47401156167 -8.84430289313 -5.49643596116 -4.00235910455 -3.57014515857 -6.01973801853 -0.675650259931 -1.21783786489 3.73528128796 1.47665292488 
-9.46818983549 -10.3806916192 -4.76505709232 -0.462627528457 -4.22386368339 -5.45127253563 0.367724038383 0.859139941656 3.42521053687 7.62489602978 
-11.2919612725 -9.68741350704 -2.7939872014 -3.80916725894 -6.02831129643 -1.43053567339 -1.14914978911 0.254701669121 2.67967436499 3.75015503406 
-12.3427412198 -12.2379126752 -2.30117185139 -8.30556357529 -6.89354833369 -1.93776371218 -4.70252439555 -2.73986372902 2.08056430805 5.72326447924 
-10.2808739278 -14.2152929935 6.371326941 1.7827079787 -8.47040020603 -0.654977079487 -1.73328883767 -7.34073759467 2.16593284441 5.64065895862 
-10.343404014 -15.2026567411 7.31912917329 1.34996218719 -9.02710144141 -0.106155850435 -0.266061791269 -5.80427339441 1.62452510076 6.18974594423 
-7.23289595371 -13.9583828011 6.05259989603 -0.865397755328 -5.09324463471 2.10469646858 3.02394878441 -2.70394479315 -1.04628490613 1.82793962396 
-10.5139336177 -10.3538626171 6.90815974925 -0.00572461974903 -6.62747310769 4.33390342726 4.17798165744 1.3821850658 -3.44923625858 0.969614870685 
-10.7162980762 -9.81828379527 10.699931481 -0.98237219754 -7.95345878244 2.87098376209 2.48153021342 1.23239482579 -2.75153705758 2.9243847399 
-16.673372908 -4.77912484618 7.55863738675 -1.33330354581 -5.36248201268 6.96924536673 5.55568060845 5.92152619655 -1.15454745776 1.35620165293 
-20.5304691176 -4.23163830173 7.41836301752 1.24125053964 -4.78140467657 4.49456451393 1.75161839104 3.80072136882 0.0245288757255 2.90979532413 
-22.3569642138 -2.1123550492 7.64926257909 3.35462307947 -3.83389832864 4.70471510303 -0.862912574763 3.71186251196 -2.55334585593 1.62048056262 
-19.3019164187 0.564874425163 7.40766243673 -0.975577603966 1.97395870261 0.598510321016 -6.17908224912 -2.15727697194 -3.46381754635 -4.72066855487 
-19.6634569307 3.28976176459 2.5856646685 -0.865176836547 8.04147915535 1.60894736396 -8.89458412625 -1.32165483656 -6.62643785694 -7.64566219651 
-17.1642229967 3.21433477635 5.18339637449 2.20495876237 6.45605869213 -2.5383086489 -14.413993439 -3.72266497974 -9.573819956 -5.30836977391 
-19.6187413438 3.71584238849 2.98626453278 -1.75427010473 8.37900727831 -3.52450982828 -11.4168673794 0.159587047055 -11.3063200604 -3.71499793978 
-21.4315366096 6.92394957227 2.25056620608 0.431620906676 7.84485971297 -3.45897866794 -12.2097718801 6.57901993232 -15.4938121217 -0.62695972026 
-23.4554315882 7.12585266799 -0.642711126371 4.29124025239 8.57940790648 -6.01977636541 -10.8093940229 5.14600025385 -12.2673308817 5.2273437459 
-23.8915528655 9.47522832231 -3.90739562242 2.88743137457 8.66823481111 -7.17162660885 -6.4198461083 4.85475496558 -9.56167368467 5.0391173111 
-25.958727083 9.58613178183 -8.95052080123 -2.45330929953 5.01700334232 -4.70081228784 2.5288936506 1.02597911012 -3.34837267431 1.63064420888 
-27.3833282187 11.5869161324 -10.1771692924 -2.08273028329 8.52671787864 -3.65114864754 5.56110198618 5.52551893137 -2.22098049875 5.24151269722 
-28.4824902635 15.1838894537 -7.3546159016 3.1851320786 5.4705952341 -5.32024605125 4.45741288583 -3.34423837585 -1.51237529689 1.00653766887 
-27.9077869626 15.8592242771 -5.28727588741 2.19831699883 10.3653626846 -4.86986243555 1.51779054726 -1.29889239235 -0.799835528828 1.54838165271 
-28.0250151359 14.6996162139 -5.23677227476 0.337469287993 8.84874156307 -4.01267194789 4.17438957624 -2.43845637879 -0.600111163289 0.862531220555 
-28.0953479769 16.13017747 -10.4847644285 4.88721864151 3.08190420677 -3.32459670109 4.06573134817 -9.98346572547 1.6335330387 -2.25202962486 
-26.9331537561 13.2291505949 -8.83776208955 1.21485096428 1.89785329684 -5.9647702619 7.35496323851 -6.93481322352 -2.33816178353 1.521940679 
-26.9539797822 15.4670833182 -7.85466943617 1.744373756 0.330760839852 -2.34016286101 8.51230048519 -6.93510341575 -3.35958762114 -2.43367998032 
-24.7650837629 12.4675938942 -4.64986226065 0.440536401712 1.07814809552 -4.12907839886 6.08348527338 0.261177834923 1.90310168085 1.31710175097 
-19.7913810695 8.97881864198 -1.17682906435 4.2795567203 -1.57410584562 -3.76138655657 4.33603157702 4.65560776248 3.72470769632 0.298688201084 
-15.1332550079 -2.23054204923 5.15301573955 2.18446052275 0.796975158053 -3.65184338593 -1.46450987007 2.91026042057 0.0325006097665 -0.685441066371 
-11.2727602149 -6.55489015683 11.7902543175 -1.27772231577 1.09277098048 -2.23702442587 -2.85703346948 2.42433120047 -2.76963673439 -3.5403005209 
-14.5121891433 -1.69869721715 11.3421907221 0.348063236537 -1.28945087449 2.01164428982 0.835073501207 3.58544272901 -0.798934754472 -6.40622333956 
-17.0929757832 -0.970968752614 14.237577097 3.78210195661 -5.46575489103 4.42003179365 -1.15622123732 3.66806601607 -1.00337358577 -5.05934980566 
-16.023758029 0.167599595977 11.814383887 3.12749798344 -7.16271103825 5.38313569912 1.68463556652 3.74665252295 -1.0356992942 -6.16990961034 
-16.6158015962 2.66822267251 10.9457345864 0.255626110622 -4.75380615081 5.04112886813 0.164633141745 4.84313550645 2.12107289809 -6.9115692883 
-14.264938484 2.84256218741 10.6762514378 1.75791929604 -5.3441390823 8.405983052 0.254974040128 5.36613864935 4.25971918134 -6.48777257786 
-15.4588221233 1.91246619048 10.3172972079 2.57791201612 -4.353233552 6.27732041956 0.491138376421 2.54146690872 2.5348295366 -5.83609048662 
-10.9564450264 -2.68820048174 12.6081719629 2.87535263806 -3.95127335981 3.76393963183 -1.06167086423 -0.980536166664 1.52048046322 -4.28534793295 
-6.93074446158 -7.09016655302 9.91510922268 3.37101371473 -1.96207028629 8.14403626078 -0.146269725657 -0.299243265265 -2.93541562517 -5.82218856436 
-4.53644977399 -11.5169372092 8.70843399435 -2.89305682458 -2.25118774843 3.69384179356 -2.18477305442 -4.42293713652 -4.20256066595 -3.36719057656 
-5.07977025556 -10.3343097327 5.79612922668 -2.04560606048 -0.104389214121 4.99210090049 0.119082999969 -1.63790958276 -1.3086429274 -2.4564823083 
-0.417772717901 -15.8225461536 5.32219865769 -7.79617435892 4.38907477604 2.27283012032 -0.451906371536 -2.7356791913 -1.38671492646 -1.62948809164 
0.819118381557 -16.2402690257 8.09315808416 -8.968061049 3.75362197048 3.00543895297 0.327405898426 -3.06481105072 -4.09719164722 -1.3659067671 
10.1191260957 -18.0052366777 10.3060181828 -7.66463982727 9.29441979035 3.97599466647 0.32395354339 -5.69467557501 -2.12698639117 -4.03949715593 
7.82734425721 -14.6303452052 9.78770930776 -7.86911229066 9.31452021398 4.98657562032 1.59807720615 -6.93903440717 -3.20755672488 -4.90545125183 
5.83336636466 -15.3054548205 4.95268670155 -5.65843540087 6.53546823989 1.61660218614 3.12628895386 -8.07059742551 -3.53137051013 -3.0998252915 
10.3509996712 -15.1237991595 0.969301855759 -12.1508997358 7.28723556606 3.22660729553 2.65032093547 -7.73204268991 -5.50524565852 -5.84588441242 
14.7803613071 -14.1700557632 -2.44319637963 -12.6997811123 8.73511765387 5.98209827861 0.355673827341 -6.28177487552 -2.47006334719 -4.03346585095 
3.28632984148 -8.46351575088 -10.1277911001 -20.5548410859 3.92318109418 1.4581131422 -1.61498556907 1.96098832609 -7.64589850666 -1.30282474176 
6.07878899049 -10.4665438634 -11.0087524963 -12.4811417145 4.2691767251 2.69393113146 -0.363578908855 1.14784332669 -3.28199487377 0.386475125328 
8.57375996641 -8.91549686295 -9.06846681492 -3.56809422273 7.55552860479 4.48258809725 0.222518915529 4.6330213021 -3.03481687253 0.832910276388 
17.4026810769 -8.45383370059 -8.26304952575 -0.832381433182 10.9193184494 1.9258741902 3.40982627654 5.53618963586 -3.97783634814 2.95915336355 
9.89061697216 -12.0665438947 -12.4942585752 -4.11645699986 8.82583846699 0.895242983133 2.22589201282 6.25813066735 -5.09611808445 3.13269843232 
18.6971852318 -14.8319929303 -6.46510308714 6.96933928546 12.873112365 3.5792108877 3.59239828266 4.07648098386 -1.75556879853 3.3153623566 
16.7899472917 -7.7537148678 -5.98126287706 11.7375887091 9.88793555024 8.00450904272 5.42195188654 1.99897522673 1.20911616247 1.58746587029 
19.7745965093 -8.66363045915 -5.40111874155 15.0601127143 6.1621204747 2.60008747603 1.39235793967 -1.1606522625 1.57492560031 0.677546359918 
23.1466890271 -2.03556339991 -3.57911922199 16.1724140727 6.59438078516 4.7102675723 -0.0469785056579 -1.52525399158 3.14118114769 1.1234858021 
34.9646756257 1.12993810689 -2.3917478275 17.6483546176 9.7136584663 6.76951599849 -5.48524179754 -5.13471725699 6.13058627705 -0.564982039754 
35.9595708812 5.32964640655 2.67791704567 12.9226974873 5.55897143145 1.92629507471 -4.96191152882 -8.32506782453 9.60511071487 -1.40069857251 
37.0041025856 13.6568347556 3.8583167206 14.9662067788 2.43995839683 6.93738534209 -4.30658759067 -5.5027828469 12.5487409856 1.59221774554 
36.1923639994 13.020104101 3.90819857643 16.3253256931 5.06739934976 7.28967160877 -7.38690389695 -4.4594444929 13.7506200944 -0.0249682132954 
36.6431796583 5.72476795799 0.424823251217 9.2178892066 9.01119284601 7.17072375442 -7.39355972299 -3.82150759128 8.54074145139 -0.879950397363 
40.0806602218 7.07559038737 0.0641096092683 15.7743779406 13.0033128194 10.6561834257 -2.55042068511 -6.8525231301 7.51703853283 1.09154459317 
37.3009002965 7.67668608287 -2.35279944463 21.9123993267 10.9671202532 11.7240065924 2.56899521789 -5.13206061535 2.1977054913 -0.508338173369 
38.8797656393 7.25285395042 -0.345755801557 17.9554339397 7.67312488841 15.1734300783 -1.30751448433 -3.78941817903 1.24672034764 1.31980124598 
34.8801016553 9.19859231025 -1.67399442934 6.72282916024 4.22556827666 17.2379613605 1.51488101108 -3.17621078753 -1.31069535339 1.77215406568 
31.7631928273 15.8765204398 -0.870734849881 6.5561294957 2.94164898915 23.0167539936 1.40515243309 1.56395257549 -0.763719780675 11.7969725771 
23.5261182904 17.7414083392 -8.09499364598 -5.60759485476 -0.166019189487 24.7136429422 -4.09673539745 2.00839117274 0.526415431221 8.86222168277 
9.99575148162 18.329620748 -9.29790246824 -5.4994092879 -0.522891965278 17.2094611372 -1.57297370988 -0.969518384515 -0.721908144573 3.17815256419 
1.09569149806 15.9657700237 -12.8009268941 -16.9190643793 -4.57454498785 7.55338230363 0.117493018791 1.98870266176 -1.87287904942 0.17992950516 
-4.0363867563 12.0381306277 -14.4255958593 -8.26191014775 -2.96542650361 10.8207256955 2.54943524337 -1.5186178969 -5.22898617934 2.55265643908 
4.2533542867 9.88725681117 -13.5609881208 -0.17359029365 -0.88721981818 14.0416967411 -3.98286339592 -3.94938717375 -0.941459077305 3.46412944857 
12.6752250605 9.69528001289 -15.628093981 -0.386488874696 3.18360437967 21.7500182322 -1.67062489752 -2.59186592761 -2.78802691942 8.15478711639 
9.70717901579 5.38508200597 -15.9881006181 -6.59282630359 0.314921007083 16.0560072067 -3.04673301339 0.390105995196 -1.83373567553 4.83782180911 
21.9199617593 10.1326319259 -9.64299599692 9.99809016343 5.53727504383 22.3281028994 -5.46677702311 1.71246064808 1.74663514975 12.6233155988 
32.7906644254 6.02016194026 -6.32672429838 5.44154676622 6.60146683358 14.3577730193 -5.61758235251 -2.91729693441 -3.11445567045 5.24774948806 
37.5037006342 2.48737757119 -8.15524818834 4.07278356003 6.70227331588 16.2961259425 -6.39594893255 -6.49674294038 -8.86486709063 4.55077202955 
29.8861359685 -1.11851787879 -10.9318027666 -3.17482576021 5.12467241721 15.9605522372 -9.83472298402 -4.11189502442 -9.4255316827 2.13007521597 
32.2905013547 -7.43741203702 -4.00657841057 1.3152962921 5.40813815103 11.1289059411 -7.47395355396 -4.2312852717 -4.42248010456 -3.48600977289 
31.9392949683 -12.2697606621 -5.54507281342 -4.38289258767 2.22528183855 5.47332337018 -6.0175519859 -5.21949549878 -3.93140169635 -4.05868977432 
31.8280280885 -12.6240414675 -5.43636599444 -2.28068216689 1.01904047123 2.19298436667 -6.99001987968 -4.29951956473 -2.23514935596 -7.27017827802 
23.0483962615 -14.4507370175 -5.86210834045 1.58926048964 3.44015567908 -0.984205146301 -1.75327033626 -1.19114939672 -2.39233837404 -6.81795070734 
18.8784185721 -13.9525533651 -9.9508254502 1.49123733448 2.96858846253 -1.20343863511 0.0406243876735 3.80825692773 -1.21341351093 -4.26793975452 
17.6493975109 -14.1398996169 -8.08927574914 -3.41746602235 4.15003053646 -3.45364472299 -0.296086424249 0.866718327974 0.0736455770556 -4.15257351894 
15.3760954926 -14.2550393433 -7.92137519142 0.287933011428 2.31951115272 -1.12903198288 0.825462766361 1.01684645336 -2.54143996162 -3.69737807731 
2.95751841932 -14.524332712 -4.89917421957 -0.118364441319 0.55435435976 -1.6230480906 0.395577683948 0.644382128797 -1.87036377182 -1.3826421065 
-7.63800604675 -11.7323636551 -5.52293574359 1.5096655407 -2.79831345487 0.160360000156 2.4630731734 0.874621570109 -0.024061735639 2.50218904189 
-9.18142396079 -13.7592360927 -2.41472176481 2.16300328519 -5.52927432447 0.505550865981 3.09751049862 -2.2772195824 -0.523375251024 3.05854875498 
-9.16641357856 -15.6805468197 2.20168278698 3.1971346389 -3.27086593117 -0.797620002479 4.42315000907 -3.50811781208 -2.42731279569 4.84607264394 
-12.580808486 -15.2626339688 4.17582306991 2.42422572714 -6.5128381855 0.594395897369 3.33596720796 -3.05863994971 -3.34053837547 6.80688231282 
-13.2567257977 -14.0045033422 2.77858573373 1.56374351878 -4.60852811345 1.28712905628 5.00064274796 -5.19679668776 -1.24110255767 4.85202546314 
-12.331692833 -13.3449260846 0.759054422812 -0.391725270578 -6.45699064685 0.140169734625 4.59901382104 -5.47645967813 0.6026411327 5.94624350056 
-10.8889836392 -13.7982203639 -1.3312985682 -1.52409893127 -5.62718725556 2.458266614 4.48518278757 -5.59385753562 -1.16809946453 3.54802547657 
-14.2172204737 -10.7685325629 -1.97922455995 -4.12496335489 -7.33007948001 3.02820928336 1.44969052454 -2.69091954646 0.397010178057 3.21928490302 
-15.8916453434 -8.67205662466 0.0498187842319 -3.67929251758 -3.87706575542 3.95816744562 2.14098238732 -1.07639800317 -2.00410525152 1.75486296409 
-19.2132035231 -0.985748742963 2.62872103794 -1.97477544488 -1.76321564559 5.97886753458 -2.37296152943 0.0564193379952 -2.46789923883 0.635610633786 
-15.6258188536 -0.0256004715751 3.86917992473 -4.80203960889 9.36961676659 7.04372800652 -9.3817425989 4.28719733763 -5.44427559909 -1.98265941349 
-13.4729950928 0.0597971146161 0.235045584422 -6.30525267471 10.7023373409 3.9756338737 -11.5547745859 1.53098589584 1.21139689795 -4.88734486495 
-17.9116309587 3.87929676159 -1.75006523196 -3.08420691104 12.695133117 2.46206175364 -7.21997752027 -0.191671067925 -6.55234892394 -7.80773022295 
-18.7055396065 7.64887060106 0.645296315142 -3.46772926523 16.5193845386 3.17530234798 -5.94792945011 1.83700376984 -8.63175666185 -6.72843945244 
-23.366405082 11.9735773483 0.270976500634 3.67396944796 18.9556829122 2.80770954179 -6.21338512284 4.84804886478 -12.0090478826 -4.7911383511 
-20.0459485645 1.14739639863 3.95620741891 2.91744793668 13.3227180559 -2.23594180558 -8.25420523204 -0.225579159732 -13.3900392303 -3.87458198689 
-22.8985649841 1.86800067252 5.58357058416 3.85198911721 10.4115430703 -3.08984432903 -11.6637722255 1.94458217325 -9.99237396208 3.71649553315 
-21.0163428155 -0.927151601891 7.00411138936 6.33823560495 8.91664975184 -4.55646007437 -12.374507569 3.31475536223 -8.01944384071 5.65237160589 
-20.7095625439 -0.338963807787 4.97210592478 1.37838324044 7.27970049605 -5.07910009323 -11.4834509661 2.91232871083 -5.78623178367 4.04412808015 
-18.9027884309 0.0271835703949 6.02446532677 -0.668584762001 3.11278301304 -9.08058852917 -12.8545661218 4.59504951427 -2.92079893599 8.54575775708 
-23.1342477042 4.93789687789 3.30461756429 2.80610358493 2.96757773769 -8.19100637955 -7.87627103598 8.55220134823 -2.96432264674 10.3184388647 
-23.0404649765 6.97238963338 0.938568317092 3.73815810406 7.06018396827 -9.65139650067 -8.48194246767 7.18557324692 -2.596158486 8.24767373465 
-28.9083469088 11.2822227294 -6.5984417353 3.63122186885 4.41276608589 -5.03871070743 3.62755353989 -0.596954464389 3.65205821032 7.05997490883 
-29.3606483009 15.6864770086 -9.15528952226 1.65431343913 3.15074753954 -5.36127022772 6.58949785676 -7.60116414141 4.84933245876 -0.503252168111 
-28.5576279912 14.5247253045 -7.50111181135 3.83434850144 3.87958734562 -5.03873261719 6.14013400285 -7.09057391588 5.29051874294 -0.375307098424 
-26.5564317749 12.9122012117 -6.42101363799 5.12991792927 9.55194555731 -2.84395874079 2.17584064934 -5.2510358629 3.85759366038 -0.602538697803 
-20.7664784645 5.64482288446 -1.65390603425 0.585339468106 9.73674596413 -3.8058546734 2.02964415444 -7.10785921774 -0.0329653664444 -2.89277152931 
-13.9925239839 0.862436533102 3.8844625553 0.332093053206 7.99239486552 -3.79962070192 -3.34343404188 -2.66599531165 2.51787648512 -3.42634993583 
-7.44364967723 -8.82105428091 8.86386929311 -1.11407009442 8.87990310979 -5.46552165191 -7.11021722616 -5.99027520413 1.21202357647 -1.84081646206 
-8.23987824202 -5.95474784221 9.41588549858 2.46702983572 11.4586557816 -0.592722288747 -8.01622814472 -3.77704522516 -4.49021801996 -4.60418961846 
-10.315441675 -2.90226181277 10.9476099481 6.02763270866 6.59724261818 0.540338443731 -8.13303111013 0.909681301322 -2.19168811116 -4.52709907347 
-14.1957876394 -2.24243867307 10.9891529874 7.67097362513 4.19444320894 2.54687056455 -7.65404045442 5.68938589349 -5.13156650708 -4.30990150524 
-14.1485459974 -0.558646075527 14.9198238373 10.93399285 1.10107738831 4.49531711315 -9.936193181 4.9486587095 -3.78418527033 -10.3075109366 
-12.3211932667 -0.821589850562 18.0523573639 9.29952224894 -1.86656068305 5.99688079121 -9.64011870393 7.17575554654 -5.35964892093 -12.1755360312 
-14.1040986479 1.16590769113 16.8462018716 9.63399256835 -4.11251527733 7.97754962764 -6.16507468954 6.69501975659 -5.04573956145 -12.4996699722 
-14.4526250627 0.299634161948 14.7392550023 8.216201677 -6.8805031745 7.74744708186 -5.49124039524 3.22781501445 -2.62923231168 -10.498753027 
-16.2459118296 0.304763657846 10.052412693 2.84080004556 -3.31347971315 4.97768575146 -6.65951579757 3.02957843058 -6.78464515499 -9.72237856241 
-10.345827869 -5.40473451017 15.4679100529 1.68743650901 -5.3714329529 3.19366181857 -3.66462899208 1.62376940238 -3.51255698934 -7.83713814751 
-12.6640110289 -4.24909627998 13.419924503 1.28991909391 -2.15029026579 4.56380100695 3.0050606567 5.17157880687 -6.02450335068 -5.77886357273 
-9.47352990162 -9.41109690731 9.01655802805 -4.25662910787 -0.829854291367 1.22692953162 1.17600072503 0.931828996465 -3.73907138981 -3.55637241393 
-10.3801927986 -11.2398659397 11.746255818 -4.28246381646 0.206766024373 0.345938775713 -1.6432645996 -2.53351493923 -4.48822724478 -2.07404108161 
-5.34302515071 -11.2725639213 12.5772955651 -4.36708809891 1.03681402522 3.69789270369 1.45747342987 -2.80723848241 -0.590307654521 -4.67696332446 
-1.86697645988 -12.3370353008 11.878744579 1.70324862333 0.370459397278 3.52850086764 3.59695478012 -3.7565520737 0.0399488088675 -3.23757924124 
-1.12781193589 -8.91773523545 8.8930417716 -0.55957610093 2.97635559843 4.56557633535 6.41567591449 -1.34038058071 2.09147011463 0.772026998873 
-2.97226376072 -7.97160521311 5.37622626695 -0.208521223666 2.84398286887 5.6838577652 6.1992274686 -1.50384616255 1.62823901678 1.75242892683 
0.511515661021 -7.86519323818 2.13541284267 -5.11588101775 6.60647096322 3.67371566947 5.57449309171 -4.75381679343 2.59494195646 0.587311574207 
-0.832149263571 -9.97485504795 0.687288784683 -8.21889385657 7.05157385503 1.54611041905 3.54402677166 -3.67268013588 3.29905419694 -0.335273039535 
0.420339379885 -14.077078756 -3.41331190639 -9.55958205711 8.45651924653 0.11125651855 4.40866534776 -2.79181014304 2.91201152936 0.369822101957 
0.515507829023 -10.5349795199 -4.86649355835 -6.98629196223 7.96463118363 2.33493801175 8.53789681619 -1.55917608956 4.06715241443 0.399496189851 
-0.848158278368 -9.6290322632 -7.48068437131 -3.76979273462 4.4313844525 0.917982414667 6.02476574965 4.21466950739 3.75791973701 1.99550271073 
2.47863090992 -12.3032027648 -8.36757738688 1.33137248135 3.36612205796 1.46686875084 5.37546319112 4.25110012107 2.58043374062 3.53981649629 
8.26551920891 -11.5193680411 -8.02548144893 3.24476469148 4.19844293144 1.09047429122 9.02026905143 7.40601642108 -0.755609055327 0.681544169264 
7.95039529023 -12.1187781334 -8.94775748801 7.16812390705 3.59353925878 0.412937087324 10.6306803489 3.06380184239 -1.65938477901 -0.2178648177 
6.92678694544 -11.4359290131 -6.27019957443 7.96083724727 0.683172904382 -0.260617907882 10.0037875644 3.64636107611 -0.738240545725 0.268550072919 
11.0013503662 -9.90760330483 -3.15822377915 7.46395278536 2.86194703701 0.460042006859 7.2822786433 4.23612676766 -0.687218112069 -0.207658612215 
14.1726596831 -13.2722787401 0.788407009673 6.63588815171 5.29857952343 -3.93810956971 6.61405257427 1.25152270473 -2.70317546911 -3.22665899369 
17.5353319834 -12.408021138 2.09072691408 9.49455669202 0.714522496389 -3.29869438699 3.7622150755 0.603686358206 -2.22779043791 -2.4832814275 
22.8533268591 -6.08451659034 4.28612735875 6.99815102945 -1.40374469497 -5.69772385136 -0.320547098301 0.0152806001095 -2.98194131595 -6.39724439491 
31.1594840571 -8.09897872113 6.89935703578 3.23523611035 2.06113412201 -7.79818013719 -1.15927908122 -0.751645382862 -3.79101284169 -4.65543981297 
38.5420307143 -3.25666900849 9.48010999989 0.022023305382 1.44888277318 -10.9931063819 -2.08840305203 -0.415658727858 1.23280862173 -2.55842081809 
28.902450069 -3.90485638597 -0.451170440078 -7.12827404824 0.650782122036 -8.45989092838 -3.8721459349 4.31863318631 -7.23482877689 -2.31613937846 
32.298321933 4.02629173368 6.04873118206 3.20378736842 -1.60353958955 -6.80523022392 0.290891115622 0.518929377163 -6.67080191687 0.302524162627 
31.0280913139 10.8860867401 4.31797701726 2.99413627771 -0.956612048659 -3.72978449146 5.30323535454 -3.59227408593 -8.62505002673 2.89155382321 
31.1296319442 17.6119300018 6.18595575353 3.84860646897 -2.70707768655 -7.34141937886 8.8993168894 -11.408454464 -7.62970874547 2.10352236473 
23.6866296543 11.7625937925 -0.308234759755 -6.70792689477 -6.67315355921 -5.03524541278 4.54045680785 -9.32685922438 -9.75057781179 -3.9054506555 
33.8601769716 15.8138183967 6.37667510174 0.167380942169 -5.26096787496 -1.94928671219 6.03323785169 -7.72842671931 -8.30664207749 2.42647840535 
26.1375821751 12.7997495008 4.31353115849 -3.50819146136 -6.10857042725 -3.40273268331 8.59318861279 -8.00869469 -10.4737273781 -2.02552547827 
16.0496737416 14.5763505984 -0.988341938465 -6.96308994048 -8.23122906138 -1.96835643815 4.7591316303 -2.67941390142 -8.44120319156 -1.75509068255 
3.7002542354 12.9515637405 -7.92124855889 -10.6994862257 -8.65227818046 -3.16106705022 3.13966999941 -3.02848414331 -9.11234321117 -5.09729310073 
4.99056182028 18.6746439545 -8.30833776204 -8.42998673083 -14.4316874881 -2.46109959761 1.8392136 -1.8013226576 -7.89196997113 -4.2288067483 
8.47762973276 17.7908002987 -4.20590809786 -0.782051104802 -12.1017021054 -1.29784552918 1.76101375026 -0.0448650801562 -6.08308236389 -3.81202956211 
11.0829845623 14.09181222 -4.72023616153 5.49302315079 -9.97478310416 -0.328388800444 4.14167828454 -2.28335741394 -3.14217434787 -0.949270588203 
15.7775207765 13.5284226619 -3.71218224005 7.34752850961 -10.2666896936 2.93043048476 6.14299006814 -5.30328442494 -4.31168202409 -3.18704058923 
24.0075377795 3.08972971301 -3.76689493716 10.4124066182 -6.51941710739 2.68063950302 3.86593404613 -6.08491828263 -3.66462733383 -6.0219330018 
28.873520506 1.39113410212 -2.29542724564 13.0805789084 -8.9694824276 1.56082103976 -1.7532244659 -1.59036534542 -3.87409922454 -5.24884130076 
25.7907986659 -2.5358587778 -4.589704794 10.8434900721 -10.1066463754 -2.61925484969 -7.2522389233 -0.637641561335 -2.82151702295 -8.64476517834 
22.7140883372 -6.59652117646 -4.81182773475 11.6028484893 -5.26806276661 -2.91164934514 -10.5183110779 3.55991289094 -0.101207924634 -6.95202450491 
22.3918609555 -8.21971943421 -5.04888729851 6.87901520587 -3.17194631098 -4.53980953594 -14.1693693532 2.48944425889 4.17699986425 -5.92110818315 
12.8028249682 -8.90061554958 -8.77536700846 0.981316666482 -2.97284394559 -6.1583735668 -7.39340142328 3.11259219521 6.11553902737 -6.85307150064 
5.00110133227 -10.4747677486 -11.5967417088 0.392156030271 -2.09380430334 -5.09518409521 -4.66231867881 4.87756184395 4.44546479442 -2.82570094327 
8.28990883041 -13.8800927337 -9.84194919158 -2.51974230755 -0.930306420005 -4.55795109075 -3.08691607651 4.14023174928 1.44214963853 -1.32545280887 
4.39594853285 -9.08811262144 -11.0014581808 -1.67737392642 -1.40447664846 -2.4452365221 -0.771096093356 6.08623416697 3.47260199483 0.660995292791 
1.99310263376 -12.2560033329 -8.39826037694 -2.8352172502 -1.37699349571 -3.41779403338 -3.02135584038 4.25223420207 5.1845193958 -2.63552530166 
-1.56410271425 -12.5767101582 -8.14672791037 -2.1609212767 -0.0393563336298 -0.721223417416 -2.03404717618 1.63247023505 3.94741382231 -0.351906550875 
-3.92520381566 -11.4944252653 -11.6873256501 -3.43864289634 0.207422974205 -1.903994735 -2.52935888086 1.38210159144 -1.52476649066 -0.264793219661 
-3.9000613655 -12.967537395 -5.07001710547 -3.66595261573 -0.256331750807 -1.40070792801 -2.39737483342 -0.574707103732 0.264610261921 1.6964445453 
-7.66778644546 -13.8846377544 3.52657419832 -2.59876037891 -0.501320803013 -1.25881062467 -0.63573551817 -4.46123729107 -4.95436897803 2.43790252362 
-7.73111599029 -15.3003439923 6.17714646152 0.797602460144 -2.45547704061 0.0268888391484 -2.76722903973 -4.20615298654 -4.81735392107 3.39659214499 
-11.4957219899 -15.5046109204 0.0420618137956 -3.33590207208 -5.26902232352 -2.27907423993 0.389634730823 -2.43767941851 -4.95433180126 6.80321864318 
-10.8080011374 -15.3367286073 3.93929704966 -1.02509830873 -8.82534511774 -2.87398213455 1.63304197969 -7.31724879082 0.518975024086 6.3890078237 
-12.6614049333 -16.009586489 3.71392039457 -2.16522280799 -8.6811217445 -2.15760017472 0.558892295292 -5.57275075683 0.0994081750205 9.62488477795 
-14.1098607843 -13.9007988273 5.64517459457 0.613551774403 -11.2336101054 -0.194019747013 0.273876979271 -5.00693895164 0.590485842539 7.9369071119 
