15.5672319485 -8.22566720567 -2.50380772585 12.2437411114 5.05797498864 11.3822028641 -1.35791022569 6.74835330928 -10.6851638163 2.16328187825 
14.3684285203 -6.87541147911 -1.06628770071 11.1573303886 0.326542473386 7.59481541533 0.654230440063 6.80090343849 -7.42937144265 0.952243367866 
11.7305009467 -5.87689399777 3.15337930551 6.54256856575 -2.80034618833 0.814513159081 -1.30917056317 6.66380200305 -2.18361991629 -2.35123042643 
12.3324677256 -5.83475296426 4.92501440506 7.13549961221 -8.22329853725 -4.75372535273 -4.74570134778 7.03167503172 1.84887161728 -0.648350413824 
10.424989189 -4.08376995211 8.95803634789 1.82301218556 -7.96654043545 -6.03301598024 -3.87936859841 6.28860138761 0.113749576793 -0.296309264374 
7.56527806295 -5.7389475033 10.6908263929 0.768824532744 -5.31432164834 -2.43585083366 -4.19988298307 3.60166262795 -1.43525143531 -0.231262790039 
5.57283524949 -5.04762539704 11.3597261089 -3.88797175401 -2.26943256019 2.27823877357 -2.24614265759 4.29049183848 1.90938718729 -0.968324674896 
7.18832409809 -6.27847810307 12.5152905875 -3.04986825148 -4.8528857944 1.71646147306 -0.777353038497 2.74540505184 0.797479176263 -1.92740183606 
4.96239119377 -6.64146110011 11.6442236487 -1.93112938541 -1.34014366355 3.96342559838 1.45619670164 -0.0169327321973 4.12893109017 -1.39994982299 
2.47606396758 -6.9913781751 13.2909931737 0.966140282789 2.75200549277 5.71871976421 -1.23837563234 -2.68768207001 3.4618528136 -0.828373447869 
-0.759155801912 -5.61329714058 12.1669695191 1.61194855164 1.08330796868 -2.0530342784 -1.34228733975 -3.33928828669 3.17464667803 2.93272118053 
-3.74932263481 -1.93556987247 10.1772940527 3.90716550529 1.1823896419 -1.07896160507 2.03980480197 -5.84031994971 6.00136488865 3.96532792964 
-1.30322425894 -3.99971180408 10.9599668503 1.27208674665 5.27247143589 -1.59985223074 -1.31972789814 -3.08899521304 5.14663751987 3.82078993542 
-5.4821922653 -6.27235530798 9.7967188198 3.94069881852 6.0017179969 0.1966224395 1.97851676503 -4.21979289663 6.02501499063 0.805466275771 
-6.29180853291 -2.8634868522 9.35564260584 6.07494785082 4.61088397808 -0.591015345238 2.87930084707 -2.41352888556 4.08821658215 2.38663200978 
-10.7030014693 1.67053872647 9.24964894979 7.30274868409 4.42198892434 1.55034916339 1.92360624966 -3.86267938991 -0.128364926034 1.32709871535 
-6.20978945933 -8.95027166285 9.21434979502 10.4572551411 8.95707835757 0.81372833683 -0.945835656682 -4.66980154369 -1.00682397837 -0.258701915753 
-9.72075116537 -8.82351156178 8.50685760729 10.0014627686 6.14912882392 0.791735759168 0.65924097511 -0.844540821559 -2.47541967781 -0.441797504032 
-12.5024653062 -6.84151921279 5.57987518959 11.8504558904 4.40910142927 2.77528622151 2.73775389337 -0.757848958276 -5.89167442133 -2.0641874234 
-11.2771447618 -6.03827343258 4.24383375898 10.9714820742 2.87076788895 2.81006272476 0.589972227817 -1.39059416079 -4.86693186521 1.81205731062 
-9.81132756341 -5.04915212081 1.93999722461 14.0232934594 0.0731098906143 1.14179992681 0.6328372383 -3.17498565606 -4.23761902215 -0.356129052628 
-10.4060319119 -2.36418542248 -0.544638446966 9.02485903832 -2.50743322454 -2.55395998489 0.192002818083 -1.60289546598 -4.08613505695 0.662892231587 
-12.5976984641 1.89916469957 -2.6477553362 10.5417131567 -5.14357468297 0.615510326254 -0.695654743577 -1.58190629471 -3.57611859212 2.90455358999 
-13.3596704755 -3.95248075424 -5.25532746558 10.3576817073 0.383709887001 5.32360906279 -1.91938110756 2.69663387189 -2.88179295591 4.88351312145 
-13.4735875729 -3.742734071 -5.14195458796 6.93581846399 -2.21930314129 7.51231179274 -2.03493230993 5.91084240752 -4.23348980833 4.36372532513 
-15.7089819277 3.58368208846 -8.08882352603 2.6797813348 -4.21894164599 10.2925248643 -5.29026982906 4.54099958103 -0.984866789136 10.1653205768 
-14.9537168054 9.16946368945 -4.11006892307 0.680714214823 -4.2647346799 11.5848502072 -3.91572509031 5.6970789996 -1.98490384369 8.31752069 
-14.1988830822 11.2818638295 -3.3620922361 6.40309804722 -3.20734203105 10.5401999259 -7.0694781728 -0.133990185996 -0.823465835494 11.725083735 
-15.5745976629 12.9190789557 -4.3157095384 2.67606009192 -4.30025246309 8.66046352587 -8.90357534877 -1.50196142273 -0.698474096659 10.2666262237 
-14.3054216206 15.8007543978 -2.8871674542 1.18482763876 -3.12607275334 5.64070375014 -9.74165103605 -0.793523472852 -2.55447710488 5.56135908023 
-10.0276326413 17.6511701859 -0.961250837254 6.9058194835 -1.9203004322 8.10739815834 -8.55945748718 -2.01739458633 -1.48849582758 3.30652837383 
-7.24222664888 19.4918902846 0.336751391997 5.99190836653 -3.64149322349 6.16135794192 -2.93366222637 -4.35733367018 -1.93587345101 3.39148113926 
-11.2180116616 20.7243210751 -0.991963538995 5.81032210219 -0.558338658252 2.18992155234 -0.732388662332 0.625547661664 -2.46337558972 -3.42466276087 
-11.6924540899 15.8377539803 -5.72624426947 2.85223720438 -14.5599380081 3.08015624939 -5.16291775838 0.839014769663 -1.13986020321 7.52983058691 
-11.7828379689 12.3946841671 -2.27139616653 1.64953139333 -10.6327178968 2.66735340702 -3.84535991779 4.6305541074 -0.0309083268547 7.00866617126 
-11.7214448355 13.3259209741 -3.6652607203 3.07741769958 -10.4266774654 3.72702898099 -1.86566024634 6.32783978831 1.64657085958 5.96885938772 
-11.5589100385 11.0475886555 -2.53501926774 4.96177086819 -9.74343929781 2.81235780141 -4.88339789942 6.30110813726 2.07340521079 6.97002146505 
-11.9013780617 8.52977419669 -3.38070008286 -0.979144817679 -6.69621548956 5.59647070801 -5.14117200953 11.4350547135 4.76276117315 4.64391639694 
-12.0960667565 9.7300393164 -2.5436581249 -0.719179421016 -4.6056112624 6.77341807336 -2.96414446342 12.7995712536 6.37954389231 2.89996915089 
-9.55640029885 8.85536514908 -2.34069648008 -0.199195525392 -5.63858386578 5.89192212523 -3.01281418329 11.6159933678 8.67277431047 1.99589584358 
-9.50809198045 -8.03312902686 -7.10722333797 2.03336707631 -0.433933578124 6.57670685626 -5.42566708757 12.3797396969 4.42393596088 0.571949746816 
-12.4635707684 -8.25633432895 -10.6070248251 -0.301219646236 2.40656337243 5.20462877209 -4.97559955683 10.423237523 5.28241425302 -1.78149794611 
-13.4122124688 -9.17195637393 -8.62847666998 2.56125149489 3.46062558626 3.90412873746 -1.95157943199 9.80535822157 4.35664885529 -1.78025761063 
-14.9098529634 -10.6348138107 -12.0488450792 3.9344062504 3.22364044841 0.288580556777 -0.786286255955 5.67622820307 1.7877400143 0.84423355613 
-11.5365559961 -12.634649057 -8.7737790736 6.01404336996 2.25141596613 0.811011999222 1.71471230959 6.07004348558 3.17030310027 -1.68013115108 
-10.5296208145 -16.0462275893 -8.12359486578 4.86602528766 2.93069300863 -0.0743136801965 -0.628898738327 3.93256779573 -0.832945692628 -0.723743202749 
-9.10534554369 -14.5339947469 -7.18786684043 5.43811772105 3.10370362131 0.797162503989 1.46018067046 2.0419814228 0.46152347771 -3.39966230814 
-8.6413801027 -14.3976608076 -6.47952279113 6.87822026613 9.08011803757 3.31180211272 1.54087976877 -3.1617349348 1.62463898224 -5.22613803686 
-9.50256321848 -10.8506627051 -5.51983391723 5.36328334045 9.3286106505 7.28994710408 1.73657546987 -3.70541709828 0.160520704171 -5.20557331914 
-11.3723751844 -10.0666177627 -5.68319582186 3.02825173598 9.39736954013 6.55661667823 2.37724215072 -5.81894841052 0.0836114625468 -6.205322454 
-10.5252628479 -9.16490999127 -3.55191237765 0.896230917182 7.22756962363 3.06412263019 -0.408296718216 -8.38773285244 -2.80014904677 -5.8553354631 
-6.71634833682 -8.56418073057 -1.59964545458 -1.6275618309 0.250818891865 0.1720289844 -4.4591580109 -8.66640199398 -0.885551062708 -3.17541279486 
-3.88934574866 -9.21569736173 -2.75954950133 -2.60587203329 -3.75794388457 -1.03371186663 -7.86864292774 -6.5868853395 -2.5525761945 -2.83408903616 
-2.64517239808 -11.4343316321 -0.679169023203 -3.85141371331 -2.94990706193 5.30806285689 -8.74796998537 -4.77185443424 -3.00499709405 -1.00075389436 
1.10449118614 -10.9140766234 -1.34953790011 -8.49777489047 -4.11060205047 7.59248946709 -9.58158560617 -2.76709686694 -1.96238346782 -1.59030347478 
3.14543629906 -12.9568437842 -1.532718741 -4.81563455587 -6.09833041262 5.32822241135 -8.99156899957 -3.21680825284 -3.73332466774 -0.590092063189 
1.50657659199 -8.8044539762 3.42371806013 -6.18866268867 -7.21700588913 1.10166957124 -5.811402356 -4.63820357868 -4.96287293499 2.2442418256 
3.51349630457 -9.08743851662 2.98096580657 -8.73038011681 -9.75706915709 -1.58654799168 -5.78242390177 -1.84215753431 -2.16024876075 0.934462730583 
2.1016838243 -7.45693897227 4.32518163887 -4.00034052642 -10.0754685967 -2.42594987599 -3.74110620362 -0.721173507842 -3.05057246229 1.31545797492 
2.39561646031 -5.07387511753 2.73355179912 -5.3952947718 -11.174204063 -3.72855334591 -2.83982061965 -1.37842361509 -2.18264827152 1.96083594745 
1.96963136411 1.44532076969 5.55237570505 -6.94614999103 -7.6522718995 -3.87972047472 -1.18962795132 -3.34627541189 2.28892991903 3.99885752011 
3.04924676836 1.47544480557 5.02396599081 -7.05029287743 -5.78299360813 -2.36462138706 -1.38737875357 -0.483738206748 0.65695278789 1.46678439384 
4.29692842625 -1.0980814325 2.34902264359 -1.46132300506 -7.48376774684 -2.0701478675 -0.1778498722 0.13066017567 -0.944859113052 -1.53109505885 
7.11268406389 -0.359966035398 4.44047915136 1.09317846634 -3.47746698168 0.556270521478 2.46166624616 0.414335345513 -0.0378540443571 -4.09331229401 
9.67508745436 2.11024764903 4.51297910796 -0.213760492804 -2.4884398968 -2.80449215485 -0.437182870376 0.566172818177 -0.220517309382 -4.34245531809 
17.1154668132 -5.242045975 -2.4020724794 5.52239519671 -8.32402507481 -7.39821981601 -4.7823003744 -0.83360974311 -0.0284713497037 -0.212618073871 
18.0058733346 -6.46090178973 -3.51988050196 6.06727499191 -6.32940175985 -0.74641107534 -5.2833016572 -1.73227268974 0.550505357151 -1.36751647979 
18.4423405583 -5.32874392102 -6.66098630719 7.36110861788 -8.69202528765 -4.6011142563 -3.30781261734 -3.11079651372 -2.40427468037 1.89542108951 
18.5812070833 -3.77358138233 -5.16582346957 8.17190519939 -4.49705715377 -0.856487281962 -4.87811880592 -3.07825306808 0.573066535501 4.62762412329 
17.1710560274 -3.39456212504 -4.85664376234 8.52373216599 -4.50054375002 -0.909287425053 -1.63314241326 -4.15729005713 1.00409671214 3.44473733802 
14.0986484884 0.821293498018 -3.80443581429 5.79580399486 0.636476804155 0.586125402115 -0.113164318487 -5.24208116343 1.32808320457 1.38016335205 
19.0246659775 -0.831489338086 -9.36739486741 8.69553985548 -1.79000625586 -1.59005082513 -1.93172986705 -1.83964620807 3.37748243307 1.21620262544 
18.162338738 0.911862607867 -7.24103568969 5.09550503709 3.28037591181 -4.51919808324 -2.60811744464 -3.55491822449 3.57608089717 -0.419010731986 
18.1323073971 2.24239837266 -8.12666838914 6.79607738547 5.54343381668 0.840273397746 -4.77534516354 -4.62552344437 3.00996095819 -1.64262558411 
14.0406018412 4.57666675555 -7.47802646059 4.83910016476 7.36534297911 2.71171157702 -3.85134086961 -5.20516540252 0.6273053591 0.0443587342624 
13.958886059 3.80425298012 -4.93693170112 0.177921352329 7.84650979291 1.18766321563 -5.51479543727 -3.79343541461 1.04313519315 0.420541339333 
13.2847586908 8.54069514943 -5.55382611305 -1.29465982808 9.13232959436 3.04721921656 -5.51303593475 -3.45980708041 -0.687693121288 -0.687447273527 
9.21432170342 9.48568715132 -2.01509530961 -2.62670815687 9.03818661288 4.82869815738 -0.313664447697 -0.193722764712 -3.54113407096 -0.607203175405 
8.20606948047 10.084886474 -0.525929516694 -6.10279900263 9.88957377201 1.44217362032 1.49428185932 -0.661027862509 -5.80531812225 -0.974313546933 
7.01143436139 9.44913309001 3.69540554385 -6.99680378955 5.18755936779 -1.06115728022 4.75799469393 -1.32391773404 -6.55518474121 -0.271169102368 
7.79548349343 12.7939687862 3.20857137153 -1.87361454946 3.62427657323 -1.11400439954 3.18722720093 -2.8923917483 -0.727566383084 2.92128709352 
7.24562981948 12.7198638621 1.56382516638 1.17012871951 2.89182109169 -3.77651215895 3.8984484606 -1.23912295781 0.248202300659 1.86596495839 
13.7492608997 8.35831180251 -2.01959240951 4.20046065534 0.76307966986 -5.24936311942 4.0674264186 3.18210492438 -1.479182701 3.40433639739 
17.903806324 4.31190269069 -1.46117765192 5.80790161802 1.87096220891 -3.70044106862 -0.752136918721 1.97517902945 3.42568545291 3.55393378423 
17.4163222543 4.36352270796 0.72235104048 4.37469515737 4.65791976763 -2.0158355369 -3.19429248983 -0.312866749034 4.01435990656 2.79315695937 
19.5822398771 -1.37142942765 -0.00650050575281 7.11063008564 5.2121933487 0.362893658644 -4.98795823475 -0.234291828132 4.21161810636 3.82382380116 
20.5883269052 -2.60940775179 -4.29400567997 11.1047417851 2.94127204544 -0.644870254545 -4.43669677637 -1.1907351503 5.90479341757 4.23181977015 
19.3454364579 -2.8597166864 -1.46980042109 10.1161667201 -0.751317481452 1.65486709843 -5.21021415719 0.775511095911 7.01563068904 2.35629539341 
13.5072366925 -2.1760179771 0.452987732426 6.33828982451 0.20887135908 7.66517631605 -0.885772615554 3.58742018694 4.14579240474 0.284217763576 
14.3001156156 -4.00272080032 3.87569495292 4.44735091633 -1.47298602733 -0.161427048721 -0.310317727655 1.96555083006 2.07219550041 -1.67515561988 
14.2450800523 -4.76209056296 3.53423694152 6.47656772832 -0.678763573121 2.96153605998 -3.69707228732 2.85025053541 1.25903342287 -1.89066341381 
10.5188231868 -4.37489249449 6.95253144714 4.45740597101 -0.260926839419 3.36102409761 0.382750012388 6.46876605782 -3.3526022243 -4.4672628781 
10.3662393752 -4.38185496224 7.6077921399 5.87587916345 -4.98963390656 0.276927483206 1.12693951687 7.42691604325 -2.87942675226 -4.39366394836 
7.89074226875 -5.25277619143 11.5794677164 3.51029314114 -6.47568595515 -2.2126166756 0.0673055446236 2.78693172254 0.0434298933461 -3.55545981562 
6.63166601278 -6.17617685943 11.8375464037 0.232191455412 -5.21075104485 -5.77297708489 0.930382858123 2.01786943525 -0.698938741528 -2.38042462511 
5.51174713378 -5.5409976333 9.19873216495 -3.54268466657 -7.75625906728 -4.83973247383 0.600648009326 3.22160078182 -2.29286467624 -0.811370413933 
3.11122724976 -6.80845644745 11.4333068737 -3.32392035394 -3.46737061665 -1.19307005404 -1.96328001479 4.16327007201 0.665923883528 -0.202408026583 
1.87873364546 -7.19781120105 12.6159635296 -2.28894076784 -0.758665782372 2.31189326476 -2.00137655673 3.03048056313 3.67374129887 -0.620296420101 
1.7530602423 -8.30072061967 11.9292139451 -2.2535598065 -1.01956290521 -0.927607221913 -0.830507447892 2.14503493885 4.69810528746 0.945547042029 
1.47448041134 -7.20126567544 10.8395289684 -0.514918994834 -2.37318929842 -1.54696780767 -1.22453661828 1.53735504642 6.18836939099 2.4073061229 
-3.80551073142 -6.25187079712 10.795306377 3.55428021884 1.4628126448 -1.78609199063 1.90821474583 1.63410570636 6.08248526647 0.523686935797 
-6.63772875701 -6.01526587577 8.01952136233 7.91408540715 -1.53881975021 -0.365492804077 4.30168855914 2.48163684853 5.2763469756 0.421003136208 
-8.25405069762 -8.24299034695 8.87621536874 6.84344801139 0.509805429756 1.61508927904 0.322127306775 1.94320346785 3.68581911489 0.116702612503 
-7.8398436077 -6.069603691 6.24229004854 7.25464367919 3.11905410629 -1.36858714514 2.5989426248 0.609485342635 4.8848454675 -0.0741144310344 
-7.50846852098 -6.36279247439 4.33251136512 7.49148095833 0.395933062361 -1.52387422963 3.77488057227 1.60888796438 3.53767486922 1.67163680046 
-9.14195100824 -6.27631683058 1.44801226383 6.80700895676 -4.16009086773 -2.75653309013 4.22541453714 3.47867066565 1.18480637255 1.55371926216 
-7.4739825442 -7.90148462966 -1.13446871886 11.6710403255 -0.186408671968 -1.8889918718 2.81023535593 0.378916104648 2.05755786039 -2.14629636263 
-7.16342655464 -4.81720770888 0.123344113108 15.4725174611 3.81776613923 -2.34300037694 0.536170924326 -3.37093721852 0.24476884503 0.801427668897 
-9.58560838623 -2.40786385384 0.506823756081 9.60378311246 4.12849902962 -4.64348611758 -1.52993717216 -1.00384485184 -2.1313543657 2.24466643692 
-12.207865421 5.33152039114 0.684942096161 6.6049396902 2.66204821833 -0.654505795421 0.840703198819 -0.249985052054 -2.55409033269 -0.22305049339 
-10.6432949477 5.21319573124 1.91489077713 -0.320830525168 -1.50306094836 -1.90452397446 -3.96172948066 4.91553724157 -5.6772296182 3.01296824355 
-14.3558642301 10.1392583022 0.821595698719 -1.89267359022 -3.10853066909 1.86713236461 -7.00100892501 1.96581427458 -0.943477380551 6.74480210723 
-12.8792701285 11.7833816748 -1.01894796975 -3.35371323706 -6.08463378874 0.955541355371 -9.02577502078 -1.80228582052 2.9380832457 8.69541296865 
-10.386665934 14.6728258437 -1.16276508351 1.43251256012 -8.33656203589 3.31675757341 -10.1749744037 -3.00048306536 5.61856472674 10.8900870264 
-9.55626358357 12.7050733794 3.21346035999 0.0340843016241 -7.18616293263 0.560251686756 -7.02809812188 -0.772033946485 5.00992637037 6.10180026195 
-10.9141635517 17.4044386507 3.35402724285 -3.15170136464 -7.60714245229 2.17813453321 -5.18774140116 -0.909189157119 2.3854812466 2.76568570941 
-6.38374870037 20.9836390563 0.85218706732 1.60029443219 -6.65676990039 3.25609104667 -1.63813817352 -6.05662337766 -1.4314110915 0.946566314114 
-10.7148715605 22.544508914 0.463866562164 0.751050260127 -5.65033629792 1.27866043543 -4.03435335952 -3.03839686815 0.598688859804 0.98328752999 
-12.2086496922 20.4166080916 0.386634714833 4.05848995974 -5.00034559311 -2.18471001397 -2.69667482873 -2.62782395076 2.80891514182 0.605283521814 
-11.6329106951 15.3867550786 1.98967692583 0.365213977696 -1.01527625214 -2.98379056863 -0.295971479312 0.951676973349 0.758301072426 -0.974257141221 
-15.9470687025 12.7532148897 0.411501201619 -5.35821549194 1.35452464376 -3.89048393433 -3.93132578248 2.7199998722 -3.15627589886 -2.09908524289 
-15.6347483796 10.5143060521 -4.04465806692 -5.06458678307 -2.8042617735 -5.39373605657 -4.1527570762 3.83612217345 -4.36279626575 -2.33910930506 
-16.9774417436 4.96466832091 -4.72917911382 -3.46102521709 -3.71884664166 -5.93726387065 -5.29864806548 2.95813425333 -5.65169955884 -0.353426966718 
-17.2882501158 3.90012475278 -3.62172517243 -2.533669216 -2.54572212656 -3.48220614646 -2.28315813177 2.94713773461 -4.83884292453 2.19448917072 
-16.605536872 0.776258777392 -7.02383353808 2.99562346715 -3.18968628385 -1.74068530363 -6.37172651145 2.59295950014 -1.78055386373 3.55446793892 
-15.231359015 -5.74252963478 -10.8590493687 -2.67852023702 -5.1052026261 -2.1064411444 -7.9597106996 1.63236573275 -0.19700915013 1.76576410894 
-14.5017989391 -7.97708580368 -12.2826282292 2.9307913122 -1.43430041383 -0.143349354604 -4.98975166774 0.439327912466 -0.427021797187 -2.3243768717 
-11.4780002044 -13.0133337768 -14.8585472189 2.54699934292 -4.73050717246 -3.27759803059 -0.247864327466 0.740008901761 1.4262477565 0.74786090622 
-9.39670696655 -15.1637439364 -12.4783045545 -1.19704186469 -0.244550692936 -1.33293438391 1.15382282665 2.09287273853 0.643869114056 -4.05021394197 
-8.35049353538 -12.3564559664 -9.29350239445 -6.10002263233 1.17763101491 0.587819723389 1.69043749678 6.27306841263 -2.75974630925 -2.20352534374 
-8.89148376 -11.0842320327 -9.52303702353 -2.69676696102 -0.154972079301 0.537881199192 2.36583500108 5.53551431877 -2.22250444069 1.47175085424 
-8.74952392221 -11.1412542672 -6.64250779753 -0.762011557143 1.41704736807 1.12245872888 -1.00516336375 2.80944176951 -4.57314505157 4.66400241181 
-8.57798107222 -12.8788264465 -7.32737329053 -5.69845274897 5.09720921498 -0.815502892749 -2.8657501993 2.90077699447 -5.82065602449 -0.949225456485 
-12.49760229 -3.11780750874 -3.27270887252 -4.24521608029 3.9964242124 -2.87819262688 -1.13544023966 1.30692827684 1.28868415719 2.89964332051 
-13.2888394403 -5.33294356095 -3.21329374349 -3.25292745511 6.191267018 0.930610919749 -0.32774035022 -2.08079960424 1.22041064092 0.0465538111492 
-12.3530290134 -5.51476179897 -0.26695992065 -6.48537982247 6.54180304042 -0.539670380759 -1.35440659121 -0.973746000859 3.64724974657 -0.379345299086 
-10.0227635662 -6.07714920683 1.75875293384 -3.5053338199 1.98245345583 -2.59961400313 -1.23443348639 -1.42967603239 4.02319598043 3.80991122785 
-9.0308603848 -3.70678792391 5.24405084739 -1.61160908915 5.97355035569 5.2085798378 -3.15342732636 -1.46201570404 1.80502003614 1.58863605033 
-4.35279055998 -14.9007070004 3.48058153212 1.12094828814 4.66697506386 5.04159208692 -3.52524938295 -2.68445357052 -3.18207969585 1.41701072125 
-2.16575692493 -12.0647468092 5.2351203872 -1.98827586208 -0.556930829038 0.93062695582 -3.35859818769 -2.16484058627 -0.474862737581 0.601071577552 
1.49573624408 -10.4987817177 -0.367190716069 -3.09666460034 -3.42128383178 -3.24720714124 -4.79689287877 -3.63529219668 0.72614371329 -0.68249559159 
2.32922975307 -8.59576284815 2.60030179711 -3.47361886276 -0.321403929187 -5.4758126793 -1.49763475809 -7.08784414632 3.67937713569 -2.2345871612 
3.34901554995 -8.87513687087 0.914254413749 -4.51050580429 -0.405062795894 -4.32238267009 -1.20580313266 -7.52377325969 3.43754327135 -0.801475512016 
3.60808191221 -6.96353297254 3.78895246149 -5.34857335871 -5.09571100149 -3.25619622639 -1.82146626818 -6.45683637972 3.80987795471 0.999310635612 
4.40144927863 -5.56355153185 7.24937665521 -8.05217265662 -3.65056276805 -3.44385272278 -4.65724422894 -4.58889509797 4.16981493984 0.294171525591 
2.43152007036 -7.31674603638 5.04504459601 -8.9001055337 -2.47367117696 -1.89993341965 -4.05805288351 -5.26032082687 3.19518621087 -2.8724260286 
2.60010735505 -5.22485363945 3.95615458498 -8.00629722105 -5.4563178672 1.34311042411 -2.63317873431 -1.56674278114 0.220976257851 -0.361702330131 
8.33083647809 -2.42624017361 5.55895102663 -7.42622892599 -4.34124388619 -0.263202453578 -2.13282541495 -1.10510748162 4.93446237475 -3.13954712015 
9.99556539669 -3.40562906382 5.08615341572 -4.11913266943 -3.48707339189 2.72547852143 -2.46746731906 -0.313908929268 4.27479404555 -4.79915501675 
7.66951222346 -4.47901680185 2.12664926722 -0.772312870448 -3.23600058993 6.52245135789 -0.981252578774 0.117995088815 2.39531086054 -6.25694381651 
9.86994381879 -6.47368413566 -0.827556570633 4.15025709841 0.143248068604 11.0053318319 -0.961234992716 3.98884192714 2.48316644245 -6.79302517465 
12.4697442219 -8.86030685805 -5.83738595812 9.92047493514 -4.8103389183 7.33571975762 -1.29078943396 2.22909640204 1.95173237072 -4.66510627667 
12.8156407355 -6.85783722189 -5.05924696412 7.22693262224 -2.25864914245 -2.12417448816 -4.38162700004 0.227788373741 -0.548120777088 -4.34441813563 
14.5101084106 -6.28899278973 -7.09251928897 7.49044837128 -4.65432564599 -6.70265412244 -1.77895630272 -3.68190592831 -3.33234382372 -2.34672977808 
15.5523189375 -5.73018704576 -9.233249299 7.81825526661 -6.48111640594 -9.65647506749 -3.91183773112 -4.21839935205 -3.99853696284 -0.834410794119 
14.4989573718 -3.7135853674 -8.88579336536 4.78085227475 -5.42198322556 -6.98336440804 -0.954620554316 -3.35769721974 -2.17383056614 -3.19676724243 
15.5446403366 -2.48295698035 -5.25908178317 3.16016462314 -0.786001771787 -4.7100361084 -1.30213249313 -6.2619338855 1.06898721256 -1.92160168789 
14.1197241085 1.43995701308 -2.90855080674 5.23412772883 0.196525274641 -5.95053374333 -2.33600619325 -5.55072391498 1.10124494953 1.04459500559 
12.2025757312 3.42795846177 1.34427152353 2.11282804429 2.23597475601 3.77156234326 -2.18664422943 -2.24392259392 4.18330072163 -0.0618564511083 
14.1758269059 3.89460054577 -2.12888748813 0.700979123217 5.53650003255 5.27693313916 -0.582421851267 -3.0291065082 4.77376019276 0.615280448594 
12.5683032478 6.81526789027 -2.9306147162 2.34935164727 5.98494867679 5.01040194448 2.18571283468 -3.16363929296 2.24952363305 0.764957767538 
10.8665014481 6.94857155243 -3.2473266923 0.134894110658 5.52766440083 4.00284821519 1.91858856103 0.185353381012 -2.23606112388 -1.2438201408 
16.1516859021 0.743047243879 -7.23087256412 -0.198167383315 6.86513279057 -2.35415908877 -5.07311563908 -3.31733568826 -9.89689424786 3.68319500947 
14.3449844366 0.568976329845 -7.41410931891 -2.15905356968 3.62728834916 -1.90882178145 -0.354786909043 -5.29477383208 -9.02184364253 5.09939661059 
12.8536238184 2.47335098191 -7.34934618087 -5.5575395392 0.776888135782 -9.06326563936 0.839035975099 -4.08123866135 -10.1438963737 2.90148068501 
13.6317785388 3.48041828883 -7.50423371297 -4.97079402169 1.2639643626 -8.63246319973 -0.240853622698 -4.83165510937 -7.18174498131 3.30823049411 
12.4682683348 4.28415665613 -7.00990750166 -4.9419698809 2.83577438881 -1.58183010551 2.08600235346 -3.56876274364 -4.89072600338 1.39870667649 
8.74707979364 7.48549080259 -4.81394423416 -1.89074221895 2.71654055971 1.82695782792 3.99663376408 -0.298635955395 -2.29690327834 -2.30701178621 
10.9786788941 9.13072351267 -1.25971450152 -4.70263585422 3.85303216543 -0.570449918442 2.93174223895 -0.239640756541 0.0631412543033 -1.62962793385 
11.3472771457 10.2111884608 -0.46817716244 -5.23417923314 4.24686903169 -0.874422086541 1.5500098268 2.28735757559 -0.434603635857 -2.83794986663 
9.58744696963 13.8328645917 1.68514422521 -4.36342553272 3.66556698789 -1.27563109328 2.63906834287 -0.268889122493 0.0840055712265 -1.69977490455 
6.39488574706 13.8427021311 5.6206185111 -6.63725564106 6.63593695417 2.9998083369 0.654010898782 0.317252012518 0.754350253655 -0.535185471274 
7.19564855148 11.4037852737 8.77804273551 -6.1342102113 6.38990969106 -2.87443965075 1.27306519964 -2.87941978145 0.884258720843 0.916943530135 
8.59600695863 10.4531748013 7.07464609153 -2.26271717266 6.30462004296 -4.266577262 0.12261683669 0.514703453327 4.05546741069 -0.0219112626561 
9.7037720965 9.45014202923 2.88742316921 0.66767527623 6.07195632293 -2.84505805022 0.136915498589 2.9985203915 3.27832409599 1.94426405551 
13.0164657804 5.83578161623 0.378546501601 0.757851632314 3.09431476388 -7.44894532921 0.618581916797 3.53843923709 0.95552126379 3.82483076697 
14.2567291941 1.94210027084 0.164238888714 -2.01764589971 3.60406567036 -4.16584002415 1.22718667959 2.506681003 0.229688357044 4.07228837441 
16.8729945322 1.74574179285 -3.32558972676 1.87840936267 0.414097578932 -0.408231816444 1.823228885 2.94611321396 -0.0441409799798 3.37396331602 
17.9042096556 1.09909226446 -3.75310797994 4.69913325833 2.38750946533 0.374535577014 2.43951099016 1.83271210683 0.00318941939016 2.21133112358 
22.0973907428 -0.570662714893 -5.04583851374 10.8064464525 -1.14954470325 -1.014668705 -1.56250254527 1.88591550886 0.158986579556 3.98589310256 
20.7397108401 -3.84003363451 -1.71802440558 9.4602833675 2.76703517707 3.60785483002 -6.93851476592 5.34756644871 -0.478655894685 3.04338863449 
17.6073059055 -5.68989077233 0.437794155278 7.60374076885 2.15953297384 2.06779397683 -6.92714667116 6.39447359177 -2.12534410884 3.52222207348 
14.5269839556 -0.295303576859 2.96810720036 9.05792017084 3.52034981279 3.55113323207 -2.95046566935 4.46249054018 -1.72196751376 1.32412338516 
12.8553568737 -0.282330263782 5.07448179862 2.48251023955 2.06250761679 2.74774116611 -1.78439402042 6.48390960934 -2.38493772795 -1.7883018516 
10.7435406532 -1.39018303614 4.89950110317 2.08824032239 0.641158154786 3.24443562078 -0.347858913957 4.11300006662 -0.460703983958 -3.37855207105 
9.62205357444 0.509552554371 5.16389859421 1.76075346763 0.652018974811 0.092435844298 -0.110592244346 4.33875632728 -1.89152732942 -3.58212473617 
6.4444205285 2.15656791603 9.4410757101 -1.42071716071 0.315008689616 -0.213217467926 1.54931969934 3.82310827578 1.064847867 -6.21256288306 
11.2135889161 -4.09376770712 8.02365550741 1.97071449948 -3.37804501619 0.128233375536 1.29075900387 4.63653769519 0.230848505896 -3.56276902082 
7.53679104299 -4.8175605813 9.55508712962 1.24607093891 -3.17103332654 -0.660965154441 2.52860217705 3.04248666546 -1.4316970103 -2.00716162237 
5.58059294633 -3.47024086483 10.8238962574 -2.9688877233 -4.33822349545 -2.04342762856 3.84148277376 2.31066554435 0.99898691045 -2.04859139458 
2.85710743193 -0.847611862048 11.2179165556 -7.03739626316 -4.03001973171 -0.499439938986 2.50209921857 0.964170684899 -0.180194226874 1.52057939959 
0.941255309959 -3.07416582978 13.6398063337 -8.51562971455 -2.42171695674 3.90693204136 0.375355778824 1.17261729269 1.47861170483 1.5026508068 
-1.66990543806 -5.16543499644 13.5145108769 -5.2865431837 2.61479689036 3.93467413782 0.294488408607 -1.53818772679 2.33362468007 3.27378260633 
-1.28311965154 -5.41445604197 13.579357425 -5.16100364116 2.27599556209 4.74824817676 -0.320720178426 -0.0491731690115 2.85073466288 1.95192221735 
-2.52578769342 -4.99003144544 13.6724091779 -1.52500020097 4.36050325622 0.242553699136 -1.35843613476 -1.07930101409 2.06673696456 3.50017572281 
-4.39929819669 -5.03916752144 14.4432453939 -0.797829938846 4.13250198321 -0.00811559587478 -1.2578628317 -1.11004556697 2.80860952886 0.591481292273 
-4.84070010813 -6.25954800362 13.8887146694 1.98705169192 6.69751152811 0.354351060086 -3.43013463532 -2.35447995625 1.93615398637 0.0782737979037 
-6.07067470211 -6.02328693305 13.2782375336 6.10920512988 7.00828094282 1.4607033476 -4.16819555273 -2.51835760019 2.69044856674 1.60347470968 
-13.2933041989 -6.85626720586 6.77567169071 4.2739261072 4.69946263875 1.40293078544 -1.15172598253 -0.865951674221 1.38644425341 2.24142868666 
-12.6548216466 -6.85059453822 2.9540429587 5.2845854859 1.83643754913 0.613216648159 0.177493777097 -0.0431369383054 4.50535571634 1.35170841089 
-14.7310017751 -4.09000379251 0.967823678734 6.79775120175 1.52947554588 -1.02854318391 0.313427155714 -1.42094525435 2.64663142779 2.00683578782 
-11.6717364386 -3.25980429017 -0.213907692415 9.82937498344 -2.37095104931 -3.56718270073 3.80898836852 -0.182084167874 1.36171520251 -0.177810072283 
-11.0387759474 -2.65932876308 -1.03092748955 13.8393714462 -2.50598179945 -4.20589192509 2.64311698207 -2.19208307638 -1.03218962468 1.51894190491 
-9.46782877042 -2.63408189604 -0.565809396549 14.5585668205 -1.20416358137 -6.72117469226 -0.791478077321 -2.27336159075 0.527059716214 0.290892925597 
-11.9483011534 -2.1614499512 -0.510252343383 9.22753565591 -0.147916569623 -2.66158818428 -1.77440541468 -1.69307433179 -1.61359227665 -2.1850838363 
-12.2926949683 -2.04648167907 -1.81278299557 9.29239483685 4.58317947365 -0.384969553622 -2.57928057503 -2.9742118809 -1.82411209577 -3.49673052391 
-14.5436454557 5.55486246595 -1.46984788922 7.06963079616 4.74874715631 1.81467731563 -3.37235709834 -1.07264124539 -2.57068760191 -6.17163401674 
-12.7903067605 9.08756727845 -1.24336693626 3.82538145964 1.89108226074 2.93372785433 -3.18401213104 0.913699708218 0.296449625708 -3.35619028287 
-8.91470331338 10.3504060513 2.80391842411 0.870485225502 -0.745380274813 0.206687536786 -10.5209369748 -1.0317736962 4.30910154468 -4.72962167419 
-7.23588152745 13.0209997992 4.7841844185 -0.129262106095 -1.66751542668 -0.331435526167 -14.5274592632 -2.28948245384 9.68824191492 -2.95450961132 
-7.19641115683 13.7952496323 6.02674984812 -0.457640412722 -1.69624666977 2.96562419045 -13.4629283692 -2.18270505 7.96774105533 -1.21471067726 
-8.15395051195 8.70689382916 4.74800105795 3.09763796744 -2.51531208775 2.49838582449 -9.37425903133 -4.47938131389 6.41748016717 1.58974411072 
-9.26830185027 12.2404137589 3.03707794638 3.57085575428 -4.29332435405 3.46249667891 -11.0511173352 -2.69306824205 8.08617126367 2.79532516939 
-8.25324833039 13.9736851364 0.587864606848 1.0272950482 -6.1812460103 6.90774769886 -4.72362125517 -2.21856862673 5.33418105613 0.817496062138 
-5.48707525611 13.6965180094 1.16599432127 5.32780186127 -3.53654148299 5.86743711096 0.402834798759 -2.49345675651 4.3986583 1.37980979442 
-7.37977961768 10.7641781732 0.663294038047 4.37284424323 -6.95219639464 6.6086545136 3.28815421056 -0.230213982373 1.53144148067 3.47741082508 
-10.3143365765 16.671960486 -2.78523300603 -0.16391924641 -6.11049762785 3.82317228855 0.77339908947 -0.80125078046 1.66116195385 4.35905750571 
-11.4406357981 18.8445591794 -1.84746974157 -1.20048795464 -6.89907691838 -0.898584119302 1.21931177106 -2.67369956069 -0.113825479452 1.50438596329 
-9.92133685701 15.7141626256 1.26546202053 1.00690918038 -1.2523115519 -2.8555286191 0.708371309369 -4.67971069796 3.54811075713 -4.81104303152 
-5.52244106211 15.1320964772 4.92367127133 -0.240821471261 -1.47398083042 -6.61530984592 -2.45786276542 -1.24795135814 5.67607500359 -5.06839637849 
-8.95568712002 8.89445607321 1.54354395531 -2.50698081624 -1.81930263471 -11.766889357 -2.54149067554 2.43798926903 1.60927228546 -4.13612549816 
-10.7672076072 3.11234434854 3.12487026454 3.27126234207 -5.92205848495 -12.5717850255 -2.50352561219 1.31479121575 4.95165143578 -2.15082084223 
-8.49420244318 -1.6565272712 2.91570339045 7.42609958565 -3.78127896004 -13.289683211 -3.8378845085 0.235197885027 1.18837435364 -1.96008849035 
-12.759465928 -6.65713323306 -2.02819330511 3.60356810701 -5.22149182764 -11.7453540089 -2.05103299502 2.23069156253 -1.10414709591 -1.77691759494 
-14.9302070756 -5.20100141969 -5.07416032006 -1.89225919495 -6.67713641053 -8.49322653131 -3.1211700117 4.62176191537 0.432996451919 0.770278130979 
-17.1529688471 -7.31879614875 -9.97322948969 1.28748643556 -4.38820172498 -3.55860836225 -1.15722386835 3.20668676988 0.249430631548 0.449250051408 
-15.8090050379 -7.68934231625 -10.4902546468 1.80044250853 0.962423979702 -3.58356410919 -1.30712236855 3.0873784835 -1.31623812948 -0.851502743982 
-20.8998281794 -8.73685743456 -13.7440328712 -3.57578919952 2.60548100537 -2.67077889179 -4.64282357852 2.85371749157 -3.96666358931 -1.62219658911 
-17.7344516121 -9.41650102562 -11.7115311526 -8.62074982218 5.92227084606 -4.18933837806 -4.91688178286 3.28231873449 -3.59766833935 -3.69988673654 
-16.7152552944 -7.83378393351 -12.4181369309 -7.3098781842 4.81217830011 -5.0057011849 -3.08886956942 3.75656536105 -5.03744530369 -3.53398017162 
-14.6859609132 -10.8633162055 -5.72670235144 -4.12287333838 7.0746842821 -1.56580695301 -2.0434595532 2.12180333495 -3.89603543584 -4.21112765733 
-17.5376428572 1.71734502002 -2.05600629607 -5.71801651344 4.51958241584 -1.97713632721 -1.54895008601 1.53051224807 -1.28593259603 -0.703669643482 
-16.5161481153 -3.84305925191 -3.11490125675 1.01381211085 4.16415321239 -4.4163744165 -0.422019984629 -4.25763739588 2.70273707057 0.140188150373 
-8.86794370615 -4.74305242077 0.344795182213 4.97939363899 -0.289652598369 -5.28995396818 -0.026569306966 -4.43336475334 1.22253576994 2.52858260305 
-9.16775163061 -4.63494153401 1.4179263416 -0.89096981254 3.06274890342 -1.69045990593 -1.00798865326 -5.75444446658 3.78296370076 2.42093055816 
-9.55292567956 -1.51838032743 1.82865864825 -3.95080386819 -1.38878908561 -1.48051762725 -1.70909455717 -3.28357331803 5.92025698393 2.75662327496 
-5.11427573951 -12.1990434749 -3.08505080277 -1.9243394116 4.22441202081 -0.37891015623 -3.23633913277 -4.83385402501 2.37129940634 -1.28616226205 
-2.93670170305 -14.4971365907 -1.14537880411 -3.3095665726 3.90856032619 2.01177976067 -1.67498304078 -3.95385636678 4.7681384089 -2.87301804062 
-3.39387848942 -11.8153276387 0.92296080959 -5.94909960428 3.53155863455 3.39548550082 -0.911664932895 -5.87500023356 4.0548732757 -0.423576156318 
-5.74126146656 -7.78554553367 2.97091414967 -11.1488422473 -1.36128046404 -0.0949149374487 1.33061855237 -4.5724689522 4.37426522031 -0.461146866156 
0.419638045983 -6.36177073689 6.54654925486 -7.65563044087 -1.60657473547 -0.0792107083042 -0.386743727884 -4.50075310041 3.49662131078 0.952808303187 
-1.09075186512 -3.0057490116 7.10037456185 -9.52278032866 -3.05355316268 -2.82628421448 0.965466199786 -3.92788163203 -1.09845923882 0.282568534642 
0.200745998151 -6.32660552342 4.33075553177 -9.55986565675 -4.04408476206 -4.34940348224 -1.28705967973 -4.64596527663 -1.90028861315 -1.61222459494 
5.70429487887 -6.18282079656 3.82672761917 -6.01859639037 -6.38128717095 -4.10042135273 -3.25839023251 -1.72935898055 -1.03137151065 1.02923917135 
7.86476826765 -4.98134283981 3.69791747016 -4.08621441757 -3.75184670797 -6.10702679797 -3.930408069 -3.01484463936 -0.153508343384 -1.47329741566 
9.70009252892 -5.87472948042 2.39994119905 -2.83105280079 -6.84323820803 -3.20670897581 0.934456940248 -1.10080483645 -0.735506817862 -1.1767705192 
7.93944581071 -4.10927156951 0.204543778311 -2.92232354222 -8.22904665962 0.138176097769 2.93652372395 0.612527669876 1.96139441338 -1.78175312033 
10.6304805401 -2.37020249088 -1.59397565988 -0.24539107617 -9.85754157375 1.47260474356 5.52873166741 0.949172462105 2.39899294262 -2.93170737661 
7.09302097864 -2.61653988592 -2.5962623445 -0.153340144128 -7.42335994029 5.87120102152 7.71349106278 1.30560542562 3.2919193712 -2.87679518426 
13.5888543509 -6.28140992753 -7.81891908693 5.40514428206 -8.37607683803 3.47791304887 5.14734662297 -1.13297076111 1.3452272798 -1.94010481234 
12.6677054206 -3.69829939611 -7.00152262674 4.16037807515 -7.2172435585 2.63450867359 4.19769885621 0.601471787065 3.58338289593 -2.70538609911 
10.2302437679 -3.05622484223 -2.59001658309 -0.293532268809 -1.41839025698 5.21283490093 4.31588421016 1.25236643427 1.18979232385 -4.16437660688 
9.10329954377 -3.70426792192 -2.86254084619 2.04098208879 2.34170906427 9.29987859143 4.6160807043 -0.839034494633 -1.35641450266 -3.70763349655 
7.08086956458 -3.82718763893 -0.166738657171 -3.18312803938 1.99342463552 6.76516387873 3.35264080292 -3.14408304249 -0.060641698986 -1.02822291898 
8.70106452543 -5.94621095837 -1.62955157422 -1.26489099809 -1.17134636074 9.6139795114 3.2555490124 -2.34044984668 3.73809646192 1.70192163438 
4.86501859097 2.6471445411 0.24585442445 -3.72864675206 -0.361106497363 7.81363812631 3.00366801261 -0.412659835508 5.84518553881 0.716594178242 
9.31963427557 2.39548507949 -4.64170083283 1.73835210249 3.20637261333 6.21557248262 0.00244145467368 -2.87004687449 5.49632637949 -2.50704527151 
13.7372282952 2.5356852027 -7.70695309087 3.87368026543 6.33743882631 3.28117469361 -1.13585231574 -5.11037522966 7.72372532679 -1.51461561375 
14.7404423776 4.33095171632 -5.0217375702 2.02744301442 4.6922923555 -1.60507168864 -2.50073804042 -3.87624539295 4.8944369287 -0.720323636152 
17.6793840827 5.09649797228 -8.79389617052 2.41901993444 3.96448021775 -0.90963948126 -0.397394798161 -1.24784081336 3.28542551681 1.33098869272 
16.7721617808 2.89075133655 -10.2517796726 0.347224749054 3.0592134906 2.26004809016 2.00569829927 -2.41752725748 6.04597368572 -0.309211129026 
17.7675773337 3.12967849062 -13.6800765543 1.89272248523 0.918403770031 2.90564208548 2.66642083877 0.776005686335 2.26172059573 0.898600260713 
15.6023838809 5.1015392782 -10.0339143052 -2.30038289228 2.5493828638 1.39031292303 4.40140198019 0.639275212229 0.469444850638 1.91803271978 
13.1660995696 8.25490355801 -6.42109723755 -6.4345770375 4.96420056195 2.61507308501 2.15477556604 2.56660070275 0.290404889769 0.0346877819257 
10.5699292733 8.39877751571 0.392073620973 -6.56448783094 6.47246896643 -0.357546929747 1.09476767575 2.29552607205 -0.266724119016 0.168034582962 
9.87056961705 10.6583788002 2.66966205267 -5.78028389445 8.07534289844 -3.61602750828 -0.63811183619 0.675137777379 1.42686603965 3.27632350803 
6.67968021902 8.36687012612 8.99057939729 -5.42916504537 8.17007295644 -1.51155679891 1.36104661759 0.573142049003 4.17920842292 2.92571395974 
10.8875224602 9.33055721384 4.89182787977 -3.82949513462 6.1016148529 -4.53227266386 -5.29535599707 2.61176821946 5.24226201061 -0.219034227182 
13.0135631422 7.63612278444 2.61902027144 -3.50875897907 5.35928183252 -3.61636958884 -5.38482860553 3.73546722625 4.03448678539 -2.13176985729 
14.9846887408 3.89817813048 -0.818345778217 -1.46926990202 6.85470826204 -2.31131665712 -6.38209859801 3.8554230795 0.487865724204 -1.53568201338 
14.0385721097 4.90423643604 0.131148134013 0.210061015591 5.84297479568 -2.29774677868 -3.79829447569 2.68035662244 -2.09328880097 0.184362169734 
15.7573098734 -0.499636028998 -2.70235048957 4.52359918207 2.97601875883 -6.46871242238 -1.48335052118 -0.488876884194 -3.88613667696 3.24455141498 
13.9735196556 -0.0148481004278 -1.3710106247 3.07387166867 0.723325193552 -4.76431999119 0.564064028074 0.0204954596811 -2.94449847853 3.93395157938 
15.6679497638 -3.12499827232 -0.186336955891 3.85374026946 -3.21448426662 -9.60418087229 -2.14951607612 1.33823904172 -4.81456857918 2.65133886506 
13.5139232265 -3.90062826628 3.76374695184 5.26063271622 -4.21545288836 -8.0763114591 1.13910275311 4.38976292874 -4.10875951416 2.54418729361 
11.0956854808 -1.64821767183 6.42713729619 2.8371135251 -4.75503893734 -9.65860011029 2.13885911295 6.43371231503 -3.3143619837 1.36772333119 
9.34013934659 -1.72285486626 7.01758604111 1.37257975248 -5.03661793743 -7.7260471987 1.6446006616 7.64523904159 -2.22777694789 -1.29260087466 
5.82776018252 -3.14250942868 9.39000176603 3.40539738764 -5.32450938541 -7.63132842998 0.736137959439 4.447465656 -5.08568417349 -2.72353044947 
5.65847973406 -5.2417828705 8.58103328781 2.65754680419 -5.38474519632 -2.5809550602 0.156187714655 4.51140315994 -3.75698725284 -2.04445453391 
6.15197763912 -6.20509541 9.46242326159 2.69005111232 -3.3124929605 2.36315044033 -1.15533701241 2.6370710928 -1.93917513814 -1.2037813981 
-0.130089233507 -0.561063413844 9.8947706839 -1.39918263492 -1.1340920653 2.44573934387 1.34315653783 0.0058376700746 -2.20845502449 -0.560311245287 
0.914355557667 -3.81705803104 9.52774507015 -5.38300532905 -4.03165998795 2.0098046387 0.431799312865 1.0884387663 -2.55955612647 1.12459930898 
3.86116823815 -4.72303236833 9.37874945912 -5.44300964833 -4.45755219464 1.53730510003 -4.34228143836 1.25595329965 -1.36780245421 1.71872936399 
4.80006323011 -2.08652663949 9.4064589249 -3.28661388086 -5.7061681807 -1.07360894281 -1.18632525345 -0.533633952892 0.916585606663 4.65413055467 
-0.339632906449 -0.373008070981 8.49345439504 -5.31893130664 -3.05434527703 1.10636112968 -2.09487090832 -0.44703611436 2.82492223333 2.90312581524 
0.779414056335 -5.72475751404 7.81998558365 -3.16834779583 0.938550135265 4.59820316518 -1.65224683117 0.658208775655 2.19442571712 -0.672783518736 
-2.54269002822 -6.13510317994 8.81212229985 -5.86884360962 2.80330408515 3.96341025409 -1.44938855233 0.590272284979 2.19340480637 1.29472881549 
-6.46738577762 -4.71548907278 7.77679521939 -2.11576995562 4.87978317597 5.68880320791 1.35943219615 0.631933560048 -0.806774536879 3.01267436012 
-9.84145106207 -9.86685305051 8.18152670304 2.79955784116 7.39288222803 5.46772985995 0.553759774103 2.04854459037 -1.03342231028 2.94247747815 
-13.2182262339 -8.3104288057 6.43947596942 1.53807364552 3.7733044048 1.59085552033 3.65323734195 4.09474119286 -2.94723011156 3.11162795828 
-15.7266543797 -7.3569302102 6.13656431483 -1.18846683775 2.8583828704 -3.8060652402 3.29615188638 4.01970757576 0.695626845427 3.05257741372 
-14.739756297 -6.99346637809 2.03105149889 4.07606888072 2.90160787975 -3.0888071312 6.79582552428 2.20067300181 0.492872599889 3.51236090946 
-11.5795028005 -8.0997019538 1.86551284802 3.20554120377 2.58922119293 -3.74685323493 3.73137225273 4.64303309099 -2.90342254006 1.8947528826 
-11.5179411086 -7.70880660278 -1.97558027932 11.6925623671 3.78997347775 0.518064786091 7.41236583753 4.50500697092 -2.19503012285 0.321812064178 
-8.60286117811 -10.2567783022 -8.18383433508 15.4931618955 1.7856497198 1.16774025237 5.4107673531 3.31192208466 2.72744220648 1.39938337844 
-9.03585117134 -7.69547203099 -2.38733182869 9.75906863581 3.2296595272 2.24426160178 2.83780417546 4.76980118311 -5.47692679292 4.17411239825 
-14.4407553379 1.43780674336 -6.07548680928 3.64937473259 -0.356044893773 -0.169936185722 4.91774371777 3.59145713694 -0.474754913096 1.33831745776 
-15.6558494364 5.62948687033 -2.57337668096 4.97024559423 -3.96838574604 0.668850794817 1.75928119183 2.16984650167 0.873352908601 4.32504354303 
-12.7069864191 8.53216139481 -4.59197724026 2.5026845001 -7.01646980273 5.79575517836 3.16984395757 1.71414513678 1.71745770981 6.84220137588 
-13.0964653365 9.08309385562 -3.68835049589 0.660205141733 -6.80539650384 4.95578024831 0.22037275143 2.71122030063 2.0996678298 7.98433884568 
-14.491933464 12.525668098 -2.19153080268 -0.758297654885 -5.05890858078 2.97195982089 -3.94777525826 2.18229845208 1.6548690685 0.738435986593 
-11.0844707632 13.1398776841 0.237959818699 -4.01364459152 -4.39970702898 3.39981132833 -1.30365123548 1.32919576709 1.71937290911 -0.655220184562 
-10.7514967865 15.2429589611 1.3996852983 3.60207790076 -1.33158609148 5.76614429932 -0.599965118174 -0.257992611349 1.22950823167 -5.2685131661 
-8.50892821526 14.7030509266 6.41137235522 3.99275407578 -1.24089497037 1.46079133578 -0.64424874426 -3.06797183849 3.60774392379 -4.32147216073 
-3.20478980323 15.634439561 7.07171109791 -0.0070073749299 -2.07492610458 -4.1003956745 -0.105645483013 -4.60087922448 4.82307454609 -4.12966991381 
-3.42779723176 13.8816041519 7.09203388597 0.96399910703 -2.02063751386 -5.71666354701 1.61199590154 -2.24781451487 5.56396182957 -1.85010168685 
-6.98368631077 9.46101710616 1.33168970389 -4.88785273044 -3.69575817294 -9.84475766874 1.08240654138 0.47692939765 2.75114656053 -1.94676627352 
-10.5884697197 12.8690899821 -0.357266267611 -1.28948831112 -4.00214509897 -4.20619773301 0.986768820181 3.22999297864 2.27727165613 -1.69651860752 
-13.0879354352 11.2629550664 -0.862611834662 -1.15236884226 -6.09016133025 -3.21635584843 0.601161391252 4.51256576198 1.51676810884 0.833439907342 
-10.2567338247 5.80933261879 -4.00865878595 0.736320489305 -8.11212554885 -2.07651947138 0.745267555253 5.11586002918 3.87512943502 1.28818531439 
-11.5088279482 3.57715719338 -3.68713029278 1.03196814362 -8.52916047418 -2.93348164 -3.53996965865 3.51373416941 1.26164418175 2.09779122539 
-10.2862205852 0.537622360606 -4.97380092092 3.86157822315 -6.74256376174 -6.25173305592 -5.66580614686 3.46754096267 0.763739866409 0.902976139512 
-14.6734525036 -2.46495942195 -5.37454671269 4.52777158919 -3.05016957912 -1.83994543115 -6.10438137128 4.44654099752 -0.47155928405 1.45251375261 
-15.0203800625 -4.55097565173 -6.43809626849 -2.53297178268 0.423110064905 -3.9444594169 -7.04057442097 3.19237583356 -2.39713523754 -3.58123628287 
-12.6738705386 -6.48569461286 -6.67185094866 -3.86062643468 3.17868946666 -2.79957767094 -8.15602453995 2.47790730146 -1.41279102887 -5.14434082127 
-14.5942081581 -4.86746195213 -8.2598165501 -4.42810409 3.37196177175 -3.61237750016 -5.37142188548 3.74251265535 -1.30129170335 -4.95398375618 
-14.7502267532 -3.96294525911 -7.5898673006 -5.89228329922 3.4456672778 -0.0901302738425 -3.62591708208 5.51310061648 -0.681373127041 -4.03750620846 
-16.182699307 -4.62629725771 -7.17631447846 -6.03822507396 5.31903469227 2.81862745523 -2.2208938914 7.03505420143 -1.23836574359 -4.4477607017 
-15.6859211198 -6.15945360585 -7.11418030048 -5.29558462905 4.27524404849 -0.279093378155 -1.6704936079 4.69359603581 1.56442993099 -2.11554026308 
-14.5151368149 -7.28431477612 -7.82255056594 -1.59071671006 1.89912554081 -2.74234239971 0.400201539265 1.8018994879 4.64953609294 -2.30010777439 
-17.2783943421 -5.56417614039 -6.15702614964 -2.80559933676 0.485402519445 -2.54158086232 1.49695220437 0.864022587572 3.7289958676 -0.347495707442 
-14.435197254 -9.5833614166 -6.90509121931 2.29682355005 4.09916152288 -3.18731159134 4.77065831815 -3.57505403672 3.03168520591 -1.85062241196 
-15.1992977946 -8.38812011072 -5.71050654921 1.66022332865 2.12956182928 -2.45376430419 2.44533720234 -4.72908879071 2.05180237856 -0.920421706017 
-11.0834365796 -8.39567565989 -4.05996406835 4.95302089954 5.87522686558 0.79620277233 2.59353698864 -7.10071440539 2.39949374614 0.571402506188 
-5.2728338966 -10.3655242626 -1.5594091756 5.84241691817 6.80412743612 1.12804805739 -2.91509109645 -8.46304197734 -0.346363385388 0.828293309953 
-4.97880649373 -13.2099531053 1.94254371612 -0.919292834872 5.59725360111 6.06505623707 -6.29047290197 -6.94096494437 0.213481412992 -0.334296204577 
-4.09458199403 -13.3411939139 2.07031116002 -3.71629955237 3.05422737041 5.83367093666 -7.36891787933 -6.06279997657 0.23588044499 1.97266885292 
-5.57269906127 -13.79921551 0.763927944313 0.810776841799 4.46942982403 3.65374004628 -7.95589199466 -10.3122984851 2.018425401 1.85800680125 
-7.11211533333 -4.93211040888 3.91489462175 -0.601081114456 1.99369634469 0.682955058337 -6.05361190574 -8.76121717593 2.40303324468 5.66950491734 
-8.75668648196 -5.96341204881 1.94957917918 -4.11803626549 2.33595771559 1.48897630869 -1.19092616061 -5.56035530952 1.18176855824 5.58786906204 
-6.70269090748 -2.55273099323 -0.87203168865 -11.6344694681 1.68830816756 5.26851398541 -0.776275538123 -0.124860597211 1.69992203323 2.97960000259 
-9.88063955825 0.428639426336 -0.158283784191 -10.3604767317 -1.86435074418 5.47947370899 3.0758361164 0.0881089199859 4.43091285524 5.58190589729 
-7.13702756512 -1.72091640257 0.995441504992 -1.77152997418 -2.33363095059 2.36214344397 4.31643642955 -5.2478017232 6.28758949756 3.94212701862 
-8.23427206071 -8.76774419441 -3.44407221715 0.0227221252998 -5.41025074365 7.06213822287 4.10522068662 -3.85039486382 -1.55493672593 5.161475255 
-3.03950009017 -7.18316654748 -4.60499054229 3.44798535504 -7.4303748469 1.44772907861 3.14599590358 -4.75306324805 0.0189760452816 5.53476390249 
-4.60005618963 -5.24557765922 1.1068264384 1.11675829916 -10.0152075486 -0.50749504689 3.94049104541 -5.7216998441 -1.22814899773 6.28078279017 
0.295901411224 -2.01267222675 -2.52620057192 4.42777030333 -7.08090208608 5.10446352713 7.07415898653 -9.64634292866 1.98910385282 3.30262929712 
2.72049987751 -5.62197780087 -4.61451373715 0.197792805774 -9.80118024593 -3.09495786071 4.76152606099 -6.12508751483 0.516073564232 -0.918676639138 
7.47816536273 -0.130774597145 -4.10971702041 -0.389845565899 -7.31813816065 -0.771980110142 2.32575462917 -3.7835884208 2.48472760141 -3.80590965777 
7.33046039236 -6.00745007961 -3.99134762711 4.01881112612 -2.81045407079 0.958555773526 1.40199728178 -4.26803668466 -0.108977703548 -1.90902835048 
11.5653931796 -5.11687145968 -3.13914785547 4.28035342492 -1.21560178722 1.83766775854 -0.887793004326 -1.55444086684 -1.74611882857 -2.97409852679 
11.4088227825 -3.10601835795 -2.41402439039 2.82697652956 -2.95387542591 -3.47840486437 -1.57812037369 -3.39884499141 1.08610713366 -3.54237481928 
11.0417318476 -0.143673184767 1.04209655271 3.32076912413 -3.4279119794 -1.33697957915 0.740426924988 0.869981701485 1.94826392013 -1.73417617734 
12.8188450093 -2.67285333332 -3.97610931767 4.55115536467 -6.34581122874 2.99580800028 1.96693670466 0.37360044104 3.66406467916 -2.06471409121 
15.5007412047 -1.8207256187 -6.11393850555 1.22022868148 -4.03553859025 3.65232569516 -1.05337097116 1.51066653183 3.19985971486 -2.95577038946 
11.5870852755 -1.39989884655 -1.6243108399 -4.51218649176 -3.67859711216 2.66383516673 -0.821879760465 3.83158650666 4.80673958963 -2.47896968693 
12.7564084161 -0.0705834534778 -4.32315585158 -3.27735386538 -4.00620064394 3.11340079663 4.03438733422 2.34750155991 5.46572882332 -2.42477211973 
11.6475601551 3.01475835052 -4.82616858444 -5.48108957317 -0.894311896818 2.91272647529 0.0451468499084 1.39001201871 3.26598866133 -0.697009069722 
10.043461535 3.7141908608 -3.16609362586 -6.77164391758 2.45385495219 1.79004413703 -2.40918056324 0.824451048534 2.22715413747 -2.51897947416 
11.4232623232 5.62398705765 -7.18262996407 -5.62397106495 4.04763137906 1.32527383872 -3.16761228688 -1.37668529487 3.77236532856 -2.89804020592 
12.2202373967 5.28989822337 -7.05551194702 -5.19751779172 5.78790603321 0.15353675873 -3.29901184614 -1.91495370432 1.76937314074 -3.70073012377 
14.6130822671 4.48652884003 -9.53787485677 -6.02462989072 5.33031879819 -2.17562902905 -3.49460864703 -0.90782744926 0.042025639465 1.58110423703 
15.3353833214 6.43856863576 -8.51005267173 -4.7498171872 6.12274213035 -0.537229031217 -3.57329793043 -0.213991694883 1.53813619762 1.71209729024 
13.0929680095 10.215560294 -3.48093359518 -6.58078553427 9.68691167963 -1.21982334726 -3.46372971281 1.42303624036 -0.759991845116 1.4679106381 
14.3197294205 6.41474677595 -1.94202646411 -3.62251944481 8.98697636359 0.0274771429136 -5.2483029461 2.01321700531 2.0929272988 -1.31465062577 
17.7262204663 6.60120204614 -5.82690593987 -2.22403326142 6.12074022127 -0.368288399661 -1.20306327558 0.786199355301 0.0551692084081 2.08726319759 
16.444649541 4.20094253318 -3.35930986836 -2.92783789278 4.57247938842 -2.84460547932 -2.43297888836 -1.41533222868 -0.113534951656 2.78822196047 
9.77933978703 7.35044661278 -0.280219402764 -4.74649699079 5.15185298039 -3.43747575957 3.00737592974 -2.75458055345 -1.29068125232 4.98704280918 
10.5348561634 5.69189087585 3.98636113057 -4.82334685347 6.52426608221 -5.88277511114 3.57097822021 -1.4358763738 -1.93851279243 5.02361516139 
10.7177368557 7.2519224073 2.92863374251 -1.16052316299 6.00065279954 -2.98708685333 2.31161180548 0.590867858264 -2.74675645498 6.02953267768 
10.2987587069 7.22907063464 3.99803228487 -0.297347976354 8.95959284676 -2.32001970727 -2.45134650163 1.35570481519 4.72904875564 0.342552227906 
13.0935660103 6.41402990118 0.629633507432 1.44817107415 8.30388170136 -3.22396821892 -2.38435164896 2.19595803652 -0.460437492205 0.117857275864 
15.0729414373 4.23289120232 -1.97143808383 2.67967552648 10.962876954 1.82063611624 -3.90075751706 2.06233010772 0.0791837506995 -0.568135227371 
15.0620104454 2.56614879933 0.299403775405 5.91990829688 8.93070464064 -1.65186538755 -1.61299068311 0.823061705216 -1.34883323028 1.15289701488 
12.9313535949 1.51439071025 0.184097525033 4.61411880091 7.44009329971 -2.94498843206 -0.910577376644 0.247603529367 -5.70892435812 0.577147601469 
14.3686689695 -0.646397688187 3.07324479786 0.605442303551 4.25611910577 -5.65517314963 -5.2476846642 2.3812067012 -1.82904626841 -0.329170396918 
11.821185098 -2.23162317734 5.7423529637 0.12206461834 3.65391438896 -5.22105065398 -5.43852349328 4.49554962491 -6.34602337976 -1.64186407428 
10.6068548904 -4.6690193406 7.18393445208 2.54687469464 1.95956596759 -6.91715909898 -4.02893837816 7.50987478321 -9.44718181085 -0.47198732605 
6.67171233587 -3.02972611508 7.92732509833 0.551445082413 4.04918320835 -3.33590352014 -3.00411297398 4.92236239624 -12.0548226917 -2.04411702095 
6.76734429354 -1.73613788521 9.72023400337 4.7221453722 0.542894990745 -2.98072459588 -0.413906914787 5.08862462565 -9.3149366948 -3.01844985725 
5.27747665415 -4.36940346907 10.8436688587 4.70986089427 -2.98869435098 -4.99638198666 0.278963307765 2.09129661144 -10.4850265758 -1.309060723 
4.13999673901 -2.81935188156 10.2626899511 0.473849746532 -0.592824333201 0.06430781424 2.91858134236 3.6847794632 -3.87712170534 -2.64163904224 
3.44184910521 -2.31443986683 11.1572295682 -1.50831674316 2.58136841749 2.57068954938 2.18875503756 2.68944619994 0.701874580091 -3.45182626912 
0.518073846158 -2.06631915434 12.5758464402 -3.4046724228 1.75412086888 3.11911729577 3.33385652411 2.26404391323 0.300716372266 -0.644920829417 
0.669468244271 -3.66958589815 11.8525942522 -3.77273152988 3.3643671833 4.8574881059 -0.874384695322 2.05344319636 2.68388481422 0.16640858403 
0.422326269745 -6.16913696597 11.3750344799 -3.38829320154 4.50872867339 5.41715909187 -0.0226561523633 -0.817669524671 0.684882641806 1.53216970268 
-1.06905280303 -7.29929984957 8.74846533447 0.109381587472 7.11719005005 7.74727064189 0.0888662801066 -1.80886420362 1.4710077514 1.78873352407 
-3.9462539671 1.12688661849 14.7072352109 -7.1515964936 3.10720043382 2.67789193013 -0.07150288093 -0.817346635853 5.84635184112 2.88606679324 
-6.43760917291 -1.67851475961 10.012168152 -3.92572521588 4.80811635577 1.99615270094 3.10783851796 0.766222745705 3.32252846678 3.05745305831 
-7.49113642535 -2.83167450952 4.88692778539 -1.92136072168 1.84182007595 -1.48911187725 7.88980520079 1.64071640937 3.59258885327 4.74402759562 
-8.44636000739 -5.67486440156 2.88174200248 -1.91412443947 3.63583337724 -2.82553174637 7.94121613732 1.0054039448 1.35266325039 1.72928486033 
-12.1113468891 1.77979288482 1.64120822529 -1.68645450577 3.78900092407 0.751628513735 5.22242307694 1.12579546782 1.36862232775 -0.434708005445 
-11.322633767 -7.90695406281 -0.239587090799 4.10345903965 5.76520971785 1.65181190277 6.51223721686 0.0731679079882 0.390971182356 3.64097602295 
-8.34482020231 -5.39820390848 0.0316300704336 7.80447555574 3.4843107994 2.21385428502 4.14972213252 0.499803796393 -0.108462241768 6.87504811295 
-10.2732030539 -0.232462490801 5.12944182414 5.52875648702 5.47294604667 -0.0166186584397 3.31413242521 -0.15444033511 -3.12630740439 6.46847872705 
-10.5259355527 2.28693742648 4.7932622847 6.54936259435 3.34308026596 -0.771978005051 3.37821748649 0.097630022116 -0.865561448675 6.79663741302 
-8.92915198628 2.75557463783 0.935763093003 7.15711956642 5.66453510788 2.56169333547 2.61299336483 1.46129587077 -0.0290661758577 0.249270302842 
-10.3048738393 -0.428424689209 -1.96235549316 -1.54283719509 5.7239603368 1.02109016237 0.393405973706 7.6711650568 0.472097397012 -3.27510261922 
-7.96145988467 3.0223196255 -0.172510749762 -4.01803598967 5.28830602101 4.01707672133 -2.74742514913 8.73849846261 2.98976679772 -6.27723131305 
-15.0462968476 6.49984507529 -3.51124383069 -6.01316175668 2.30394303263 5.93416362721 -6.19866577628 6.90025871568 2.58043982122 -2.45103891679 
-14.2566975746 9.00584174427 -0.175900082815 2.421551235 0.615220520548 5.70949158847 -0.254234023736 1.73855429974 -0.177415373167 0.0660039108703 
-13.2059442975 9.56824752526 -0.81322335273 3.890631329 -0.0197449068916 9.44539765475 2.28908520914 -1.03311784978 -3.3378348258 2.49868999798 
-10.8135775091 12.5423705118 2.43652553574 3.6189615616 -0.0143162270907 6.37364297044 1.3581569266 -0.499625691736 -0.98894408807 0.194942667177 
-13.1983840144 12.5401967104 2.09395700362 4.46463566485 1.58270970354 3.84800696199 1.50233094058 -4.10026228898 -6.01337524557 0.778622201663 
-12.7699424775 12.2603916701 3.37538679411 5.82369511992 0.970023671116 -2.12124954807 0.766904723609 -4.25170836185 -5.89597529274 0.184268604339 
-11.25296484 13.5914923013 4.98792172128 3.71384859304 -0.436299457793 0.0957411687912 0.963060222214 -2.82295787088 -7.06273642236 -2.31930369169 
-14.9814456059 12.079286269 2.29275154031 4.59869382589 1.54107434751 -4.9800286217 -1.68043403637 -2.72560504662 -7.12309150648 -3.11657177015 
-14.1798376531 8.39850855829 3.37955610808 8.53633115192 2.81246237845 -6.02636309459 -2.61825617415 -1.76606142563 -7.1583377028 -1.66795136004 
-16.447391808 6.27071116081 -0.600937897864 10.7708358346 1.03235555833 -6.91221278034 -1.57369661679 -0.361662520988 -2.920404451 -1.38924970058 
-14.991309765 -0.278463232572 -1.24346280825 7.35986368357 2.33041778517 -7.90032926292 0.524116424806 0.25703460548 -0.00671021150398 -4.43766155085 
-16.705864403 -2.84131993467 -4.54284371136 4.54911799432 -1.59045984267 -4.73092440784 -2.68062056979 5.09037816383 -0.135372207773 -0.714072440365 
-17.5156721101 -6.27318787049 -8.71030083753 3.03482327299 0.151346937838 -3.77386394266 2.05244332167 4.16402533806 2.92128552732 -1.44331271306 
-20.7982090625 1.26608995204 -5.00117991161 -1.24345786635 1.37842370636 -4.14303533979 1.88322846495 3.54447152723 3.56134434056 -0.976184275323 
-21.4207450628 0.307870513449 -7.92482505111 -5.47992520403 0.327254420655 -4.24936367182 3.22869036883 4.42770642802 1.81845767877 0.288518127037 
-22.979321042 2.9196651672 -9.628703186 -9.27679554667 1.00192267044 -1.91977431017 3.06359263662 5.29074735899 0.442450667497 6.04944028488 
-15.5782073723 0.513338620626 -6.55961377911 -10.0186417369 0.59895110671 -2.42829439201 2.42310373637 5.7454137883 1.56545304468 -1.974069241 
-19.1116744681 4.34774317888 -4.13274589009 -14.348597626 1.24664946754 -2.8838891903 0.401740410288 7.44062702367 1.80919908453 2.84704963823 
-15.0546455838 -1.92804955173 -6.03561179904 -14.7924480322 3.345697673 -0.803592218053 1.42580681293 9.7405621129 0.425193129739 -0.733349239911 
-15.4502920354 -6.06099379041 -6.15638379229 -8.51024221298 6.72681668121 -1.17836103501 -1.3321253249 2.53506077572 -0.44652737278 -3.60288172142 
-15.9322066277 -5.35486970626 -6.32804934315 -7.31448220919 5.26745119966 -3.1815063614 -2.32809397295 -1.22756014187 2.07620095321 -1.94811964194 
-13.4517248615 -4.61690106714 -2.28076951574 -0.823091267382 2.44567804909 -4.3492306207 -3.70840936566 -5.68101712297 -1.7840596018 1.66716270521 
-8.56576780138 -4.76527094475 -0.242217174506 -1.68754142443 2.84423758565 -3.53541114839 -4.35762581315 -6.09980300426 -4.20558206458 1.39571586239 
-4.02853879656 -7.92520323538 -2.10450248573 -2.02102878574 -0.56400217535 -4.10707085522 -6.95889552139 -7.64405140719 -3.25493931514 2.88535805689 
-1.53786241339 -7.9045810223 -3.24734647769 -1.05385787484 -0.205880089793 -1.0792768558 -8.8760986908 -7.56399438556 -3.39014765527 2.09844861552 
-1.90299249298 -6.75170370737 -1.21743608581 -1.33996992204 1.49494004588 4.68974275804 -7.58749188968 -7.55125870886 -6.03400962333 2.92837420865 
-2.1826563974 -8.50426265597 -7.65285118961 -4.38960932716 -0.534726607144 5.84842113619 -3.79635067922 -6.2879338658 -8.82985183191 6.39605397424 
-2.75451488458 -8.18421441313 -8.78382298525 -4.73336758776 -5.61795062071 6.51871534632 -2.97954693351 -4.43844473029 -6.1193963352 6.61493287022 
-0.601599155438 -11.1278862723 -8.87746028427 -6.50693877454 -4.08415306902 7.0873710211 -1.18621848591 -3.480049953 -11.2999091529 2.78253335671 
-0.715322508292 -11.5036695698 -6.95371263946 -9.33331883738 -4.45945403167 6.63178245848 -2.00943368884 -0.839246625681 -7.48814900206 1.40041467213 
-2.5026603908 -7.51109265543 -2.90124616042 -9.74709363012 -0.824578907897 7.91641668616 1.3823139588 0.825924566246 -7.05381995192 1.83287033772 
-1.5869465085 -6.08569261713 0.470486746122 -7.29288863977 -1.88834876382 6.10862199003 -1.20811129035 -2.88188250317 -5.37074519458 1.96817623184 
-2.13541194719 -8.73205279741 -0.732542228509 -7.04825026942 -3.32741588189 4.79664198051 -2.11712304179 -5.12893997818 -4.15041432657 2.50665914163 
-2.23906921621 -5.00605522479 3.14208591574 -8.03138073478 -5.52157850267 1.16428023314 -1.8659406825 -3.65761568961 2.09946073806 -0.165305632871 
-0.00833139224997 -3.04902682964 4.60537706676 -6.37034533883 -7.41927785425 -2.45658749172 -1.52466197845 -4.33975112409 1.0365734584 -0.0632561444094 
4.35946615943 -3.47238685976 3.9559257962 -4.09107295099 -7.67637479511 -0.0895045584451 -1.32076543024 -3.28265279662 1.05968549245 -0.298533275558 
5.99338574369 -3.23690450999 1.01765019358 -1.18919205878 -4.79172446365 5.49185930232 1.5608277127 1.02200858432 -0.61525530873 -4.34273409261 
0.265124673162 7.29751798942 3.71005774367 -2.61552526061 2.10672519534 7.69735648831 6.2595476285 3.92363752571 -4.70223681192 -7.11996285449 
1.93248074217 1.5887271381 -0.189690239343 -0.490296403898 1.39730434952 10.5464840565 6.97125879095 2.48157322368 -3.03725761561 -4.23322268301 
8.52577197756 -1.47784297265 -3.80556667448 2.72075339752 -1.72837073352 4.35750454139 2.44579301109 0.679834908237 1.60490989915 -2.51619629333 
6.4683317822 1.37585682735 -2.40276814197 4.04598419769 0.0261109159954 7.11815625922 3.06965049539 0.365309460764 2.46096590133 -3.9647217173 
8.03385372387 1.86338818851 -3.66571063025 4.40908045875 -0.826578282603 -0.73786123319 -1.13721494972 -2.26847623939 4.06417583682 -4.35783292538 
12.6907805254 -5.34182481246 -6.94528840521 4.97828321965 -0.592940293223 3.37696583087 -2.16768046335 -2.79785520823 0.402993979433 -5.05797536538 
13.4072999052 -3.89823058169 -3.21441107368 5.48763052229 1.80005361438 -3.23588196009 -4.45267879107 -3.21386862964 -0.404570946137 -4.39437387952 
14.2129615763 -2.54734709025 -1.04194073639 2.35861399277 0.485513933832 -1.55620391539 -5.58171523736 -1.86949289446 -1.37822206402 -3.69763745731 
13.5552443202 -0.26139295279 -1.46505465765 0.850100110631 2.20280421999 1.52311143946 -4.70138888676 0.268095395343 -2.30734054819 -3.08037470839 
12.2849466972 3.92694047413 -2.76873347906 -3.39446607 1.57424257325 0.956663076078 -3.15026376251 2.07074634447 -0.411393007492 -2.55175332293 
15.8293363394 1.22858911153 -4.07559012747 1.51557859882 3.30701588566 -4.32214292821 -4.90979791957 0.0174889482708 -1.46715297998 0.786924878343 
12.1517185784 2.39478540622 -2.43351935453 -3.15265435689 4.71536482768 -2.30302192149 -3.99621542192 -0.734812308818 0.774573842403 -0.161006565071 
14.0572089757 0.49344127499 -6.72218331729 -1.88313657241 3.00050823834 -1.96946437041 -2.89568023137 -1.26038296748 4.44519546128 2.35017351354 
16.1788194204 0.426180029015 -8.46979176793 -3.80390779528 2.88776788796 -3.0881579576 -1.32499694822 -1.57827128394 3.09482930136 4.1602100929 
13.8532884408 -0.11432499854 -6.76356784496 -2.72794400281 3.52689454009 -1.4339761684 -0.429173923382 -4.01462098088 -0.00242776133979 3.57549488731 
15.8254190211 2.52137081528 -6.6618764513 -4.57285539896 0.595213527531 -4.38156692424 1.61117415966 -0.207993922185 0.605161173522 3.45197965541 
14.9683976876 3.91561825255 -6.45999494385 -6.7797852483 3.12826963755 -2.61769150842 3.07068455116 4.07487521139 1.19058949056 4.22819064449 
13.4224256345 5.81721249847 -4.61968559071 -5.4359796048 5.91953844506 0.689527682458 2.98270770904 3.63244900511 -0.72558102694 2.92363716067 
10.1700778773 9.34596480717 -0.00435325058739 -5.43112548825 7.11507458359 1.23302969111 1.73031845266 4.5320103252 1.04676888477 2.42204165679 
8.8681400571 9.52324667206 5.94285819485 -8.50869992207 5.92859087739 -4.36327019623 1.7537591001 2.91052967716 0.895808963727 2.68624677152 
8.19862121564 7.97255688578 9.80803098733 -5.57267045218 7.68913256247 -1.26629448342 -1.5969967674 0.298751050238 0.890516808342 3.02662504238 
7.41465724737 9.24768538437 8.18348015388 -4.71006490459 9.63548231336 0.603477342972 -2.38588908424 1.71703368532 0.513761484735 2.17883832403 
8.69385247333 7.95479217918 4.00220658055 -4.75634050831 6.89629206341 -2.92812260818 -4.75872717865 4.76918531248 -1.48741581591 1.98893969895 
9.66543120309 8.61564570955 3.11610740098 -2.15676152826 5.35594075697 -1.73993534936 -4.29755557087 4.50543161403 -2.27743561248 2.36334282066 
9.72544051906 7.1047529755 2.78764462149 -1.72662971844 5.70325241333 -2.11755496548 -5.65175850696 4.88490805545 -1.42609417427 1.82437175411 
14.1783881256 2.4790019575 -1.85724832726 5.45566948973 2.0304832493 -1.96363553871 -0.861534267476 -0.24847407039 -7.46711695538 7.22787738389 
12.0926983882 3.00354915328 0.17476536851 3.20592563664 -1.03345100361 -0.889330467366 2.87824496172 0.538644136456 -3.56232111423 7.35302177698 
13.7191090632 2.24014082659 0.0147080789221 7.36216757341 -0.198446239177 -3.08797828733 3.24552729079 -1.24208542754 -3.78426879406 4.34653446113 
11.2295085988 6.74377552383 1.09717538081 3.6576650601 0.534497126127 -4.78977094709 2.86960868633 -0.0768448346785 -1.59397526681 1.531084372 
12.8177445085 0.750045463911 3.19633624331 1.33821308758 -0.745329061762 -6.23415114994 0.207246942189 1.6983114657 -1.66859222784 0.399647316938 
10.0550337855 -1.82157564405 5.65726763597 -0.219206771781 -1.09912994677 -0.0443145266845 -0.651737550463 4.5633908101 -2.37071893909 -2.80530915337 
10.9509372366 -5.29716539427 6.50775157477 2.21524658674 -3.75202415753 -0.934538247957 -2.41293451213 5.09965950369 -6.07409474519 -1.1094269866 
10.033420819 -3.75937097201 9.17602149909 0.696494819336 -1.62889686317 0.809116421732 -2.74027571928 2.83933962986 1.61204607862 -3.74326391488 
8.59288132284 -3.11167330559 9.36781152758 2.328229833 -4.51665491299 -1.09281748023 1.82344463621 3.46861990274 1.869291365 -5.37880888158 
5.12895000057 -3.32212218685 9.08605408251 0.0995275399088 -4.10253138701 3.69921714956 1.87101946116 3.89326810989 4.00658469868 -5.28537734937 
8.38648038663 -6.66145176831 9.08289884443 0.618580493345 -5.15189561584 1.54067265083 -0.134072828541 2.03956184083 2.99077302243 -3.16270325361 
6.40456862582 -5.63860480861 10.6686606936 -2.52807069728 -3.39376433155 0.39832844189 -0.706945885162 1.06964761632 1.22668617021 -2.21100259341 
3.75644508354 -4.19031247789 11.3037519467 -4.75361882358 -6.05121982511 -1.28932297764 2.01401973218 0.724268035016 2.03394575089 -0.578071825179 
4.30046560031 -2.98523859951 12.836965169 -3.55708701449 -3.27945923962 -1.25141764395 -1.95255621044 0.678745575336 0.614413101019 1.83081011072 
2.10169702946 -5.03264387885 10.7786566259 -2.08466509177 -1.85059496886 -1.64429836481 -1.47543732048 0.213860095735 -1.62054968396 2.82341340889 
1.21172369846 -4.80579576122 9.59489751965 -4.37549642777 -0.865105694029 2.38878760483 -1.59965173229 1.34002117343 -2.38298508657 2.3621960361 
-3.42094253036 -7.70977385605 8.92620347659 -3.10761230012 -1.62831083708 -0.304965462568 -2.14813884903 1.15393113304 -3.78355635049 2.45455023643 
-6.34554216699 -7.60131303857 11.4908291155 -0.498483085072 2.2742805411 -1.17051965744 -0.0179189689162 0.496112216497 -4.07025262974 2.52181127403 
-9.01581040843 -6.12290536406 9.49288984493 1.53052436295 3.07058921359 -2.23963090789 3.99514284463 -0.0890315097181 -5.12074171904 3.02898757894 
-11.5017055047 -2.61422336114 7.74191372237 5.05209544 4.0558745826 2.783805067 5.78779041404 -0.128113302026 -2.40815013844 2.22758241383 
-14.0565962554 -2.29701808857 2.77708514463 5.63818958514 1.15702313964 -6.31866886866 6.37100326691 3.0477062772 -2.00527712797 1.9703279228 
-12.8167352238 -2.56526899223 2.90487382218 8.42141282849 4.85113329675 -4.27818905098 7.96688236734 0.348751300032 -0.605753010222 1.5157894981 
-15.3223750683 -1.3542395612 -4.57236855467 7.73298676283 7.48335260695 -0.750547225959 8.83616116027 -2.74901989957 -5.29280028686 -1.23404123562 
-14.3606264599 -0.828583115038 -2.01021505274 4.06650774369 5.88517530661 0.193549428577 6.29212789135 -1.29473638651 -7.86296453922 0.0448031795109 
-11.4623953329 7.66721297383 2.49747567357 0.684755065505 0.380260045721 -0.116878255412 5.20198539174 2.42585144 -6.88992872131 2.38929089012 
-13.5297200153 10.2102572001 1.10078705606 11.319065308 -0.47401290286 -0.277945299551 6.63710299373 -2.31580755208 1.21424728409 2.04514523324 
-15.2178059179 9.92006744508 1.08090612697 5.30123989598 -3.57956961437 -4.67882756993 4.55985744917 -1.97890284527 -0.313251018622 -3.50583739515 
-14.8763469085 10.5002967228 3.24493689191 5.72755972123 -1.68024854827 -0.398510883017 1.19244368336 -0.495988128967 -2.94268431623 -6.43994807668 
-16.4756111255 13.8722000976 0.634089667726 3.79828877281 -1.57644417981 2.49598970492 -1.28398353206 -1.49127168791 -5.3141926957 -8.28470335486 
-15.0770736781 12.9423670462 2.97711988593 5.5514834983 -1.33368434565 -0.0465526330531 -4.15316246103 -3.71598839393 -3.90722216952 -7.46506883062 
-15.3160479432 15.4227320995 3.20751283128 -1.8039070376 -0.623863664315 0.472024420003 -5.86132897502 -1.85618915088 -5.75392982721 -8.17983437279 
-13.045975265 17.0145079056 2.42561705977 -2.2179872141 3.08913219104 3.31091748446 -5.2801921424 -2.70194992407 -6.32410389279 -9.48513476495 
-9.35173527004 15.9607763238 1.50647598499 -1.26575163404 4.46967686289 -0.620811663449 -1.62027697166 -5.49088979868 -5.49839171423 -5.50253339106 
-9.26155783993 17.8238521225 2.25511449305 0.708670677729 1.90704417204 -5.32940512687 -0.97573773938 -5.14550286772 -0.676091214539 -6.96183210478 
-12.2091282007 15.0121226316 4.26789028808 1.73662967592 4.44372631235 0.280482736396 -0.352166542113 -4.47596246787 -5.52232796209 -8.25937603102 
-9.85870543942 14.3859987649 6.1409336599 2.42965696702 1.43647658551 -2.12215363487 -5.79807874966 -2.37884392064 -0.214483531501 -7.57172848329 
-8.68879755265 13.8711908394 3.78360613876 6.61076242512 -4.31868514541 -0.609191256091 -3.21352370716 -1.96473209254 2.16301619946 -2.45839395798 
-12.7508207972 11.3681539885 2.10354005143 7.43445677159 -3.91040405937 1.59521778697 -0.977691496117 -0.72091515323 2.96940381871 -0.413742955645 
-13.5397315704 4.86125787774 -0.725890947673 8.30328328223 -1.89546691644 4.51769888456 -1.70063644148 -3.13174539845 0.359600440581 -2.94838247326 
-14.0961046562 2.16167297067 -1.78286855562 5.44248498809 -2.93509546914 -3.36900490472 1.82820905974 -4.49833913751 -0.19835289959 -2.58318594338 
-14.4291986241 1.62724872309 -3.0488279921 4.14687408331 -2.21036810848 -2.94954088444 1.4184863108 -2.89719418211 0.542810588294 -5.74394927018 
-15.3954037422 -0.79929544732 -5.02895698961 1.53180483468 -1.491187238 -0.574068421658 -0.88781758011 2.1456817547 -0.705376068591 -4.51155512296 
-15.409826155 -2.30936873318 -6.31424645813 4.79757847245 -0.992294156695 -4.61170333941 1.28671946243 -2.47358704499 3.19838462335 -5.89818964118 
-13.3330018166 -2.93154517392 -7.94979067969 3.02784670678 -0.364824580263 -3.30463671263 -0.50651053962 -0.350450475514 5.09505108265 -6.73722984196 
-12.7414884666 -3.81121979087 -9.01068212288 1.30806744438 1.18597428539 -3.1538674355 -0.45364008306 0.833763624717 6.37901814985 -3.2181555966 
-16.438469986 -6.36719131104 -10.3662990223 -3.39573750215 2.91379557478 -3.45890311925 -0.671952174281 2.40715931408 5.38036139762 -1.9967313287 
-15.7051109793 -3.63316623962 -7.49264263879 -4.87987979432 2.0884893764 -1.62723903097 -3.98381355862 4.72079136661 4.86028315236 0.509214535478 
-19.1723223649 -5.29008448658 -8.22494144345 -9.74725490607 6.63414136938 -0.698304336159 -2.1493007463 5.01761145225 1.68846304698 -0.126002289154 
-22.848063163 4.1668820731 -4.10620188917 -8.22702040001 2.99122925082 -2.18249136676 2.45913144401 2.93702728862 1.96043736831 6.16734722029 
-19.6403639518 -0.190110024808 -5.52977879025 -6.55483388801 1.67041848791 -2.49839508554 5.46752950647 4.42614968007 2.75036951564 1.29834845038 
-15.2991272536 -2.86444933133 -4.25938319015 -6.34679680829 1.8592609042 -5.06509170024 7.57077529522 1.18852029971 2.57033241767 1.2011976863 
-13.9609794071 -2.99954089371 -0.669859540238 -1.97311027875 2.37589408629 -5.02956650424 5.23446300957 -2.97142061106 5.63605846598 1.37907545621 
-12.1589562508 -2.78710450621 3.06738929414 -3.11399346761 0.408541587769 -7.59265354643 2.98180695817 -2.03308310148 5.90162316857 4.71685360208 
-8.43288471064 -12.1436291386 -0.51481365466 -1.61419507553 2.55795013028 -5.03428648452 -0.999086934682 -0.271704622786 0.520164939572 1.52187484484 
-6.38677352561 -13.1525169048 -0.00322249277458 -3.8131140692 0.846434044818 -3.61221861121 -2.33862705467 -0.56791598772 1.50587810649 1.96128245926 
-5.21052184939 -11.8123841092 4.46031754422 -5.37219184454 0.316885630679 -1.99932320802 -1.89581850916 -1.50853463158 -3.75577915914 5.99720921483 
-0.312352530742 -8.70764904518 5.55996893485 -7.01636396126 -0.812001444774 -0.614629589717 0.227259292559 -0.985980141584 -0.375523930858 4.65392613207 
0.50153008238 -7.29920019145 4.94683369163 -4.817777104 1.59049041261 0.570124012083 -2.39082655143 -3.12984885063 2.51306905615 1.73571940405 
-3.51070347652 -4.23332848174 2.22055865338 -7.46495669933 0.134465559994 3.71200184285 -0.339427934835 -0.546791322949 -0.933985663048 -0.349330230911 
-1.65022066233 -4.34556027502 4.18887749725 -4.67882719486 -0.730232027191 5.19765678149 0.0387717077905 -2.5530778172 -3.91509871654 0.663175070996 
-3.05439866083 -2.44567820561 0.0460592363054 -11.7284365594 -0.578491261347 7.67801444892 -1.24296937132 0.0906635681977 -6.21588075507 -1.62173023356 
-3.78491447806 -5.44061249203 -3.68951699386 -7.90582471964 -0.12407334613 9.75930689992 2.13853960676 -2.75578989226 -7.72375002645 -1.38562666507 
-0.823668884728 -9.92195023633 -11.6200528586 -1.85527695812 -0.966929468397 10.7663584948 -0.704398462047 -4.23579497965 -13.4748221482 -0.0659815012047 
4.93772859841 -7.2608738762 -4.95263029268 -6.69107222267 -6.62775355801 4.79598746397 2.46037513571 -0.984362938445 -14.1478274714 2.53988987632 
3.44234112502 -2.04640850014 0.0786198540662 -11.766213224 -12.6013183784 1.34585191842 5.65162225082 0.0939563766828 -6.2747562002 -0.68077233391 
7.65619778255 -3.41228722724 2.82878407811 -3.51209292169 -11.0820359864 3.88179985953 5.33787283469 -2.48555741235 -4.35168359389 0.310394418762 
3.14095109163 -1.25958617477 -1.90642127102 -2.73554359157 -10.0050580376 3.88960078953 9.37132381549 -1.76440872023 -0.46217121045 -3.18754536966 
6.96002267999 -0.115489689232 0.111711653402 -1.81016523726 -8.26886309918 2.37766118669 5.5122477073 0.827889907056 4.13490509463 -2.03754537562 
5.34373970953 -0.427464466928 0.225829243524 -3.27494496697 -2.18112755762 4.53658728515 2.69536409074 -0.174450370541 3.39642312452 -6.50629134264 
8.1388493614 1.78551636208 -2.63643350684 -2.04190453461 -1.49359182829 2.83327765228 2.52803701921 -2.00782509726 0.831791610768 -6.46448242556 
10.2465198995 0.422201242684 -2.0938871185 -4.34929372758 -3.28035994303 -1.35629291779 -0.16325833009 -1.76217796324 1.84547087201 -3.25669868779 
10.9755632335 -0.0820748109827 -0.499971134452 -2.95976371158 -1.85306601888 0.0518494289591 0.42498416953 -0.687553903097 0.950475030751 -3.30532267111 
12.6012072402 0.44005349028 -3.91136673686 -5.26584539263 -1.39785310139 1.51114401718 1.03316014459 -2.749332098 0.274554186764 -0.465142125804 
15.1473390684 3.85513721569 -4.77156746023 -1.90119602227 -4.64702647094 -3.37112405986 2.50181031533 -2.42209269444 0.981057839531 1.89779995586 
17.3276807545 1.87981511736 -8.61570014839 -0.276182320916 -4.48259989197 -1.81555812298 2.36418910933 -5.07968344538 1.86520987579 1.68183661739 
14.5752975916 4.011205455 -7.1795789017 -0.839849583804 -3.52623270112 3.53598514715 5.89972262582 -2.35773985553 1.67118792213 0.512957546973 
15.6633000755 2.45288172925 -11.5626048695 4.22683820503 -6.51233623784 3.44176268456 5.12511212296 -4.12299805005 3.90750345881 -1.5291903831 
11.8790329763 3.68196878698 -10.1886406279 3.39620633728 -1.66595984332 3.51584442915 4.31620528593 -3.92562275234 2.92255650145 -2.0116001618 
14.0987834345 0.238413602537 -10.8295902552 0.118224056527 -2.26334332287 4.39465534735 4.07738775289 -4.16483828282 3.64931906138 -2.26037467782 
18.2496117093 -0.0640893461709 -11.4230456992 1.47648806041 0.563783026012 -0.279286017146 -0.496609178 -5.109393561 2.10366040522 -1.5231586509 
16.7394317416 3.46462382968 -9.77093712109 0.420484054155 3.82764321688 1.07314302166 -0.179514917581 -4.22684006661 4.00275015468 -1.44698491028 
18.0584754723 4.16693458223 -8.12757411952 -0.154923459232 4.61833165479 -1.1158048125 -1.44253763534 -1.32711390144 2.97900910004 0.654208823427 
19.4870061234 2.94359164831 -7.14168807646 0.965296214307 4.66979146161 -4.14042851407 -1.715682188 -1.98109836115 0.549158175975 1.75317579396 
15.2697291544 5.33573903031 -2.83449405838 -1.27865384291 7.02349990932 -5.46306665082 -0.272268031265 -5.21293156947 0.508794990944 2.72147804602 
14.3163239662 6.44706084471 -1.82004137227 -5.51391776871 6.02225329205 -2.03011675294 0.860762881555 -1.64151654051 -1.74145690527 0.702485338174 
7.05645177384 7.21533336777 7.7245736253 -3.74654332818 6.19628815801 -4.95289610467 3.19877425297 -4.98163317032 0.317132663445 -0.259790935293 
8.4712690936 8.02498556683 4.02868471708 -2.90667043165 4.47683979517 -5.63106144562 1.61733265375 -6.38975504269 2.82077853981 0.443793862409 
12.3356096105 7.09465204071 1.28958422618 -1.64292566382 1.72466031129 -8.17829502618 0.107141494876 -3.35442089074 3.45529565371 1.88903748193 
15.2390703221 3.84629093773 -1.46202346935 1.03339327526 1.3299787088 -7.64303780516 -3.47565156333 -1.12360854513 -1.70448444999 2.23384181744 
16.598182782 0.795032785995 -0.573617732355 3.43975199808 1.53937459153 -4.69964641768 -4.69413129536 0.566332831474 1.36136847333 0.105879155683 
15.7982273455 2.5896199568 -2.94924419534 1.17056102175 2.61993786233 0.200322664886 -2.62788530883 2.85186416757 -1.35217497814 0.0229848443164 
15.1918067644 0.769621000616 -1.56652864246 2.45218558751 2.92125408294 1.61159006058 -4.07061202842 4.06452827777 -0.891021438907 -1.71297848953 
15.1445016998 -0.214591651399 -0.511839837672 2.90684074253 1.59472546193 2.52253384874 -3.74078034045 5.97387606891 -0.57586756285 -1.25419960451 
15.0987695265 -1.43237221376 1.23664050172 2.65193337366 -0.267830544899 0.446229967672 -3.18501654698 6.12310743024 1.32524454597 0.967223289469 
13.2410224426 -1.23505727966 4.79818129881 1.06619162158 -1.36213406371 0.0010523173149 -0.824676198276 8.41763147136 0.645846461623 0.063625517188 
13.3490311103 -4.40216238309 2.17748175236 3.44050854005 -0.302766714508 1.84910977348 -1.64310757901 6.54087676374 0.860947668674 -2.2413729716 
11.1217746828 -4.48091776043 5.79618149521 2.42810631315 -3.82258627964 -2.642035447 -0.478722184405 7.55491526764 -1.89327746948 -1.42821292255 
6.87079671401 4.46443782939 7.25919162569 -1.24306930533 -3.8318930696 -3.16579715562 1.73075744431 7.62302791874 1.72632882477 -2.93528521132 
6.34218610849 0.763744110784 6.99302365598 -2.65104372073 -3.46039904451 -1.10050142114 2.27370260133 5.38806484982 -1.05694967288 -1.51682822631 
4.78430958441 0.788689787077 9.35686268091 -3.94166680553 -5.93420086461 -0.288514708188 1.62904332526 5.96139870349 -2.75069902581 -2.41162539021 
0.491476919047 6.60176566925 8.93063074034 -3.41659390455 -2.33025254649 0.151689326988 4.38486171086 4.13022371933 -1.16108741534 -3.33014138577 
-1.99004630888 6.75601903989 10.1716806491 -3.17271723942 -0.206623873135 1.60519615004 3.49954326558 1.5099193785 1.08331626648 -4.8249643315 
0.266610365172 -1.65423468741 10.4497434421 -0.536315409058 0.606549950297 6.24956294122 2.02501437271 2.56302833859 -2.07575640031 -3.36687549664 
3.6887983732 -7.85174853099 8.44020019926 0.748941198238 4.74488964966 10.0667019203 -2.94269998475 3.61567960524 -1.40685462044 -5.1187554452 
0.952121921612 -6.93054512322 11.1957935086 -0.318953412905 4.5787693789 7.48622987957 -1.67885509138 1.23838104309 -0.461337406625 -2.45391519383 
0.334514620247 -10.1733908715 10.5637913954 0.471089275783 7.2997777105 6.22980848571 -2.92752505566 -1.72021100378 2.24871729848 -1.62011249105 
-2.06830172693 -8.51044812985 13.0794832799 -0.235470213226 7.95125160702 4.55106302142 -1.87675784906 0.520561346508 1.62659163292 -0.844658626667 
-4.9444426402 -10.4950904109 11.0268883384 0.978147836114 11.5681355372 3.17277153076 0.330359720079 -1.44445885866 3.03631354994 -0.431107693818 
-10.3908812706 -7.47837115388 9.1947737772 4.1146996539 4.6717245362 -1.56157360529 4.47136460878 -1.94998182747 4.03884427988 1.38255402542 
-10.1616860501 -6.98945395924 5.20812837563 5.00899559216 6.10771601985 -3.47950103212 6.68956675188 -3.82732507123 0.773472356294 1.3968898123 
-9.6579432241 -5.59695535596 4.66109261996 4.28018012632 5.28638983999 -4.17348977473 5.53993679992 -2.9372658017 2.62113456137 -1.97278673381 
-10.327628458 -4.58978102222 0.454611665573 9.02104105075 6.17750391124 -4.25534981403 9.49621301377 -3.80616100685 -0.691058932051 -1.18098458106 
-10.177671332 -3.11219788111 -2.72311752944 9.81464912154 6.44458945181 6.02588253755 4.67632830547 -2.6910214932 -2.72480623332 1.11727075215 
-9.68256270824 2.74038543136 0.417679269762 5.72169543509 9.1251471659 4.94981883379 1.97292482115 -0.728487550765 -1.31243636429 -0.16239340658 
-10.0610237002 1.73668707884 -2.65413967821 16.2282000726 2.01159622237 3.91703791957 3.2335252614 -2.25520930114 4.54954007435 2.97531525535 
-12.2050459538 8.54229259321 1.98609119818 8.88911062083 2.67260168479 1.60735052093 -0.196497895244 -0.927122123305 1.47439115145 1.99640620148 
-13.2926623635 14.120747139 2.65634103065 3.38214940767 0.715616144541 2.57433876253 -0.261765644214 -1.36972551324 -2.40379129984 -3.60901368215 
-12.1056939802 15.3528810788 1.41725003509 1.32894684081 1.76927814967 2.0015755249 -3.66972954985 -3.24142334707 -8.86588575237 -0.895636321299 
-14.4392752983 17.171006318 2.29635229543 -1.86162759365 1.92701221616 5.08156911075 -1.88400793605 -4.11827365483 -10.9150903763 -6.4384936601 
-11.221471141 18.6540856992 4.10763179997 -4.06953805694 3.41390218574 4.76689741854 -1.06769692375 -4.61517964498 -9.45739992673 -10.2580325778 
-10.2375094184 17.2995544227 4.15001206942 -0.153015321061 0.754474679688 10.181652071 1.20954355263 -3.65266365355 -11.2509142463 -5.97737714798 
-13.7106851029 14.8612238132 2.91050967552 2.31140562272 1.10951682325 4.54012942587 1.94217804181 -3.03276325867 -9.30643011856 -5.65041279142 
-15.4493808253 16.6659726468 4.70585692717 1.40675578766 -2.5695279056 4.65727736579 -0.762879532033 -2.2377264043 -10.8588003104 -4.82991088635 
-11.3207847074 16.4447202042 3.56555067315 2.80213150148 -2.40616485425 -4.43117990832 1.75492940696 -3.40887793547 -2.86593510885 -2.31517209655 
-17.3473069573 11.6688416323 0.223889135852 5.37487151984 -0.921155910123 -4.16311466897 1.62399742197 -3.50094964935 -1.91491028524 -5.66421413604 
-13.0524605971 8.67891088334 1.40956612339 5.73838452485 -3.50460136452 -6.16397399484 -0.654224106021 -3.61013392227 3.20426064576 -3.94195928973 
-10.6237752707 6.11178931013 1.41438746884 5.97552769986 -3.45868046556 -8.43444648738 0.711208282317 -3.07901501747 5.40839555871 -5.81675744108 
-12.1387957569 -0.273800781553 -1.87768376376 4.49476178867 1.24159115732 -5.2597723351 -0.604428520357 -3.19389314825 5.49492878159 -4.61661702944 
-13.0604301022 -3.71538219757 -6.12226999691 3.62700424483 1.33250220877 0.776823288565 -2.41733546154 -0.296557410737 4.34084757504 -4.45845594342 
-12.0877031412 -6.03108314306 -6.71697284961 1.97637384796 1.80090356184 -1.10342473457 -2.92975924603 1.34776193835 6.11278262474 -5.81872193193 
-12.75452025 -7.00759491874 -6.65535091319 -5.31633318001 1.697727011 1.9761410572 -4.14569118983 1.88426212759 2.89378636027 -6.00199445107 
-12.306700728 -6.32277479292 -4.59001264105 -3.57298638574 6.33745599146 2.73484038952 -5.74611539934 1.81795437158 3.98748333748 -5.84339349632 
-13.4509496625 -5.37289963662 -9.69926599575 -2.99125637199 4.91127218413 0.838437517585 -0.0354288955209 -1.23513818355 4.39848963963 -2.35596490551 
-16.0580074677 -7.20049437579 -11.2729078074 -2.79200163905 4.9052832758 -3.11109580493 -1.31933392292 -2.17572804066 5.2610156384 -0.260105045289 
-13.2863356445 -6.20783671334 -4.89887347659 -2.52530253522 7.08153520982 -0.558904066628 -0.412752108196 -0.6390781084 2.68813475927 0.0689647503322 
-12.0674668337 -8.70892074248 -3.91206000171 -3.96074032783 4.0031233676 1.03586936998 -2.59588298996 0.601224129829 5.60206263329 -1.15892682027 
-10.28921194 -8.27877227385 -1.64546788518 -2.30688288692 3.28841228357 -2.16794261928 -3.39497189943 1.23191993655 -0.460966528543 0.276710651686 
-9.9474186666 -7.53475357564 1.21602408155 -5.1004661328 0.732084147856 -3.11888417247 -3.0529242534 -2.44130248167 0.487430694589 1.94903573103 
-10.9168375252 -7.72329665318 0.275120911344 -5.17038276053 1.42732013349 -1.55741302456 -0.195572178372 -3.00632456501 -2.93702971633 5.26314279515 
-10.4574151214 -6.15282836226 -1.62411030888 -5.96435053 -1.50246294013 -1.34868093989 -1.18519755271 -4.54727590119 -4.23931409579 6.25824981656 
-8.11191118811 -8.21884469078 -1.92140415427 -6.39189219348 -3.46017567785 -3.07268968961 1.15174943802 -5.92747913223 -8.0129858777 5.76608308152 
-6.02453766762 -9.05350721534 -5.33340828301 -6.0685237898 -3.44325899333 -4.06433974737 5.74657885897 -4.84648224634 -6.55873162972 1.80088568815 
-4.51957161769 -4.75668810904 0.438551940626 -5.83744874621 -1.29307117376 -0.0632859036359 11.9214233041 -4.70245824239 -1.51471746796 1.57730089657 
-1.07922478105 -6.79094708664 0.43838942002 -4.09447209532 -2.21296079808 -2.1216915343 5.3566002172 -5.71320116778 -2.85388163195 -1.33862477119 
0.207176404772 -5.10196060867 -0.304137173226 -7.24855652352 -5.96198330041 -2.89464305073 7.2145367555 -6.11388490309 -0.454259551933 -1.8061814194 
1.95421906145 -5.81301675082 -1.42680669196 -3.8951904181 -6.98962271884 -1.20665649761 7.02986790455 -6.1681828825 0.468804035552 -3.46838150391 
4.36810312632 0.730488509939 3.96986569492 -5.12410244256 -9.13558933916 -0.827847748261 3.64269776978 -6.47748658626 -0.0676591583612 -0.434175409071 
7.06087957118 -0.646642691039 -0.285642007031 -6.75928387735 -7.17864066313 2.02796545837 4.26275265041 -5.26189099375 0.199093369946 -1.9366565829 
8.86929833343 -0.743310027153 -1.43596686071 -6.58397339426 -10.0661938139 2.99202104788 4.50154257709 -4.87528260488 0.802098798309 -0.674836072857 
6.12969752347 2.49161409016 -2.14208080691 -1.74079763458 -8.30828172171 5.82455332938 9.84588129264 -1.72187791727 0.471128446413 -3.12189832478 
4.74465604794 3.09149595958 -2.89600973934 -1.23451177298 -6.34949499091 2.15148225662 7.21329124897 -2.67079619546 1.15977896098 -1.86561879579 
5.60612635434 -0.649905877567 -5.12480663349 -4.64319333859 -7.86409316891 2.26525173109 6.43067109583 0.533095810809 -1.72724647829 -2.54044808953 
11.8923681256 -2.59314065687 -7.01811254154 1.48692025894 -5.61713472104 -0.0465099558801 2.68513096893 -3.18434542165 1.43180908714 -2.25574307761 
13.787822684 -2.65411056657 -9.28011216674 3.27109122014 -6.55443907367 -0.0920208353126 2.80503908526 -2.29201384145 0.83680701436 -4.11204710218 
15.3702988307 -5.50007015183 -10.2670822032 4.33154235741 -5.13638313532 -0.72916696477 1.56955456889 -2.10665315702 -1.85546525377 -2.96561178663 
15.818318568 -4.02386943694 -11.7224261193 8.49803238717 -6.80870617936 -0.19568348524 4.68813517543 -3.79242341792 0.796268414972 -1.09034882574 
15.0827371034 -6.36406121525 -12.4537509627 8.5668404903 -7.15044079328 1.97412233395 4.90023627308 -3.08407558215 -1.65423904368 0.692079952606 
15.9650313642 -2.685425405 -8.89719087349 4.29225151706 -5.03941902436 4.91685808268 7.64215071749 -0.735100082043 0.410348829345 0.261298061496 
18.2158252116 -3.47143819363 -14.2758961116 5.43387049382 -2.84647212193 9.02408535617 7.24346534099 -0.00028266844071 1.95436935344 0.403306413176 
18.3357076058 -1.45309775495 -10.7559036504 1.01406825095 -3.55574354872 8.01089755704 6.75943330329 2.73669279917 4.52991169671 -1.25875968885 
16.9221443704 -1.33069923423 -11.2475749425 -2.41637839936 -2.28854653155 6.90602379183 2.45927069723 3.12187539157 -0.293753425056 -2.15002205618 
18.9324468457 -0.983808370636 -14.3136603484 -0.747962452331 -3.04848414918 6.76467370292 5.30204062383 2.79014737775 3.12310915505 -1.0553278865 
18.0128336347 2.69791176854 -13.04264399 -1.95921357527 -1.38569696583 3.22635327437 3.79142466421 2.2574152841 1.65372196434 -2.086028599 
14.489758816 5.46892901002 -10.7823514547 -4.70789195285 1.33504318247 5.87630124132 6.16474826043 4.29560508067 2.10149274873 -2.18058853287 
14.8960026664 4.70709069433 -8.82994645939 -4.1729686126 1.16717023226 3.04872474905 3.7218814414 2.79614858326 2.00945996071 -0.788076386896 
14.9769776006 6.14760236725 -8.78264929829 -4.21757984078 4.07875967888 1.98130532908 2.83909906916 1.52248081032 -2.20556690341 -0.313394969903 
12.7478713027 7.84260911327 -7.4144776095 -8.78980851715 5.65734909631 -0.370556222443 3.06919380614 1.14700335483 -2.3578164096 -1.16738190917 
9.83076441239 7.93047422447 -2.52022739088 -7.36400254641 5.16163673756 0.323098638755 4.60024293909 -0.147343351446 -4.22993691441 -0.190473141837 
9.62113891806 10.4431208464 2.15879831088 -7.08210302952 2.26731782696 -1.39194699583 8.54449239315 0.650746742363 -3.73903304318 0.0241791644977 
5.10647664922 11.6061087242 2.98610166162 -6.40042197126 5.20360268282 1.44006456859 10.1580803975 1.9382216557 1.02496202097 1.7275601114 
-0.876553867712 14.6485150366 4.68579551858 -8.24696178969 2.65888061142 0.00427742304304 10.3695901478 0.223033563669 1.67132332696 -0.60155010259 
9.89693575076 9.55587879165 -3.23171789011 -5.19520996528 3.69873265058 -3.47622484869 5.47514378279 0.218259200631 3.51146878481 -0.262871306857 
15.6887446784 4.95780069564 -5.01881524166 -3.99367844893 5.58356214855 -2.42627503344 2.22992605971 1.66212547376 2.59210134762 -0.306795797798 
14.966472278 5.98335291962 -3.97603546748 -1.20575444226 5.8546778094 -2.95330343822 -0.317790315189 3.73166999309 0.739436351651 1.33923366897 
14.9835364845 5.11932126213 -2.69714104069 1.29142881345 6.05175358033 -1.49984215614 -2.12963030818 -0.143794205694 0.0342220526691 2.65125005742 
18.8507311949 0.120968845795 -2.76838380025 5.14156157067 5.26139142817 -0.87670395963 -5.2617940983 4.45730711575 -3.5282860533 1.16090530072 
17.787939035 -0.883808982393 -1.33482023114 6.75705648843 2.67815115404 -3.16975141725 -4.00273203105 3.35841188164 -4.83862096607 3.61827755428 
16.961134064 -0.983165407275 -1.0199647086 3.96413407365 1.5990385626 -0.846066091568 -2.44256150773 4.38285506427 -2.96529477297 2.6723722279 
20.5103993143 -3.70615600244 -2.33207994648 6.90345531316 -3.63651411774 -5.69809987529 -3.68336065347 6.78725861921 -3.71612490385 3.59174165828 
19.3569532126 -3.659840668 -0.887444664072 4.54382756659 -3.01704673791 -3.53670104319 -3.50085434408 8.1061090739 -2.90898265459 0.894310406747 
15.9355186207 -1.50679907479 0.400620846589 2.78180052585 -3.92628971686 -5.85820985201 -0.614898004007 5.34852720633 -0.0408629382922 0.356087953624 
11.460930074 -1.86765803295 4.91177399931 1.25409916578 -4.13245521698 -5.60420449741 0.654973623206 3.82862193263 0.0556443140001 -1.94871768302 
8.43420342082 -3.79754264306 7.61614752226 3.9463224787 -3.96318198508 -3.50349240951 2.01638093486 2.98085313386 0.847288677661 -2.95213537286 
8.15561384413 -2.99898279801 9.74679311723 2.58770821317 -4.95494059571 -0.33993121492 1.12015427318 3.72145858458 0.964037164231 -1.30394091676 
7.43949936912 -3.19088289233 11.2272777238 -2.51403724867 -3.21119172421 -1.05987689384 1.1238012892 1.01027085599 1.16107610841 -1.63989448157 
3.23283396667 -1.80902038004 13.1433995073 -2.47512542808 -2.91069855306 2.38550879633 3.92116147546 0.770797422837 0.857144332581 -1.88899679298 
2.45366124421 -1.8185976338 13.7306974807 -4.01506513787 0.974619139909 3.99146661155 1.49172299076 1.44870811938 0.604563379528 -2.55538513761 
3.03965196251 -2.25516049401 15.0046893129 -1.00187191432 0.888182239552 2.71895481594 0.273760028479 1.81432293117 0.621424386089 0.676336517211 
2.10477383854 -4.09249585245 14.5291275946 -0.306928736862 1.12550299687 1.97843508492 -0.925857644357 1.34901892466 0.183345059317 -1.16031648556 
-0.617326164028 -3.30561474126 15.4639787926 -2.0396818036 0.184586280826 1.59452928344 0.448894149502 2.03433830307 2.1943574317 1.11512871512 
-4.75515134719 -6.31504004854 12.9280553523 0.537548969196 1.00731577486 -0.945217574567 1.09212640009 -0.219922815233 0.50958651701 1.70942260048 
-4.42580395618 -7.86999888152 11.4722456069 0.0652232255124 -0.6459694922 0.612662213348 1.32357526418 1.4587775812 2.04026278279 2.23908479249 
-5.53495328362 -9.46475355487 10.3468139234 -0.993355278985 -2.2243838244 -0.702231795144 4.43399778818 0.255102183899 0.192573795855 2.99088753418 
-9.52230941973 -9.5414782042 7.52591747645 5.14127831068 4.58518315853 -0.634691813077 7.60400353881 -0.96331778781 -0.511348005388 5.41493547534 
-8.21619665255 -8.55758724111 6.18341629291 7.54512151027 0.304202937865 -2.68193899486 8.87277476894 -1.91995922421 0.160004512531 3.58212023218 
-7.85180129285 -1.2833653695 6.76802319896 2.46368142273 0.0162753533048 -3.37108408298 6.88189575214 -0.116905728657 -0.963725821456 3.3151268904 
-7.94431338485 -1.93064389585 4.53166193011 7.79831327672 0.615415505086 -2.91238074922 6.60770343555 -2.3229616324 -2.60651731148 2.37363264046 
-9.54376710646 -6.07223088274 -3.371436586 3.77182695422 1.83085053717 -1.64646571247 9.57635650614 3.20831940481 -0.745898382436 0.025450391219 
-8.64592659738 -3.34162299691 -3.26136426704 7.41153818245 -0.855420132221 -1.2446495741 9.88442765415 -1.55894916329 -1.19376075962 0.640865493508 
-14.6419178135 6.72123363673 -0.359841636966 9.7780507997 -0.206068280645 0.393626433078 8.47692046107 -0.920008470422 3.44766948072 1.29402076774 
-13.2517183818 4.87778646614 1.08669642756 11.9411354023 -2.71375347434 3.25485152427 8.6563747868 -0.0604867529522 1.60899068886 3.19790443122 
-12.4723604271 7.38943183798 -0.922906763809 4.76900657374 -4.19651782127 4.901448411 6.90710610512 0.727828386056 1.93979483085 0.940359534663 
-11.9181696819 14.1140497322 1.98639800236 2.47911764214 -5.7285564859 2.63626253246 4.80156322807 1.29408963401 1.24084008485 2.87892777287 
-11.5886597147 16.8706848688 3.99623244353 2.32072498125 -6.0498640078 1.19249115937 0.676472950473 -1.3012819205 2.04863318208 -0.794708445976 
-10.8192798738 19.3144434268 3.09206689646 -0.0412594409466 -4.3223207659 2.50634015067 0.481705677425 -2.14895220805 -1.81358318843 -0.122579270992 
-11.3144277272 21.7686619862 0.815217219216 -3.65406837874 -3.37998430525 -0.377169363653 0.719862759406 -5.31018844718 -2.8394709799 -4.08491744908 
-11.8656264192 20.1023866598 2.81021000823 0.10102002218 0.71905912388 -1.43311410492 3.66619994555 -7.00756050731 -5.79546100065 -7.59873306454 
-15.7965217506 17.5141753583 -0.224925453536 0.883087019153 -0.53993444087 -1.18963276364 2.87045416875 -2.31902764547 -2.52198692393 -3.72750413467 
-16.7165692331 15.1441869456 -1.92998421012 2.39146803776 -0.40165626865 2.74316445119 0.000758944885346 2.87267357759 -2.69254737197 0.29170627101 
-16.4721787743 8.16793382909 -0.358233368297 0.84977602186 -3.00115149683 0.95420640486 -0.566279791034 7.77529442177 -0.654823198339 3.69565425322 
-14.1274126101 3.86708904335 -0.454046247248 3.09132884909 -4.36281391277 -3.4160848386 0.930751294327 5.64938428507 -0.00270047223717 6.94998554255 
-15.432166973 0.258524567148 -6.79889333941 0.0837970355845 -2.86045406366 -1.43901875053 0.507747586141 6.89959912467 1.30031718432 2.99940720349 
-16.0359893808 -2.30068311292 -8.64841577928 0.675895412655 -2.75812035928 -1.48370552981 4.68904720429 7.49383959006 3.21736697175 -1.56514982956 
-13.9402896664 -5.1080309231 -11.5269826474 -2.89264975468 -3.3648326169 0.565126096746 1.50833837211 7.32444758173 3.87652043596 -5.37003892623 
-13.7637948447 -5.89102484476 -10.1990258638 -2.82501399173 0.0915471011349 -0.324697387846 2.68083606236 6.31152829267 3.80886824531 -6.57038745611 
-14.5098923894 -3.74022889145 -9.26994994214 -2.70792651228 -0.0695927932684 -1.47441596013 3.63383190167 5.47638082965 3.69023529525 -4.42237474207 
-17.1202214494 -6.67519490731 -14.8496662809 -3.89254539747 -0.657712400469 -5.72650517624 1.5199789168 2.68158784856 1.72482786729 -2.98938347171 
-19.0065518805 -9.0669889524 -16.7305415999 -8.09946012471 1.49890560098 -3.46894119108 2.03232799637 5.05374569407 -0.95029182584 -0.219770383406 
-16.6317452909 -9.85516099789 -14.2857767362 -9.016665549 2.26017781229 -5.94431436094 2.54549129239 3.70882121271 -1.37712592641 -1.66273770223 
-20.0496139192 1.2906511135 -8.71477857413 -11.1106341584 1.65248542118 -3.79947528012 1.05606581303 2.7786542299 1.41233384086 4.31616038137 
-17.7450042301 -1.05228634766 -6.38597213029 -14.0747697077 3.51615607862 -4.95082571655 2.76178168274 1.65971123176 -0.00641807245793 2.37787017722 
-16.2620220193 -0.970089089972 -7.1626624554 -12.2125015122 3.32276686434 -4.24401272551 1.60461753343 1.13573080182 -2.42001514168 2.76552337727 
-13.2283526214 -0.886461129081 -5.61192073235 -11.5030978728 -0.11543164857 -6.61325162317 4.25744805379 -2.55212970548 -1.52779890665 1.98513839502 
-11.2151653874 0.870019102894 -2.1665151035 -7.60825592123 0.597071348015 -4.92540457247 3.77606282335 -3.1854602795 2.05458405855 2.12187620792 
-5.90060698741 -9.502130369 -5.50435798365 -0.922146564998 -2.12626165858 -2.85113696833 -1.21328719912 -4.15368808002 -0.0599072325994 -0.363494565243 
-1.21717464258 -10.0946955865 -8.36478031575 -0.565435439734 -5.65013516563 -3.89248153621 -0.742809101941 -4.57101885467 -1.8227937548 -0.571577663912 
1.09535049415 -10.5015220684 -6.45717254982 -4.29166735511 -7.3830953964 6.15011680437 -1.12835907991 -1.98156691576 -2.23820918475 0.355682749858 
-3.07306349689 -7.79173424781 -3.71990547636 -8.80706907029 -2.01090881633 4.72522579069 -5.98766896709 -2.50732686476 -4.03413516243 -1.33344534251 
-0.986060303897 -6.35186078363 -1.91956824009 -8.85769339221 -4.68721632571 0.808599939729 -0.729050304099 -5.05474875853 -2.13731798584 2.61003169187 
